{"learner":{"attributes":{},"feature_names":["TEMP","TP","SI","NO23","STN_DEPTH_M","DOY_sin","DOY_cos","NP_ratio"],"feature_types":["float","float","float","float","float","float","float","float"],"gradient_booster":{"model":{"gbtree_model_param":{"num_parallel_tree":"1","num_trees":"205"},"iteration_indptr":[0,1,2,3,4,5,6,7,8,9,10,11,12,13,14,15,16,17,18,19,20,21,22,23,24,25,26,27,28,29,30,31,32,33,34,35,36,37,38,39,40,41,42,43,44,45,46,47,48,49,50,51,52,53,54,55,56,57,58,59,60,61,62,63,64,65,66,67,68,69,70,71,72,73,74,75,76,77,78,79,80,81,82,83,84,85,86,87,88,89,90,91,92,93,94,95,96,97,98,99,100,101,102,103,104,105,106,107,108,109,110,111,112,113,114,115,116,117,118,119,120,121,122,123,124,125,126,127,128,129,130,131,132,133,134,135,136,137,138,139,140,141,142,143,144,145,146,147,148,149,150,151,152,153,154,155,156,157,158,159,160,161,162,163,164,165,166,167,168,169,170,171,172,173,174,175,176,177,178,179,180,181,182,183,184,185,186,187,188,189,190,191,192,193,194,195,196,197,198,199,200,201,202,203,204,205],"tree_info":[0,0,0,0,0,0,0,0,0,0,0,0,0,0,0,0,0,0,0,0,0,0,0,0,0,0,0,0,0,0,0,0,0,0,0,0,0,0,0,0,0,0,0,0,0,0,0,0,0,0,0,0,0,0,0,0,0,0,0,0,0,0,0,0,0,0,0,0,0,0,0,0,0,0,0,0,0,0,0,0,0,0,0,0,0,0,0,0,0,0,0,0,0,0,0,0,0,0,0,0,0,0,0,0,0,0,0,0,0,0,0,0,0,0,0,0,0,0,0,0,0,0,0,0,0,0,0,0,0,0,0,0,0,0,0,0,0,0,0,0,0,0,0,0,0,0,0,0,0,0,0,0,0,0,0,0,0,0,0,0,0,0,0,0,0,0,0,0,0,0,0,0,0,0,0,0,0,0,0,0,0,0,0,0,0,0,0,0,0,0,0,0,0,0,0,0,0,0,0,0,0,0,0,0,0],"trees":[{"base_weights":[5.30137E-3,-3.890141E-2,1.1469112E-1,2.5584733E-3,-1.5368396E-3,2.9162472E-1,-1.454247E-3,2.4847187E-2,2.1466196E-1,8.184944E-4,2.8326705E-1,1.9989067E-1,1.2927408E-2,1.12975035E-2,1.8819314E-3],"categories":[],"categories_nodes":[],"categories_segments":[],"categories_sizes":[],"default_left":[1,0,0,0,0,0,0,0,0,0,0,0,0,0,0],"id":0,"left_children":[1,3,5,-1,-1,7,-1,-1,9,-1,11,13,-1,-1,-1],"loss_changes":[4.284393E0,4.3685043E-1,7.096275E0,0E0,0E0,4.0202713E0,0E0,0E0,1.3336291E0,0E0,5.927644E-1,7.5653183E-1,0E0,0E0,0E0],"parents":[2147483647,0,0,1,1,2,2,5,5,8,8,10,10,11,11],"right_children":[2,4,6,-1,-1,8,-1,-1,10,-1,12,14,-1,-1,-1],"split_conditions":[5.252E0,1.02E-1,-5.4524046E-1,2.3377376E-2,-2.2855464E-2,1.0622227E-2,-2.5604898E-2,7.2931975E-2,1.57E-1,2.8488679E-2,8.066E0,9.8E-2,3.2620534E-2,6.957357E-2,1.8731272E-2],"split_indices":[1,2,5,0,0,7,0,0,3,0,1,2,0,0,0],"split_type":[0,0,0,0,0,0,0,0,0,0,0,0,0,0,0],"sum_hessian":[8.86E2,6.31E2,2.55E2,3.2E1,5.99E2,1.2E2,1.35E2,1.8E1,1.02E2,2.7E1,7.5E1,4E1,3.5E1,2.1E1,1.9E1],"tree_param":{"num_deleted":"0","num_feature":"8","num_nodes":"15","size_leaf_vector":"1"}},{"base_weights":[-5.913028E-3,-3.100867E-2,2.6937678E-1,-1.4582353E-3,4.4308897E-2,1.0588877E-3,1.780676E-2,6.7842337E-3,7.772771E-3,-1.2114345E-3,5.4766205E-3],"categories":[],"categories_nodes":[],"categories_segments":[],"categories_sizes":[],"default_left":[1,1,1,0,0,0,0,0,0,0,0],"id":1,"left_children":[1,3,5,-1,7,-1,-1,9,-1,-1,-1],"loss_changes":[5.9546003E0,6.947865E-1,4.321493E0,0E0,7.2810817E-1,0E0,0E0,5.7120264E-1,0E0,0E0,0E0],"parents":[2147483647,0,0,1,1,2,2,4,4,7,7],"right_children":[2,4,6,-1,8,-1,-1,10,-1,-1,-1],"split_conditions":[2.43E1,2.19E1,8.701E0,-2.0280838E-2,-7.3249406E-1,4.491622E-3,5.6948557E-2,7.226E0,1.825391E-2,-5.816401E-3,4.716088E-2],"split_indices":[0,0,1,0,6,0,0,1,0,0,0],"split_type":[0,0,0,0,0,0,0,0,0,0,0],"sum_hessian":[8.62E2,7.9E2,7.2E1,6.84E2,1.06E2,3.7E1,3.5E1,8.8E1,1.8E1,6.9E1,1.9E1],"tree_param":{"num_deleted":"0","num_feature":"8","num_nodes":"11","size_leaf_vector":"1"}},{"base_weights":[5.0316346E-3,-2.3447413E-2,3.6261046E-1,-3.956302E-2,6.663819E-2,4.899592E-3,1.963587E-2,-1.4463726E-3,2.0812994E-3,2.996846E-2,8.532532E-3,7.772771E-3,-4.570133E-4],"categories":[],"categories_nodes":[],"categories_segments":[],"categories_sizes":[],"default_left":[1,1,0,0,1,0,0,0,0,0,0,0,0],"id":2,"left_children":[1,3,5,7,9,-1,-1,-1,-1,11,-1,-1,-1],"loss_changes":[8.697844E0,1.148311E0,2.9274645E0,1.8707848E-1,8.049911E-1,0E0,0E0,0E0,0E0,8.57038E-1,0E0,0E0,0E0],"parents":[2147483647,0,0,1,1,2,2,3,3,4,4,9,9],"right_children":[2,4,6,8,10,-1,-1,-1,-1,12,-1,-1,-1],"split_conditions":[2.45E1,2.16E1,8.52E0,4.105E-1,6.846E0,5.5747874E-2,5.065287E-2,-1.9457726E-2,4.2376585E-2,2.21E1,3.6426526E-2,5.3184763E-2,-1.5181133E-3],"split_indices":[0,0,1,3,1,0,0,0,0,0,0,0,0],"split_type":[0,0,0,0,0,0,0,0,0,0,0,0,0],"sum_hessian":[8.54E2,7.91E2,6.3E1,6.71E2,1.2E2,3.1E1,3.2E1,6.53E2,1.8E1,1E2,2E1,1.8E1,8.2E1],"tree_param":{"num_deleted":"0","num_feature":"8","num_nodes":"13","size_leaf_vector":"1"}},{"base_weights":[-2.3776141E-3,-3.136254E-2,3.0058315E-1,-1.555446E-3,4.0201295E-2,1.9155715E-2,2.2110973E-1,7.197211E-3,4.5184414E-3,1.53614E-2,1.2063892E-1,3.4100027E-3,-1.6632712E-2,1.257769E-3,7.772771E-3,2.0812994E-3,-1.2321278E-3],"categories":[],"categories_nodes":[],"categories_segments":[],"categories_sizes":[],"default_left":[1,0,0,0,0,0,0,0,0,0,0,0,0,0,0,0,0],"id":3,"left_children":[1,3,5,-1,7,-1,9,-1,11,-1,13,-1,15,-1,-1,-1,-1],"loss_changes":[7.7444434E0,8.162576E-1,1.5888824E0,0E0,8.084471E-1,0E0,1.35288E0,0E0,2.2199558E-1,0E0,3.6655748E-1,0E0,1.356043E-1,0E0,0E0,0E0,0E0],"parents":[2147483647,0,0,1,1,2,2,4,4,6,6,8,8,10,10,12,12],"right_children":[2,4,6,-1,8,-1,10,-1,12,-1,14,-1,16,-1,-1,-1,-1],"split_conditions":[2.43E1,2.16E1,9.3E0,-1.9903034E-2,-6.680639E-1,4.692891E-2,1.09E-1,4.4338934E-2,1.715E-1,4.995337E-2,2.48879E-1,4.346136E-2,2.205E1,8.831792E-3,6.807373E-2,7.7939355E-3,-7.462723E-3],"split_indices":[0,0,4,0,5,0,3,0,3,0,3,0,0,0,0,0,0],"split_type":[0,0,0,0,0,0,0,0,0,0,0,0,0,0,0,0,0],"sum_hessian":[8.82E2,8.05E2,7.7E1,6.72E2,1.33E2,1.8E1,5.9E1,2.3E1,1.1E2,1.8E1,4.1E1,2E1,9E1,2.3E1,1.8E1,1.8E1,7.2E1],"tree_param":{"num_deleted":"0","num_feature":"8","num_nodes":"17","size_leaf_vector":"1"}},{"base_weights":[-1.7286155E-2,-3.220691E-2,1.5284006E-1,-4.2442244E-2,2.1975225E-2,2.1818282E-1,1.9480559E-3,-1.548808E-3,2.0812994E-3,5.875614E-3,-3.2433674E-3,4.4972026E-3,1.0868655E-2,-1.1966095E-3,4.9917586E-2,5.1175123E-3,-1.702494E-3],"categories":[],"categories_nodes":[],"categories_segments":[],"categories_sizes":[],"default_left":[1,0,0,0,0,0,0,0,0,0,0,0,0,0,0,0,0],"id":4,"left_children":[1,3,5,7,9,11,-1,-1,-1,-1,13,-1,-1,-1,15,-1,-1],"loss_changes":[2.17258E0,4.3651903E-1,4.311514E-1,1.980288E-1,4.7342336E-1,3.5312867E-1,0E0,0E0,0E0,0E0,1.8077353E-1,0E0,0E0,0E0,3.9895824E-1,0E0,0E0],"parents":[2147483647,0,0,1,1,2,2,3,3,4,4,5,5,10,10,14,14],"right_children":[2,4,6,8,10,12,-1,-1,-1,-1,14,-1,-1,-1,16,-1,-1],"split_conditions":[2.43E1,2.16E1,2.52E1,4.255E-1,2.21E1,1.4E-1,1.5039053E-2,-1.9809732E-2,4.1608833E-2,4.9853116E-2,-7.4410397E-1,6.1639275E-2,4.8246842E-2,-7.1310094E-3,2.97E-1,2.6607627E-2,-3.4411557E-3],"split_indices":[0,0,0,3,0,2,0,0,0,0,6,0,0,0,2,0,0],"split_type":[0,0,0,0,0,0,0,0,0,0,0,0,0,0,0,0,0],"sum_hessian":[8.56E2,7.87E2,6.9E1,6.62E2,1.25E2,4.1E1,2.8E1,6.44E2,1.8E1,1.8E1,1.07E2,2.2E1,1.9E1,6.7E1,4E1,2E1,2E1],"tree_param":{"num_deleted":"0","num_feature":"8","num_nodes":"17","size_leaf_vector":"1"}},{"base_weights":[-1.3838388E-2,-1.4940996E-3,6.380732E-2,1.8419585E-1,-1.2012053E-3,9.919924E-2,3.1351843E-1,1.8112086E-2,8.682071E-3,1.40514225E-2,5.875614E-3,-1.7021977E-3,2.3866715E-3],"categories":[],"categories_nodes":[],"categories_segments":[],"categories_sizes":[],"default_left":[1,0,0,0,0,0,0,0,0,0,0,0,0],"id":5,"left_children":[1,-1,3,5,-1,7,9,11,-1,-1,-1,-1,-1],"loss_changes":[2.0543766E0,0E0,2.9315906E0,1.2187526E0,0E0,8.410297E-1,6.068611E-1,1.548064E-1,0E0,0E0,0E0,0E0,0E0],"parents":[2147483647,0,0,2,2,3,3,5,5,6,6,7,7],"right_children":[2,-1,4,6,-1,8,10,12,-1,-1,-1,-1,-1],"split_conditions":[5.304E0,-1.916793E-2,-5.5958927E-1,8.701E0,-1.75501E-2,4.3833017E-2,1.6465422E-2,6.846E0,5.8163896E-2,5.818247E-2,1.4399166E-2,-1.9859865E-4,1.9696578E-2],"split_indices":[1,0,5,1,0,7,7,1,0,0,0,0,0],"split_type":[0,0,0,0,0,0,0,0,0,0,0,0,0],"sum_hessian":[8.85E2,6.39E2,2.46E2,1.11E2,1.35E2,6.7E1,4.4E1,4.4E1,2.3E1,2.6E1,1.8E1,1.9E1,2.5E1],"tree_param":{"num_deleted":"0","num_feature":"8","num_nodes":"13","size_leaf_vector":"1"}},{"base_weights":[-1.5398395E-2,-3.0182816E-2,3.1828362E-1,-1.6097941E-3,4.257256E-2,1.9155715E-2,3.4100027E-3,8.797112E-3,1.4488993E-3,3.3483736E-3,-7.669008E-4],"categories":[],"categories_nodes":[],"categories_segments":[],"categories_sizes":[],"default_left":[1,0,0,0,0,0,0,0,0,0,0],"id":6,"left_children":[1,3,5,-1,7,-1,-1,-1,9,-1,-1],"loss_changes":[4.4194903E0,1.0574341E0,2.0107121E0,0E0,1.4312084E0,0E0,0E0,0E0,3.1409496E-1,0E0,0E0],"parents":[2147483647,0,0,1,1,2,2,4,4,8,8],"right_children":[2,4,6,-1,8,-1,-1,-1,10,-1,-1],"split_conditions":[2.5E1,2.18E1,2.0844415E-2,-1.8903654E-2,1.6760847E-2,4.455725E-2,6.0338054E-2,4.3373913E-2,2.23E1,1.3200932E-2,-2.4938066E-3],"split_indices":[0,0,7,0,7,0,0,0,0,0,0],"split_type":[0,0,0,0,0,0,0,0,0,0,0],"sum_hessian":[8.96E2,8.58E2,3.8E1,6.96E2,1.62E2,1.8E1,2E1,2.6E1,1.36E2,2.7E1,1.09E2],"tree_param":{"num_deleted":"0","num_feature":"8","num_nodes":"11","size_leaf_vector":"1"}},{"base_weights":[-1.0493225E-2,-2.735027E-2,2.9031867E-1,-1.4625437E-3,4.787914E-2,1.7258557E-2,5.355184E-3,7.826485E-3,9.1542E-3,5.4032565E-3,-1.0026337E-3],"categories":[],"categories_nodes":[],"categories_segments":[],"categories_sizes":[],"default_left":[1,0,0,0,1,0,0,0,0,0,0],"id":7,"left_children":[1,3,5,-1,7,-1,-1,9,-1,-1,-1],"loss_changes":[4.492049E0,9.758783E-1,1.3465369E0,0E0,1.2597625E0,0E0,0E0,6.7670333E-1,0E0,0E0,0E0],"parents":[2147483647,0,0,1,1,2,2,4,4,7,7],"right_children":[2,4,6,-1,8,-1,-1,10,-1,-1,-1],"split_conditions":[2.48E1,2.18E1,1.960626E-2,-1.7511876E-2,8.066E0,4.3035068E-2,4.642079E-2,2.23E1,3.899523E-2,3.9465237E-2,-6.776617E-3],"split_indices":[0,0,7,0,1,0,0,0,0,0,0],"split_type":[0,0,0,0,0,0,0,0,0,0,0],"sum_hessian":[8.86E2,8.39E2,4.7E1,6.96E2,1.43E2,1.8E1,2.9E1,1.21E2,2.2E1,2.4E1,9.7E1],"tree_param":{"num_deleted":"0","num_feature":"8","num_nodes":"11","size_leaf_vector":"1"}},{"base_weights":[-1.7996507E-2,-3.5727486E-2,1.436234E-2,-1.4680624E-3,4.2405454E-3,7.49131E-2,-9.3922403E-4,5.875614E-3,-1.5067337E-4],"categories":[],"categories_nodes":[],"categories_segments":[],"categories_sizes":[],"default_left":[1,1,0,0,0,0,0,0,0],"id":8,"left_children":[1,3,-1,-1,5,7,-1,-1,-1],"loss_changes":[6.800785E0,2.4366069E-1,0E0,0E0,2.894762E-1,3.085739E-1,0E0,0E0,0E0],"parents":[2147483647,0,0,1,1,4,4,5,5],"right_children":[2,4,-1,-1,6,8,-1,-1,-1],"split_conditions":[2.5E1,2.19E1,5.842306E-2,-1.7362926E-2,-6.551564E-1,2.33E1,-8.398317E-3,2.093213E-2,2.9201765E-2],"split_indices":[0,0,0,0,5,0,0,0,0],"split_type":[0,0,0,0,0,0,0,0,0],"sum_hessian":[8.75E2,8.41E2,3.4E1,7.12E2,1.29E2,4E1,8.9E1,1.8E1,2.2E1],"tree_param":{"num_deleted":"0","num_feature":"8","num_nodes":"9","size_leaf_vector":"1"}},{"base_weights":[-1.5314408E-2,-1.4198888E-3,4.1899845E-2,1.4824136E-1,-1.2694411E-3,8.575859E-2,9.999799E-3,1.6730133E-1,-7.2903605E-4,2.7426295E-3,8.682071E-3],"categories":[],"categories_nodes":[],"categories_segments":[],"categories_sizes":[],"default_left":[1,0,0,0,0,0,0,0,0,0,0],"id":9,"left_children":[1,-1,3,5,-1,7,-1,9,-1,-1,-1],"loss_changes":[1.2990665E0,0E0,2.2871933E0,1.0459046E0,0E0,7.0790094E-1,0E0,3.46534E-1,0E0,0E0,0E0],"parents":[2147483647,0,0,2,2,3,3,5,5,7,7],"right_children":[2,-1,4,6,-1,8,-1,10,-1,-1,-1],"split_conditions":[4.3E0,-1.7560452E-2,-6.016241E-1,8.996E0,-1.4781554E-2,5.823299E0,3.8679622E-2,5.091E0,-3.5735036E-3,2.960447E-2,5.1526286E-2],"split_indices":[1,0,5,1,0,1,0,1,0,0,0],"split_type":[0,0,0,0,0,0,0,0,0,0,0],"sum_hessian":[8.65E2,5.93E2,2.72E2,1.16E2,1.56E2,8.1E1,3.5E1,4.6E1,3.5E1,2.3E1,2.3E1],"tree_param":{"num_deleted":"0","num_feature":"8","num_nodes":"11","size_leaf_vector":"1"}},{"base_weights":[-2.1194609E-2,9.733013E-2,-3.5765607E-2,1.862859E-1,-8.513999E-4,1.5184264E-2,-1.4571346E-3,1.3908279E-1,9.669929E-3,8.035837E-2,-1.705675E-3,9.669929E-3,8.4586805E-5,5.712351E-3,-2.1836744E-4],"categories":[],"categories_nodes":[],"categories_segments":[],"categories_sizes":[],"default_left":[0,0,0,0,0,0,0,0,0,0,0,0,0,0,0],"id":10,"left_children":[1,3,5,7,-1,9,-1,11,-1,13,-1,-1,-1,-1,-1],"loss_changes":[1.498913E0,1.0337143E0,2.713468E-1,2.4974489E-1,0E0,3.9056507E-1,0E0,7.2700894E-1,0E0,3.471227E-1,0E0,0E0,0E0,0E0,0E0],"parents":[2147483647,0,0,1,1,2,2,3,3,5,5,7,7,9,9],"right_children":[2,4,6,8,-1,10,-1,12,-1,14,-1,-1,-1,-1,-1],"split_conditions":[2.16E1,-5.5958927E-1,8.8832E-2,6.79E-1,-1.8103024E-2,-6.016241E-1,-1.601118E-2,2.1117061E-2,2.758205E-2,5E1,-7.809552E-3,3.7276834E-2,2.8344383E-2,8.8199496E-2,2.6873322E-3],"split_indices":[4,5,2,2,0,5,0,7,0,4,0,0,0,0,0],"split_type":[0,0,0,0,0,0,0,0,0,0,0,0,0,0,0],"sum_hessian":[8.68E2,9.5E1,7.73E2,5.5E1,4E1,9.2E1,6.81E2,3.7E1,1.8E1,4.6E1,4.6E1,1.8E1,1.9E1,2.3E1,2.3E1],"tree_param":{"num_deleted":"0","num_feature":"8","num_nodes":"15","size_leaf_vector":"1"}},{"base_weights":[-2.1171752E-2,-3.3169273E-2,1.21374145E-1,-1.464989E-3,1.9743558E-2,-3.375137E-4,1.9434814E-1,4.499212E-3,-1.8718012E-2,9.672286E-3,3.166366E-3,-1.2687393E-3,2.0812994E-3],"categories":[],"categories_nodes":[],"categories_segments":[],"categories_sizes":[],"default_left":[1,0,1,0,0,0,0,0,0,0,0,0,0],"id":11,"left_children":[1,3,5,-1,7,-1,9,-1,11,-1,-1,-1,-1],"loss_changes":[1.5423799E0,4.2771077E-1,6.710926E-1,0E0,5.558597E-1,0E0,4.049158E-1,0E0,1.4079188E-1,0E0,0E0,0E0,0E0],"parents":[2147483647,0,0,1,1,2,2,4,4,6,6,8,8],"right_children":[2,4,6,-1,8,-1,10,-1,12,-1,-1,-1,-1],"split_conditions":[2.43E1,2.16E1,5.516E0,-1.5954142E-2,-6.551564E-1,8.639956E-3,2.52E1,2.1618769E-2,6.846E0,5.0947603E-2,3.3642713E-2,-1.2542438E-2,3.7775107E-2],"split_indices":[0,0,1,0,5,0,0,0,1,0,0,0,0],"split_type":[0,0,0,0,0,0,0,0,0,0,0,0,0],"sum_hessian":[9.02E2,8.32E2,7E1,7.03E2,1.29E2,2.5E1,4.5E1,3.3E1,9.6E1,2.4E1,2.1E1,7.8E1,1.8E1],"tree_param":{"num_deleted":"0","num_feature":"8","num_nodes":"13","size_leaf_vector":"1"}},{"base_weights":[-2.1293823E-2,-1.509053E-3,6.4111955E-2,7.7106324E-3,3.3850435E-2,7.851095E-3,-3.8233572E-3,-1.7064909E-3,4.83068E-2,5.119797E-3,-1.704491E-3],"categories":[],"categories_nodes":[],"categories_segments":[],"categories_sizes":[],"default_left":[1,0,0,0,0,0,0,0,0,0,0],"id":12,"left_children":[1,-1,3,-1,5,-1,7,-1,9,-1,-1],"loss_changes":[1.7019114E0,0E0,8.989866E-1,0E0,1.1450547E0,0E0,3.126512E-1,0E0,6.087831E-1,0E0,0E0],"parents":[2147483647,0,0,2,2,4,4,6,6,8,8],"right_children":[2,-1,4,-1,6,-1,8,-1,10,-1,-1],"split_conditions":[2.16E1,-1.4532103E-2,1.6760847E-2,4.651507E-2,-6.680639E-1,5.0220147E-2,2.945E-1,-9.122461E-3,1.05882354E-1,1.2279386E-2,-2.527582E-2],"split_indices":[0,0,7,0,5,0,3,0,7,0,0],"split_type":[0,0,0,0,0,0,0,0,0,0,0],"sum_hessian":[8.71E2,6.87E2,1.84E2,2.9E1,1.55E2,2.5E1,1.3E2,6.9E1,6.1E1,3E1,3.1E1],"tree_param":{"num_deleted":"0","num_feature":"8","num_nodes":"11","size_leaf_vector":"1"}},{"base_weights":[-1.8322332E-2,-2.6522161E-2,6.8278215E-3,-1.4051907E-3,2.998197E-2,9.236996E-3,9.990861E-2,-1.7058708E-3,4.4079352E-2,5.875614E-3,1.3925382E-3,5.355184E-3,-1.4231443E-2,-1.7051598E-3,2.0812994E-3],"categories":[],"categories_nodes":[],"categories_segments":[],"categories_sizes":[],"default_left":[1,0,0,0,1,0,1,0,0,0,0,0,0,0,0],"id":13,"left_children":[1,3,-1,-1,5,7,9,-1,11,-1,-1,-1,13,-1,-1],"loss_changes":[1.5810933E0,7.0341665E-1,0E0,0E0,2.5354278E-1,2.783375E-1,1.6989037E-1,0E0,5.589565E-1,0E0,0E0,0E0,1.5018222E-1,0E0,0E0],"parents":[2147483647,0,0,1,1,4,4,5,5,6,6,8,8,12,12],"right_children":[2,4,-1,-1,6,8,10,-1,12,-1,-1,-1,14,-1,-1],"split_conditions":[2.54E1,2.16E1,3.381782E-2,-1.3187773E-2,8.066E0,2.51E-1,2.35E1,-7.041636E-3,1.54E-1,2.3668911E-2,3.3829723E-2,3.6142256E-2,8.205E-1,-1.1451534E-2,6.837456E-3],"split_indices":[0,0,0,0,1,3,0,0,2,0,0,0,2,0,0],"split_type":[0,0,0,0,0,0,0,0,0,0,0,0,0,0,0],"sum_hessian":[8.84E2,8.52E2,3.2E1,6.77E2,1.75E2,1.35E2,4E1,5E1,8.5E1,1.8E1,2.2E1,2.9E1,5.6E1,3.8E1,1.8E1],"tree_param":{"num_deleted":"0","num_feature":"8","num_nodes":"15","size_leaf_vector":"1"}},{"base_weights":[-1.4158348E-2,-3.0960469E-2,1.5773934E-1,-1.6386005E-3,-2.532365E-3,4.2947754E-2,1.0344077E-2,-3.0280037E-2,5.8659133E-2,3.978457E-3,-3.375137E-4,-1.707382E-3,2.8369766E-2,7.1001505E-3,7.601867E-3,-1.7036194E-3,3.5428004E-3,-1.7049953E-3,2.30755E-3],"categories":[],"categories_nodes":[],"categories_segments":[],"categories_sizes":[],"default_left":[0,0,0,0,0,0,0,0,0,0,0,0,0,0,0,0,0,0,0],"id":14,"left_children":[1,3,5,-1,7,9,-1,11,13,-1,-1,-1,15,17,-1,-1,-1,-1,-1],"loss_changes":[2.4980159E0,3.8077772E-1,1.2811137E0,0E0,5.008284E-1,1.6733131E-1,0E0,2.3460798E-1,7.76642E-1,0E0,0E0,0E0,3.0083346E-1,2.4131764E-1,0E0,0E0,0E0,0E0,0E0],"parents":[2147483647,0,0,1,1,2,2,4,4,5,5,7,7,8,8,12,12,13,13],"right_children":[2,4,6,-1,8,10,-1,12,14,-1,-1,-1,16,18,-1,-1,-1,-1,-1],"split_conditions":[2.43E1,1.53E1,7.508E0,-1.9997919E-2,4.287E0,1.03E-1,4.0870547E-2,1.617E2,3.095E-1,4.946946E-2,-1.7694589E-4,-1.0589711E-2,3.071275E-1,-7.4410397E-1,9.7833954E-2,-1.0366442E-2,2.1663718E-2,-1.0393589E-2,9.28796E-3],"split_indices":[0,0,1,0,1,2,0,4,3,0,0,0,3,6,0,0,0,0,0],"split_type":[0,0,0,0,0,0,0,0,0,0,0,0,0,0,0,0,0,0,0],"sum_hessian":[8.65E2,7.88E2,7.7E1,4.93E2,2.95E2,4.3E1,3.4E1,2.03E2,9.2E1,1.8E1,2.5E1,1.52E2,5.1E1,7E1,2.2E1,2.5E1,2.6E1,3.6E1,3.4E1],"tree_param":{"num_deleted":"0","num_feature":"8","num_nodes":"19","size_leaf_vector":"1"}},{"base_weights":[-2.2908475E-2,-3.3428203E-2,1.9379684E-1,-1.4964188E-3,2.3647364E-4,1.0166932E-2,2.0812994E-3,4.4972026E-3,-1.6084457E-2,-3.1112207E-2,3.978457E-3,1.8819314E-3,-1.4633136E-3],"categories":[],"categories_nodes":[],"categories_segments":[],"categories_sizes":[],"default_left":[1,1,0,0,0,0,0,0,0,0,0,0,0],"id":15,"left_children":[1,3,5,-1,7,-1,-1,-1,9,11,-1,-1,-1],"loss_changes":[2.0193894E0,2.9525954E-1,5.6444466E-1,0E0,4.2715648E-1,0E0,0E0,0E0,3.523382E-1,1.6064423E-1,0E0,0E0,0E0],"parents":[2147483647,0,0,1,1,2,2,4,4,8,8,9,9],"right_children":[2,4,6,-1,8,-1,-1,-1,10,12,-1,-1,-1],"split_conditions":[2.5E1,2.05E1,-6.152846E-1,-1.4883997E-2,1.6760847E-2,4.5094877E-2,5.1613223E-2,1.7859897E-2,1.683E2,-6.9328123E-1,7.6520704E-3,3.879501E-2,-7.4070655E-3],"split_indices":[0,0,5,0,7,0,0,0,4,5,0,0,0],"split_type":[0,0,0,0,0,0,0,0,0,0,0,0,0],"sum_hessian":[8.86E2,8.45E2,4.1E1,6.46E2,1.99E2,2.3E1,1.8E1,2.2E1,1.77E2,1.59E2,1.8E1,1.9E1,1.4E2],"tree_param":{"num_deleted":"0","num_feature":"8","num_nodes":"13","size_leaf_vector":"1"}},{"base_weights":[-2.2847181E-2,-3.3209633E-2,1.499197E-1,2.3647364E-4,-1.4927515E-3,8.204871E-3,8.4586805E-5,-1.6084457E-2,4.4972026E-3,-1.4176739E-3,3.469174E-2,-8.513999E-4,5.4766205E-3],"categories":[],"categories_nodes":[],"categories_segments":[],"categories_sizes":[],"default_left":[1,0,0,0,0,0,0,0,0,0,0,0,0],"id":16,"left_children":[1,3,5,7,-1,-1,-1,9,-1,-1,11,-1,-1],"loss_changes":[1.5823208E0,2.9262853E-1,6.647363E-1,4.2715648E-1,0E0,0E0,0E0,2.2844107E-1,0E0,0E0,4.423107E-1,0E0,0E0],"parents":[2147483647,0,0,1,1,2,2,3,3,7,7,10,10],"right_children":[2,4,6,8,-1,-1,-1,10,-1,-1,12,-1,-1],"split_conditions":[2.48E1,4.06161E-1,2.57E1,3.154585E-1,-1.5100544E-2,4.7683336E-2,3.0752435E-2,2.25E1,4.2095568E-2,-7.416361E-3,1.54E-1,-7.555853E-3,1.3558535E-2],"split_indices":[0,2,0,3,0,0,0,0,0,0,2,0,0],"split_type":[0,0,0,0,0,0,0,0,0,0,0,0,0],"sum_hessian":[8.84E2,8.34E2,5E1,1.99E2,6.35E2,3.1E1,1.9E1,1.77E2,2.2E1,1.18E2,5.9E1,4E1,1.9E1],"tree_param":{"num_deleted":"0","num_feature":"8","num_nodes":"13","size_leaf_vector":"1"}},{"base_weights":[-1.5789008E-2,-2.863928E-2,1.1044776E-1,-1.4974485E-3,-4.6829525E-3,4.2532526E-2,8.408132E-3,3.980247E-3,-1.490161E-2,-6.6971034E-4,4.7925934E-3,5.197324E-2,-2.8800247E-2,-1.7021977E-3,3.9813207E-3,-1.382241E-3,2.2292228E-3],"categories":[],"categories_nodes":[],"categories_segments":[],"categories_sizes":[],"default_left":[1,1,0,0,1,0,0,0,0,0,0,0,0,0,0,0,0],"id":17,"left_children":[1,3,5,-1,7,9,-1,-1,11,-1,-1,13,15,-1,-1,-1,-1],"loss_changes":[1.422443E0,2.8959453E-1,7.455055E-1,0E0,3.823956E-1,3.2842338E-1,0E0,0E0,2.6484808E-1,0E0,0E0,3.223604E-1,2.5878054E-1,0E0,0E0,0E0,0E0],"parents":[2147483647,0,0,1,1,2,2,4,4,5,5,8,8,11,11,12,12],"right_children":[2,4,6,-1,8,10,-1,-1,12,-1,-1,14,16,-1,-1,-1,-1],"split_conditions":[2.41E1,1.41E1,9.749E0,-1.8915232E-2,1.5620562E-2,2.35E1,4.2963002E-2,2.8300356E-2,1E-1,4.476506E-3,4.3267634E-2,4.3833017E-2,-5.9126145E-1,-5.5776797E-3,4.9917202E-2,-1.3499492E-2,7.3583894E-3],"split_indices":[0,0,1,0,7,4,0,0,2,0,0,7,6,0,0,0,0],"split_type":[0,0,0,0,0,0,0,0,0,0,0,0,0,0,0,0,0],"sum_hessian":[8.77E2,7.96E2,8.1E1,4.87E2,3.09E2,5.4E1,2.7E1,2.4E1,2.85E2,3.3E1,2.1E1,4.9E1,2.36E2,1.9E1,3E1,2.1E2,2.6E1],"tree_param":{"num_deleted":"0","num_feature":"8","num_nodes":"17","size_leaf_vector":"1"}},{"base_weights":[-1.9174583E-2,-2.8618608E-2,7.330379E-3,-3.2733463E-2,2.6960736E-3,-3.7092652E-2,6.101733E-2,-1.6409178E-3,-1.6026229E-2,-1.7018687E-3,5.875614E-3,4.4972026E-3,-1.0047492E-3],"categories":[],"categories_nodes":[],"categories_segments":[],"categories_sizes":[],"default_left":[1,0,0,1,0,1,0,0,0,0,0,0,0],"id":18,"left_children":[1,3,-1,5,-1,7,9,-1,11,-1,-1,-1,-1],"loss_changes":[1.9333087E0,3.7247306E-1,0E0,3.313864E-1,0E0,1.784221E-1,4.4329506E-1,0E0,5.235114E-1,0E0,0E0,0E0,0E0],"parents":[2147483647,0,0,1,1,3,3,5,5,6,6,8,8],"right_children":[2,4,-1,6,-1,8,10,-1,12,-1,-1,-1,-1],"split_conditions":[2.5E1,4.255E-1,4.403717E-2,2.41E1,4.430931E-2,1.53E1,5.091E0,-1.787284E-2,1.611E1,-3.9171875E-3,2.6293337E-2,2.5963496E-2,-6.0098353E-3],"split_indices":[0,3,0,0,0,0,1,0,0,0,0,0,0],"split_type":[0,0,0,0,0,0,0,0,0,0,0,0,0],"sum_hessian":[8.76E2,8.42E2,3.4E1,8.11E2,3.1E1,7.75E2,3.6E1,5.1E2,2.65E2,1.8E1,1.8E1,2.2E1,2.43E2],"tree_param":{"num_deleted":"0","num_feature":"8","num_nodes":"13","size_leaf_vector":"1"}},{"base_weights":[-2.1875046E-2,-3.5126172E-2,1.0849125E-1,-1.5423737E-3,-2.1119649E-3,1.0240042E-2,4.672139E-2,3.978457E-3,-1.4687994E-2,-1.7021977E-3,8.945162E-2,2.3866715E-3,-2.9288648E-2,6.049535E-3,-7.653445E-5,1.8819314E-3,-1.436114E-3],"categories":[],"categories_nodes":[],"categories_segments":[],"categories_sizes":[],"default_left":[0,0,0,0,0,0,1,0,0,0,0,0,0,0,0,0,0],"id":19,"left_children":[1,3,5,-1,7,-1,9,-1,11,-1,13,-1,15,-1,-1,-1,-1],"loss_changes":[1.5355717E0,2.6687485E-1,9.6769375E-1,0E0,2.8005585E-1,0E0,2.5596005E-1,0E0,2.097679E-1,0E0,3.4607673E-1,0E0,1.5596634E-1,0E0,0E0,0E0,0E0],"parents":[2147483647,0,0,1,1,2,2,4,4,6,6,8,8,10,10,12,12],"right_children":[2,4,6,-1,8,-1,10,-1,12,-1,14,-1,16,-1,-1,-1,-1],"split_conditions":[2.43E1,2.02E1,1.40402345E-2,-1.4418361E-2,2.021858E-2,4.43361E-2,2.6055314E-2,3.2607198E-2,2.08E1,-1.02161225E-2,5.32E1,7.3166855E-2,-6.8077344E-1,2.3037177E-2,8.321658E-3,3.6698077E-2,-1.0567079E-2],"split_indices":[0,0,7,0,7,0,7,0,0,0,4,0,5,0,0,0,0],"split_type":[0,0,0,0,0,0,0,0,0,0,0,0,0,0,0,0,0],"sum_hessian":[8.89E2,8.07E2,8.2E1,6.19E2,1.88E2,2E1,6.2E1,1.8E1,1.7E2,1.9E1,4.3E1,2.5E1,1.45E2,2.2E1,2.1E1,1.9E1,1.26E2],"tree_param":{"num_deleted":"0","num_feature":"8","num_nodes":"17","size_leaf_vector":"1"}},{"base_weights":[-2.3919389E-2,-3.3684857E-2,6.760678E-2,3.383668E-3,-4.661038E-2,-8.722919E-4,1.5445347E-1,-7.4505596E-4,5.932243E-2,-1.707926E-3,1.8819314E-3,9.217201E-3,8.4586805E-5,5.6073805E-3,-7.5622747E-4],"categories":[],"categories_nodes":[],"categories_segments":[],"categories_sizes":[],"default_left":[0,0,1,1,0,0,0,0,0,0,0,0,0,0,0],"id":20,"left_children":[1,3,5,7,9,-1,11,-1,13,-1,-1,-1,-1,-1,-1],"loss_changes":[7.88251E-1,3.8199824E-1,6.880249E-1,2.9043683E-1,2.0338988E-1,0E0,7.706777E-1,0E0,5.469488E-1,0E0,0E0,0E0,0E0,0E0,0E0],"parents":[2147483647,0,0,1,1,2,2,3,3,4,4,6,6,8,8],"right_children":[2,4,6,8,10,-1,12,-1,14,-1,-1,-1,-1,-1,-1],"split_conditions":[2.43E1,-6.152846E-1,5.516E0,4.287E0,4.255E-1,-6.921059E-3,2.57E1,-2.9356796E-3,2.23E1,-1.8657403E-2,4.6572115E-2,3.8257662E-2,2.1251502E-2,7.0615225E-2,2.6452288E-3],"split_indices":[0,5,1,1,3,0,0,0,0,0,0,0,0,0,0],"split_type":[0,0,0,0,0,0,0,0,0,0,0,0,0,0,0],"sum_hessian":[8.82E2,7.97E2,8.5E1,2.06E2,5.91E2,4.1E1,4.4E1,1.42E2,6.4E1,5.72E2,1.9E1,2.5E1,1.9E1,2.8E1,3.6E1],"tree_param":{"num_deleted":"0","num_feature":"8","num_nodes":"15","size_leaf_vector":"1"}},{"base_weights":[-2.7724804E-2,-4.1289523E-2,8.825987E-2,-1.5332366E-3,2.9448704E-3,9.1542E-3,3.32892E-2,-4.170238E-4,5.4766205E-3],"categories":[],"categories_nodes":[],"categories_segments":[],"categories_sizes":[],"default_left":[0,0,0,0,0,0,0,0,0],"id":21,"left_children":[1,3,5,-1,-1,-1,7,-1,-1],"loss_changes":[1.4127222E0,3.6802244E-1,9.276805E-1,0E0,0E0,0E0,4.1658044E-1,0E0,0E0],"parents":[2147483647,0,0,1,1,2,2,6,6],"right_children":[2,4,6,-1,-1,-1,8,-1,-1],"split_conditions":[2.41E1,4.255E-1,1.6760847E-2,-1.1516456E-2,4.4160113E-2,2.9274292E-2,3E-1,-1.907383E-3,2.521671E-2],"split_indices":[0,3,7,0,0,0,3,0,0],"split_type":[0,0,0,0,0,0,0,0,0],"sum_hessian":[8.98E2,8.04E2,9.4E1,7.82E2,2.2E1,2.2E1,7.2E1,5.3E1,1.9E1],"tree_param":{"num_deleted":"0","num_feature":"8","num_nodes":"9","size_leaf_vector":"1"}},{"base_weights":[-2.830693E-2,-3.3944133E-3,-3.994436E-2,3.3483736E-3,-4.8762327E-4,-1.4715126E-3,1.8819314E-3],"categories":[],"categories_nodes":[],"categories_segments":[],"categories_sizes":[],"default_left":[0,0,0,0,0,0,0],"id":22,"left_children":[1,3,5,-1,-1,-1,-1],"loss_changes":[2.5384164E-1,3.0757573E-1,1.7754018E-1,0E0,0E0,0E0,0E0],"parents":[2147483647,0,0,1,1,2,2],"right_children":[2,4,6,-1,-1,-1,-1],"split_conditions":[-6.016241E-1,1.6760847E-2,4.7E-1,2.7240392E-2,-1.3735568E-3,-1.8515496E-2,4.1427165E-2],"split_indices":[5,7,3,0,0,0,0],"split_type":[0,0,0,0,0,0,0],"sum_hessian":[8.76E2,2.79E2,5.97E2,2.7E1,2.52E2,5.78E2,1.9E1],"tree_param":{"num_deleted":"0","num_feature":"8","num_nodes":"7","size_leaf_vector":"1"}},{"base_weights":[-2.2847181E-2,-3.563553E-2,6.0140926E-2,2.7426295E-3,-3.9228518E-2,7.1431925E-3,1.5900517E-2,-4.1719686E-2,2.0812994E-3,3.978457E-3,-3.0278205E-4,-1.5144104E-3,1.8819314E-3],"categories":[],"categories_nodes":[],"categories_segments":[],"categories_sizes":[],"default_left":[0,0,0,0,0,0,0,0,0,0,0,0,0],"id":23,"left_children":[1,3,5,-1,7,-1,9,11,-1,-1,-1,-1,-1],"loss_changes":[9.381232E-1,3.1893665E-1,7.769568E-1,0E0,1.8533885E-1,0E0,2.2694346E-1,1.8317103E-1,0E0,0E0,0E0,0E0,0E0],"parents":[2147483647,0,0,1,1,2,2,4,4,6,6,7,7],"right_children":[2,4,6,-1,8,-1,10,12,-1,-1,-1,-1,-1],"split_conditions":[2.3E1,-8.3592546E-1,1.6760847E-2,2.4376556E-3,1.5847095E0,2.8064838E-2,1.09E1,4.255E-1,1.3404186E-3,2.4402171E-2,2.362527E-4,-1.086791E-2,4.205723E-2],"split_indices":[0,5,7,0,7,0,4,3,0,0,0,0,0],"split_type":[0,0,0,0,0,0,0,0,0,0,0,0,0],"sum_hessian":[8.84E2,7.66E2,1.18E2,2.3E1,7.43E2,2.7E1,9.1E1,7.25E2,1.8E1,1.8E1,7.3E1,7.06E2,1.9E1],"tree_param":{"num_deleted":"0","num_feature":"8","num_nodes":"13","size_leaf_vector":"1"}},{"base_weights":[-2.3620302E-2,-3.1858336E-2,1.2769212E-1,-3.59474E-2,4.0835653E-2,6.8262666E-3,1.5401383E-3,7.8898267E-4,-1.3396465E-3,-3.375137E-4,3.679276E-3],"categories":[],"categories_nodes":[],"categories_segments":[],"categories_sizes":[],"default_left":[1,0,0,0,0,0,0,0,0,0,0],"id":24,"left_children":[1,3,5,7,9,-1,-1,-1,-1,-1,-1],"loss_changes":[1.0867193E0,2.4582434E-1,2.6738018E-1,1.5107095E-1,1.495241E-1,0E0,0E0,0E0,0E0,0E0,0E0],"parents":[2147483647,0,0,1,1,2,2,3,3,4,4],"right_children":[2,4,6,8,10,-1,-1,-1,-1,-1,-1],"split_conditions":[2.48E1,1.392E0,2.57E1,-8.0647993E-1,3.555E-1,3.9868385E-2,2.3502156E-2,1.227092E-3,-1.2248093E-2,-4.433036E-3,4.0620442E-2],"split_indices":[0,2,0,5,3,0,0,0,0,0,0],"split_type":[0,0,0,0,0,0,0,0,0,0,0],"sum_hessian":[8.72E2,8.27E2,4.5E1,7.83E2,4.4E1,2.4E1,2.1E1,4.1E1,7.42E2,2.5E1,1.9E1],"tree_param":{"num_deleted":"0","num_feature":"8","num_nodes":"11","size_leaf_vector":"1"}},{"base_weights":[-3.3008873E-2,-1.2963951E-3,4.4278186E-2,6.049535E-3,-1.704491E-3],"categories":[],"categories_nodes":[],"categories_segments":[],"categories_sizes":[],"default_left":[0,0,1,0,0],"id":25,"left_children":[1,-1,3,-1,-1],"loss_changes":[3.3706093E-1,0E0,6.6336226E-1,0E0,0E0],"parents":[2147483647,0,0,2,2],"right_children":[2,-1,4,-1,-1],"split_conditions":[2.5E1,-9.8710405E-3,2.52E1,3.613112E-2,-4.0302095E-3],"split_indices":[0,0,0,0,0],"split_type":[0,0,0,0,0],"sum_hessian":[8.83E2,8.3E2,5.3E1,2.2E1,3.1E1],"tree_param":{"num_deleted":"0","num_feature":"8","num_nodes":"5","size_leaf_vector":"1"}},{"base_weights":[-2.1860393E-2,-2.9945936E-2,9.538867E-2,-1.5256264E-3,-5.7720375E-4,-1.5067337E-4,5.5342126E-3],"categories":[],"categories_nodes":[],"categories_segments":[],"categories_sizes":[],"default_left":[1,0,0,0,0,0,0],"id":26,"left_children":[1,3,5,-1,-1,-1,-1],"loss_changes":[8.0849814E-1,1.5302587E-1,3.6612552E-1,0E0,0E0,0E0,0E0],"parents":[2147483647,0,0,1,1,2,2],"right_children":[2,4,6,-1,-1,-1,-1],"split_conditions":[2.48E1,4.1E0,1.02E1,-1.7652534E-2,-4.7196643E-3,1.9355293E-2,2.683082E-2],"split_indices":[0,0,4,0,0,0,0],"split_type":[0,0,0,0,0,0,0],"sum_hessian":[8.53E2,7.98E2,5.5E1,3.75E2,4.23E2,2.2E1,3.3E1],"tree_param":{"num_deleted":"0","num_feature":"8","num_nodes":"7","size_leaf_vector":"1"}},{"base_weights":[-2.3795744E-2,-3.5332795E-3,-4.352749E-2,4.3166815E-3,-1.4107575E-2,-1.6307539E-3,1.5401383E-3,-2.0968117E-2,5.2479107E-2,-0E0,-1.5166497E-3,-7.653445E-5,3.978457E-3,-1.706537E-3,9.392988E-4],"categories":[],"categories_nodes":[],"categories_segments":[],"categories_sizes":[],"default_left":[0,0,0,0,0,0,0,0,0,1,0,0,0,0,0],"id":27,"left_children":[1,3,5,-1,7,-1,-1,9,11,13,-1,-1,-1,-1,-1],"loss_changes":[3.6609298E-1,6.2051636E-1,1.7302948E-1,0E0,1.9086967E-1,0E0,0E0,1.8617672E-1,1.3689503E-1,2.747152E-1,0E0,0E0,0E0,0E0,0E0],"parents":[2147483647,0,0,1,1,2,2,4,4,7,7,8,8,9,9],"right_children":[2,4,6,-1,8,-1,-1,10,12,14,-1,-1,-1,-1,-1],"split_conditions":[-4.862727E-1,1.6760847E-2,2.834245E2,3.2409776E-2,-5.3073007E-1,-1.6614297E-2,2.1836197E-3,-6.551564E-1,2.401E0,2.277E0,-5.1828567E-3,-9.2356344E-4,1.1191458E-2,-1.4039858E-2,2.3941938E-3],"split_indices":[5,7,1,0,5,0,0,5,1,1,0,0,0,0,0],"split_type":[0,0,0,0,0,0,0,0,0,0,0,0,0,0,0],"sum_hessian":[9.16E2,4.52E2,4.64E2,3.4E1,4.18E2,4.43E2,2.1E1,3.79E2,3.9E1,2E2,1.79E2,2.1E1,1.8E1,7.1E1,1.29E2],"tree_param":{"num_deleted":"0","num_feature":"8","num_nodes":"15","size_leaf_vector":"1"}},{"base_weights":[-2.2001024E-2,4.17746E-3,-2.684824E-2,-1.6099155E-3,-1.3100921E-2,3.4100027E-3,-1.7670589E-2,-9.6516946E-4,1.296825E-2,3.3483736E-3,-3.405969E-4],"categories":[],"categories_nodes":[],"categories_segments":[],"categories_sizes":[],"default_left":[0,0,0,0,0,0,0,0,1,0,0],"id":28,"left_children":[1,-1,3,-1,5,-1,7,-1,9,-1,-1],"loss_changes":[6.2428737E-1,0E0,2.4066508E-1,0E0,2.655143E-1,0E0,1.6053522E-1,0E0,2.4802834E-1,0E0,0E0],"parents":[2147483647,0,0,2,2,4,4,6,6,8,8],"right_children":[2,-1,4,-1,6,-1,8,-1,10,-1,-1],"split_conditions":[9.35E-2,1.8683515E-2,2.778E0,-1.3638957E-2,-8.287701E-1,1.0657972E-2,3.41E-1,-7.819734E-3,4.14E-1,7.497923E-2,-1.0773798E-3],"split_indices":[3,0,1,0,6,0,3,0,2,0,0],"split_type":[0,0,0,0,0,0,0,0,0,0,0],"sum_hessian":[8.93E2,2.9E1,8.64E2,3.49E2,5.15E2,2E1,4.95E2,3.68E2,1.27E2,2.7E1,1E2],"tree_param":{"num_deleted":"0","num_feature":"8","num_nodes":"11","size_leaf_vector":"1"}},{"base_weights":[-2.0881213E-2,-3.4653865E-2,3.5209134E-2,-8.805889E-3,-1.4581035E-3,5.946448E-2,-1.7052358E-3,3.9702263E-2,-1.7068989E-3,3.1052595E-2,6.169956E-3,3.8282787E-3,-8.722919E-4,3.6826115E-3,-8.863008E-3,2.7426295E-3,-1.7058708E-3],"categories":[],"categories_nodes":[],"categories_segments":[],"categories_sizes":[],"default_left":[1,0,0,0,0,0,0,0,0,0,0,0,0,0,0,0,0],"id":29,"left_children":[1,3,5,7,-1,9,-1,11,-1,13,-1,-1,-1,-1,15,-1,-1],"loss_changes":[6.898667E-1,1.4862305E-1,3.6345622E-1,3.3946586E-1,0E0,4.7089872E-1,0E0,3.6849895E-1,0E0,3.403459E-1,0E0,0E0,0E0,0E0,2.6723945E-1,0E0,0E0],"parents":[2147483647,0,0,1,1,2,2,3,3,5,5,7,7,9,9,14,14],"right_children":[2,4,6,8,-1,10,-1,12,-1,14,-1,-1,-1,-1,16,-1,-1],"split_conditions":[2.16E1,-6.152846E-1,1.05882354E-1,1.388889E-1,-1.4359081E-2,6.7222096E-2,-1.6514743E-2,1.55E1,-8.735707E-3,1.6760847E-2,2.6370555E-2,1.3679863E-2,-2.8801097E-3,2.6361048E-2,-6.680639E-1,3.4097005E-2,-2.7791245E-3],"split_indices":[0,5,7,7,0,7,0,0,0,7,0,0,0,0,5,0,0],"split_type":[0,0,0,0,0,0,0,0,0,0,0,0,0,0,0,0,0],"sum_hessian":[8.93E2,7.17E2,1.76E2,1.7E2,5.47E2,1.37E2,3.9E1,7.8E1,9.2E1,1.11E2,2.6E1,3.7E1,4.1E1,3.8E1,7.3E1,2.3E1,5E1],"tree_param":{"num_deleted":"0","num_feature":"8","num_nodes":"17","size_leaf_vector":"1"}},{"base_weights":[-2.1326743E-2,-3.522425E-2,2.690701E-2,-1.2926074E-3,1.8819314E-3,-5.860455E-3,1.024801E-1,-3.287887E-2,5.4766205E-3,6.258273E-3,6.44288E-4,-1.706962E-3,1.702493E-3],"categories":[],"categories_nodes":[],"categories_segments":[],"categories_sizes":[],"default_left":[0,0,0,0,0,1,0,0,0,0,0,0,0],"id":30,"left_children":[1,3,5,-1,-1,7,9,11,-1,-1,-1,-1,-1],"loss_changes":[5.8456284E-1,1.597175E-1,4.831919E-1,0E0,0E0,6.102939E-1,3.976292E-1,1.6539022E-1,0E0,0E0,0E0,0E0,0E0],"parents":[2147483647,0,0,1,1,2,2,5,5,6,6,7,7],"right_children":[2,4,6,-1,-1,8,10,12,-1,-1,-1,-1,-1],"split_conditions":[2.16E1,4.255E-1,-7.4410397E-1,-8.608559E-3,4.1267965E-2,1.0532331E1,-6.963762E-1,1.253E2,2.9083217E-2,3.47662E-2,1.1311793E-2,-1.1155482E-2,9.392988E-3],"split_indices":[0,3,6,0,0,1,6,4,0,0,0,0,0],"split_type":[0,0,0,0,0,0,0,0,0,0,0,0,0],"sum_hessian":[8.72E2,6.77E2,1.95E2,6.58E2,1.9E1,1.36E2,5.9E1,1.17E2,1.9E1,3E1,2.9E1,9.7E1,2E1],"tree_param":{"num_deleted":"0","num_feature":"8","num_nodes":"13","size_leaf_vector":"1"}},{"base_weights":[-2.3030233E-2,-3.205364E-2,1.1659675E-1,-0E0,-3.74257E-2,7.2739655E-3,2.1928402E-3,3.978457E-3,-7.0231163E-4,-1.5245833E-3,-1.1764202E-2,2.9448704E-3,-9.481635E-4],"categories":[],"categories_nodes":[],"categories_segments":[],"categories_sizes":[],"default_left":[0,0,0,1,0,0,0,0,0,0,0,0,0],"id":31,"left_children":[1,3,5,7,9,-1,-1,-1,-1,-1,11,-1,-1],"loss_changes":[1.1211083E0,1.4395553E-1,2.7173066E-1,2.87329E-1,1.3215435E-1,0E0,0E0,0E0,0E0,0E0,2.4579936E-1,0E0,0E0],"parents":[2147483647,0,0,1,1,2,2,3,3,4,4,10,10],"right_children":[2,4,6,8,10,-1,-1,-1,-1,-1,12,-1,-1],"split_conditions":[2.5E1,2.27E1,2.015E-1,6.3595E0,2.02E1,1.948335E-2,3.4254495E-2,3.3635173E-3,-1.5535849E-3,-1.0361237E-2,2.08E1,8.273899E-2,-5.1921485E-3],"split_indices":[0,4,3,1,0,0,0,0,0,0,0,0,0],"split_type":[0,0,0,0,0,0,0,0,0,0,0,0,0],"sum_hessian":[8.9E2,8.36E2,5.4E1,1.2E2,7.16E2,1.9E1,3.5E1,1.8E1,1.02E2,5.59E2,1.57E2,2.2E1,1.35E2],"tree_param":{"num_deleted":"0","num_feature":"8","num_nodes":"13","size_leaf_vector":"1"}},{"base_weights":[-2.519379E-2,-1.1650659E-3,8.038383E-2,7.197211E-3,1.5151152E-2,-1.7021977E-3,2.083434E-3],"categories":[],"categories_nodes":[],"categories_segments":[],"categories_sizes":[],"default_left":[1,0,0,0,0,0,0],"id":32,"left_children":[1,-1,3,-1,5,-1,-1],"loss_changes":[8.342799E-1,0E0,5.858273E-1,0E0,1.3707544E-1,0E0,0E0],"parents":[2147483647,0,0,2,2,4,4],"right_children":[2,-1,4,-1,6,-1,-1],"split_conditions":[2.43E1,-7.886075E-3,1.4599406E-2,2.4241002E-2,5.428E0,-8.749262E-3,2.8397761E-2],"split_indices":[0,0,7,0,1,0,0],"split_type":[0,0,0,0,0,0,0],"sum_hessian":[8.87E2,8.18E2,6.9E1,2.3E1,4.6E1,1.9E1,2.7E1],"tree_param":{"num_deleted":"0","num_feature":"8","num_nodes":"7","size_leaf_vector":"1"}},{"base_weights":[-2.801854E-2,-2.8520047E-3,-4.020682E-2,-1.9799711E-2,4.6931473E-3,-1.4767173E-3,1.3925382E-3,1.704369E-3,-9.808053E-4],"categories":[],"categories_nodes":[],"categories_segments":[],"categories_sizes":[],"default_left":[0,1,0,0,0,0,0,0,0],"id":33,"left_children":[1,3,5,7,-1,-1,-1,-1,-1],"loss_changes":[2.790053E-1,7.055313E-1,1.4989197E-1,1.6450673E-1,0E0,0E0,0E0,0E0,0E0],"parents":[2147483647,0,0,1,1,2,2,3,3],"right_children":[2,4,6,8,-1,-1,-1,-1,-1],"split_conditions":[-6.016241E-1,9.749E0,2.834245E2,6.1E-2,2.611356E-2,-1.3840689E-2,3.4952145E-3,6.0147073E-2,-5.789807E-3],"split_indices":[5,1,1,2,0,0,0,0,0],"split_type":[0,0,0,0,0,0,0,0,0],"sum_hessian":[9.1E2,2.97E2,6.13E2,2.65E2,3.2E1,5.91E2,2.2E1,3E1,2.35E2],"tree_param":{"num_deleted":"0","num_feature":"8","num_nodes":"9","size_leaf_vector":"1"}},{"base_weights":[-2.2969339E-2,4.5709927E-2,-3.1501777E-2,5.5342126E-3,-5.863284E-4,-2.3633773E-3,-1.3599314E-3,3.1687098E-3,-9.3673624E-4],"categories":[],"categories_nodes":[],"categories_segments":[],"categories_sizes":[],"default_left":[0,1,0,0,0,0,0,0,0],"id":34,"left_children":[1,3,5,-1,-1,7,-1,-1,-1],"loss_changes":[4.9866015E-1,6.8776E-1,1.8308914E-1,0E0,0E0,4.002428E-1,0E0,0E0,0E0],"parents":[2147483647,0,0,1,1,2,2,5,5],"right_children":[2,4,6,-1,-1,8,-1,-1,-1],"split_conditions":[2.2E1,1.40402345E-2,-6.551564E-1,2.8984662E-2,-2.11078E-4,9.54E1,-1.1446572E-2,1.9154482E-2,-5.444082E-3],"split_indices":[4,7,5,0,0,4,0,0,0],"split_type":[0,0,0,0,0,0,0,0,0],"sum_hessian":[8.51E2,9.4E1,7.57E2,3.3E1,6.1E1,1.68E2,5.89E2,3.5E1,1.33E2],"tree_param":{"num_deleted":"0","num_feature":"8","num_nodes":"9","size_leaf_vector":"1"}},{"base_weights":[-2.1643313E-2,-3.25397E-2,5.431888E-2,-1.6179271E-3,-1.9187037E-2,1.9731624E-2,5.355184E-3,2.5584733E-3,-2.691506E-2,3.980247E-3,-1.7692517E-2,1.8819314E-3,-1.0632573E-3,-1.7055044E-3,1.8819314E-3],"categories":[],"categories_nodes":[],"categories_segments":[],"categories_sizes":[],"default_left":[1,0,1,0,0,0,0,0,0,0,0,0,0,0,0],"id":35,"left_children":[1,3,5,-1,7,9,-1,-1,11,-1,13,-1,-1,-1,-1],"loss_changes":[7.589679E-1,1.585055E-1,4.069336E-1,0E0,3.0668974E-1,3.1180805E-1,0E0,0E0,1.3453695E-1,0E0,1.4545904E-1,0E0,0E0,0E0,0E0],"parents":[2147483647,0,0,1,1,2,2,4,4,5,5,8,8,10,10],"right_children":[2,4,6,-1,8,10,-1,-1,12,-1,14,-1,-1,-1,-1],"split_conditions":[2.28E1,3.6E0,9.94E0,-1.4537985E-2,1.55E-1,-6.551564E-1,2.9799249E-2,8.548332E-3,-8.543222E-1,2.7746396E-2,2.905E-1,3.032846E-3,-4.9808417E-3,-5.0469087E-3,8.645686E-3],"split_indices":[0,0,1,0,3,5,0,0,5,0,3,0,0,0,0],"split_type":[0,0,0,0,0,0,0,0,0,0,0,0,0,0,0],"sum_hessian":[9.17E2,8.02E2,1.15E2,3.8E2,4.22E2,8.6E1,2.9E1,3.2E1,3.9E2,2.4E1,6.2E1,1.9E1,3.71E2,4.3E1,1.9E1],"tree_param":{"num_deleted":"0","num_feature":"8","num_nodes":"15","size_leaf_vector":"1"}},{"base_weights":[-2.2346674E-2,1.9820181E-3,-2.5928864E-2,1.6632687E-2,-3.110236E-2,3.5428004E-3,-1.8702013E-2,1.9288743E-3,-3.9773054E-2,2.0812994E-3,-1.705675E-3,-1.8968431E-2,3.7527771E-3,1.6598726E-2,-1.5188266E-3,-1.7067981E-3,4.0835653E-2,3.978457E-3,-1.703953E-3,3.980247E-3,-1.702494E-3],"categories":[],"categories_nodes":[],"categories_segments":[],"categories_sizes":[],"default_left":[0,0,0,1,0,0,0,0,0,0,0,1,0,0,0,0,0,0,0,0,0],"id":36,"left_children":[1,-1,3,5,7,-1,9,11,13,-1,-1,15,-1,17,-1,-1,19,-1,-1,-1,-1],"loss_changes":[2.4979809E-1,0E0,1.8302727E-1,2.771849E-1,2.1233898E-1,0E0,1.5913805E-1,3.4761134E-1,1.5514624E-1,0E0,0E0,2.3915571E-1,0E0,2.9900602E-1,0E0,0E0,3.0218866E-1,0E0,0E0,0E0,0E0],"parents":[2147483647,0,0,2,2,3,3,4,4,6,6,7,7,8,8,11,11,13,13,16,16],"right_children":[2,-1,4,6,8,-1,10,12,14,-1,-1,16,-1,18,-1,-1,20,-1,-1,-1,-1],"split_conditions":[9.35E-2,1.4794133E-2,2.19E1,1.312197E-2,-6.8077344E-1,2.2166137E-2,-7.775971E-1,-7.295576E-1,-8.382797E-1,7.432075E-3,-9.2315925E-3,1.023E0,3.0753983E-2,1.0885341E-1,-1.22080045E-2,-5.8701653E-3,3.58E-1,1.0704076E-2,-7.1813897E-3,1.2044887E-2,-7.1203075E-3],"split_indices":[3,0,4,7,5,0,6,5,6,0,0,2,0,7,0,0,3,0,0,0,0],"split_type":[0,0,0,0,0,0,0,0,0,0,0,0,0,0,0,0,0,0,0,0,0],"sum_hessian":[8.68E2,3.7E1,8.31E2,9E1,7.41E2,2.6E1,6.4E1,1.54E2,5.87E2,1.8E1,4.6E1,1.29E2,2.5E1,4.5E1,5.42E2,8.5E1,4.4E1,1.8E1,2.7E1,2.4E1,2E1],"tree_param":{"num_deleted":"0","num_feature":"8","num_nodes":"21","size_leaf_vector":"1"}},{"base_weights":[-2.5332838E-2,7.49131E-2,-3.004326E-2,-1.5067337E-4,5.875614E-3,-3.9731357E-2,8.805865E-3,2.1354964E-2,-1.4944341E-3,-2.0126265E-2,1.1656181E-1,3.978457E-3,-1.7034318E-3,5.2479107E-2,-1.7069376E-3,7.772771E-3,1.8414209E-4,-1.7018687E-3,4.7925934E-3],"categories":[],"categories_nodes":[],"categories_segments":[],"categories_sizes":[],"default_left":[0,0,0,0,0,1,1,0,0,0,0,0,0,1,0,0,0,0,0],"id":37,"left_children":[1,3,5,-1,-1,7,9,11,-1,13,15,-1,-1,17,-1,-1,-1,-1,-1],"loss_changes":[4.2109072E-1,3.085739E-1,3.207667E-1,0E0,0E0,1.672833E-1,5.30316E-1,2.847496E-1,0E0,2.9033464E-1,4.4348526E-1,0E0,0E0,3.5069937E-1,0E0,0E0,0E0,0E0,0E0],"parents":[2147483647,0,0,1,1,2,2,5,5,6,6,7,7,9,9,10,10,13,13],"right_children":[2,4,6,-1,-1,8,10,12,-1,14,16,-1,-1,18,-1,-1,-1,-1,-1],"split_conditions":[-8.382797E-1,2.318E0,2.2E1,-1.62891E-4,1.0338398E-2,3.8530696E-3,8.701E0,2.905E-1,-9.436523E-3,-6.551564E-1,2.84535E-1,1.3591459E-3,-4.4849897E-3,4.0578097E-2,-3.9688353E-3,2.7310126E-2,4.8788326E-5,-4.3144887E-3,3.0680528E-2],"split_indices":[6,1,0,0,0,7,1,3,0,5,3,0,0,7,0,0,0,0,0],"split_type":[0,0,0,0,0,0,0,0,0,0,0,0,0,0,0,0,0,0,0],"sum_hessian":[8.92E2,4E1,8.52E2,2.2E1,1.8E1,6.82E2,1.7E2,4.2E1,6.4E2,1.34E2,3.6E1,1.8E1,2.4E1,3.9E1,9.5E1,1.8E1,1.8E1,1.8E1,2.1E1],"tree_param":{"num_deleted":"0","num_feature":"8","num_nodes":"19","size_leaf_vector":"1"}},{"base_weights":[-3.1065535E-2,-1.4937642E-3,-0E0,4.613313E-3,-1.5652157E-2,6.101733E-2,-1.0139227E-3,5.875614E-3,-1.7018687E-3],"categories":[],"categories_nodes":[],"categories_segments":[],"categories_sizes":[],"default_left":[0,0,0,0,1,0,0,0,0],"id":38,"left_children":[1,-1,3,-1,5,7,-1,-1,-1],"loss_changes":[3.5317087E-1,0E0,5.495854E-1,0E0,2.5051206E-1,4.4329506E-1,0E0,0E0,0E0],"parents":[2147483647,0,0,2,2,4,4,5,5],"right_children":[2,-1,4,-1,6,8,-1,-1,-1],"split_conditions":[2.02E1,-9.51741E-3,1.3906856E-2,2.8497145E-2,2.08E1,7.13E-1,-4.8300684E-3,9.3404286E-2,-1.1004546E-2],"split_indices":[0,0,7,0,0,2,0,0,0],"split_type":[0,0,0,0,0,0,0,0,0],"sum_hessian":[8.98E2,6.38E2,2.6E2,2.7E1,2.33E2,3.6E1,1.97E2,1.8E1,1.8E1],"tree_param":{"num_deleted":"0","num_feature":"8","num_nodes":"9","size_leaf_vector":"1"}},{"base_weights":[-1.9728674E-2,-2.7036835E-2,5.6622066E-2,2.313287E-2,-3.2901473E-2,-6.027315E-4,1.09006345E-1,3.7527771E-3,-5.0761586E-4,5.5279755E-3,-1.3628623E-3,6.169956E-3,1.8414209E-4,8.878957E-2,-1.2321278E-3,5.875614E-3,1.8414209E-4],"categories":[],"categories_nodes":[],"categories_segments":[],"categories_sizes":[],"default_left":[1,1,0,0,0,0,0,0,0,0,0,0,0,0,0,0,0],"id":39,"left_children":[1,3,5,7,9,-1,11,-1,-1,13,-1,-1,-1,15,-1,-1,-1],"loss_changes":[4.792358E-1,2.3071039E-1,2.920847E-1,2.704693E-1,1.8873364E-1,0E0,3.2593232E-1,0E0,0E0,3.7423277E-1,0E0,0E0,0E0,2.4932247E-1,0E0,0E0,0E0],"parents":[2147483647,0,0,1,1,2,2,3,3,4,4,6,6,9,9,13,13],"right_children":[2,4,6,8,10,-1,12,-1,-1,14,-1,-1,-1,16,-1,-1,-1],"split_conditions":[2.43E1,3.6388E-2,5.428E0,2.35E1,-7.1767694E-1,1.10425E-3,2.1E-1,1.995286E-3,-2.9613968E-4,1.2994035E-1,-8.162286E-3,2.5183918E-2,1.7992802E-2,1.003E0,-3.4834717E-3,3.0887015E-2,2.2222982E-3],"split_indices":[0,2,1,4,5,0,2,0,0,7,0,0,0,2,0,0,0],"split_type":[0,0,0,0,0,0,0,0,0,0,0,0,0,0,0,0,0],"sum_hessian":[8.59E2,7.84E2,7.5E1,8.2E1,7.02E2,3.1E1,4.4E1,2.5E1,5.7E1,1.08E2,5.94E2,2.6E1,1.8E1,3.6E1,7.2E1,1.8E1,1.8E1],"tree_param":{"num_deleted":"0","num_feature":"8","num_nodes":"17","size_leaf_vector":"1"}},{"base_weights":[-2.2473522E-2,5.875614E-3,-2.6577145E-2,4.9917586E-2,-3.0340116E-2,3.978457E-3,-1.5067337E-4,5.197324E-2,-1.2167555E-3,5.4032565E-3,-1.7036194E-3],"categories":[],"categories_nodes":[],"categories_segments":[],"categories_sizes":[],"default_left":[0,0,1,0,0,0,0,0,0,0,0],"id":40,"left_children":[1,-1,3,5,7,-1,-1,9,-1,-1,-1],"loss_changes":[6.954731E-1,0E0,2.4577713E-1,1.4495715E-1,3.5351926E-1,0E0,0E0,5.303667E-1,0E0,0E0,0E0],"parents":[2147483647,0,0,2,2,3,3,4,4,7,7],"right_children":[2,-1,4,6,8,-1,-1,10,-1,-1,-1],"split_conditions":[8.1E-2,1.9893723E-2,9.245E-3,1.07E2,-7.961829E-1,1.5696891E-3,-1.6001798E-3,1.987E2,-8.10882E-3,1.0997416E-2,-4.2101396E-3],"split_indices":[3,0,2,4,5,0,0,4,0,0,0],"split_type":[0,0,0,0,0,0,0,0,0,0,0],"sum_hessian":[8.72E2,1.8E1,8.54E2,4E1,8.14E2,1.8E1,2.2E1,4.9E1,7.65E2,2.4E1,2.5E1],"tree_param":{"num_deleted":"0","num_feature":"8","num_nodes":"11","size_leaf_vector":"1"}},{"base_weights":[-2.668634E-2,2.2441301E-2,-1.2334927E-3,3.980247E-3,2.6056338E-3,-1.7055637E-3,3.566865E-2,-9.939832E-3,5.1175123E-3,2.0812994E-3,-1.7046044E-3],"categories":[],"categories_nodes":[],"categories_segments":[],"categories_sizes":[],"default_left":[1,0,0,0,0,0,0,1,0,0,0],"id":41,"left_children":[1,3,-1,-1,5,-1,7,9,-1,-1,-1],"loss_changes":[3.9713103E-1,2.5715595E-1,0E0,0E0,1.9798136E-1,0E0,3.648318E-1,1.415849E-1,0E0,0E0,0E0],"parents":[2147483647,0,0,1,1,4,4,6,6,7,7],"right_children":[2,4,-1,-1,6,-1,8,10,-1,-1,-1],"split_conditions":[1.40402345E-2,-7.4410397E-1,-6.697706E-3,2.7939333E-2,9.483616E-1,-1.5210789E-2,1.392E0,1.3647E1,3.8651537E-2,1.8725405E-2,-9.4222305E-3],"split_indices":[7,6,0,0,5,0,2,1,0,0,0],"split_type":[0,0,0,0,0,0,0,0,0,0,0],"sum_hessian":[8.58E2,1.38E2,7.2E2,2.4E1,1.14E2,4.4E1,7E1,5E1,2E1,1.8E1,3.2E1],"tree_param":{"num_deleted":"0","num_feature":"8","num_nodes":"11","size_leaf_vector":"1"}},{"base_weights":[-1.9139355E-2,4.501099E-3,-1.6220063E-3,6.3258135E-3,-9.361175E-3,-1.45318275E-2,3.4100027E-3,-1.2993697E-3,1.9749526E-2,6.1079837E-2,-1.7063635E-3,9.183867E-4,5.119797E-3],"categories":[],"categories_nodes":[],"categories_segments":[],"categories_sizes":[],"default_left":[0,0,0,0,1,1,0,0,0,0,0,0,0],"id":42,"left_children":[1,3,-1,-1,5,7,-1,-1,9,11,-1,-1,-1],"loss_changes":[5.8635384E-1,1.1951755E0,0E0,0E0,2.4984798E-1,3.408851E-1,0E0,0E0,4.9554563E-1,3.273853E-1,0E0,0E0,0E0],"parents":[2147483647,0,0,1,1,4,4,5,5,8,8,9,9],"right_children":[2,4,-1,-1,6,8,-1,-1,10,12,-1,-1,-1],"split_conditions":[-4.132786E-1,1.4599406E-2,-1.1800629E-2,2.5664952E-2,1.0532331E1,9.02E-1,1.730482E-2,-3.7810672E-3,3.58E-1,2.763E0,-4.014478E-3,6.4475676E-3,6.726996E-3],"split_indices":[6,7,0,0,1,2,0,0,3,1,0,0,0],"split_type":[0,0,0,0,0,0,0,0,0,0,0,0,0],"sum_hessian":[8.75E2,4.77E2,3.98E2,3.4E1,4.43E2,4.23E2,2E1,2.51E2,1.72E2,1.08E2,6.4E1,7.8E1,3E1],"tree_param":{"num_deleted":"0","num_feature":"8","num_nodes":"13","size_leaf_vector":"1"}},{"base_weights":[-2.5662675E-2,5.0749585E-2,-1.3356303E-3,1.0938815E-2,1.201319E-1,3.5428004E-3,-1.0961465E-3,7.601867E-3,1.0205657E-3],"categories":[],"categories_nodes":[],"categories_segments":[],"categories_sizes":[],"default_left":[0,0,0,0,1,0,0,0,0],"id":43,"left_children":[1,3,-1,5,7,-1,-1,-1,-1],"loss_changes":[8.85861E-1,3.5594442E-1,0E0,3.2754582E-1,4.336251E-1,0E0,0E0,0E0,0E0],"parents":[2147483647,0,0,1,1,3,3,4,4],"right_children":[2,4,-1,6,8,-1,-1,-1,-1],"split_conditions":[2.27E1,6.13335E-1,-8.091692E-3,1.055E-1,8.06E-1,1.9923396E-2,-4.2991084E-3,2.534674E-2,2.9068511E-2],"split_indices":[4,2,0,3,2,0,0,0,0],"split_type":[0,0,0,0,0,0,0,0,0],"sum_hessian":[8.63E2,1.29E2,7.34E2,8.2E1,4.7E1,2.6E1,5.6E1,2.2E1,2.5E1],"tree_param":{"num_deleted":"0","num_feature":"8","num_nodes":"9","size_leaf_vector":"1"}},{"base_weights":[-2.4592258E-2,-1.558043E-3,-1.2123379E-3,5.875614E-3,-9.176023E-3,4.4550564E-2,-2.1688398E-2,1.12703554E-1,-1.704491E-3,2.2251826E-2,-1.2715406E-3,1.0205657E-3,7.772771E-3,-1.0087342E-3,3.3121158E-3],"categories":[],"categories_nodes":[],"categories_segments":[],"categories_sizes":[],"default_left":[0,0,0,0,1,0,0,0,0,0,0,0,0,0,0],"id":44,"left_children":[1,-1,3,-1,5,7,9,11,-1,13,-1,-1,-1,-1,-1],"loss_changes":[4.2534906E-1,0E0,5.650692E-1,0E0,2.6346546E-1,4.7658384E-1,2.1708357E-1,4.082157E-1,0E0,3.212843E-1,0E0,0E0,0E0,0E0,0E0],"parents":[2147483647,0,0,2,2,4,4,5,5,6,6,7,7,9,9],"right_children":[2,-1,4,-1,6,8,10,12,-1,14,-1,-1,-1,-1,-1],"split_conditions":[1.23E1,-1.1227956E-2,9E-2,1.6702216E-2,1.55E1,1.416396E-1,1.54E-1,1.1859621E-1,-7.151908E-3,2.78696E-1,-4.4295876E-3,1.3945332E-2,1.2898367E-2,-1.0069032E-3,4.6989333E-2],"split_indices":[0,0,3,0,0,7,2,7,0,3,0,0,0,0,0],"split_type":[0,0,0,0,0,0,0,0,0,0,0,0,0,0,0],"sum_hessian":[8.66E2,4.56E2,4.1E2,1.8E1,3.92E2,7.4E1,3.18E2,4.3E1,3.1E1,8.3E1,2.35E2,2.5E1,1.8E1,4.9E1,3.4E1],"tree_param":{"num_deleted":"0","num_feature":"8","num_nodes":"15","size_leaf_vector":"1"}},{"base_weights":[-2.0417435E-2,-2.7383009E-2,4.6346128E-2,-1.7076202E-3,-1.8526113E-2,6.049535E-3,-2.6354099E-5,-3.122478E-2,5.261418E-3,1.245269E-2,-1.3760919E-3,7.811541E-2,-4.2638468E-4,-9.631289E-4,3.978457E-3,5.875614E-3,-7.653445E-5],"categories":[],"categories_nodes":[],"categories_segments":[],"categories_sizes":[],"default_left":[0,0,0,0,0,0,0,0,0,0,0,0,0,0,0,0,0],"id":45,"left_children":[1,3,5,-1,7,-1,-1,9,11,13,-1,15,-1,-1,-1,-1,-1],"loss_changes":[4.087326E-1,1.5914172E-1,5.118371E-1,0E0,1.7286362E-1,0E0,0E0,1.4762664E-1,2.5743902E-1,2.7085957E-1,0E0,2.9474795E-1,0E0,0E0,0E0,0E0,0E0],"parents":[2147483647,0,0,1,1,2,2,4,4,7,7,8,8,9,9,11,11],"right_children":[2,4,6,-1,8,-1,-1,10,12,14,-1,16,-1,-1,-1,-1,-1],"split_conditions":[2.43E1,2.4E0,1.40402345E-2,-1.0845438E-2,3.3E-1,1.7965278E-2,4.4770646E-3,1.55E-1,3.44746E-1,1.1923E-1,-6.5977136E-3,1.481132E-1,-2.4550334E-3,-8.257033E-4,2.3598915E-2,8.952964E-2,3.397764E-2],"split_indices":[0,0,7,0,3,0,0,3,3,2,0,7,0,0,0,0,0],"split_type":[0,0,0,0,0,0,0,0,0,0,0,0,0,0,0,0,0],"sum_hessian":[8.79E2,7.96E2,8.3E1,2.24E2,5.72E2,2.2E1,6.1E1,3.73E2,1.99E2,6.4E1,3.09E2,3.9E1,1.6E2,4.6E1,1.8E1,1.8E1,2.1E1],"tree_param":{"num_deleted":"0","num_feature":"8","num_nodes":"17","size_leaf_vector":"1"}},{"base_weights":[-2.5718946E-2,-3.1157618E-3,-3.8984936E-2,3.4100027E-3,-3.4128223E-4,2.557237E-3,-1.5111967E-3],"categories":[],"categories_nodes":[],"categories_segments":[],"categories_sizes":[],"default_left":[0,0,0,0,0,0,0],"id":46,"left_children":[1,3,5,-1,-1,-1,-1],"loss_changes":[2.5925082E-1,2.2617531E-1,3.2570493E-1,0E0,0E0,0E0,0E0],"parents":[2147483647,0,0,1,1,2,2],"right_children":[2,4,6,-1,-1,-1,-1],"split_conditions":[-5.8778524E-1,1.312197E-2,2.6E-2,9.23394E-3,-4.4440298E-4,2.3024664E-3,-9.440838E-3],"split_indices":[5,7,2,0,0,0,0],"split_type":[0,0,0,0,0,0,0],"sum_hessian":[8.65E2,3.2E2,5.45E2,2E1,3E2,2.4E1,5.21E2],"tree_param":{"num_deleted":"0","num_feature":"8","num_nodes":"7","size_leaf_vector":"1"}},{"base_weights":[-2.5858492E-2,9.582726E-3,-3.3305746E-2,4.99529E-2,-8.6329016E-4,1.056039E-2,-1.2894258E-3,3.3121158E-3,1.8696598E-4,-1.7048112E-3,2.5584733E-3],"categories":[],"categories_nodes":[],"categories_segments":[],"categories_sizes":[],"default_left":[0,0,0,0,0,0,0,0,0,0,0],"id":47,"left_children":[1,3,5,7,-1,9,-1,-1,-1,-1,-1],"loss_changes":[2.2970152E-1,2.1255116E-1,1.4006394E-1,1.4604665E-1,0E0,2.568467E-1,0E0,0E0,0E0,0E0,0E0],"parents":[2147483647,0,0,1,1,2,2,3,3,5,5],"right_children":[2,4,6,8,-1,10,-1,-1,-1,-1,-1],"split_conditions":[2.35E1,-7.3249406E-1,-7.961829E-1,-6.2876284E-1,-6.175895E-4,3.53E-1,-6.3976557E-3,1.7949635E-2,4.381478E-3,-2.0101524E-3,8.460162E-3],"split_indices":[4,6,5,5,0,3,0,0,0,0,0],"split_type":[0,0,0,0,0,0,0,0,0,0,0],"sum_hessian":[8.7E2,1.51E2,7.19E2,7E1,8.1E1,6.6E1,6.53E2,3.4E1,3.6E1,3.4E1,3.2E1],"tree_param":{"num_deleted":"0","num_feature":"8","num_nodes":"11","size_leaf_vector":"1"}},{"base_weights":[-2.1458881E-2,6.569213E-3,-3.0194128E-2,-1.2856697E-2,-1.5493378E-3,3.0190814E-3,-1.7071263E-3,-1.3787176E-2,8.945162E-2,-2.4603494E-2,2.557237E-3,1.8414209E-4,5.118883E-3,-1.4733737E-3,9.691807E-4],"categories":[],"categories_nodes":[],"categories_segments":[],"categories_sizes":[],"default_left":[0,0,0,0,0,0,0,0,0,0,0,0,0,0,0],"id":48,"left_children":[1,-1,3,5,-1,7,-1,9,11,13,-1,-1,-1,-1,-1],"loss_changes":[1.5698762E0,0E0,2.1216899E-1,2.2227763E-1,0E0,3.8372996E-1,0E0,2.1176374E-1,2.1785504E-1,1.9338076E-1,0E0,0E0,0E0,0E0,0E0],"parents":[2147483647,0,0,2,2,3,3,5,5,7,7,8,8,9,9],"right_children":[2,-1,4,6,-1,8,-1,10,12,14,-1,-1,-1,-1,-1],"split_conditions":[9.65E-2,1.057775E-2,-5.160624E-1,1.4197531E-1,-9.962716E-3,1.2674294E-1,-6.207899E-3,1.0348E1,9.22E-1,1.538E2,2.3166219E-2,1.8038446E-4,2.4968952E-2,-7.1268044E-3,1.002151E-2],"split_indices":[3,0,5,7,0,7,0,1,2,4,0,0,0,0,0],"split_type":[0,0,0,0,0,0,0,0,0,0,0,0,0,0,0],"sum_hessian":[8.41E2,3.3E1,8.08E2,3.77E2,4.31E2,2.64E2,1.13E2,2.21E2,4.3E1,1.97E2,2.4E1,1.8E1,2.5E1,1.46E2,5.1E1],"tree_param":{"num_deleted":"0","num_feature":"8","num_nodes":"15","size_leaf_vector":"1"}},{"base_weights":[-2.6453905E-2,-1.1987337E-3,5.341009E-2,8.427547E-2,-1.702494E-3,3.688689E-2,6.418821E-3,5.1175123E-3,-1.7037926E-3],"categories":[],"categories_nodes":[],"categories_segments":[],"categories_sizes":[],"default_left":[0,0,0,0,0,0,0,0,0],"id":49,"left_children":[1,-1,3,5,-1,7,-1,-1,-1],"loss_changes":[6.151329E-1,0E0,2.7739766E-1,3.2830846E-1,0E0,4.5104727E-1,0E0,0E0,0E0],"parents":[2147483647,0,0,2,2,3,3,5,5],"right_children":[2,-1,4,6,-1,8,-1,-1,-1],"split_conditions":[2.42E1,-5.465319E-3,3.015E-1,1.94327E-1,-7.344425E-3,1.10971E-1,2.5599139E-2,1.4530062E-2,-2.451929E-3],"split_indices":[0,0,3,3,0,3,0,0,0],"split_type":[0,0,0,0,0,0,0,0,0],"sum_hessian":[8.92E2,8.05E2,8.7E1,6.7E1,2E1,4.6E1,2.1E1,2E1,2.6E1],"tree_param":{"num_deleted":"0","num_feature":"8","num_nodes":"9","size_leaf_vector":"1"}},{"base_weights":[-2.4679972E-2,-1.0776866E-3,7.4937925E-2,5.875614E-3,9.860854E-4],"categories":[],"categories_nodes":[],"categories_segments":[],"categories_sizes":[],"default_left":[0,0,0,0,0],"id":50,"left_children":[1,-1,3,-1,-1],"loss_changes":[5.942667E-1,0E0,2.4981222E-1,0E0,0E0],"parents":[2147483647,0,0,2,2],"right_children":[2,-1,4,-1,-1],"split_conditions":[2.5E1,-5.2028266E-3,1.6465422E-2,2.5072046E-2,1.5848309E-2],"split_indices":[0,0,7,0,0],"split_type":[0,0,0,0,0],"sum_hessian":[8.69E2,8.13E2,5.6E1,1.8E1,3.8E1],"tree_param":{"num_deleted":"0","num_feature":"8","num_nodes":"5","size_leaf_vector":"1"}},{"base_weights":[-2.7774304E-2,3.980247E-3,-3.1731557E-2,-3.615951E-2,1.16910795E-2,2.4922073E-2,-1.345991E-3,-1.703953E-3,4.2532526E-2,3.978457E-3,-1.7030055E-3,3.4642112E-3,-1.7027619E-3],"categories":[],"categories_nodes":[],"categories_segments":[],"categories_sizes":[],"default_left":[0,0,0,0,0,0,0,0,0,0,0,0,0],"id":51,"left_children":[1,-1,3,5,7,9,-1,-1,11,-1,-1,-1,-1],"loss_changes":[5.1365215E-1,0E0,1.6850787E-1,1.57395E-1,1.5381639E-1,2.740575E-1,0E0,0E0,2.9389465E-1,0E0,0E0,0E0,0E0],"parents":[2147483647,0,0,2,2,3,3,4,4,5,5,8,8],"right_children":[2,-1,4,6,8,10,-1,-1,12,-1,-1,-1,-1],"split_conditions":[9.35E-2,1.3120252E-2,2.42E1,-8.382797E-1,1.65E-1,1.05882354E-1,-6.3456777E-3,-9.23175E-4,5.32E1,1.1921401E-2,-5.267247E-3,1.570132E-2,-1.8116077E-2],"split_indices":[3,0,0,6,3,7,0,0,4,0,0,0,0],"split_type":[0,0,0,0,0,0,0,0,0,0,0,0,0],"sum_hessian":[9E2,2.4E1,8.76E2,7.95E2,8.1E1,4E1,7.55E2,2.7E1,5.4E1,1.8E1,2.2E1,3.3E1,2.1E1],"tree_param":{"num_deleted":"0","num_feature":"8","num_nodes":"13","size_leaf_vector":"1"}},{"base_weights":[-1.2216039E-2,4.1445796E-3,-1.797653E-2,-2.3886293E-2,8.035837E-2,5.5390024E-3,-1.124961E-3,5.875614E-3,7.2828116E-4,5.875614E-3,-1.2944267E-2,-2.8548993E-2,2.9448704E-3,-1.7071083E-3,1.822012E-3],"categories":[],"categories_nodes":[],"categories_segments":[],"categories_sizes":[],"default_left":[0,0,0,0,0,0,0,0,0,0,0,0,0,0,0],"id":52,"left_children":[1,-1,3,5,7,9,-1,-1,-1,-1,11,13,-1,-1,-1],"loss_changes":[6.512569E-1,0E0,4.7173437E-1,2.0392114E-1,2.4830344E-1,5.5428725E-1,0E0,0E0,0E0,0E0,2.5049767E-1,2.4558696E-1,0E0,0E0,0E0],"parents":[2147483647,0,0,2,2,3,3,4,4,5,5,10,10,11,11],"right_children":[2,-1,4,6,8,10,-1,-1,-1,-1,12,14,-1,-1,-1],"split_conditions":[9.65E-2,1.0515812E-2,5.5488E1,4.06161E-1,9.34E1,3.7602365E0,-4.978224E-3,4.0428348E-2,2.0600692E-3,9.783287E-3,3.154585E-1,1.94E-1,8.0712594E-2,-6.61842E-3,1.97346E-2],"split_indices":[3,0,1,2,4,1,0,0,0,0,3,2,0,0,0],"split_type":[0,0,0,0,0,0,0,0,0,0,0,0,0,0,0],"sum_hessian":[8.47E2,3.5E1,8.12E2,7.66E2,4.6E1,1.8E2,5.86E2,1.8E1,2.8E1,1.8E1,1.62E2,1.4E2,2.2E1,1.11E2,2.9E1],"tree_param":{"num_deleted":"0","num_feature":"8","num_nodes":"15","size_leaf_vector":"1"}},{"base_weights":[-1.7959889E-2,-1.4934819E-3,1.31236445E-2,2.916538E-3,3.8282787E-3,9.625295E-2,-9.110065E-3,-7.653445E-5,6.8250224E-3,2.996846E-2,-2.7049866E-2,-9.292711E-4,7.4937925E-2,-1.7074147E-3,3.469174E-2,5.712351E-3,3.592093E-4,5.875614E-3,-8.722919E-4],"categories":[],"categories_nodes":[],"categories_segments":[],"categories_sizes":[],"default_left":[0,0,1,0,0,0,0,0,0,0,1,0,0,0,0,0,0,0,0],"id":53,"left_children":[1,-1,3,5,-1,7,9,-1,-1,11,13,-1,15,-1,17,-1,-1,-1,-1],"loss_changes":[6.99845E-1,0E0,3.995734E-1,4.0325502E-1,0E0,4.1872773E-1,2.2293967E-1,0E0,0E0,2.5726372E-1,3.086899E-1,0E0,3.3240274E-1,0E0,4.883842E-1,0E0,0E0,0E0,0E0],"parents":[2147483647,0,0,2,2,3,3,5,5,6,6,9,9,10,10,12,12,14,14],"right_children":[2,-1,4,6,-1,8,10,-1,-1,12,14,-1,16,-1,18,-1,-1,-1,-1],"split_conditions":[1.41E1,-8.466727E-3,9.593E0,1.611E1,2.1111524E-2,1.023E0,1.65E-1,1.0752431E-2,1.668421E-2,7E-2,8.58E-1,-2.1439265E-3,-6.551564E-1,-4.730095E-3,3.145E-1,2.6880663E-2,1.7360271E-3,1.1684206E-2,-4.959381E-3],"split_indices":[0,0,1,0,0,2,2,0,0,2,2,0,5,0,3,0,0,0,0],"split_type":[0,0,0,0,0,0,0,0,0,0,0,0,0,0,0,0,0,0,0],"sum_hessian":[8.74E2,4.78E2,3.96E2,3.59E2,3.7E1,4.1E1,3.18E2,2.1E1,2E1,1E2,2.18E2,4.4E1,5.6E1,1.59E2,5.9E1,2.3E1,3.3E1,1.8E1,4.1E1],"tree_param":{"num_deleted":"0","num_feature":"8","num_nodes":"19","size_leaf_vector":"1"}},{"base_weights":[-1.6078312E-2,-2.5605539E-2,4.3989275E-2,3.1568065E-2,-2.9676136E-2,1.1660374E-1,-1.1068817E-3,3.679276E-3,-5.658939E-4,-1.4578835E-3,-1.0562687E-2,8.045048E-3,5.2479107E-2,-3.8076136E-2,3.1052595E-2,-1.7018687E-3,4.7925934E-3,1.134227E-3,-1.7073409E-3,7.2739655E-3,-2.2169086E-4],"categories":[],"categories_nodes":[],"categories_segments":[],"categories_sizes":[],"default_left":[0,1,0,0,0,0,0,0,0,0,0,0,0,0,0,0,0,0,0,0,0],"id":54,"left_children":[1,3,5,7,9,11,-1,-1,-1,-1,13,-1,15,17,19,-1,-1,-1,-1,-1,-1],"loss_changes":[4.8925546E-1,1.7175806E-1,6.493138E-1,1.798634E-1,1.7102677E-1,4.5654726E-1,0E0,0E0,0E0,0E0,3.1948677E-1,0E0,3.5069937E-1,1.4257628E-1,7.5854623E-1,0E0,0E0,0E0,0E0,0E0,0E0],"parents":[2147483647,0,0,1,1,2,2,3,3,4,4,5,5,10,10,12,12,13,13,14,14],"right_children":[2,4,6,8,10,12,-1,-1,-1,-1,14,-1,16,18,20,-1,-1,-1,-1,-1,-1],"split_conditions":[2.28E1,6.0581584E-3,2.84535E-1,-2.5119007E-1,1.23E1,9.8E-2,-8.0488436E-4,2.6542821E-3,-7.570903E-3,-7.5728027E-3,8.69E-1,2.5876224E-2,1.78E-1,5.01E1,3.11E-1,-1.7760266E-2,1.9874617E-2,7.070333E-2,-4.239506E-3,2.9943299E-2,-1.6882156E-4],"split_indices":[0,7,3,6,0,2,0,0,0,0,2,0,2,4,3,0,0,0,0,0,0],"split_type":[0,0,0,0,0,0,0,0,0,0,0,0,0,0,0,0,0,0,0,0,0],"sum_hessian":[8.55E2,7.38E2,1.17E2,4.9E1,6.89E2,6E1,5.7E1,1.9E1,3E1,4.1E2,2.79E2,2.1E1,3.9E1,1.68E2,1.11E2,1.8E1,2.1E1,2.4E1,1.44E2,1.9E1,9.2E1],"tree_param":{"num_deleted":"0","num_feature":"8","num_nodes":"21","size_leaf_vector":"1"}},{"base_weights":[-2.4444712E-2,1.0375172E-1,-3.0531451E-2,1.5401383E-3,5.875614E-3,4.0835653E-2,-3.4571752E-2,4.4972026E-3,-1.7030055E-3,-1.295275E-3,1.3942099E-3],"categories":[],"categories_nodes":[],"categories_segments":[],"categories_sizes":[],"default_left":[0,0,0,0,0,0,0,0,0,0,0],"id":55,"left_children":[1,3,5,-1,-1,7,9,-1,-1,-1,-1],"loss_changes":[6.7164993E-1,1.5547156E-1,2.370131E-1,0E0,0E0,3.626787E-1,1.9608861E-1,0E0,0E0,0E0,0E0],"parents":[2147483647,0,0,1,1,2,2,5,5,6,6],"right_children":[2,4,6,-1,-1,8,10,-1,-1,-1,-1],"split_conditions":[1.055E-1,2.04E1,-8.382797E-1,6.755957E-4,1.957951E-2,-5.160624E-1,2.54E1,1.0182948E-2,-4.7946917E-3,-6.12548E-3,1.749995E-2],"split_indices":[3,0,6,0,0,5,0,0,0,0,0],"split_type":[0,0,0,0,0,0,0,0,0,0,0],"sum_hessian":[8.61E2,3.9E1,8.22E2,2.1E1,1.8E1,4.4E1,7.78E2,2.2E1,2.2E1,7.45E2,3.3E1],"tree_param":{"num_deleted":"0","num_feature":"8","num_nodes":"11","size_leaf_vector":"1"}},{"base_weights":[-1.892628E-2,3.9813207E-3,-2.3774615E-2,-9.4527025E-3,-1.3618952E-3,-2.9083125E-2,2.641319E-2,-1.199726E-3,2.0812994E-3,1.4726294E-2,3.978457E-3,-1.8210581E-4,3.3483736E-3],"categories":[],"categories_nodes":[],"categories_segments":[],"categories_sizes":[],"default_left":[0,0,0,1,0,0,0,0,0,0,0,0,0],"id":56,"left_children":[1,-1,3,5,-1,7,9,-1,-1,11,-1,-1,-1],"loss_changes":[5.705025E-1,0E0,1.9320077E-1,3.1262225E-1,0E0,1.5584277E-1,1.648261E-1,0E0,0E0,2.3248428E-1,0E0,0E0,0E0],"parents":[2147483647,0,0,2,2,3,3,5,5,6,6,9,9],"right_children":[2,-1,4,6,-1,8,10,-1,-1,12,-1,-1,-1],"split_conditions":[9.35E-2,9.8048225E-3,-4.132786E-1,3.567E0,-7.1289833E-3,-5.197438E-1,1.538E2,-5.2759373E-3,4.0351517E-2,1.015E1,2.6220689E-2,-2.8276356E-4,2.0168107E-2],"split_indices":[3,0,6,1,0,6,4,0,0,1,0,0,0],"split_type":[0,0,0,0,0,0,0,0,0,0,0,0,0],"sum_hessian":[8.69E2,3E1,8.39E2,4.44E2,3.95E2,2.87E2,1.57E2,2.69E2,1.8E1,1.39E2,1.8E1,1.12E2,2.7E1],"tree_param":{"num_deleted":"0","num_feature":"8","num_nodes":"13","size_leaf_vector":"1"}},{"base_weights":[-2.2847181E-2,9.990861E-2,-2.8669273E-2,5.875614E-3,1.3925382E-3,-3.260477E-2,1.7928149E-3,-1.369699E-3,-9.783892E-3,4.9945053E-2,-1.2157921E-3,-1.7036194E-3,4.1445796E-3],"categories":[],"categories_nodes":[],"categories_segments":[],"categories_sizes":[],"default_left":[0,0,0,0,0,0,0,0,0,0,0,0,0],"id":57,"left_children":[1,3,5,-1,-1,7,-1,-1,9,11,-1,-1,-1],"loss_changes":[6.316072E-1,1.6989037E-1,2.6949525E-1,0E0,0E0,1.3742954E-1,0E0,0E0,3.0669737E-1,4.2775282E-1,0E0,0E0,0E0],"parents":[2147483647,0,0,1,1,2,2,5,5,8,8,9,9],"right_children":[2,4,6,-1,-1,8,-1,-1,10,12,-1,-1,-1],"split_conditions":[9.65E-2,-6.016241E-1,1.699E0,7.0340633E-3,1.795976E-3,1.617E2,1.3230917E-3,-6.0218545E-3,-6.4534813E-1,8.17E-1,-5.62084E-3,-1.6146967E-3,1.2274159E-2],"split_indices":[3,5,2,0,0,4,0,0,6,2,0,0,0],"split_type":[0,0,0,0,0,0,0,0,0,0,0,0,0],"sum_hessian":[8.84E2,4E1,8.44E2,1.8E1,2.2E1,8.05E2,3.9E1,6.06E2,1.99E2,6E1,1.39E2,2.5E1,3.5E1],"tree_param":{"num_deleted":"0","num_feature":"8","num_nodes":"13","size_leaf_vector":"1"}},{"base_weights":[-1.6470468E-2,1.9312637E-1,-2.5841651E-2,3.679276E-3,9.669929E-3,-2.9768467E-2,1.9820181E-3,-1.4689662E-3,-1.4080015E-2,3.4100027E-3,-2.0751221E-2,-1.4092785E-3,2.0769132E-2,5.875614E-3,-2.6862728E-4],"categories":[],"categories_nodes":[],"categories_segments":[],"categories_sizes":[],"default_left":[0,0,1,0,0,0,0,0,1,0,0,0,0,0,0],"id":58,"left_children":[1,3,5,-1,-1,7,-1,-1,9,-1,11,-1,13,-1,-1],"loss_changes":[1.6985658E0,2.8294146E-1,2.725916E-1,0E0,0E0,1.6402012E-1,0E0,0E0,2.7484733E-1,0E0,2.9118648E-1,0E0,4.8979294E-1,0E0,0E0],"parents":[2147483647,0,0,1,1,2,2,5,5,8,8,10,10,12,12],"right_children":[2,4,6,-1,-1,8,-1,-1,10,-1,12,-1,14,-1,-1],"split_conditions":[9.65E-2,6E0,2.48E1,1.9870468E-3,1.2206669E-2,1.23E1,2.1023903E-2,-8.443428E-3,1.4599406E-2,1.8285606E-2,8.69E-1,-3.2582034E-3,3.11E-1,2.8890554E-2,-8.2393584E-4],"split_indices":[3,0,0,0,0,0,0,0,7,0,2,0,3,0,0],"split_type":[0,0,0,0,0,0,0,0,0,0,0,0,0,0,0],"sum_hessian":[8.65E2,3.7E1,8.28E2,1.9E1,1.8E1,7.91E2,3.7E1,4.29E2,3.62E2,2E1,3.42E2,2.29E2,1.13E2,1.8E1,9.5E1],"tree_param":{"num_deleted":"0","num_feature":"8","num_nodes":"15","size_leaf_vector":"1"}},{"base_weights":[-2.421177E-2,8.945162E-2,-2.9972741E-2,1.0205657E-3,5.875614E-3,-3.277594E-2,1.1357338E-3,-1.2554952E-3,1.8912515E-2,-7.5622747E-4,2.9448704E-3],"categories":[],"categories_nodes":[],"categories_segments":[],"categories_sizes":[],"default_left":[0,0,0,0,0,1,0,0,0,0,0],"id":59,"left_children":[1,3,5,-1,-1,7,-1,-1,9,-1,-1],"loss_changes":[5.8394104E-1,2.1085674E-1,1.5046072E-1,0E0,0E0,1.6709071E-1,0E0,0E0,1.6042624E-1,0E0,0E0],"parents":[2147483647,0,0,1,1,2,2,5,5,8,8],"right_children":[2,4,6,-1,-1,8,-1,-1,10,-1,-1],"split_conditions":[1.055E-1,2.29E1,2.834245E2,2.43985E-4,1.7802674E-2,2.42E1,1.0441757E-3,-3.911094E-3,3.2993015E-2,-2.0972577E-4,2.3543855E-2],"split_indices":[3,0,1,0,0,0,0,0,7,0,0],"split_type":[0,0,0,0,0,0,0,0,0,0,0],"sum_hessian":[8.92E2,4.3E1,8.49E2,2.5E1,1.8E1,8.13E2,3.6E1,7.55E2,5.8E1,3.6E1,2.2E1],"tree_param":{"num_deleted":"0","num_feature":"8","num_nodes":"11","size_leaf_vector":"1"}},{"base_weights":[-2.2847181E-2,-3.0194128E-2,5.5219278E-2,3.818805E-2,-1.2463204E-3,-6.372672E-4,1.09006345E-1,7.492758E-2,-1.702494E-3,7.197211E-3,-7.653445E-5,-4.3901333E-4,6.418821E-3],"categories":[],"categories_nodes":[],"categories_segments":[],"categories_sizes":[],"default_left":[0,1,1,0,0,0,0,0,0,0,0,0,0],"id":60,"left_children":[1,3,5,7,-1,-1,9,11,-1,-1,-1,-1,-1],"loss_changes":[5.0696075E-1,3.474403E-1,3.022891E-1,2.2003126E-1,0E0,0E0,4.983552E-1,4.7655877E-1,0E0,0E0,0E0,0E0,0E0],"parents":[2147483647,0,0,1,1,2,2,3,3,6,6,7,7],"right_children":[2,4,6,8,-1,-1,10,12,-1,-1,-1,-1,-1],"split_conditions":[2.43E1,2.6E-2,5.516E0,1.56E1,-5.435047E-3,1.6697849E-3,2.97E-1,3.6E0,-7.42867E-3,2.2316689E-2,9.8676365E-3,-1.8563273E-3,1.7815011E-3],"split_indices":[0,2,1,0,0,0,2,0,0,0,0,0,0],"split_type":[0,0,0,0,0,0,0,0,0,0,0,0,0],"sum_hessian":[8.84E2,8.08E2,7.6E1,6.8E1,7.4E2,3.2E1,4.4E1,4.8E1,2E1,2.3E1,2.1E1,2.7E1,2.1E1],"tree_param":{"num_deleted":"0","num_feature":"8","num_nodes":"13","size_leaf_vector":"1"}},{"base_weights":[-1.8465023E-2,3.5428004E-3,-2.2154192E-2,-1.5768046E-3,-1.1725433E-2,3.650768E-2,-2.1824772E-2,-1.704711E-3,7.6711416E-2,-2.6489055E-2,1.822012E-3,6.8262666E-3,1.3765169E-2,-1.1836125E-3,1.4895513E-2,-1.7034318E-3,2.7426295E-3,3.679276E-3,-5.283117E-4],"categories":[],"categories_nodes":[],"categories_segments":[],"categories_sizes":[],"default_left":[0,0,0,0,0,1,0,0,0,1,0,0,0,0,0,0,0,0,0],"id":61,"left_children":[1,-1,3,-1,5,7,9,-1,11,13,-1,-1,15,-1,17,-1,-1,-1,-1],"loss_changes":[4.000054E-1,0E0,2.1559495E-1,0E0,2.9272673E-1,3.6141858E-1,1.7416243E-1,0E0,5.4959357E-1,1.5805921E-1,0E0,0E0,1.9906765E-1,0E0,2.1725412E-1,0E0,0E0,0E0,0E0],"parents":[2147483647,0,0,2,2,4,4,5,5,6,6,8,8,9,9,12,12,14,14],"right_children":[2,-1,4,-1,6,8,10,-1,12,14,-1,-1,16,-1,18,-1,-1,-1,-1],"split_conditions":[6.956038E-3,1.4124944E-2,2.391649E0,-3.86022E-3,-6.680639E-1,4.0578097E-2,2.834245E2,-1.3429603E-2,3.315E-1,2.3E1,1.8145613E-3,2.7846385E-2,1.41E1,-5.7779476E-3,4.745E0,-3.168621E-3,1.1554776E-3,8.026522E-3,-3.837907E-3],"split_indices":[7,0,1,0,5,7,1,0,3,0,0,0,0,0,1,0,0,0,0],"split_type":[0,0,0,0,0,0,0,0,0,0,0,0,0,0,0,0,0,0,0],"sum_hessian":[8.88E2,2.6E1,8.62E2,2.61E2,6.01E2,1.04E2,4.97E2,3.3E1,7.1E1,4.68E2,2.9E1,2.4E1,4.7E1,3.91E2,7.7E1,2.4E1,2.3E1,1.9E1,5.8E1],"tree_param":{"num_deleted":"0","num_feature":"8","num_nodes":"19","size_leaf_vector":"1"}},{"base_weights":[-1.9033184E-2,5.760485E-3,-2.6186768E-2,-1.0116812E-3,2.267089E-2,-7.0024544E-4,3.166366E-3],"categories":[],"categories_nodes":[],"categories_segments":[],"categories_sizes":[],"default_left":[0,0,0,0,0,0,0],"id":62,"left_children":[1,-1,3,-1,5,-1,-1],"loss_changes":[1.1701915E0,0E0,1.4067471E-1,0E0,1.6648057E-1,0E0,0E0],"parents":[2147483647,0,0,2,2,4,4],"right_children":[2,-1,4,-1,6,-1,-1],"split_conditions":[9.35E-2,6.8170265E-3,2.5921828E-1,-3.4872582E-3,3.515E-1,-4.052474E-3,1.6471341E-2],"split_indices":[3,0,7,0,3,0,0],"split_type":[0,0,0,0,0,0,0],"sum_hessian":[8.72E2,3.2E1,8.4E2,7.85E2,5.5E1,3.4E1,2.1E1],"tree_param":{"num_deleted":"0","num_feature":"8","num_nodes":"7","size_leaf_vector":"1"}},{"base_weights":[-2.3221077E-2,-3.3931497E-2,4.8184957E-2,-3.6278203E-2,2.0812994E-3,6.001352E-3,-5.809768E-4,-1.7078298E-3,-2.1005552E-2,-1.704711E-3,1.1364871E-3,-1.5218526E-3,5.8821007E-3,2.6960736E-3,-1.151524E-2,2.9448704E-3,-1.0744843E-3],"categories":[],"categories_nodes":[],"categories_segments":[],"categories_sizes":[],"default_left":[0,0,0,0,0,0,0,0,0,0,0,0,0,0,1,0,0],"id":63,"left_children":[1,3,5,7,-1,-1,9,-1,11,-1,-1,-1,13,-1,15,-1,-1],"loss_changes":[6.569286E-1,1.6622525E-1,6.96861E-1,1.5246516E-1,0E0,0E0,1.35291E-1,0E0,2.1850102E-1,0E0,0E0,0E0,2.0478854E-1,0E0,2.5313655E-1,0E0,0E0],"parents":[2147483647,0,0,1,1,2,2,3,3,6,6,8,8,12,12,14,14],"right_children":[2,4,6,8,-1,-1,10,-1,12,-1,-1,-1,14,-1,16,-1,-1],"split_conditions":[2.32E1,4.105E-1,1E-1,4E0,4.1443028E-2,1.7339326E-2,2.1E1,-7.198755E-3,-7.206671E-1,-1.2312949E-3,8.954018E-3,-3.6236965E-3,-6.584016E-1,2.6487136E-2,2.8E-2,1.6102153E-3,-2.145039E-3],"split_indices":[0,3,2,0,0,0,4,0,6,0,0,0,6,0,2,0,0],"split_type":[0,0,0,0,0,0,0,0,0,0,0,0,0,0,0,0,0],"sum_hessian":[8.59E2,7.47E2,1.12E2,7.29E2,1.8E1,3.1E1,8.1E1,3.84E2,3.45E2,3.3E1,4.8E1,1.84E2,1.61E2,3.1E1,1.3E2,2.2E1,1.08E2],"tree_param":{"num_deleted":"0","num_feature":"8","num_nodes":"17","size_leaf_vector":"1"}},{"base_weights":[-3.1998698E-2,-3.6010273E-2,2.6960736E-3,-1.3316579E-3,2.3095025E-2,-1.702494E-3,3.166366E-3],"categories":[],"categories_nodes":[],"categories_segments":[],"categories_sizes":[],"default_left":[1,0,0,0,0,0,0],"id":64,"left_children":[1,3,-1,-1,5,-1,-1],"loss_changes":[3.9546293E-1,1.5066445E-1,0E0,0E0,2.0828097E-1,0E0,0E0],"parents":[2147483647,0,0,1,1,4,4],"right_children":[2,4,-1,-1,6,-1,-1],"split_conditions":[2.51E1,4.3035382E-3,1.428353E-2,-5.736418E-3,1.02E0,-7.5981496E-3,3.613985E-2],"split_indices":[0,6,0,0,2,0,0],"split_type":[0,0,0,0,0,0,0],"sum_hessian":[8.89E2,8.58E2,3.1E1,8.17E2,4.1E1,2E1,2.1E1],"tree_param":{"num_deleted":"0","num_feature":"8","num_nodes":"7","size_leaf_vector":"1"}},{"base_weights":[-2.3593953E-2,3.3121158E-3,-2.8282138E-2,-1.4869755E-2,-1.5330942E-3,-6.6362636E-4,2.2292228E-3],"categories":[],"categories_nodes":[],"categories_segments":[],"categories_sizes":[],"default_left":[0,0,0,1,0,0,0],"id":65,"left_children":[1,-1,3,5,-1,-1,-1],"loss_changes":[5.135354E-1,0E0,1.9457102E-1,1.765517E-1,0E0,0E0,0E0],"parents":[2147483647,0,0,2,2,3,3],"right_children":[2,-1,4,6,-1,-1,-1],"split_conditions":[9.35E-2,4.8646317E-3,9.1060466E-1,1.0532331E1,-6.728401E-3,-2.0401524E-3,1.53597025E-2],"split_indices":[3,0,5,1,0,0,0],"split_type":[0,0,0,0,0,0,0],"sum_hessian":[9.09E2,3.4E1,8.75E2,4.84E2,3.91E2,4.58E2,2.6E1],"tree_param":{"num_deleted":"0","num_feature":"8","num_nodes":"7","size_leaf_vector":"1"}},{"base_weights":[-2.1043343E-2,3.4082398E-2,-2.8504256E-2,6.14626E-3,5.875614E-3,-1.7078226E-3,-9.127408E-3,-1.0734837E-3,2.1928402E-3,-6.757069E-4,3.2315638E-2,8.718502E-2,-1.7048112E-3,-1.7027619E-3,6.258273E-3],"categories":[],"categories_nodes":[],"categories_segments":[],"categories_sizes":[],"default_left":[1,1,0,0,0,0,0,0,0,0,0,0,0,0,0],"id":66,"left_children":[1,3,5,7,-1,-1,9,-1,-1,-1,11,13,-1,-1,-1],"loss_changes":[3.6933053E-1,4.117268E-1,3.2915866E-1,1.9420004E-1,0E0,0E0,1.8361157E-1,0E0,0E0,0E0,3.8363272E-1,6.714871E-1,0E0,0E0,0E0],"parents":[2147483647,0,0,1,1,2,2,3,3,6,6,10,10,11,11],"right_children":[2,4,6,8,-1,-1,10,-1,-1,-1,12,14,-1,-1,-1],"split_conditions":[1.0622227E-2,2.3E1,1.2E1,1.392E0,1.7425448E-2,-6.4382926E-3,1.617E2,-3.8848263E-3,1.0419036E-2,-1.4794855E-3,2.083E2,2.91E-1,-1.5752736E-3,-2.4771586E-3,1.1260827E-2],"split_indices":[7,0,0,2,0,0,4,0,0,0,4,3,0,0,0],"split_type":[0,0,0,0,0,0,0,0,0,0,0,0,0,0,0],"sum_hessian":[8.98E2,1.07E2,7.91E2,8.9E1,1.8E1,3.75E2,4.16E2,5.4E1,3.5E1,3.31E2,8.5E1,5.1E1,3.4E1,2.1E1,3E1],"tree_param":{"num_deleted":"0","num_feature":"8","num_nodes":"15","size_leaf_vector":"1"}},{"base_weights":[-2.1906646E-2,-1.2726999E-3,-4.646859E-3,-1.2954957E-2,7.1866974E-2,2.1928402E-3,-7.118257E-4,-2.1836744E-4,5.875614E-3],"categories":[],"categories_nodes":[],"categories_segments":[],"categories_sizes":[],"default_left":[0,0,1,0,0,0,0,0,0],"id":67,"left_children":[1,-1,3,5,7,-1,-1,-1,-1],"loss_changes":[2.3563695E-1,0E0,2.6618993E-1,2.2971426E-1,3.2180864E-1,0E0,0E0,0E0,0E0],"parents":[2147483647,0,0,2,2,3,3,4,4],"right_children":[2,-1,4,6,8,-1,-1,-1,-1],"split_conditions":[1.23E1,-5.8353646E-3,1.023E0,1.4599406E-2,2.524E0,1.522677E-2,-1.2753893E-3,1.27005195E-2,1.750096E-3],"split_indices":[0,0,2,7,1,0,0,0,0],"split_type":[0,0,0,0,0,0,0,0,0],"sum_hessian":[8.9E2,4.71E2,4.19E2,3.78E2,4.1E1,3.5E1,3.43E2,2.3E1,1.8E1],"tree_param":{"num_deleted":"0","num_feature":"8","num_nodes":"9","size_leaf_vector":"1"}},{"base_weights":[-1.5827972E-2,-2.1045743E-2,2.472624E-3,4.516042E-2,-2.4583094E-2,-1.7027619E-3,4.7925934E-3,8.803904E-3,-3.264485E-2,-9.030436E-4,5.289238E-2,1.8819314E-3,-3.5360675E-2,1.116289E-2,5.4766205E-3,-1.306702E-3,1.8819314E-3,3.679276E-3,-1.7043698E-3],"categories":[],"categories_nodes":[],"categories_segments":[],"categories_sizes":[],"default_left":[0,0,0,0,0,0,0,0,1,0,0,0,0,0,0,0,0,0,0],"id":68,"left_children":[1,3,-1,5,7,-1,-1,9,11,-1,13,-1,15,17,-1,-1,-1,-1,-1],"loss_changes":[4.039548E-1,1.9409639E-1,0E0,3.7995514E-1,2.119013E-1,0E0,0E0,2.3779619E-1,1.5101856E-1,0E0,3.043276E-1,0E0,1.6066921E-1,2.8904927E-1,0E0,0E0,0E0,0E0,0E0],"parents":[2147483647,0,0,1,1,3,3,4,4,7,7,8,8,10,10,12,12,13,13],"right_children":[2,4,-1,6,8,-1,-1,10,12,-1,14,-1,16,18,-1,-1,-1,-1,-1],"split_conditions":[5.5488E1,1.055E-1,1.0101672E-2,9.593E0,-6.680639E-1,-1.10271145E-2,1.551017E-2,-7.638886E-1,5E-1,-7.1812765E-4,1.033E0,1.4305741E-2,3.872228E-2,1.12E-1,1.733602E-2,-5.447646E-3,2.9537575E-3,2.533968E-2,-2.245862E-3],"split_indices":[1,3,0,1,5,0,0,5,0,0,2,0,6,2,0,0,0,0,0],"split_type":[0,0,0,0,0,0,0,0,0,0,0,0,0,0,0,0,0,0,0],"sum_hessian":[8.78E2,8.29E2,4.9E1,4.2E1,7.87E2,2.1E1,2.1E1,1.53E2,6.34E2,8.5E1,6.8E1,1.9E1,6.15E2,4.9E1,1.9E1,5.96E2,1.9E1,1.9E1,3E1],"tree_param":{"num_deleted":"0","num_feature":"8","num_nodes":"19","size_leaf_vector":"1"}},{"base_weights":[-2.0417435E-2,-2.833996E-2,4.5709927E-2,-1.3944528E-3,-1.2742049E-2,6.418821E-3,1.6240143E-4,3.1052595E-2,-1.1335083E-3,4.3155462E-3,5.4766205E-3,-1.0734837E-3,1.8849274E-3],"categories":[],"categories_nodes":[],"categories_segments":[],"categories_sizes":[],"default_left":[0,0,0,0,0,0,0,0,0,0,0,0,0],"id":69,"left_children":[1,3,5,-1,7,-1,-1,9,-1,11,-1,-1,-1],"loss_changes":[4.604662E-1,1.5262961E-1,5.4684937E-1,0E0,3.1239966E-1,0E0,0E0,3.831513E-1,0E0,1.673194E-1,0E0,0E0,0E0],"parents":[2147483647,0,0,1,1,2,2,4,4,7,7,9,9],"right_children":[2,4,6,-1,8,-1,-1,10,-1,12,-1,-1,-1],"split_conditions":[2.42E1,1.07E1,1.3906856E-2,-5.0343364E-3,1.77E1,1.639405E-2,3.0259911E-3,1.69E1,-2.1123902E-3,1.023E0,2.3770502E-3,-1.3821844E-3,2.4662807E-3],"split_indices":[0,0,7,0,0,0,0,0,0,2,0,0,0],"split_type":[0,0,0,0,0,0,0,0,0,0,0,0,0],"sum_hessian":[8.79E2,7.85E2,9.4E1,4.36E2,3.49E2,2.1E1,7.3E1,1.11E2,2.38E2,9.2E1,1.9E1,5.4E1,3.8E1],"tree_param":{"num_deleted":"0","num_feature":"8","num_nodes":"13","size_leaf_vector":"1"}},{"base_weights":[-2.752458E-2,-1.1486512E-3,2.2884343E-2,-6.478502E-3,3.3483736E-3,1.3942099E-3,-1.7049953E-3],"categories":[],"categories_nodes":[],"categories_segments":[],"categories_sizes":[],"default_left":[1,0,0,0,0,0,0],"id":70,"left_children":[1,-1,3,5,-1,-1,-1],"loss_changes":[2.7364802E-1,0E0,2.1206519E-1,1.4176752E-1,0E0,0E0,0E0],"parents":[2147483647,0,0,2,2,3,3],"right_children":[2,-1,4,6,-1,-1,-1],"split_conditions":[2.32E1,-3.8596399E-3,-6.016241E-1,2.45E1,1.2941957E-2,6.1570834E-3,-3.6458978E-3],"split_indices":[0,0,5,0,0,0,0],"split_type":[0,0,0,0,0,0,0],"sum_hessian":[8.9E2,7.94E2,9.6E1,6.9E1,2.7E1,3.3E1,3.6E1],"tree_param":{"num_deleted":"0","num_feature":"8","num_nodes":"7","size_leaf_vector":"1"}},{"base_weights":[-1.8337272E-2,1.1122182E-2,-2.816138E-2,5.4766205E-3,-2.3668944E-3,-1.1133519E-3,2.267089E-2,-5.158045E-4,1.8849274E-3,-7.5622747E-4,3.679276E-3],"categories":[],"categories_nodes":[],"categories_segments":[],"categories_sizes":[],"default_left":[0,0,0,0,0,0,0,0,0,0,0],"id":71,"left_children":[1,3,5,-1,7,-1,9,-1,-1,-1,-1],"loss_changes":[2.6515657E-1,4.613256E-1,1.5468878E-1,0E0,1.5374175E-1,0E0,2.0983934E-1,0E0,0E0,0E0,0E0],"parents":[2147483647,0,0,1,1,2,2,4,4,6,6],"right_children":[2,4,6,-1,8,-1,10,-1,-1,-1,-1],"split_conditions":[-7.5549334E-1,1.3453857E-2,2.5921828E-1,1.5984124E-2,1.577E2,-3.457646E-3,3.515E-1,-1.8475414E-3,2.9633658E-3,-3.1218643E-3,1.6791381E-2],"split_indices":[6,7,7,0,4,0,3,0,0,0,0],"split_type":[0,0,0,0,0,0,0,0,0,0,0],"sum_hessian":[9.16E2,2.29E2,6.87E2,1.9E1,2.1E2,6.32E2,5.5E1,1.72E2,3.8E1,3.6E1,1.9E1],"tree_param":{"num_deleted":"0","num_feature":"8","num_nodes":"11","size_leaf_vector":"1"}},{"base_weights":[-1.5031427E-2,-4.4836972E-2,9.56806E-3,-1.7078117E-3,9.1564516E-4,8.035837E-2,1.8798203E-3,6.8262666E-3,-1.7030055E-3,-5.0334434E-4,4.8184957E-2,1.2300344E-1,-1.661573E-2,-2.1836744E-4,7.7106324E-3,-1.705308E-3,1.702493E-3],"categories":[],"categories_nodes":[],"categories_segments":[],"categories_sizes":[],"default_left":[1,0,1,0,0,0,0,0,0,0,0,0,0,0,0,0,0],"id":72,"left_children":[1,3,5,-1,-1,7,9,-1,-1,-1,11,13,15,-1,-1,-1,-1],"loss_changes":[6.291985E-1,1.4334011E-1,2.5556004E-1,0E0,0E0,7.161374E-1,3.262913E-1,0E0,0E0,0E0,5.433703E-1,6.917835E-1,1.3281047E-1,0E0,0E0,0E0,0E0],"parents":[2147483647,0,0,1,1,2,2,5,5,6,6,10,10,11,11,12,12],"right_children":[2,4,6,-1,-1,8,10,-1,-1,-1,12,14,16,-1,-1,-1,-1],"split_conditions":[4E0,3.872228E-2,1.0622227E-2,-5.7614488E-3,1.9431915E-3,2.31E1,1.55E2,1.5361586E-2,-6.406716E-4,-1.9343167E-3,1.2994035E-1,2.905E-1,1.73E1,1.6678596E-2,2.0177728E-2,-1.1644512E-3,8.176402E-3],"split_indices":[0,6,7,0,0,4,4,0,0,0,7,3,0,0,0,0,0],"split_type":[0,0,0,0,0,0,0,0,0,0,0,0,0,0,0,0,0],"sum_hessian":[8.58E2,3.88E2,4.7E2,3.62E2,2.6E1,4.6E1,4.24E2,2.4E1,2.2E1,3.12E2,1.12E2,5.2E1,6E1,2.3E1,2.9E1,4E1,2E1],"tree_param":{"num_deleted":"0","num_feature":"8","num_nodes":"17","size_leaf_vector":"1"}},{"base_weights":[-2.102772E-2,-5.600531E-3,-3.619956E-2,-2.2307632E-2,2.9114041E-2,1.8112086E-2,-1.4457238E-3,1.7526157E-2,-1.2309296E-3,8.248758E-2,-1.7061122E-3,2.7426295E-3,-1.7027619E-3,-1.2207082E-2,3.166366E-3,-3.9021487E-4,1.2537126E-1,-1.7048112E-3,1.8819314E-3,6.44288E-4,8.04693E-3],"categories":[],"categories_nodes":[],"categories_segments":[],"categories_sizes":[],"default_left":[0,0,1,0,0,1,0,0,0,0,0,0,0,0,0,0,0,0,0,0,0],"id":73,"left_children":[1,3,5,7,9,11,-1,13,-1,15,-1,-1,-1,17,-1,-1,19,-1,-1,-1,-1],"loss_changes":[2.018702E-1,2.4822024E-1,1.446563E-1,1.5805331E-1,5.866598E-1,1.8603818E-1,0E0,1.6563077E-1,0E0,3.3463174E-1,0E0,0E0,0E0,1.3447015E-1,0E0,0E0,6.6821235E-1,0E0,0E0,0E0,0E0],"parents":[2147483647,0,0,1,1,2,2,3,3,4,4,5,5,7,7,9,9,13,13,16,16],"right_children":[2,4,6,8,10,12,-1,14,-1,16,-1,-1,-1,18,-1,-1,20,-1,-1,-1,-1],"split_conditions":[-4.862727E-1,1.533E2,2.6E-2,1.07E-1,1.027E0,6.766E0,-5.303084E-3,8.5656E-2,-1.8579961E-3,2.277E0,-9.985098E-4,3.0106006E-3,-6.2865196E-3,6.114E0,2.2699459E-2,1.1688573E-3,8.88E-1,-4.0314425E-4,8.460467E-2,1.370024E-2,2.0192916E-2],"split_indices":[5,4,2,2,2,1,0,2,0,1,0,0,0,1,0,0,2,0,0,0,0],"split_type":[0,0,0,0,0,0,0,0,0,0,0,0,0,0,0,0,0,0,0,0,0],"sum_hessian":[8.63E2,4.28E2,4.35E2,2.89E2,1.39E2,4.4E1,3.91E2,7.4E1,2.15E2,8.3E1,5.6E1,2.3E1,2.1E1,5.3E1,2.1E1,2.6E1,5.7E1,3.4E1,1.9E1,2.9E1,2.8E1],"tree_param":{"num_deleted":"0","num_feature":"8","num_nodes":"21","size_leaf_vector":"1"}},{"base_weights":[-2.2999896E-2,2.6892962E-2,-1.0116812E-3,-4.2573837E-4,5.4032565E-3],"categories":[],"categories_nodes":[],"categories_segments":[],"categories_sizes":[],"default_left":[0,0,0,0,0],"id":74,"left_children":[1,3,-1,-1,-1],"loss_changes":[2.9337558E-1,5.377614E-1,0E0,0E0,0E0],"parents":[2147483647,0,0,1,1],"right_children":[2,4,-1,-1,-1],"split_conditions":[1.5620562E-2,2.39E1,-3.34367E-3,-3.1908816E-3,1.4474349E-2],"split_indices":[7,0,0,0,0],"split_type":[0,0,0,0,0],"sum_hessian":[8.89E2,1.04E2,7.85E2,8E1,2.4E1],"tree_param":{"num_deleted":"0","num_feature":"8","num_nodes":"5","size_leaf_vector":"1"}},{"base_weights":[-2.8138656E-2,-2.9929608E-2,2.0812994E-3,-1.35166235E-2,-1.3470582E-3,-2.2592135E-2,1.9820181E-3,-1.2241772E-3,1.2462148E-2,-6.0441974E-4,3.978457E-3],"categories":[],"categories_nodes":[],"categories_segments":[],"categories_sizes":[],"default_left":[0,1,0,0,0,0,0,0,0,0,0],"id":75,"left_children":[1,3,-1,5,-1,7,-1,-1,9,-1,-1],"loss_changes":[1.4587122E-1,1.3972485E-1,0E0,2.1349955E-1,0E0,1.3561691E-1,0E0,0E0,2.5120187E-1,0E0,0E0],"parents":[2147483647,0,0,1,1,3,3,5,5,8,8],"right_children":[2,4,-1,6,-1,8,-1,-1,10,-1,-1],"split_conditions":[3.872228E-2,6.13335E-1,3.5038206E-3,2.48E1,-4.6004746E-3,9.8594815E-1,8.574308E-3,-4.83671E-3,3.6E0,-3.9589196E-3,3.0846766E-3],"split_indices":[6,2,0,0,0,5,0,0,0,0,0],"split_type":[0,0,0,0,0,0,0,0,0,0,0],"sum_hessian":[9.15E2,8.97E2,1.8E1,3.29E2,5.68E2,2.92E2,3.7E1,2.12E2,8E1,6.2E1,1.8E1],"tree_param":{"num_deleted":"0","num_feature":"8","num_nodes":"11","size_leaf_vector":"1"}},{"base_weights":[-1.6777724E-2,3.4100027E-3,-1.9515747E-2,1.2472959E-2,-2.4354786E-2,3.978457E-3,-2.5331465E-4,-1.1232522E-2,-3.8691495E-2,-1.7070189E-3,2.6211934E-3,-1.500741E-3,1.134227E-3,2.7426295E-3,-1.4304357E-4],"categories":[],"categories_nodes":[],"categories_segments":[],"categories_sizes":[],"default_left":[0,0,0,1,0,0,0,0,0,0,0,0,0,0,0],"id":76,"left_children":[1,-1,3,5,7,-1,-1,9,11,-1,13,-1,-1,-1,-1],"loss_changes":[2.7847683E-1,0E0,1.3207796E-1,2.319608E-1,1.3925597E-1,0E0,0E0,2.0781817E-1,1.3335288E-1,0E0,1.509212E-1,0E0,0E0,0E0,0E0],"parents":[2147483647,0,0,2,2,3,3,4,4,7,7,8,8,10,10],"right_children":[2,-1,4,6,8,-1,-1,10,12,-1,14,-1,-1,-1,-1],"split_conditions":[7.387904E-3,1.3634973E-2,2.27E1,4.8E-2,-4.7495106E-1,2.9792972E-3,-1.3523861E-3,2.925E-1,3.872228E-2,-2.3814968E-3,3.015E-1,-4.7370163E-3,3.301112E-3,8.39201E-3,-7.133117E-5],"split_indices":[7,0,4,2,6,0,0,3,6,0,3,0,0,0,0],"split_type":[0,0,0,0,0,0,0,0,0,0,0,0,0,0,0],"sum_hessian":[8.73E2,2E1,8.53E2,1.12E2,7.41E2,1.8E1,9.4E1,3.87E2,3.54E2,1.02E2,2.85E2,3.3E2,2.4E1,2.3E1,2.62E2],"tree_param":{"num_deleted":"0","num_feature":"8","num_nodes":"15","size_leaf_vector":"1"}},{"base_weights":[-2.6659139E-2,4.2947754E-2,-1.0364928E-3,-1.702494E-3,4.22749E-3],"categories":[],"categories_nodes":[],"categories_segments":[],"categories_sizes":[],"default_left":[0,0,0,0,0],"id":77,"left_children":[1,3,-1,-1,-1],"loss_changes":[2.1955591E-1,3.2267615E-1,0E0,0E0,0E0],"parents":[2147483647,0,0,1,1],"right_children":[2,4,-1,-1,-1],"split_conditions":[1.055E-1,5.5E0,-3.6893873E-3,-7.999972E-3,1.3279633E-2],"split_indices":[3,0,0,0,0],"split_type":[0,0,0,0,0],"sum_hessian":[8.57E2,4.3E1,8.14E2,2E1,2.3E1],"tree_param":{"num_deleted":"0","num_feature":"8","num_nodes":"5","size_leaf_vector":"1"}},{"base_weights":[-1.9963214E-2,8.148623E-2,-2.4444712E-2,8.4586805E-5,5.4766205E-3,-2.9752845E-2,8.308344E-3,1.7744647E-2,-3.3866316E-2,3.5428004E-3,-6.1671727E-4,-8.722919E-4,3.978457E-3,-1.9763971E-3,-1.4012599E-3,3.978457E-3,-2.1933703E-2,-1.3230408E-3,2.0812994E-3],"categories":[],"categories_nodes":[],"categories_segments":[],"categories_sizes":[],"default_left":[0,0,1,0,0,0,0,1,0,0,0,0,0,0,0,0,1,0,0],"id":78,"left_children":[1,3,5,-1,-1,7,9,11,13,-1,-1,-1,-1,15,-1,-1,17,-1,-1],"loss_changes":[4.0857628E-1,2.3622656E-1,1.4975733E-1,0E0,0E0,1.4482933E-1,3.0204985E-1,2.5237313E-1,1.5540636E-1,0E0,0E0,0E0,0E0,2.9520905E-1,0E0,0E0,1.4885479E-1,0E0,0E0],"parents":[2147483647,0,0,1,1,2,2,5,5,6,6,7,7,8,8,13,13,16,16],"right_children":[2,4,6,-1,-1,8,10,12,14,-1,-1,-1,-1,16,-1,-1,18,-1,-1],"split_conditions":[9.65E-2,7.45E-2,9.348E0,1.8522232E-4,2.4238531E-3,-7.961829E-1,1.1402E1,2.789E0,-7.9877937E-1,9.304237E-3,-3.1665638E-3,-1.9253313E-3,1.2153366E-2,1.86E1,-4.478262E-3,1.545631E-3,2.32E1,-6.178826E-3,6.447514E-3],"split_indices":[3,3,1,0,0,5,1,1,6,0,0,0,0,0,0,0,0,0,0],"split_type":[0,0,0,0,0,0,0,0,0,0,0,0,0,0,0,0,0,0,0],"sum_hessian":[8.99E2,3.8E1,8.61E2,1.9E1,1.9E1,7.41E2,1.2E2,5.9E1,6.82E2,2.6E1,9.4E1,4.1E1,1.8E1,1.25E2,5.57E2,1.8E1,1.07E2,8.9E1,1.8E1],"tree_param":{"num_deleted":"0","num_feature":"8","num_nodes":"19","size_leaf_vector":"1"}},{"base_weights":[-2.3189867E-2,-1.5361725E-3,-4.341384E-3,3.3483736E-3,-1.073208E-2,4.7481E-2,-1.6828945E-2,-2.1836744E-4,3.978457E-3,2.083434E-3,-2.2594258E-2,2.0812994E-3,-9.202077E-4],"categories":[],"categories_nodes":[],"categories_segments":[],"categories_sizes":[],"default_left":[1,0,1,0,0,0,0,0,0,0,0,0,0],"id":79,"left_children":[1,-1,3,-1,5,7,9,-1,-1,-1,11,-1,-1],"loss_changes":[3.5203153E-1,0E0,3.0064985E-1,0E0,1.5359741E-1,1.5270916E-1,1.7576253E-1,0E0,0E0,0E0,1.3227539E-1,0E0,0E0],"parents":[2147483647,0,0,2,2,4,4,5,5,6,6,10,10],"right_children":[2,-1,4,-1,6,8,10,-1,-1,-1,12,-1,-1],"split_conditions":[4E0,-4.381611E-3,6.956038E-3,8.56365E-3,-8.382797E-1,2.332E0,1.599E0,2.1920414E-3,7.3653474E-3,1.1145109E-2,1.055E-1,1.2922228E-3,-2.520508E-3],"split_indices":[0,0,7,0,6,1,1,0,0,0,3,0,0],"split_type":[0,0,0,0,0,0,0,0,0,0,0,0,0],"sum_hessian":[8.58E2,3.98E2,4.6E2,2.7E1,4.33E2,4.1E1,3.92E2,2.3E1,1.8E1,2.7E1,3.65E2,1.8E1,3.47E2],"tree_param":{"num_deleted":"0","num_feature":"8","num_nodes":"13","size_leaf_vector":"1"}},{"base_weights":[-1.6005436E-2,1.6065834E-2,-2.663778E-2,-9.375622E-3,6.258273E-3,-1.3246645E-2,-1.4830048E-3,4.9945053E-2,-1.2086052E-3,-6.726074E-4,3.978457E-3,5.4766205E-3,-3.9207305E-5],"categories":[],"categories_nodes":[],"categories_segments":[],"categories_sizes":[],"default_left":[0,0,0,0,0,0,0,0,0,0,0,0,0],"id":80,"left_children":[1,3,5,7,-1,9,-1,11,-1,-1,-1,-1,-1],"loss_changes":[3.1102198E-1,9.657397E-1,1.5368488E-1,3.0385128E-1,0E0,3.1807587E-1,0E0,3.3884355E-1,0E0,0E0,0E0,0E0,0E0],"parents":[2147483647,0,0,1,1,2,2,3,3,5,5,7,7],"right_children":[2,4,6,8,-1,10,-1,12,-1,-1,-1,-1,-1],"split_conditions":[4.5086604E-2,5.15E1,2.831E0,2.05E1,1.6577533E-2,2.756E0,-4.4296435E-3,1.19475E1,-1.5019331E-3,-2.4555842E-3,1.1824283E-2,1.4931966E-3,1.1501001E-2],"split_indices":[7,4,1,4,0,1,0,1,0,0,0,0,0],"split_type":[0,0,0,0,0,0,0,0,0,0,0,0,0],"sum_hessian":[9.12E2,2.27E2,6.85E2,1.97E2,3E1,3.81E2,3.04E2,6E1,1.37E2,3.63E2,1.8E1,1.9E1,4.1E1],"tree_param":{"num_deleted":"0","num_feature":"8","num_nodes":"13","size_leaf_vector":"1"}},{"base_weights":[-1.904397E-2,-9.278507E-3,-1.5564682E-3,-1.7489376E-2,3.7876807E-2,-2.08698E-3,-1.5267803E-3,-2.4255936E-4,6.418821E-3,-1.3077088E-2,8.878957E-2,-9.38216E-4,2.8905973E-2,5.875614E-3,1.8414209E-4,-1.0361574E-3,5.118883E-3],"categories":[],"categories_nodes":[],"categories_segments":[],"categories_sizes":[],"default_left":[0,0,0,0,0,0,0,0,0,0,0,0,0,0,0,0,0],"id":81,"left_children":[1,3,-1,5,7,9,-1,-1,-1,11,13,-1,15,-1,-1,-1,-1],"loss_changes":[2.1735492E-1,2.3767987E-1,0E0,2.1899252E-1,6.1458343E-1,3.3337325E-1,0E0,0E0,0E0,1.7999189E-1,2.4932247E-1,0E0,5.448724E-1,0E0,0E0,0E0,0E0],"parents":[2147483647,0,0,1,1,3,3,4,4,5,5,9,9,10,10,12,12],"right_children":[2,4,-1,6,8,10,-1,-1,-1,12,14,-1,16,-1,-1,-1,-1],"split_conditions":[1.027E0,3.47E-1,-4.790117E-3,3.02E-1,1.596E2,8.69E-1,-4.6746098E-3,6.773409E-4,3.970681E-2,9.348E0,3.066E0,-2.826659E-3,1.2805202E-2,7.948313E-3,1.3925382E-3,-1.9794977E-3,9.512034E-3],"split_indices":[2,3,0,3,4,2,0,0,0,1,1,0,7,0,0,0,0],"split_type":[0,0,0,0,0,0,0,0,0,0,0,0,0,0,0,0,0],"sum_hessian":[8.4E2,6.14E2,2.26E2,5.23E2,9.1E1,3.34E2,1.89E2,7E1,2.1E1,2.98E2,3.6E1,2.22E2,7.6E1,1.8E1,1.8E1,5.1E1,2.5E1],"tree_param":{"num_deleted":"0","num_feature":"8","num_nodes":"17","size_leaf_vector":"1"}},{"base_weights":[-1.7438311E-2,-8.576571E-4,1.2129792E-2,7.897572E-2,-2.388602E-2,2.4110028E-4,5.878253E-3,-1.7066605E-3,9.860854E-4],"categories":[],"categories_nodes":[],"categories_segments":[],"categories_sizes":[],"default_left":[0,0,0,0,0,0,0,0,0],"id":82,"left_children":[1,-1,3,5,7,-1,-1,-1,-1],"loss_changes":[1.950014E-1,0E0,4.26322E-1,4.1460365E-1,1.5823835E-1,0E0,0E0,0E0,0E0],"parents":[2147483647,0,0,2,2,3,3,4,4],"right_children":[2,-1,4,6,8,-1,-1,-1,-1],"split_conditions":[8.701E0,-2.4292609E-3,1.35E1,7.6E0,1.392E0,7.306223E-4,1.3022639E-2,-4.6151173E-3,2.185875E-3],"split_indices":[1,0,1,0,2,0,0,0,0],"split_type":[0,0,0,0,0,0,0,0,0],"sum_hessian":[8.6E2,6.83E2,1.77E2,6.2E1,1.15E2,3.5E1,2.7E1,7.7E1,3.8E1],"tree_param":{"num_deleted":"0","num_feature":"8","num_nodes":"9","size_leaf_vector":"1"}},{"base_weights":[-1.7702613E-2,4.7925934E-3,-2.1490214E-2,-2.230001E-3,-1.1406495E-3,-7.673864E-4,3.5442792E-2,-1.546469E-2,8.553301E-2,2.0812994E-3,-1.705308E-3,-5.658939E-4,6.532908E-3],"categories":[],"categories_nodes":[],"categories_segments":[],"categories_sizes":[],"default_left":[0,0,0,0,0,0,0,0,0,0,0,0,0],"id":83,"left_children":[1,-1,3,5,-1,-1,7,9,11,-1,-1,-1,-1],"loss_changes":[5.370463E-1,0E0,2.0088106E-1,2.5531957E-1,0E0,0E0,2.9857978E-1,1.5265277E-1,6.3731176E-1,0E0,0E0,0E0,0E0],"parents":[2147483647,0,0,2,2,3,3,6,6,7,7,8,8],"right_children":[2,-1,4,6,-1,-1,8,10,12,-1,-1,-1,-1],"split_conditions":[6.956038E-3,1.2608966E-2,2.96915E-1,8.165548E-2,-3.1015044E-3,-2.967353E-3,2.84E-1,1.02E2,1.204E2,3.263369E-3,-1.7515122E-3,-1.4918967E-3,1.1111757E-2],"split_indices":[7,0,3,7,0,0,3,4,4,0,0,0,0],"split_type":[0,0,0,0,0,0,0,0,0,0,0,0,0],"sum_hessian":[8.98E2,2.1E1,8.77E2,3.35E2,5.42E2,2.18E2,1.17E2,5.8E1,5.9E1,1.8E1,4E1,3E1,2.9E1],"tree_param":{"num_deleted":"0","num_feature":"8","num_nodes":"13","size_leaf_vector":"1"}},{"base_weights":[-2.1860393E-2,-1.5236587E-3,-4.350699E-3,2.4451513E-2,-2.277858E-2,5.875614E-3,8.805865E-3,-1.2876437E-3,4.9934067E-2,-5.8718544E-4,7.492758E-2,3.7527771E-3,-3.375137E-4,5.875614E-3,5.658931E-4],"categories":[],"categories_nodes":[],"categories_segments":[],"categories_sizes":[],"default_left":[1,0,0,1,0,0,0,0,0,0,0,0,0,0,0],"id":84,"left_children":[1,-1,3,5,7,-1,9,-1,11,-1,13,-1,-1,-1,-1],"loss_changes":[3.3949712E-1,0E0,2.55831E-1,4.3344286E-1,3.1879258E-1,0E0,2.9238063E-1,0E0,1.795198E-1,0E0,2.7137962E-1,0E0,0E0,0E0,0E0],"parents":[2147483647,0,0,2,2,3,3,4,4,6,6,8,8,10,10],"right_children":[2,-1,4,6,8,-1,10,-1,12,-1,14,-1,-1,-1,-1],"split_conditions":[4E0,-3.8291942E-3,1.76E1,5E-2,2.44E1,2.6291371E-3,1.52E1,-3.672938E-3,-6.2876284E-1,-2.2140285E-3,9.64E-1,1.7374506E-2,4.4604284E-3,1.0252798E-2,1.2318299E-2],"split_indices":[0,0,0,2,0,0,0,0,5,0,2,0,0,0,0],"split_type":[0,0,0,0,0,0,0,0,0,0,0,0,0,0,0],"sum_hessian":[8.53E2,3.71E2,4.82E2,1.88E2,2.94E2,1.8E1,1.7E2,2.44E2,5E1,1.22E2,4.8E1,2.5E1,2.5E1,1.8E1,3E1],"tree_param":{"num_deleted":"0","num_feature":"8","num_nodes":"15","size_leaf_vector":"1"}},{"base_weights":[-2.0111412E-2,-8.7475555E-4,2.6888661E-2,-3.0787655E-3,3.3483736E-3,-1.7049953E-3,1.9480559E-3],"categories":[],"categories_nodes":[],"categories_segments":[],"categories_sizes":[],"default_left":[0,0,0,1,0,0,0],"id":85,"left_children":[1,-1,3,5,-1,-1,-1],"loss_changes":[2.2466734E-1,0E0,1.9425571E-1,1.8015167E-1,0E0,0E0,0E0],"parents":[2147483647,0,0,2,2,3,3],"right_children":[2,-1,4,6,-1,-1,-1],"split_conditions":[2.42E1,-2.812773E-3,4.6E1,2.54E1,1.0901467E-2,-6.5630754E-3,1.1507849E-2],"split_indices":[0,0,4,0,0,0,0],"split_type":[0,0,0,0,0,0,0],"sum_hessian":[8.7E2,7.79E2,9.1E1,6.4E1,2.7E1,3.6E1,2.8E1],"tree_param":{"num_deleted":"0","num_feature":"8","num_nodes":"7","size_leaf_vector":"1"}},{"base_weights":[-2.1683939E-2,2.2699073E-2,-2.8003713E-2,8.035837E-2,-6.389066E-4,-1.5594484E-2,-1.4278006E-3,4.8563783E-3,-0E0,-1.0532564E-3,1.1623131E-2,-2.0843824E-2,8.945162E-2,1.8819314E-3,-1.3001213E-3,-1.702494E-3,7.197211E-3],"categories":[],"categories_nodes":[],"categories_segments":[],"categories_sizes":[],"default_left":[0,1,0,0,0,1,0,0,0,0,0,0,0,0,0,0,0],"id":86,"left_children":[1,3,5,7,-1,9,-1,-1,-1,-1,11,13,15,-1,-1,-1,-1],"loss_changes":[2.4769542E-1,2.6279634E-1,1.3211328E-1,2.2846761E-1,0E0,1.6884355E-1,0E0,0E0,0E0,0E0,3.691538E-1,1.3459796E-1,7.267229E-1,0E0,0E0,0E0,0E0],"parents":[2147483647,0,0,1,1,2,2,3,3,5,5,10,10,11,11,12,12],"right_children":[2,4,6,8,-1,10,-1,-1,-1,-1,12,14,16,-1,-1,-1,-1],"split_conditions":[2.19E1,1.4599406E-2,3.11E-1,9.911141E-1,-2.109198E-3,9.504357E-2,-3.6696377E-3,9.590995E-3,3.7518643E-2,-2.974319E-3,1.33E2,1.0455069E-1,2.865E-1,7.0257667E-3,-4.1001136E-3,-2.2410841E-3,2.2792665E-2],"split_indices":[4,7,3,5,0,7,0,0,0,0,4,7,3,0,0,0,0],"split_type":[0,0,0,0,0,0,0,0,0,0,0,0,0,0,0,0,0],"sum_hessian":[8.83E2,1.1E2,7.73E2,4.6E1,6.4E1,4.07E2,3.66E2,2.6E1,2E1,2.61E2,1.46E2,1.03E2,4.3E1,1.9E1,8.4E1,2E1,2.3E1],"tree_param":{"num_deleted":"0","num_feature":"8","num_nodes":"17","size_leaf_vector":"1"}},{"base_weights":[-1.9587055E-2,-1.5861507E-3,-6.4408067E-3,-1.6913347E-2,1.6281454E-2,3.1257847E-3,-1.3401934E-3,4.7925934E-3,-0E0,-6.3131435E-4,3.7459906E-2,2.9448704E-3,-4.6960133E-4,-1.2906858E-2,4.8563783E-3,-1.7049953E-3,2.0812994E-3],"categories":[],"categories_nodes":[],"categories_segments":[],"categories_sizes":[],"default_left":[0,0,1,0,0,0,0,0,0,0,0,0,0,0,0,0,0],"id":87,"left_children":[1,-1,3,5,7,9,-1,-1,11,-1,13,-1,-1,15,-1,-1,-1],"loss_changes":[3.0155706E-1,0E0,1.3659447E-1,1.7586239E-1,3.6545599E-1,1.5362027E-1,0E0,0E0,1.8960777E-1,0E0,4.2228472E-1,0E0,0E0,1.4752871E-1,0E0,0E0,0E0],"parents":[2147483647,0,0,2,2,3,3,4,4,5,5,8,8,10,10,13,13],"right_children":[2,-1,4,6,8,10,-1,-1,12,-1,14,-1,-1,16,-1,-1,-1],"split_conditions":[2.8E0,-3.4739224E-3,8.69E-1,5.98E-1,-7.8830504E-1,-5.5958927E-1,-3.2811917E-3,6.433364E-3,-8.263542E-1,-5.865802E-4,5.5E0,2.0866853E-3,-1.5329308E-3,3E-1,8.655538E-3,-5.083685E-3,4.2034492E-2],"split_indices":[0,0,2,2,6,5,0,0,5,0,0,0,0,3,0,0,0],"split_type":[0,0,0,0,0,0,0,0,0,0,0,0,0,0,0,0,0],"sum_hessian":[8.55E2,2.81E2,5.74E2,3.93E2,1.81E2,2.07E2,1.86E2,2.1E1,1.6E2,1.27E2,8E1,2.2E1,1.38E2,5.4E1,2.6E1,3.6E1,1.8E1],"tree_param":{"num_deleted":"0","num_feature":"8","num_nodes":"17","size_leaf_vector":"1"}},{"base_weights":[-1.7959889E-2,5.197324E-2,-2.2117471E-2,-6.027315E-4,5.875614E-3,-2.4996115E-2,2.3866715E-3,-1.1460619E-3,2.0679438E-3,4.9958784E-2,-3.211458E-2,6.258273E-3,-1.0227199E-3,2.0812994E-3,-1.706925E-3],"categories":[],"categories_nodes":[],"categories_segments":[],"categories_sizes":[],"default_left":[0,0,0,0,0,0,0,0,0,1,1,0,0,0,0],"id":88,"left_children":[1,3,5,-1,-1,7,-1,-1,9,11,13,-1,-1,-1,-1],"loss_changes":[2.5404042E-1,4.0993786E-1,2.18324E-1,0E0,0E0,1.8524098E-1,0E0,0E0,3.1438544E-1,8.521446E-1,1.8600729E-1,0E0,0E0,0E0,0E0],"parents":[2147483647,0,0,1,1,2,2,5,5,8,8,9,9,10,10],"right_children":[2,4,6,-1,-1,8,-1,-1,10,12,14,-1,-1,-1,-1],"split_conditions":[-8.382797E-1,2.707775E0,3.872228E-2,4.8953725E-4,6.9346274E-3,3.53E-1,3.262106E-3,-3.2433947E-3,3.625E-1,1.067E0,9.631908E-3,5.493133E-3,-1.1130256E-3,1.2359151E-2,-4.467696E-3],"split_indices":[6,1,6,0,0,3,0,0,3,2,7,0,0,0,0],"split_type":[0,0,0,0,0,0,0,0,0,0,0,0,0,0,0],"sum_hessian":[8.74E2,4.9E1,8.25E2,3.1E1,1.8E1,8E2,2.5E1,6.08E2,1.92E2,8E1,1.12E2,3E1,5E1,1.8E1,9.4E1],"tree_param":{"num_deleted":"0","num_feature":"8","num_nodes":"15","size_leaf_vector":"1"}},{"base_weights":[-2.7774304E-2,2.3866715E-3,-1.0442721E-3],"categories":[],"categories_nodes":[],"categories_segments":[],"categories_sizes":[],"default_left":[0,0,0],"id":89,"left_children":[1,-1,-1],"loss_changes":[2.4537772E-1,0E0,0E0],"parents":[2147483647,0,0],"right_children":[2,-1,-1],"split_conditions":[-8.543222E-1,1.6675708E-3,-2.3098425E-3],"split_indices":[5,0,0],"split_type":[0,0,0],"sum_hessian":[9E2,2.5E1,8.75E2],"tree_param":{"num_deleted":"0","num_feature":"8","num_nodes":"3","size_leaf_vector":"1"}},{"base_weights":[-1.8358126E-2,-1.1966925E-3,-4.5393296E-3,4.4972026E-3,-1.1032443E-2,1.4154858E-2,-2.8170412E-2,-1.9356374E-2,5.1086456E-2,2.0812994E-3,-1.1759883E-3,-1.7064423E-3,1.5943141E-3,-8.294367E-4,1.0992545E-1,8.184944E-4,7.197211E-3],"categories":[],"categories_nodes":[],"categories_segments":[],"categories_sizes":[],"default_left":[0,0,0,0,1,0,0,0,0,0,0,0,0,0,0,0,0],"id":90,"left_children":[1,-1,3,-1,5,7,9,11,13,-1,-1,-1,-1,-1,15,-1,-1],"loss_changes":[2.037687E-1,0E0,4.2763397E-1,0E0,1.9947368E-1,2.3154473E-1,1.5314515E-1,1.9800064E-1,3.9496768E-1,0E0,0E0,0E0,0E0,0E0,4.3239594E-1,0E0,0E0],"parents":[2147483647,0,0,2,2,4,4,5,5,6,6,7,7,8,8,14,14],"right_children":[2,-1,4,-1,6,8,10,12,14,-1,-1,-1,-1,-1,16,-1,-1],"split_conditions":[4E0,-2.9957173E-3,4.2E-2,7.129999E-2,1.77E1,1.43E1,1.2805202E-2,1.655E2,-7.5266683E-1,1.4789884E-2,-1.7514711E-3,-4.7545205E-3,6.4243295E-4,-3.5680924E-3,1.2674294E-1,7.4393726E-3,2.115344E-2],"split_indices":[0,0,2,0,0,0,7,4,5,0,0,0,0,0,7,0,0],"split_type":[0,0,0,0,0,0,0,0,0,0,0,0,0,0,0,0,0],"sum_hessian":[8.85E2,4.01E2,4.84E2,2.2E1,4.62E2,1.87E2,2.75E2,9.8E1,8.9E1,1.8E1,2.57E2,6.7E1,3.1E1,3.9E1,5E1,2.7E1,2.3E1],"tree_param":{"num_deleted":"0","num_feature":"8","num_nodes":"17","size_leaf_vector":"1"}},{"base_weights":[-1.619692E-2,-2.0403113E-2,5.631186E-2,3.9228216E-2,-2.4830323E-2,3.980247E-3,-2.1836744E-4,5.875614E-3,-8.063177E-4,6.103608E-2,-3.0277258E-2,3.980247E-3,-7.653445E-5,-1.1855948E-3,2.1373361E-2,-1.7041019E-3,3.1678309E-3],"categories":[],"categories_nodes":[],"categories_segments":[],"categories_sizes":[],"default_left":[0,1,0,0,0,0,0,0,0,0,0,0,0,0,0,0,0],"id":91,"left_children":[1,3,5,7,9,-1,-1,-1,-1,11,13,-1,-1,-1,15,-1,-1],"loss_changes":[2.61583E-1,2.1407086E-1,1.7776306E-1,4.676511E-1,3.5304642E-1,0E0,0E0,0E0,0E0,1.5831956E-1,1.6240603E-1,0E0,0E0,0E0,2.8492498E-1,0E0,0E0],"parents":[2147483647,0,0,1,1,2,2,3,3,4,4,9,9,10,10,14,14],"right_children":[2,4,6,8,10,-1,-1,-1,-1,12,14,-1,-1,-1,16,-1,-1],"split_conditions":[4.3035382E-3,6.956038E-3,1.0455069E-1,2.35E1,-7.961829E-1,2.9997502E-2,3.9080298E-4,1.1510584E-2,-1.6611358E-3,1.987E2,2.48E1,9.624991E-3,-1.3481606E-4,-3.1533323E-3,3.2102175E-2,-4.5502107E-3,1.5151887E-2],"split_indices":[6,7,7,4,5,0,0,0,0,4,0,0,0,0,7,0,0],"split_type":[0,0,0,0,0,0,0,0,0,0,0,0,0,0,0,0,0],"sum_hessian":[8.58E2,8.11E2,4.7E1,5.6E1,7.55E2,2.4E1,2.3E1,1.8E1,3.8E1,4.5E1,7.1E2,2.4E1,2.1E1,6.54E2,5.6E1,2.8E1,2.8E1],"tree_param":{"num_deleted":"0","num_feature":"8","num_nodes":"17","size_leaf_vector":"1"}},{"base_weights":[-2.0007992E-2,1.9820181E-3,-2.3490245E-2,-0E0,-3.4204952E-2,-8.493793E-3,3.679276E-3,2.083434E-3,-1.3304349E-3,-1.7066412E-3,1.05877835E-2,-2.3275077E-4,3.5428004E-3],"categories":[],"categories_nodes":[],"categories_segments":[],"categories_sizes":[],"default_left":[0,0,1,1,0,0,0,0,0,0,0,0,0],"id":92,"left_children":[1,-1,3,5,7,9,-1,-1,-1,-1,11,-1,-1],"loss_changes":[2.3547795E-1,0E0,2.0890534E-1,2.3785473E-1,2.571106E-1,1.9079867E-1,0E0,0E0,0E0,0E0,2.6765245E-1,0E0,0E0],"parents":[2147483647,0,0,2,2,3,3,4,4,5,5,10,10],"right_children":[2,-1,4,6,8,10,-1,-1,-1,-1,12,-1,-1],"split_conditions":[-8.263542E-1,4.9424055E-4,4.06161E-1,3.56969E-1,-8.382797E-1,2.32E1,4.104009E-2,6.8116593E-3,-3.0220351E-3,-1.2803691E-3,2.41E1,-1.2171863E-4,1.7206613E-2],"split_indices":[5,0,2,2,6,4,0,0,0,0,0,0,0],"split_type":[0,0,0,0,0,0,0,0,0,0,0,0,0],"sum_hessian":[8.67E2,3.7E1,8.3E2,2.6E2,5.7E2,2.41E2,1.9E1,2.7E1,5.43E2,7.6E1,1.65E2,1.39E2,2.6E1],"tree_param":{"num_deleted":"0","num_feature":"8","num_nodes":"13","size_leaf_vector":"1"}},{"base_weights":[-1.5072135E-2,-1.1039678E-3,-3.176362E-4,6.782738E-3,-1.7061816E-3,-3.8397947E-4,4.4972026E-3,2.9974766E-2,-1.5104485E-2,6.5892585E-2,-1.4231443E-2,-2.6175605E-2,3.3267144E-2,7.772771E-3,2.9942303E-4,-1.7051598E-3,2.0812994E-3,-1.1737681E-3,2.0812994E-3,5.875614E-3,-1.7043698E-3],"categories":[],"categories_nodes":[],"categories_segments":[],"categories_sizes":[],"default_left":[0,0,0,0,0,0,0,0,0,0,0,0,0,0,0,0,0,0,0,0,0],"id":93,"left_children":[1,-1,3,5,-1,7,-1,9,11,13,15,17,19,-1,-1,-1,-1,-1,-1,-1,-1],"loss_changes":[2.1844697E-1,0E0,1.6327439E-1,3.62798E-1,0E0,1.7112395E-1,0E0,1.9864374E-1,1.3815552E-1,6.3647985E-1,1.5018222E-1,1.4961274E-1,5.54224E-1,0E0,0E0,0E0,0E0,0E0,0E0,0E0,0E0],"parents":[2147483647,0,0,2,2,3,3,5,5,7,7,8,8,9,9,10,10,11,11,12,12],"right_children":[2,-1,4,6,-1,8,-1,10,12,14,16,18,20,-1,-1,-1,-1,-1,-1,-1,-1],"split_conditions":[5.5E0,-2.8712172E-3,1.0655E1,8.701E0,-7.5668185E-3,1.76E1,1.075011E-2,1.4197531E-1,5.474E0,2.73E0,1.579E1,8.91081E-1,6.539E0,2.5542144E-2,3.2775698E-4,-3.7459356E-3,1.7331462E-2,-1.8262658E-3,6.380157E-3,8.1094176E-2,-1.0228764E-3],"split_indices":[0,0,1,1,0,0,0,7,1,1,0,2,1,0,0,0,0,0,0,0,0],"split_type":[0,0,0,0,0,0,0,0,0,0,0,0,0,0,0,0,0,0,0,0,0],"sum_hessian":[8.59E2,3.96E2,4.63E2,4.05E2,5.8E1,3.83E2,2.2E1,1.25E2,2.58E2,6.9E1,5.6E1,2.1E2,4.8E1,1.8E1,5.1E1,3.8E1,1.8E1,1.92E2,1.8E1,1.8E1,3E1],"tree_param":{"num_deleted":"0","num_feature":"8","num_nodes":"21","size_leaf_vector":"1"}},{"base_weights":[-2.6355654E-2,-4.482363E-2,-1.0777757E-2,-1.7078117E-3,1.0205657E-3,3.4642112E-3,-1.9476356E-2,2.6874902E-2,-9.507634E-4,-8.722919E-4,3.980247E-3],"categories":[],"categories_nodes":[],"categories_segments":[],"categories_sizes":[],"default_left":[0,0,0,0,0,0,0,0,0,0,0],"id":94,"left_children":[1,3,5,-1,-1,-1,7,9,-1,-1,-1],"loss_changes":[2.4322301E-1,1.4944786E-1,4.4768402E-1,0E0,0E0,0E0,1.6497195E-1,3.0566725E-1,0E0,0E0,0E0],"parents":[2147483647,0,0,1,1,2,2,6,6,7,7],"right_children":[2,4,6,-1,-1,-1,8,10,-1,-1,-1],"split_conditions":[5.5E0,3.872228E-2,1.3906856E-2,-3.4615311E-3,1.7771332E-3,1.2010014E-2,1.07E-1,-7.3249406E-1,-2.044708E-3,-3.6790178E-4,2.3500552E-2],"split_indices":[0,6,7,0,0,0,2,6,0,0,0],"split_type":[0,0,0,0,0,0,0,0,0,0,0],"sum_hessian":[8.46E2,3.87E2,4.59E2,3.62E2,2.5E1,3.3E1,4.26E2,6.5E1,3.61E2,4.1E1,2.4E1],"tree_param":{"num_deleted":"0","num_feature":"8","num_nodes":"11",