{"learner":{"attributes":{},"feature_names":["TEMP","TP","SI","NO23","STN_DEPTH_M","DOY_sin","DOY_cos","NP_ratio"],"feature_types":["float","float","float","float","float","float","float","float"],"gradient_booster":{"model":{"gbtree_model_param":{"num_parallel_tree":"1","num_trees":"205"},"iteration_indptr":[0,1,2,3,4,5,6,7,8,9,10,11,12,13,14,15,16,17,18,19,20,21,22,23,24,25,26,27,28,29,30,31,32,33,34,35,36,37,38,39,40,41,42,43,44,45,46,47,48,49,50,51,52,53,54,55,56,57,58,59,60,61,62,63,64,65,66,67,68,69,70,71,72,73,74,75,76,77,78,79,80,81,82,83,84,85,86,87,88,89,90,91,92,93,94,95,96,97,98,99,100,101,102,103,104,105,106,107,108,109,110,111,112,113,114,115,116,117,118,119,120,121,122,123,124,125,126,127,128,129,130,131,132,133,134,135,136,137,138,139,140,141,142,143,144,145,146,147,148,149,150,151,152,153,154,155,156,157,158,159,160,161,162,163,164,165,166,167,168,169,170,171,172,173,174,175,176,177,178,179,180,181,182,183,184,185,186,187,188,189,190,191,192,193,194,195,196,197,198,199,200,201,202,203,204,205],"tree_info":[0,0,0,0,0,0,0,0,0,0,0,0,0,0,0,0,0,0,0,0,0,0,0,0,0,0,0,0,0,0,0,0,0,0,0,0,0,0,0,0,0,0,0,0,0,0,0,0,0,0,0,0,0,0,0,0,0,0,0,0,0,0,0,0,0,0,0,0,0,0,0,0,0,0,0,0,0,0,0,0,0,0,0,0,0,0,0,0,0,0,0,0,0,0,0,0,0,0,0,0,0,0,0,0,0,0,0,0,0,0,0,0,0,0,0,0,0,0,0,0,0,0,0,0,0,0,0,0,0,0,0,0,0,0,0,0,0,0,0,0,0,0,0,0,0,0,0,0,0,0,0,0,0,0,0,0,0,0,0,0,0,0,0,0,0,0,0,0,0,0,0,0,0,0,0,0,0,0,0,0,0,0,0,0,0,0,0,0,0,0,0,0,0,0,0,0,0,0,0,0,0,0,0,0,0],"trees":[{"base_weights":[2.8500175E-3,2.609416E-1,-1.4099129E-1,7.446708E-2,7.596657E-1,-4.3166574E-2,-1.6300409E-1,3.471025E-1,-4.803287E-2,4.3169633E-2,6.2446135E-1,3.8961158E-3,-6.7568496E-2,-5.9011225E-3,-4.412937E-3,2.8016856E-1,1.6853465E-2,-1.0597656E-1,-2.4762057E-2,5.498523E-1,3.1130843E-2,-7.711237E-3,-4.084787E-3,2.6933313E-3,3.497826E-1,-4.81903E-3,-9.1776764E-4,2.620366E-2,-1.792061E-3,1.21007385E-2,6.0943913E-1,2.4469115E-3,-2.2023679E-3,7.049439E-3,1.5536867E-2,4.205925E-3,-2.298189E-3,2.3398167E-2,1.5380008E-2],"categories":[],"categories_nodes":[],"categories_segments":[],"categories_sizes":[],"default_left":[0,1,0,0,0,0,0,0,0,0,0,0,0,0,0,0,0,0,0,0,0,0,0,0,0,0,0,0,0,0,0,0,0,0,0,0,0,0,0],"id":0,"left_children":[1,3,5,7,9,11,13,15,17,-1,19,-1,21,-1,-1,23,-1,25,27,29,-1,31,-1,-1,33,-1,-1,35,-1,-1,37,-1,-1,-1,-1,-1,-1,-1,-1],"loss_changes":[4.688879E1,4.203351E1,1.7457619E0,1.0989122E1,8.37072E0,5.71556E-1,2.1692467E-1,9.951601E-1,3.056928E-1,0E0,2.0678444E0,0E0,4.0117192E-1,0E0,0E0,9.7971916E-1,0E0,1.7991889E-1,2.2875923E-1,8.9333725E-1,0E0,2.7021673E-1,0E0,0E0,7.807145E-1,0E0,0E0,5.166474E-1,0E0,0E0,7.0357513E-1,0E0,0E0,0E0,0E0,0E0,0E0,0E0,0E0],"parents":[2147483647,0,0,1,1,2,2,3,3,4,4,5,5,6,6,7,7,8,8,10,10,12,12,15,15,17,17,18,18,19,19,21,21,24,24,27,27,30,30],"right_children":[2,4,6,8,10,12,14,16,18,-1,20,-1,22,-1,-1,24,-1,26,28,30,-1,32,-1,-1,34,-1,-1,36,-1,-1,38,-1,-1,-1,-1,-1,-1,-1,-1],"split_conditions":[-5.8778524E-1,5.966E0,-8.09017E-1,2.08E-1,1.0528433E-2,4.285E-1,9.429E0,2.935E-1,9.08E-1,4.3169633E-2,4.8201706E-2,3.8961158E-3,1.200959E-1,-5.9011225E-3,-4.412937E-3,-6.8077344E-1,1.6853465E-2,3.165E-1,1.4162791E-1,1.38E-1,3.1130843E-2,7.61E-1,-4.084787E-3,2.6933313E-3,7.4244E-2,-4.81903E-3,-9.1776764E-4,2.907E0,-1.792061E-3,1.21007385E-2,3.481845E-2,2.4469115E-3,-2.2023679E-3,7.049439E-3,1.5536867E-2,4.205925E-3,-2.298189E-3,2.3398167E-2,1.5380008E-2],"split_indices":[5,1,6,2,7,2,1,3,2,0,7,0,7,0,0,5,0,3,7,3,0,2,0,0,2,0,0,1,0,0,7,0,0,0,0,0,0,0,0],"split_type":[0,0,0,0,0,0,0,0,0,0,0,0,0,0,0,0,0,0,0,0,0,0,0,0,0,0,0,0,0,0,0,0,0,0,0,0,0,0,0],"sum_hessian":[1.263E3,4.52E2,8.11E2,3.29E2,1.23E2,1.49E2,6.62E2,1.02E2,2.27E2,2.6E1,9.7E1,2E1,1.29E2,5.14E2,1.48E2,7E1,3.2E1,6.5E1,1.62E2,7.7E1,2E1,6E1,6.9E1,1.8E1,5.2E1,4.5E1,2E1,5.7E1,1.05E2,1.8E1,5.9E1,2.5E1,3.5E1,2.2E1,3E1,2.8E1,2.9E1,4E1,1.9E1],"tree_param":{"num_deleted":"0","num_feature":"8","num_nodes":"39","size_leaf_vector":"1"}},{"base_weights":[1.3314081E-2,-9.986936E-2,5.050772E-1,-1.5854317E-1,-1.2861773E-2,-3.2382034E-2,6.6422445E-1,-6.9828273E-4,-1.6303861E-1,3.5600504E-1,-7.559429E-2,-3.9814785E-3,3.632588E-3,1.1212577E0,5.4506695E-1,-2.009325E-3,-5.696075E-3,4.69716E-3,4.5968065E-1,3.5984863E-3,-9.0871364E-2,2.7316293E-2,4.9882922E-2,4.3830365E-1,8.478208E-1,7.60884E-3,2.5585128E-2,-4.2020776E-3,-5.9511084E-2,8.846738E-3,5.1336163E-1,2.4027998E-2,3.3623382E-2,-4.8857345E-3,-1.6303238E-3,1.0249877E-2,2.1481043E-2],"categories":[],"categories_nodes":[],"categories_segments":[],"categories_sizes":[],"default_left":[1,0,1,0,0,0,0,0,0,0,1,0,0,0,0,0,0,0,0,0,0,0,0,0,0,0,0,0,0,0,0,0,0,0,0,0,0],"id":1,"left_children":[1,3,5,7,9,11,13,-1,15,17,19,-1,-1,21,23,-1,-1,-1,25,-1,27,-1,-1,29,31,-1,-1,-1,33,-1,35,-1,-1,-1,-1,-1,-1],"loss_changes":[6.901966E1,5.145423E0,1.9846775E1,3.7318516E-1,9.394353E0,6.189625E-1,9.739258E0,0E0,2.2386551E-1,1.3345513E0,9.5917594E-1,0E0,0E0,4.019249E0,4.5836487E0,0E0,0E0,0E0,2.7379656E0,0E0,3.2186675E-1,0E0,0E0,1.4102898E0,7.193508E-1,0E0,0E0,0E0,1.588664E-1,0E0,1.8182964E0,0E0,0E0,0E0,0E0,0E0,0E0],"parents":[2147483647,0,0,1,1,2,2,3,3,4,4,5,5,6,6,8,8,9,9,10,10,13,13,14,14,18,18,20,20,23,23,24,24,28,28,30,30],"right_children":[2,4,6,8,10,12,14,-1,16,18,20,-1,-1,22,24,-1,-1,-1,26,-1,28,-1,-1,30,32,-1,-1,-1,34,-1,36,-1,-1,-1,-1,-1,-1],"split_conditions":[2.22E1,7.4E0,3.32E0,9.5E0,3.96E-1,1.294E2,1.4468759E-2,-6.9828273E-4,6.525866E-3,4.377E0,1.3906856E-2,-3.9814785E-3,3.632588E-3,9.613E0,2.49E1,-2.009325E-3,-5.696075E-3,4.69716E-3,4.8201706E-2,3.5984863E-3,8.85817E-1,2.7316293E-2,4.9882922E-2,-7.775971E-1,5.39E-1,7.60884E-3,2.5585128E-2,-4.2020776E-3,9.6E1,8.846738E-3,2.25E1,2.4027998E-2,3.3623382E-2,-4.8857345E-3,-1.6303238E-3,1.0249877E-2,2.1481043E-2],"split_indices":[0,0,1,4,2,4,7,0,7,1,7,0,0,1,0,0,0,0,7,0,2,0,0,6,2,0,0,0,4,0,4,0,0,0,0,0,0],"split_type":[0,0,0,0,0,0,0,0,0,0,0,0,0,0,0,0,0,0,0,0,0,0,0,0,0,0,0,0,0,0,0,0,0,0,0,0,0],"sum_hessian":[1.24E3,1.008E3,2.32E2,6.02E2,4.06E2,5.3E1,1.79E2,1.9E1,5.83E2,5.9E1,3.47E2,3.3E1,2E1,3.7E1,1.42E2,2E1,5.63E2,1.9E1,4E1,2.7E1,3.2E2,1.9E1,1.8E1,1.05E2,3.7E1,2.2E1,1.8E1,1.58E2,1.62E2,3.1E1,7.4E1,1.8E1,1.9E1,2E1,1.42E2,2.6E1,4.8E1],"tree_param":{"num_deleted":"0","num_feature":"8","num_nodes":"37","size_leaf_vector":"1"}},{"base_weights":[-3.54035E-3,-1.02960564E-1,4.095749E-1,-1.5526274E-1,-2.1937167E-2,2.1695434E-1,8.363616E-1,-5.56561E-3,-4.1228053E-3,-6.853286E-2,2.1388888E-1,-7.795135E-2,3.3194023E-1,6.7877084E-1,3.4896728E-2,-7.967484E-2,1.281363E-2,-7.704634E-4,1.5385896E-2,-4.6440754E-3,1.4760155E-4,2.613035E-1,2.0781614E-2,1.6112942E-2,2.8965842E-2,-5.1531877E-2,-4.3939482E-3,2.905161E-3,-1.6726758E-3,4.4055825E-1,1.3410129E-1,-2.972961E-3,-7.550012E-4,1.1955285E-2,1.8649913E-2,8.221462E-3,1.3128836E-3],"categories":[],"categories_nodes":[],"categories_segments":[],"categories_sizes":[],"default_left":[1,0,1,0,1,1,0,0,0,0,1,0,0,0,0,0,0,0,0,0,0,0,0,0,0,1,0,0,0,0,0,0,0,0,0,0,0],"id":2,"left_children":[1,3,5,7,9,11,13,-1,-1,15,17,19,21,23,-1,25,27,-1,-1,-1,-1,29,-1,-1,-1,31,-1,-1,-1,33,35,-1,-1,-1,-1,-1,-1],"loss_changes":[5.039505E1,4.19057E0,1.9561668E1,1.5808392E-1,4.263287E0,5.5624123E0,2.1491966E0,0E0,0E0,2.9387093E-1,3.5802965E0,2.1988723E-1,2.300085E0,1.3945446E0,0E0,3.9200366E-1,1.7417943E-1,0E0,0E0,0E0,0E0,2.1414027E0,0E0,0E0,0E0,1.8874475E-1,0E0,0E0,0E0,3.6836195E-1,5.5987555E-1,0E0,0E0,0E0,0E0,0E0,0E0],"parents":[2147483647,0,0,1,1,2,2,3,3,4,4,5,5,6,6,9,9,10,10,11,11,12,12,13,13,15,15,16,16,21,21,25,25,29,29,30,30],"right_children":[2,4,6,8,10,12,14,-1,-1,16,18,20,22,24,-1,26,28,-1,-1,-1,-1,30,-1,-1,-1,32,-1,-1,-1,34,36,-1,-1,-1,-1,-1,-1],"split_conditions":[2.22E1,6.6E0,8.914E0,1.2236E1,4.078432E0,3.066E0,-6.2876284E-1,-5.56561E-3,-4.1228053E-3,-5.3073007E-1,1.96E1,1.197E2,2.48E1,1.99E1,3.4896728E-2,-6.152846E-1,2.09E1,-7.704634E-4,1.5385896E-2,-4.6440754E-3,1.4760155E-4,-6.4205474E-1,2.0781614E-2,1.6112942E-2,2.8965842E-2,1.51E1,-4.3939482E-3,2.905161E-3,-1.6726758E-3,2.57125E-1,1.90501E-1,-2.972961E-3,-7.550012E-4,1.1955285E-2,1.8649913E-2,8.221462E-3,1.3128836E-3],"split_indices":[0,0,1,1,1,1,5,0,0,5,0,4,0,4,0,5,0,0,0,0,0,5,0,0,0,0,0,0,0,3,3,0,0,0,0,0,0],"split_type":[0,0,0,0,0,0,0,0,0,0,0,0,0,0,0,0,0,0,0,0,0,0,0,0,0,0,0,0,0,0,0,0,0,0,0,0,0],"sum_hessian":[1.227E3,9.89E2,2.38E2,6.01E2,3.88E2,1.64E2,7.4E1,4.92E2,1.09E2,3.24E2,6.4E1,4.6E1,1.18E2,4E1,3.4E1,2.85E2,3.9E1,3.2E1,3.2E1,2.7E1,1.9E1,9.4E1,2.4E1,1.8E1,2.2E1,1.81E2,1.04E2,1.8E1,2.1E1,3.9E1,5.5E1,8.2E1,9.9E1,2.1E1,1.8E1,2.6E1,2.9E1],"tree_param":{"num_deleted":"0","num_feature":"8","num_nodes":"37","size_leaf_vector":"1"}},{"base_weights":[-1.27835525E-2,-1.00055315E-1,3.1454968E-1,1.14031825E-2,-1.3657627E-1,5.289853E-1,6.375849E-2,1.7808978E-2,-2.8331496E-2,-1.4297162E-1,3.0169406E-3,3.387749E-2,4.4168276E-1,3.5386637E-1,-7.4371584E-2,2.073283E-3,-4.0129732E-2,-2.9753053E-3,-1.4984483E-1,3.1233013E-1,6.342578E-1,4.7781034E-3,1.869484E-2,-3.5823598E-3,5.795969E-4,-1.5745826E-2,-2.3639752E-3,-1.00286044E-1,-5.298118E-3,2.470901E-1,1.7468408E-2,2.9468283E-2,1.712948E-2,-1.3041282E-3,2.5566148E-3,-1.0335458E-3,-4.4565117E-3,4.625301E-3,1.5661577E-2],"categories":[],"categories_nodes":[],"categories_segments":[],"categories_sizes":[],"default_left":[1,0,0,0,0,0,0,0,0,0,0,0,0,0,0,0,0,0,1,0,0,0,0,0,0,0,0,0,0,0,0,0,0,0,0,0,0,0,0],"id":3,"left_children":[1,3,5,7,9,11,13,-1,15,17,-1,-1,19,21,23,-1,25,-1,27,29,31,-1,-1,-1,-1,33,-1,35,-1,37,-1,-1,-1,-1,-1,-1,-1,-1,-1],"loss_changes":[3.6508358E1,4.1076126E0,1.4464842E1,5.0466123E0,1.0933237E0,5.8498535E0,4.9703026E0,0E0,2.4258028E-1,2.830391E-1,0E0,0E0,3.0350075E0,1.6529698E0,2.3422796E-1,0E0,1.4434281E-1,0E0,1.7005157E-1,9.44716E-1,1.4794331E0,0E0,0E0,0E0,0E0,2.2543898E-1,0E0,1.3260156E-1,0E0,1.2964187E0,0E0,0E0,0E0,0E0,0E0,0E0,0E0,0E0,0E0],"parents":[2147483647,0,0,1,1,2,2,3,3,4,4,5,5,6,6,8,8,9,9,12,12,13,13,14,14,16,16,18,18,19,19,20,20,25,25,27,27,29,29],"right_children":[2,4,6,8,10,12,14,-1,16,18,-1,-1,20,22,24,-1,26,-1,28,30,32,-1,-1,-1,-1,34,-1,36,-1,38,-1,-1,-1,-1,-1,-1,-1,-1,-1],"split_conditions":[2.16E1,-6.016241E-1,5.02E1,8.3E-2,4.255E-1,9.7E-2,1.69E-1,1.7808978E-2,5.17E-1,-8.09017E-1,3.0169406E-3,3.387749E-2,1.73E-1,2.76E-1,1.619E2,2.073283E-3,1.59E1,-2.9753053E-3,2.6E-2,2.14E-1,2.505E-1,4.7781034E-3,1.869484E-2,-3.5823598E-3,5.795969E-4,1.52E1,-2.3639752E-3,2.3E1,-5.298118E-3,2.47E1,1.7468408E-2,2.9468283E-2,1.712948E-2,-1.3041282E-3,2.5566148E-3,-1.0335458E-3,-4.4565117E-3,4.625301E-3,1.5661577E-2],"split_indices":[0,5,4,2,3,3,2,0,2,6,0,0,2,3,4,0,0,0,2,3,3,0,0,0,0,0,0,4,0,0,0,0,0,0,0,0,0,0,0],"split_type":[0,0,0,0,0,0,0,0,0,0,0,0,0,0,0,0,0,0,0,0,0,0,0,0,0,0,0,0,0,0,0,0,0,0,0,0,0,0,0],"sum_hessian":[1.278E3,1.009E3,2.69E2,2.49E2,7.6E2,1.45E2,1.24E2,1.8E1,2.31E2,7.39E2,2.1E1,2.3E1,1.22E2,4E1,8.4E1,2.7E1,2.04E2,8.1E1,6.58E2,7.3E1,4.9E1,1.9E1,2.1E1,6.3E1,2.1E1,1.11E2,9.3E1,6.3E1,5.95E2,5.5E1,1.8E1,1.8E1,3.1E1,8.9E1,2.2E1,1.9E1,4.4E1,3.6E1,1.9E1],"tree_param":{"num_deleted":"0","num_feature":"8","num_nodes":"39","size_leaf_vector":"1"}},{"base_weights":[1.1476225E-2,-8.229315E-2,5.0935805E-1,-1.3741775E-1,1.1826805E-3,3.93936E-2,4.114138E-1,2.1229836E-4,-1.4237542E-1,2.6304835E-1,-7.0084855E-2,2.8582972E-1,6.8338406E-1,-5.0163255E-3,-1.4416006E-3,1.7763164E-2,1.6809592E-1,-3.8335302E-3,-2.6625281E-2,4.146466E-1,9.387825E-2,1.4936902E-2,2.8689913E-2,2.6625282E-1,-8.078385E-4,3.6939573E-2,-5.1310144E-2,3.0666998E-1,2.276112E-2,1.0498238E-2,-1.3164342E-3,4.093017E-3,1.6034251E-2,3.455272E-3,-8.3207875E-4,-3.3099386E-3,-4.4115342E-4,1.4121228E-2,5.9959353E-3],"categories":[],"categories_nodes":[],"categories_segments":[],"categories_sizes":[],"default_left":[1,0,0,0,0,0,0,0,0,0,0,0,0,0,0,0,0,0,0,0,0,0,0,0,0,0,0,0,0,0,0,0,0,0,0,0,0,0,0],"id":4,"left_children":[1,3,5,7,9,-1,11,-1,13,15,17,19,21,-1,-1,-1,23,-1,25,27,29,-1,-1,31,-1,33,35,37,-1,-1,-1,-1,-1,-1,-1,-1,-1,-1,-1],"loss_changes":[5.803268E1,4.8136787E0,1.2413963E1,4.490223E-1,7.764442E0,0E0,5.836527E0,0E0,2.7161884E-1,2.1686406E0,5.9830356E-1,2.8914146E0,2.0731163E0,0E0,0E0,0E0,1.2242506E0,0E0,2.5269052E-1,1.897665E0,1.3293077E0,0E0,0E0,1.2770061E0,0E0,1.7736372E-1,2.0268667E-1,6.83486E-1,0E0,0E0,0E0,0E0,0E0,0E0,0E0,0E0,0E0,0E0,0E0],"parents":[2147483647,0,0,1,1,2,2,3,3,4,4,6,6,8,8,9,9,10,10,11,11,12,12,16,16,18,18,19,19,20,20,23,23,25,25,26,26,27,27],"right_children":[2,4,6,8,10,-1,12,-1,14,16,18,20,22,-1,-1,-1,24,-1,26,28,30,-1,-1,32,-1,34,36,38,-1,-1,-1,-1,-1,-1,-1,-1,-1,-1,-1],"split_conditions":[2.27E1,1.235E1,1.089061E-2,6.525866E-3,3.6E-1,3.93936E-2,2.47E1,2.1229836E-4,4.1E-1,6E-2,-7.4410397E-1,3.92685E-1,2.48879E-1,-5.0163255E-3,-1.4416006E-3,1.7763164E-2,1.07E2,-3.8335302E-3,-6.186714E-1,2.76E-1,8.576844E-2,1.4936902E-2,2.8689913E-2,2.075E-1,-8.078385E-4,3.52E-1,3.456475E-1,3.2779187E-2,2.276112E-2,1.0498238E-2,-1.3164342E-3,4.093017E-3,1.6034251E-2,3.455272E-3,-8.3207875E-4,-3.3099386E-3,-4.4115342E-4,1.4121228E-2,5.9959353E-3],"split_indices":[0,0,7,7,2,0,0,0,3,2,6,2,3,0,0,0,4,0,6,3,7,0,0,3,0,3,3,7,0,0,0,0,0,0,0,0,0,0,0],"split_type":[0,0,0,0,0,0,0,0,0,0,0,0,0,0,0,0,0,0,0,0,0,0,0,0,0,0,0,0,0,0,0,0,0,0,0,0,0,0,0],"sum_hessian":[1.243E3,1.046E3,1.97E2,6.3E2,4.16E2,2.6E1,1.71E2,2.1E1,6.09E2,8.9E1,3.27E2,1.17E2,5.4E1,5.83E2,2.6E1,2.4E1,6.5E1,1.66E2,1.61E2,7E1,4.7E1,2.1E1,3.3E1,4.3E1,2.2E1,4.5E1,1.16E2,4.9E1,2.1E1,1.8E1,2.9E1,2.5E1,1.8E1,2.2E1,2.3E1,5.3E1,6.3E1,2.7E1,2.2E1],"tree_param":{"num_deleted":"0","num_feature":"8","num_nodes":"39","size_leaf_vector":"1"}},{"base_weights":[1.9290575E-3,2.322913E-1,-1.0653748E-1,5.1817465E-1,-4.2484034E-2,8.90379E-2,-1.19418204E-1,3.609802E-1,8.548938E-1,3.908195E-2,-6.1550826E-2,1.4708058E-2,-2.95698E-3,-6.824193E-2,-1.3610578E-1,2.3088867E-2,2.5070402E-1,3.698407E-2,2.0074937E-2,-7.908393E-4,3.3593862E-3,-4.0475507E-3,-2.5238154E-2,-2.3406273E-2,-3.7429123E-3,-1.9071976E-3,-1.4237376E-1,2.9245666E-1,3.783428E-3,7.813154E-3,-2.6145657E-3,-3.0636818E-3,1.3491124E-2,-5.0445925E-3,-9.696222E-4,1.4849817E-2,8.505369E-3,2.421715E-3,-1.6237688E-3,-1.3137267E-3,3.2005124E-3],"categories":[],"categories_nodes":[],"categories_segments":[],"categories_sizes":[],"default_left":[0,0,0,0,1,0,0,0,0,0,0,0,0,0,1,0,0,0,0,0,0,0,0,0,0,0,0,0,0,0,0,0,0,0,0,0,0,0,0,0,0],"id":5,"left_children":[1,3,5,7,9,11,13,15,17,19,21,-1,-1,23,25,-1,27,-1,-1,-1,-1,-1,29,31,-1,-1,33,35,-1,37,-1,-1,39,-1,-1,-1,-1,-1,-1,-1,-1],"loss_changes":[3.1533812E1,3.1737816E1,2.1616154E0,1.0474808E1,3.2046598E-1,3.1798313E0,6.8681526E-1,4.683941E0,3.824871E0,1.4407364E-1,3.447991E-1,0E0,0E0,3.6642295E-1,3.0479622E-1,0E0,5.829768E-1,0E0,0E0,0E0,0E0,0E0,1.7314634E-1,2.3255554E-1,0E0,0E0,3.3902264E-1,4.7351694E-1,0E0,2.1654893E-1,0E0,0E0,2.543311E-1,0E0,0E0,0E0,0E0,0E0,0E0,0E0,0E0],"parents":[2147483647,0,0,1,1,2,2,3,3,4,4,5,5,6,6,7,7,8,8,9,9,10,10,13,13,14,14,16,16,22,22,23,23,26,26,27,27,29,29,32,32],"right_children":[2,4,6,8,10,12,14,16,18,20,22,-1,-1,24,26,-1,28,-1,-1,-1,-1,-1,30,32,-1,-1,34,36,-1,38,-1,-1,40,-1,-1,-1,-1,-1,-1,-1,-1],"split_conditions":[-6.016241E-1,7.677319E-2,1.08E1,8.701E0,2.4E-1,9.53681E-1,-4.862727E-1,6.2E-2,2.875E-1,1.32E2,3.465E-1,1.4708058E-2,-2.95698E-3,2.99E-1,6.105182E-3,2.3088867E-2,1.061E2,3.698407E-2,2.0074937E-2,-7.908393E-4,3.3593862E-3,-4.0475507E-3,1.043E0,2.434E0,-3.7429123E-3,-1.9071976E-3,3.7E-1,4.695E0,3.783428E-3,3.585E-1,-2.6145657E-3,-3.0636818E-3,-5.4524046E-1,-5.0445925E-3,-9.696222E-4,1.4849817E-2,8.505369E-3,2.421715E-3,-1.6237688E-3,-1.3137267E-3,3.2005124E-3],"split_indices":[5,7,4,1,2,5,5,2,3,4,3,0,0,3,7,0,4,0,0,0,0,0,2,1,0,0,3,1,0,3,0,0,5,0,0,0,0,0,0,0,0],"split_type":[0,0,0,0,0,0,0,0,0,0,0,0,0,0,0,0,0,0,0,0,0,0,0,0,0,0,0,0,0,0,0,0,0,0,0,0,0,0,0,0,0],"sum_hessian":[1.262E3,4.04E2,8.58E2,1.98E2,2.06E2,5.3E1,8.05E2,1.35E2,6.3E1,3.9E1,1.67E2,1.8E1,3.5E1,1.98E2,6.07E2,3.5E1,1E2,3.4E1,2.9E1,1.9E1,2E1,6.5E1,1.02E2,9.5E1,1.03E2,4.4E1,5.63E2,7.7E1,2.3E1,6.2E1,4E1,3.4E1,6.1E1,5.38E2,2.5E1,1.8E1,5.9E1,2.9E1,3.3E1,3.7E1,2.4E1],"tree_param":{"num_deleted":"0","num_feature":"8","num_nodes":"41","size_leaf_vector":"1"}},{"base_weights":[-7.837606E-3,-6.822171E-2,5.1590174E-1,-1.0852E-1,8.9498244E-2,2.4952003E-1,9.1281825E-1,-1.3797459E-1,-3.7728302E-2,2.6422766E-1,-6.9459E-2,1.6803509E-2,1.0884747E-1,3.530222E-2,2.3160215E-2,-1.418207E-1,-9.9379E-4,4.15476E-3,-5.486336E-2,1.1620913E-1,4.2611712E-1,-8.70338E-2,1.0903071E-3,8.277292E-3,4.126077E-4,-7.6836646E-2,-5.0303787E-3,-3.3358142E-3,-9.127512E-3,-8.4476563E-4,1.8493797E-1,2.1585375E-2,1.0936166E-2,-3.6902584E-3,2.2911467E-4,-4.3285536E-3,-6.062372E-4,4.6522607E-4,-3.1746668E-3,1.5968949E-3,1.0357834E-2],"categories":[],"categories_nodes":[],"categories_segments":[],"categories_sizes":[],"default_left":[1,1,1,1,0,0,0,0,0,0,0,0,0,0,0,1,0,0,0,0,0,0,0,0,0,0,0,0,1,0,0,0,0,0,0,0,0,0,0,0,0],"id":6,"left_children":[1,3,5,7,9,11,13,15,17,19,21,-1,23,-1,-1,25,-1,-1,27,29,31,33,-1,-1,-1,35,-1,-1,37,-1,39,-1,-1,-1,-1,-1,-1,-1,-1,-1,-1],"loss_changes":[4.0384968E1,7.2776136E0,1.3952236E1,1.9011097E0,6.472364E0,2.691371E0,1.4907303E0,2.6916695E-1,7.316196E-1,2.6580768E0,2.1755397E-1,0E0,6.449939E-1,0E0,0E0,2.1866512E-1,0E0,0E0,4.7321147E-1,5.623865E-1,1.1516294E0,2.0492029E-1,0E0,0E0,0E0,1.4102551E-1,0E0,0E0,2.2326964E-1,0E0,6.3633287E-1,0E0,0E0,0E0,0E0,0E0,0E0,0E0,0E0,0E0,0E0],"parents":[2147483647,0,0,1,1,2,2,3,3,4,4,5,5,6,6,7,7,8,8,9,9,10,10,12,12,15,15,18,18,19,19,20,20,21,21,25,25,28,28,30,30],"right_children":[2,4,6,8,10,12,14,16,18,20,22,-1,24,-1,-1,26,-1,-1,28,30,32,34,-1,-1,-1,36,-1,-1,38,-1,40,-1,-1,-1,-1,-1,-1,-1,-1,-1,-1],"split_conditions":[2.36E1,2.02E1,8.914E0,1.06E1,4.44E-1,8.6E-2,3.565E-1,4.255E-1,1.29E1,2.79E-1,3.22E-1,1.6803509E-2,3.3890627E-2,3.530222E-2,2.3160215E-2,6.105182E-3,-9.9379E-4,4.15476E-3,3.385005E-1,5.4E0,8.9E1,1.675E2,1.0903071E-3,8.277292E-3,4.126077E-4,2.7E0,-5.0303787E-3,-3.3358142E-3,1.043E0,-8.4476563E-4,2.23E1,2.1585375E-2,1.0936166E-2,-3.6902584E-3,2.2911467E-4,-4.3285536E-3,-6.062372E-4,4.6522607E-4,-3.1746668E-3,1.5968949E-3,1.0357834E-2],"split_indices":[0,0,1,0,2,2,3,3,0,3,3,0,7,0,0,7,0,0,3,1,4,4,0,0,0,0,0,0,2,0,0,0,0,0,0,0,0,0,0,0,0],"split_type":[0,0,0,0,0,0,0,0,0,0,0,0,0,0,0,0,0,0,0,0,0,0,0,0,0,0,0,0,0,0,0,0,0,0,0,0,0,0,0,0,0],"sum_hessian":[1.277E3,1.145E3,1.32E2,9.12E2,2.33E2,7.9E1,5.3E1,6.44E2,2.68E2,1.11E2,1.22E2,2.9E1,5E1,3.5E1,1.8E1,6.22E2,2.2E1,2.6E1,2.42E2,5.8E1,5.3E1,1.04E2,1.8E1,2.1E1,2.9E1,4.8E1,5.74E2,1.25E2,1.17E2,1.9E1,3.9E1,1.8E1,3.5E1,8.5E1,1.9E1,2.6E1,2.2E1,9.2E1,2.5E1,1.8E1,2.1E1],"tree_param":{"num_deleted":"0","num_feature":"8","num_nodes":"41","size_leaf_vector":"1"}},{"base_weights":[7.068287E-3,-7.113951E-2,4.1660225E-1,5.439978E-2,-1.1669158E-1,2.2640267E-1,8.112984E-1,-3.0844687E-2,3.7805396E-1,1.621117E-3,-1.2101546E-1,1.763056E-2,1.7093183E-1,1.4660064E-2,9.894824E-1,-6.153472E-2,1.3158282E-2,7.583127E-3,2.0158665E-2,-1.2499223E-1,1.4600093E-3,1.16277196E-1,1.3723914E-2,4.344913E-2,2.735893E-2,-3.5987746E-3,-1.1278985E-3,1.221331E-1,-1.9421756E-3,-1.2783419E-1,-9.315379E-4,7.186036E-2,8.093707E-3,1.0527918E-3,7.284703E-3,-4.6348893E-3,-3.2144454E-3,6.049498E-3,7.3292543E-4],"categories":[],"categories_nodes":[],"categories_segments":[],"categories_sizes":[],"default_left":[1,0,1,1,0,0,0,0,0,0,0,0,0,0,0,0,0,0,0,0,0,0,0,0,0,0,0,0,0,0,0,0,0,0,0,0,0,0,0],"id":7,"left_children":[1,3,5,7,9,11,13,15,17,-1,19,-1,21,-1,23,25,27,-1,-1,29,-1,31,-1,-1,-1,-1,-1,33,-1,35,-1,37,-1,-1,-1,-1,-1,-1,-1],"loss_changes":[4.0549854E1,6.079115E0,1.5235592E1,7.809195E0,5.5386066E-1,2.1988692E0,4.487648E0,3.0265906E-1,1.94944E0,0E0,4.952011E-1,0E0,1.448834E0,0E0,2.3837814E0,1.6449404E-1,7.0218897E-1,0E0,0E0,2.0559692E-1,0E0,4.9734914E-1,0E0,0E0,0E0,0E0,0E0,2.987885E-1,0E0,1.8990898E-1,0E0,3.6008203E-1,0E0,0E0,0E0,0E0,0E0,0E0,0E0],"parents":[2147483647,0,0,1,1,2,2,3,3,4,4,5,5,6,6,7,7,8,8,10,10,12,12,14,14,15,15,16,16,19,19,21,21,27,27,29,29,31,31],"right_children":[2,4,6,8,10,12,14,16,18,-1,20,-1,22,-1,24,26,28,-1,-1,30,-1,32,-1,-1,-1,-1,-1,34,-1,36,-1,38,-1,-1,-1,-1,-1,-1,-1],"split_conditions":[2.27E1,-6.016241E-1,8.701E0,4.27E0,6.105182E-3,1.23E-1,-6.4205474E-1,1.712E2,2.15E1,1.621117E-3,2.26E1,1.763056E-2,1.351E2,1.4660064E-2,1.1057E1,1.2674294E-1,1.3427857E-1,7.583127E-3,2.0158665E-2,4.1E-1,1.4600093E-3,2.45E1,1.3723914E-2,4.344913E-2,2.735893E-2,-3.5987746E-3,-1.1278985E-3,1.41E1,-1.9421756E-3,1.74E1,-9.315379E-4,1.735E-1,8.093707E-3,1.0527918E-3,7.284703E-3,-4.6348893E-3,-3.2144454E-3,6.049498E-3,7.3292543E-4],"split_indices":[0,5,1,1,7,3,5,4,0,0,0,0,4,0,1,7,7,0,0,3,0,0,0,0,0,0,0,0,0,0,0,3,0,0,0,0,0,0,0],"split_type":[0,0,0,0,0,0,0,0,0,0,0,0,0,0,0,0,0,0,0,0,0,0,0,0,0,0,0,0,0,0,0,0,0,0,0,0,0,0,0],"sum_hessian":[1.266E3,1.063E3,2.03E2,2.83E2,7.8E2,1.37E2,6.6E1,2.24E2,5.9E1,2E1,7.6E2,2.2E1,1.15E2,2.1E1,4.5E1,1.32E2,9.2E1,3.4E1,2.5E1,7.42E2,1.8E1,9.3E1,2.2E1,1.8E1,2.7E1,5.2E1,8E1,3.6E1,5.6E1,7.21E2,2.1E1,6.8E1,2.5E1,1.8E1,1.8E1,5.85E2,1.36E2,2.2E1,4.6E1],"tree_param":{"num_deleted":"0","num_feature":"8","num_nodes":"39","size_leaf_vector":"1"}},{"base_weights":[6.427519E-3,-4.4732016E-2,5.48617E-1,-1.1865398E-1,5.1375907E-2,3.3126768E-2,4.063961E-1,-1.2537457E-1,1.1636119E-3,2.8325573E-1,-2.4043476E-2,2.2561729E-1,5.698214E-1,-4.390774E-3,-1.937993E-3,2.1989664E-1,2.1284157E-2,-4.402414E-2,5.960282E-3,1.0603536E-2,4.4814595E-3,3.107559E-2,8.901521E-3,1.52815E-1,1.1708943E-2,2.1446103E-3,-7.217819E-2,8.822678E-3,2.5625192E-3,-9.964575E-4,3.2850725E-3,6.917371E-4,-3.279394E-3],"categories":[],"categories_nodes":[],"categories_segments":[],"categories_sizes":[],"default_left":[1,0,0,0,0,0,0,0,0,0,0,0,0,0,0,0,0,0,0,0,0,0,0,0,0,0,0,0,0,0,0,0,0],"id":8,"left_children":[1,3,5,7,9,-1,11,13,-1,15,17,19,21,-1,-1,23,-1,25,-1,-1,-1,-1,-1,27,-1,29,31,-1,-1,-1,-1,-1,-1],"loss_changes":[3.4424915E1,8.05678E0,6.4011993E0,6.5818787E-1,8.622635E0,0E0,2.3604593E0,1.3224602E-1,0E0,2.6015396E0,1.4752039E0,3.0266643E-1,4.4094706E0,0E0,0E0,8.387823E-1,0E0,4.395613E-1,0E0,0E0,0E0,0E0,0E0,5.4039824E-1,0E0,3.7705696E-1,4.6250975E-1,0E0,0E0,0E0,0E0,0E0,0E0],"parents":[2147483647,0,0,1,1,2,2,3,3,4,4,6,6,7,7,9,9,10,10,11,11,12,12,15,15,17,17,23,23,25,25,26,26],"right_children":[2,4,6,8,10,-1,12,14,-1,16,18,20,22,-1,-1,24,-1,26,-1,-1,-1,-1,-1,28,-1,30,32,-1,-1,-1,-1,-1,-1],"split_conditions":[2.41E1,1.22E1,1.6465422E-2,4.255E-1,3.19E-1,3.3126768E-2,2.48879E-1,1.015E1,1.1636119E-3,3.125E-1,3.68E-1,2.47E1,4.6730414E-2,-4.390774E-3,-1.937993E-3,2.76E-1,2.1284157E-2,-6.551564E-1,5.960282E-3,1.0603536E-2,4.4814595E-3,3.107559E-2,8.901521E-3,2.0964535E-2,1.1708943E-2,-7.5266683E-1,-8.382797E-1,8.822678E-3,2.5625192E-3,-9.964575E-4,3.2850725E-3,6.917371E-4,-3.279394E-3],"split_indices":[0,0,7,3,2,0,3,0,0,3,3,0,7,0,0,3,0,5,0,0,0,0,0,7,0,5,6,0,0,0,0,0,0],"split_type":[0,0,0,0,0,0,0,0,0,0,0,0,0,0,0,0,0,0,0,0,0,0,0,0,0,0,0,0,0,0,0,0,0],"sum_hessian":[1.241E3,1.134E3,1.07E2,6.41E2,4.93E2,2.7E1,8E1,6.14E2,2.7E1,1.21E2,3.72E2,3.8E1,4.2E1,5.87E2,2.7E1,1.02E2,1.9E1,3.38E2,3.4E1,2E1,1.8E1,2E1,2.2E1,6.6E1,3.6E1,1.28E2,2.1E2,2.8E1,3.8E1,9.6E1,3.2E1,4.3E1,1.67E2],"tree_param":{"num_deleted":"0","num_feature":"8","num_nodes":"33","size_leaf_vector":"1"}},{"base_weights":[7.930432E-4,1.8041968E-1,-9.110104E-2,8.634229E-2,8.299311E-1,-1.0127204E-1,1.1508416E-2,2.4346545E-1,-1.5566782E-2,3.491539E-2,2.0990092E-2,-4.7399748E-2,-1.1863021E-1,1.5386853E-1,3.3552E-1,-3.5430153E-3,3.6188474E-4,-7.6004565E-2,7.981578E-3,-8.1094265E-2,-4.3501775E-3,7.602886E-2,1.2294913E-2,6.7013237E-3,4.708607E-1,-7.7199703E-4,5.3176668E-2,-3.1595512E-3,-2.6111715E-2,-3.7984408E-3,1.0507078E-4,4.597709E-3,1.7537766E-4,2.2734756E-2,9.424767E-3,-1.5891198E-3,5.1080096E-3,-3.3745524E-3,2.6881532E-3],"categories":[],"categories_nodes":[],"categories_segments":[],"categories_sizes":[],"default_left":[0,1,1,0,0,0,0,0,0,0,0,0,0,0,0,0,0,0,0,0,0,0,0,0,0,0,0,0,0,0,0,0,0,0,0,0,0,0,0],"id":9,"left_children":[1,3,5,7,9,11,-1,13,15,-1,-1,17,19,21,23,-1,25,27,-1,29,-1,31,-1,-1,33,-1,35,-1,37,-1,-1,-1,-1,-1,-1,-1,-1,-1,-1],"loss_changes":[2.0435703E1,2.5599949E1,3.5646281E0,5.8613043E0,2.1852646E0,7.4757767E-1,0E0,1.185935E0,3.120057E-1,0E0,0E0,1.5673225E0,1.9706345E-1,1.1693442E0,1.3366442E0,0E0,2.2807825E-1,1.4518905E-1,0E0,2.890948E-1,0E0,2.1963108E-1,0E0,0E0,1.3623424E0,0E0,5.4790044E-1,0E0,3.3525255E-1,0E0,0E0,0E0,0E0,0E0,0E0,0E0,0E0,0E0,0E0],"parents":[2147483647,0,0,1,1,2,2,3,3,4,4,5,5,7,7,8,8,11,11,12,12,13,13,14,14,16,16,17,17,19,19,21,21,24,24,26,26,28,28],"right_children":[2,4,6,8,10,12,-1,14,16,-1,-1,18,20,22,24,-1,26,28,-1,30,-1,32,-1,-1,34,-1,36,-1,38,-1,-1,-1,-1,-1,-1,-1,-1,-1,-1],"split_conditions":[-6.016241E-1,9.613E0,3.2314E1,7.893388E-2,2.875E-1,-4.862727E-1,1.1508416E-2,2.26E-1,1.826E0,3.491539E-2,2.0990092E-2,4.695E0,2.19E-1,-6.2876284E-1,5.49E0,-3.5430153E-3,-7.41222E-1,1.55E2,7.981578E-3,1.3473937E-2,-4.3501775E-3,2.1379214E-2,1.2294913E-2,6.7013237E-3,6.438E0,-7.7199703E-4,1.138E2,-3.1595512E-3,2.865E-1,-3.7984408E-3,1.0507078E-4,4.597709E-3,1.7537766E-4,2.2734756E-2,9.424767E-3,-1.5891198E-3,5.1080096E-3,-3.3745524E-3,2.6881532E-3],"split_indices":[5,1,1,7,3,5,0,3,1,0,0,1,3,5,1,0,5,4,0,7,0,7,0,0,1,0,4,0,3,0,0,0,0,0,0,0,0,0,0],"split_type":[0,0,0,0,0,0,0,0,0,0,0,0,0,0,0,0,0,0,0,0,0,0,0,0,0,0,0,0,0,0,0,0,0,0,0,0,0,0,0],"sum_hessian":[1.238E3,4.19E2,8.19E2,3.66E2,5.3E1,8E2,1.9E1,1.44E2,2.22E2,2.8E1,2.5E1,1.95E2,6.05E2,7.3E1,7.1E1,3.4E1,1.88E2,1.77E2,1.8E1,1.14E2,4.91E2,5.3E1,2E1,3.5E1,3.6E1,1.31E2,5.7E1,1.33E2,4.4E1,8.4E1,3E1,2.9E1,2.4E1,1.8E1,1.8E1,2.8E1,2.9E1,2.6E1,1.8E1],"tree_param":{"num_deleted":"0","num_feature":"8","num_nodes":"39","size_leaf_vector":"1"}},{"base_weights":[-1.2911624E-2,1.2742153E-1,-9.483613E-2,3.5860825E-1,-3.525975E-2,9.8179266E-2,-1.0625581E-1,2.4448354E-2,2.9161546E-1,-4.318139E-3,-2.0770753E-2,1.4093711E-2,-4.8057917E-3,-1.0255056E-2,-1.14520006E-1,8.7783776E-2,3.5507104E-1,2.2389945E-2,-1.7996624E-3,5.342777E-2,-3.7594333E-3,-6.1306935E-2,-4.096223E-3,6.492183E-3,-4.902178E-4,4.883386E-1,2.714788E-1,-3.2195903E-2,1.13926E-1,6.0853288E-3,-2.4300364E-3,3.7237158E-4,-3.6147675E-3,7.943451E-3,2.7491853E-2,1.4511025E-2,2.604815E-3,-3.1719073E-3,1.1985335E-4,1.6889441E-3,6.210257E-3],"categories":[],"categories_nodes":[],"categories_segments":[],"categories_sizes":[],"default_left":[0,0,0,0,0,0,0,0,0,0,0,0,0,0,1,0,0,0,0,0,0,0,0,0,0,0,0,0,0,0,0,0,0,0,0,0,0,0,0,0,0],"id":10,"left_children":[1,3,5,7,9,11,13,-1,15,-1,17,-1,-1,19,21,23,25,27,-1,29,-1,31,-1,-1,-1,33,35,37,39,-1,-1,-1,-1,-1,-1,-1,-1,-1,-1,-1,-1],"loss_changes":[1.4347986E1,1.7301796E1,1.7370024E0,4.540365E0,3.5610226E-1,3.305654E0,5.8989716E-1,0E0,2.0680485E0,0E0,3.209963E-1,0E0,0E0,3.751965E-1,1.9567871E-1,3.9746848E-1,1.3559914E0,4.9496308E-1,0E0,5.5969584E-1,0E0,2.0276146E-1,0E0,0E0,0E0,3.8004217E0,2.2429805E0,1.3454309E-1,1.6120392E-1,0E0,0E0,0E0,0E0,0E0,0E0,0E0,0E0,0E0,0E0,0E0,0E0],"parents":[2147483647,0,0,1,1,2,2,3,3,4,4,5,5,6,6,8,8,10,10,13,13,14,14,15,15,16,16,17,17,19,19,21,21,25,25,26,26,27,27,28,28],"right_children":[2,4,6,8,10,12,14,-1,16,-1,18,-1,-1,20,22,24,26,28,-1,30,-1,32,-1,-1,-1,34,36,38,40,-1,-1,-1,-1,-1,-1,-1,-1,-1,-1,-1,-1],"split_conditions":[-5.8778524E-1,7.677319E-2,1.05E1,1.4468759E-2,8.8E1,9.796137E-1,-8.382797E-1,2.4448354E-2,1.545E-1,-4.318139E-3,1.4162791E-1,1.4093711E-2,-4.8057917E-3,1.3427857E-1,2.9009E-2,8.3E-2,2.32E1,-7.41222E-1,-1.7996624E-3,-5.160624E-1,-3.7594333E-3,2.32E1,-4.096223E-3,6.492183E-3,-4.902178E-4,9.8E0,-6.551564E-1,1.644E2,1.32E2,6.0853288E-3,-2.4300364E-3,3.7237158E-4,-3.6147675E-3,7.943451E-3,2.7491853E-2,1.4511025E-2,2.604815E-3,-3.1719073E-3,1.1985335E-4,1.6889441E-3,6.210257E-3],"split_indices":[5,7,4,7,4,5,6,0,3,0,7,0,0,7,2,2,4,5,0,5,0,4,0,0,0,4,5,4,4,0,0,0,0,0,0,0,0,0,0,0,0],"split_type":[0,0,0,0,0,0,0,0,0,0,0,0,0,0,0,0,0,0,0,0,0,0,0,0,0,0,0,0,0,0,0,0,0,0,0,0,0,0,0,0,0],"sum_hessian":[1.248E3,4.6E2,7.88E2,1.9E2,2.7E2,4.4E1,7.44E2,3E1,1.6E2,3.7E1,2.33E2,1.9E1,2.5E1,5.9E1,6.85E2,3.8E1,1.22E2,9.9E1,1.34E2,3.6E1,2.3E1,6.3E1,6.22E2,1.9E1,1.9E1,4.7E1,7.5E1,6.2E1,3.7E1,1.8E1,1.8E1,2.4E1,3.9E1,2.6E1,2.1E1,4.2E1,3.3E1,2.3E1,3.9E1,1.9E1,1.8E1],"tree_param":{"num_deleted":"0","num_feature":"8","num_nodes":"41","size_leaf_vector":"1"}},{"base_weights":[-4.3274527E-3,-4.3793492E-2,5.130458E-1,7.892759E-2,-9.596855E-2,3.1923555E-2,3.3230576E-1,2.3544161E-1,-2.079547E-2,-1.0276473E-1,3.440848E-2,5.4778233E-3,1.604707E-2,3.7235278E-1,1.7892973E-1,-3.2867435E-2,3.796227E-3,-4.072289E-3,-3.3503495E-2,6.5840445E-3,-3.0536847E-3,2.1102214E-2,5.1276158E-3,8.40287E-2,2.9800555E-1,-2.662034E-3,-3.9294953E-3,-6.2271833E-2,6.109596E-3,-3.0965186E-3,6.3835755E-3,5.787148E-3,1.5720662E-2,7.3531474E-4,-4.237204E-3,-2.6563667E-3,3.983584E-4],"categories":[],"categories_nodes":[],"categories_segments":[],"categories_sizes":[],"default_left":[1,0,0,0,0,0,0,0,0,0,0,0,0,0,0,1,0,0,0,0,0,0,0,0,0,0,0,0,0,0,0,0,0,0,0,0,0],"id":11,"left_children":[1,3,5,7,9,-1,11,13,15,17,19,-1,-1,21,23,25,-1,-1,27,-1,-1,-1,-1,29,31,-1,33,35,-1,-1,-1,-1,-1,-1,-1,-1,-1],"loss_changes":[2.5930643E1,7.555666E0,6.8496265E0,5.494815E0,7.338953E-1,0E0,1.4865379E0,1.0579414E0,3.4219804E-1,8.9559364E-1,8.041355E-1,0E0,0E0,2.178701E0,1.0949194E0,2.566172E-1,0E0,0E0,9.222036E-1,0E0,0E0,0E0,0E0,9.7044927E-1,8.945315E-1,0E0,3.671836E-1,1.5247416E-1,0E0,0E0,0E0,0E0,0E0,0E0,0E0,0E0,0E0],"parents":[2147483647,0,0,1,1,2,2,3,3,4,4,6,6,7,7,8,8,9,9,10,10,13,13,14,14,15,15,18,18,23,23,24,24,26,26,27,27],"right_children":[2,4,6,8,10,-1,12,14,16,18,20,-1,-1,22,24,26,-1,-1,28,-1,-1,-1,-1,30,32,-1,34,36,-1,-1,-1,-1,-1,-1,-1,-1,-1],"split_conditions":[2.43E1,-6.016241E-1,1.6465422E-2,8.417997E-2,8.62E1,3.1923555E-2,5.556E0,2.32E1,2.17E1,1.98E1,1.07E2,5.4778233E-3,1.604707E-2,2.28E1,5.3306237E-2,1.2907892E-1,3.796227E-3,-4.072289E-3,4.695E0,6.5840445E-3,-3.0536847E-3,2.1102214E-2,5.1276158E-3,5.881E0,2.13E1,-2.662034E-3,2.0529039E-1,1.64E2,6.109596E-3,-3.0965186E-3,6.3835755E-3,5.787148E-3,1.5720662E-2,7.3531474E-4,-4.237204E-3,-2.6563667E-3,3.983584E-4],"split_indices":[0,5,7,7,1,0,1,4,0,0,4,0,0,0,7,7,0,0,1,0,0,0,0,1,0,0,7,4,0,0,0,0,0,0,0,0,0],"split_type":[0,0,0,0,0,0,0,0,0,0,0,0,0,0,0,0,0,0,0,0,0,0,0,0,0,0,0,0,0,0,0,0,0,0,0,0,0],"sum_hessian":[1.27E3,1.18E3,9E1,3.52E2,8.28E2,2.7E1,6.3E1,1.37E2,2.15E2,7.87E2,4.1E1,2.8E1,3.5E1,4E1,9.7E1,1.97E2,1.8E1,6.36E2,1.51E2,1.8E1,2.3E1,1.9E1,2.1E1,5.4E1,4.3E1,7.7E1,1.2E2,1.33E2,1.8E1,2E1,3.4E1,2.4E1,1.9E1,9.9E1,2.1E1,1.1E2,2.3E1],"tree_param":{"num_deleted":"0","num_feature":"8","num_nodes":"37","size_leaf_vector":"1"}},{"base_weights":[-1.5506726E-3,-4.8516013E-2,4.9979052E-1,-7.797801E-2,1.2913194E-1,2.9581202E-2,3.5229138E-1,-1.0930098E-1,-2.2759806E-2,3.7868848E-1,-7.4065556E-3,2.2640605E-1,2.1522857E-2,-3.8939808E-3,1.1483827E-3,4.4384124E-3,-3.77584E-2,4.8312307E-3,1.8653417E-2,7.2154544E-2,-2.5041641E-3,1.4341171E-2,1.8301004E-3,2.1833084E-3,-4.54868E-2,1.1208315E-4,5.752788E-3,-8.1744144E-4,-3.0041335E-3],"categories":[],"categories_nodes":[],"categories_segments":[],"categories_sizes":[],"default_left":[1,1,0,1,0,0,0,0,1,1,0,0,0,0,0,0,0,0,0,0,0,0,0,0,0,0,0,0,0],"id":12,"left_children":[1,3,5,7,9,-1,11,13,15,17,19,21,-1,-1,-1,-1,23,-1,-1,25,-1,-1,-1,-1,27,-1,-1,-1,-1],"loss_changes":[2.969009E1,6.034604E0,5.826679E0,1.7101793E0,5.5895042E0,0E0,2.688733E0,4.226055E-1,8.1959873E-1,2.300476E0,5.5580366E-1,1.7701709E0,0E0,0E0,0E0,0E0,2.5612068E-1,0E0,0E0,3.177042E-1,0E0,0E0,0E0,0E0,2.769581E-1,0E0,0E0,0E0,0E0],"parents":[2147483647,0,0,1,1,2,2,3,3,4,4,6,6,7,7,8,8,9,9,10,10,11,11,16,16,19,19,24,24],"right_children":[2,4,6,8,10,-1,12,14,16,18,20,22,-1,-1,-1,-1,24,-1,-1,26,-1,-1,-1,-1,28,-1,-1,-1,-1],"split_conditions":[2.41E1,2.16E1,1.6760847E-2,7.4E0,-6.4205474E-1,2.9581202E-2,3.01E-1,4.1E-1,1.5773004E-2,4.0207397E-2,9.580839E-2,-6.4205474E-1,2.1522857E-2,-3.8939808E-3,1.1483827E-3,4.4384124E-3,-8.382797E-1,4.8312307E-3,1.8653417E-2,3.4E1,-2.5041641E-3,1.4341171E-2,1.8301004E-3,2.1833084E-3,-6.016241E-1,1.1208315E-4,5.752788E-3,-8.1744144E-4,-3.0041335E-3],"split_indices":[0,0,7,0,5,0,3,3,7,7,7,5,0,0,0,0,6,0,0,4,0,0,0,0,5,0,0,0,0],"split_type":[0,0,0,0,0,0,0,0,0,0,0,0,0,0,0,0,0,0,0,0,0,0,0,0,0,0,0,0,0],"sum_hessian":[1.261E3,1.153E3,1.08E2,9.89E2,1.64E2,3.1E1,7.7E1,6.31E2,3.58E2,5.8E1,1.06E2,5.3E1,2.4E1,6.11E2,2E1,3.2E1,3.26E2,2.4E1,3.4E1,4.8E1,5.8E1,2.5E1,2.8E1,2.3E1,3.03E2,2.8E1,2E1,2.01E2,1.02E2],"tree_param":{"num_deleted":"0","num_feature":"8","num_nodes":"29","size_leaf_vector":"1"}},{"base_weights":[-5.9151594E-3,-4.793421E-2,5.185769E-1,-1.0590782E-1,2.658164E-2,6.628298E-3,6.807653E-1,-3.309744E-2,-3.810805E-3,1.7264563E-1,-3.4035075E-2,5.749622E-1,3.0832257E-2,1.4112387E-3,-2.7118567E-3,1.0533764E-1,1.8485328E-2,-2.7018157E-3,-1.6852872E-3,1.405917E-2,2.3819694E-2,3.049096E-1,9.021347E-3,-3.1741909E-3,1.1835724E-2,1.8723612E-3,1.7787874E-2,-5.0766584E-3,3.247486E-3,4.0308344E-3,-3.10915E-4],"categories":[],"categories_nodes":[],"categories_segments":[],"categories_sizes":[],"default_left":[1,1,1,1,0,0,0,0,0,0,0,0,0,0,0,0,0,0,0,0,0,0,0,0,0,0,0,0,0,0,0],"id":13,"left_children":[1,3,5,7,9,-1,11,13,-1,15,17,19,-1,-1,-1,21,-1,-1,23,-1,-1,25,27,-1,29,-1,-1,-1,-1,-1,-1],"loss_changes":[2.7635431E1,5.015749E0,4.892277E0,2.6778746E-1,4.4983044E0,0E0,1.4467583E0,1.6202061E-1,0E0,3.6930642E0,5.229895E-1,8.341675E-1,0E0,0E0,0E0,2.4211717E0,0E0,0E0,2.5805908E-1,0E0,0E0,2.2110918E0,1.152798E0,0E0,4.048449E-1,0E0,0E0,0E0,0E0,0E0,0E0],"parents":[2147483647,0,0,1,1,2,2,3,3,4,4,6,6,7,7,9,9,10,10,11,11,15,15,18,18,21,21,22,22,24,24],"right_children":[2,4,6,8,10,-1,12,14,-1,16,18,20,-1,-1,-1,22,-1,-1,24,-1,-1,26,28,-1,30,-1,-1,-1,-1,-1,-1],"split_conditions":[2.42E1,1.015E1,5.516E0,6.105182E-3,5.17E-1,6.628298E-3,2.2E1,2.37E1,-3.810805E-3,8.066E0,8.58E-1,9.786E0,3.0832257E-2,1.4112387E-3,-2.7118567E-3,6.6E-2,1.8485328E-2,-2.7018157E-3,9.53E1,1.405917E-2,2.3819694E-2,5.2021913E-2,2.26E-1,-3.1741909E-3,9.22E-1,1.8723612E-3,1.7787874E-2,-5.0766584E-3,3.247486E-3,4.0308344E-3,-3.10915E-4],"split_indices":[0,0,1,7,2,0,4,4,0,1,2,1,0,0,0,2,0,0,4,0,0,7,3,0,2,0,0,0,0,0,0],"split_type":[0,0,0,0,0,0,0,0,0,0,0,0,0,0,0,0,0,0,0,0,0,0,0,0,0,0,0,0,0,0,0],"sum_hessian":[1.254E3,1.161E3,9.3E1,6.53E2,5.08E2,3.1E1,6.2E1,4.7E1,6.06E2,1.49E2,3.59E2,4.2E1,2E1,1.8E1,2.9E1,1.26E2,2.3E1,1.5E2,2.09E2,1.8E1,2.4E1,4.1E1,8.5E1,2.7E1,1.82E2,1.9E1,2.2E1,3E1,5.5E1,3E1,1.52E2],"tree_param":{"num_deleted":"0","num_feature":"8","num_nodes":"31","size_leaf_vector":"1"}},{"base_weights":[4.43937E-3,-4.694667E-2,5.2563643E-1,-7.71974E-2,6.717918E-2,3.013692E-1,8.138338E-1,-9.930677E-2,-2.8639456E-2,2.3202091E-1,-8.1819005E-2,1.4845724E-2,5.8820136E-3,3.2934804E-2,2.1490637E-2,-3.6274889E-3,3.994732E-3,-2.9786774E-3,-6.124844E-3,1.1351502E-1,4.3222874E-1,-1.6172616E-3,-4.1536894E-3,3.3314405E-3,-2.2727743E-2,1.605859E-2,9.998026E-3,9.902673E-3,2.1238314E-2,-2.8530645E-4,-4.5762006E-3,-2.163742E-3,4.407624E-3],"categories":[],"categories_nodes":[],"categories_segments":[],"categories_sizes":[],"default_left":[1,1,1,1,0,0,0,0,0,0,1,0,0,0,0,0,0,0,0,0,0,0,0,0,0,0,0,0,0,0,0,0,0],"id":14,"left_children":[1,3,5,7,9,11,13,15,17,19,21,-1,-1,-1,-1,-1,-1,-1,23,25,27,-1,-1,-1,29,31,-1,-1,-1,-1,-1,-1,-1],"loss_changes":[3.3426025E1,3.9220073E0,7.23435E0,9.6369076E-1,5.8463E0,1.0818739E0,1.3512535E0,9.175644E-1,3.7016755E-1,2.6792312E0,1.7086315E-1,0E0,0E0,0E0,0E0,0E0,0E0,0E0,3.4912384E-1,1.2387705E0,1.1289978E0,0E0,0E0,0E0,2.794141E-1,4.1287088E-1,0E0,0E0,0E0,0E0,0E0,0E0,0E0],"parents":[2147483647,0,0,1,1,2,2,3,3,4,4,5,5,6,6,7,7,8,8,9,9,10,10,18,18,19,19,20,20,24,24,25,25],"right_children":[2,4,6,8,10,12,14,16,18,20,22,-1,-1,-1,-1,-1,-1,-1,24,26,28,-1,-1,-1,30,32,-1,-1,-1,-1,-1,-1,-1],"split_conditions":[2.41E1,2.02E1,8.428E0,7.4E0,5.77E-1,1.00946E-1,2.55E1,4.1E-1,-7.775971E-1,6.159E0,7.69736E-1,1.4845724E-2,5.8820136E-3,3.2934804E-2,2.1490637E-2,-3.6274889E-3,3.994732E-3,-2.9786774E-3,3.105E-1,-7.4410397E-1,1.49E-1,-1.6172616E-3,-4.1536894E-3,3.3314405E-3,6.159E0,2.27E1,9.998026E-3,9.902673E-3,2.1238314E-2,-2.8530645E-4,-4.5762006E-3,-2.163742E-3,4.407624E-3],"split_indices":[0,0,1,0,2,2,0,3,6,1,2,0,0,0,0,0,0,0,3,6,2,0,0,0,1,0,0,0,0,0,0,0,0],"split_type":[0,0,0,0,0,0,0,0,0,0,0,0,0,0,0,0,0,0,0,0,0,0,0,0,0,0,0,0,0,0,0,0,0],"sum_hessian":[1.248E3,1.136E3,1.12E2,8.98E2,2.38E2,6.3E1,4.9E1,6.17E2,2.81E2,1.13E2,1.25E2,3.1E1,3.2E1,2.7E1,2.2E1,5.98E2,1.9E1,7.8E1,2.03E2,7.1E1,4.2E1,6.7E1,5.8E1,2.8E1,1.75E2,4.6E1,2.5E1,2.4E1,1.8E1,1.55E2,2E1,2.7E1,1.9E1],"tree_param":{"num_deleted":"0","num_feature":"8","num_nodes":"33","size_leaf_vector":"1"}},{"base_weights":[7.911802E-3,-6.1748233E-2,2.5376168E-1,2.210649E-2,-8.777213E-2,3.3765534E-1,-1.0593894E-2,1.0482166E-2,-2.1786657E-3,1.8062837E-3,-9.2098236E-2,2.2819068E-2,2.8834298E-1,1.3337333E-3,-3.332987E-3,-4.4606924E-2,3.123634E-2,-9.6842736E-2,4.5504435E-6,2.2371744E-1,5.234864E-1,9.953401E-6,-2.735016E-3,9.195425E-2,-1.0770825E-3,-5.7697645E-4,-3.4340946E-3,2.7966732E-1,-2.2421388E-3,1.3503541E-2,2.162722E-2,1.8498945E-3,6.1473427E-3,7.4361935E-3,1.9427089E-2],"categories":[],"categories_nodes":[],"categories_segments":[],"categories_sizes":[],"default_left":[1,0,0,0,0,0,0,0,0,0,0,0,0,0,0,0,1,1,0,0,0,0,0,0,0,0,0,0,0,0,0,0,0,0,0],"id":15,"left_children":[1,3,5,7,9,11,13,-1,15,-1,17,-1,19,-1,-1,21,23,25,-1,27,29,-1,-1,31,-1,-1,-1,33,-1,-1,-1,-1,-1,-1,-1],"loss_changes":[2.1254057E1,2.110436E0,6.0778503E0,1.5843989E0,4.4918776E-1,3.3838253E0,2.851317E-1,0E0,2.9920268E-1,0E0,3.136034E-1,0E0,2.7475977E0,0E0,0E0,1.48278E-1,4.499161E-1,2.0000124E-1,0E0,2.2997217E0,5.43231E-1,0E0,0E0,1.9885069E-1,0E0,0E0,0E0,2.1290312E0,0E0,0E0,0E0,0E0,0E0,0E0,0E0],"parents":[2147483647,0,0,1,1,2,2,3,3,4,4,5,5,6,6,8,8,10,10,12,12,15,15,16,16,17,17,19,19,20,20,23,23,27,27],"right_children":[2,4,6,8,10,12,14,-1,16,-1,18,-1,20,-1,-1,22,24,26,-1,28,30,-1,-1,32,-1,-1,-1,34,-1,-1,-1,-1,-1,-1,-1],"split_conditions":[2.16E1,-6.016241E-1,-5.8778524E-1,9.1E-2,-8.382797E-1,1.089061E-2,1.2713675E-1,1.0482166E-2,1.5E2,1.8062837E-3,2.11E1,2.2819068E-2,2.49E1,1.3337333E-3,-3.332987E-3,9.6E1,1.4071295E-1,8.2875E-3,4.5504435E-6,7.14E-1,9.8E0,9.953401E-6,-2.735016E-3,-7.5266683E-1,-1.0770825E-3,-5.7697645E-4,-3.4340946E-3,6.375839E-2,-2.2421388E-3,1.3503541E-2,2.162722E-2,1.8498945E-3,6.1473427E-3,7.4361935E-3,1.9427089E-2],"split_indices":[0,5,5,2,6,7,7,0,4,0,0,0,0,0,0,4,7,2,0,2,4,0,0,5,0,0,0,7,0,0,0,0,0,0,0],"split_type":[0,0,0,0,0,0,0,0,0,0,0,0,0,0,0,0,0,0,0,0,0,0,0,0,0,0,0,0,0,0,0,0,0,0,0],"sum_hessian":[1.241E3,9.67E2,2.74E2,2.29E2,7.38E2,2.08E2,6.6E1,1.8E1,2.11E2,2.2E1,7.16E2,2.7E1,1.81E2,4.2E1,2.4E1,9.3E1,1.18E2,6.81E2,3.5E1,1.42E2,3.9E1,4.1E1,5.2E1,6E1,5.8E1,3E1,6.51E2,1.19E2,2.3E1,1.8E1,2.1E1,4.2E1,1.8E1,9.8E1,2.1E1],"tree_param":{"num_deleted":"0","num_feature":"8","num_nodes":"35","size_leaf_vector":"1"}},{"base_weights":[3.2581682E-3,-5.0750446E-2,3.506438E-1,5.077903E-2,-8.497201E-2,1.7831424E-1,6.7182565E-1,-2.4770597E-2,3.1460348E-1,-3.108089E-3,4.8311497E-3,4.002814E-1,1.8702446E-2,1.7084172E-2,2.8242052E-2,-3.639855E-3,-1.3877E-2,4.5024455E-3,1.9147176E-2,2.4084033E-2,6.34126E-3,5.44791E-3,-6.569854E-2,-2.8444785E-3,-6.806084E-4,-3.2730922E-4,-4.5809248E-3,6.7438226E-4,-1.8911499E-3],"categories":[],"categories_nodes":[],"categories_segments":[],"categories_sizes":[],"default_left":[1,0,1,1,1,0,0,0,0,0,0,0,0,0,0,0,0,0,0,0,0,0,0,0,0,0,0,0,0],"id":16,"left_children":[1,3,5,7,9,11,13,15,17,-1,-1,19,21,-1,-1,-1,23,-1,-1,-1,-1,-1,25,-1,27,-1,-1,-1,-1],"loss_changes":[2.3565985E1,3.7769353E0,9.35104E0,5.462374E0,1.1056914E0,3.8961132E0,1.5625954E0,1.8938726E-1,2.7395406E0,0E0,0E0,3.0056815E0,7.608188E-1,0E0,0E0,0E0,1.7190154E-1,0E0,0E0,0E0,0E0,0E0,1.5312016E-1,0E0,1.765372E-1,0E0,0E0,0E0,0E0],"parents":[2147483647,0,0,1,1,2,2,3,3,4,4,5,5,6,6,7,7,8,8,11,11,12,12,16,16,22,22,24,24],"right_children":[2,4,6,8,10,12,14,16,18,-1,-1,20,22,-1,-1,-1,24,-1,-1,-1,-1,-1,26,-1,28,-1,-1,-1,-1],"split_conditions":[2.27E1,-6.016241E-1,7.733E0,4.225524E0,2.6561E1,8.8108E-2,1.0874E1,1.637E0,5.2021913E-2,-3.108089E-3,4.8311497E-3,-6.4205474E-1,1.41E-1,1.7084172E-2,2.8242052E-2,-3.639855E-3,1.235E1,4.5024455E-3,1.9147176E-2,2.4084033E-2,6.34126E-3,5.44791E-3,2.935E-1,-2.8444785E-3,-7.295576E-1,-3.2730922E-4,-4.5809248E-3,6.7438226E-4,-1.8911499E-3],"split_indices":[0,5,1,1,1,2,1,1,7,0,0,5,2,0,0,0,0,0,0,0,0,0,3,0,5,0,0,0,0],"split_type":[0,0,0,0,0,0,0,0,0,0,0,0,0,0,0,0,0,0,0,0,0,0,0,0,0,0,0,0,0],"sum_hessian":[1.256E3,1.087E3,1.69E2,2.74E2,8.13E2,1.1E2,5.9E1,2.13E2,6.1E1,7.92E2,2.1E1,4.6E1,6.4E1,2.8E1,3.1E1,2.5E1,1.88E2,3.5E1,2.6E1,1.9E1,2.7E1,2.4E1,4E1,3E1,1.58E2,2.2E1,1.8E1,1.15E2,4.3E1],"tree_param":{"num_deleted":"0","num_feature":"8","num_nodes":"29","size_leaf_vector":"1"}},{"base_weights":[-4.725915E-3,-6.833159E-2,2.7308226E-1,-9.641065E-2,-1.614147E-2,1.4620492E-1,5.8355486E-1,-3.5556632E-3,3.560342E-2,9.42498E-3,-4.2294428E-2,2.3329695E-1,-1.986172E-3,1.0065449E-2,7.446682E-1,4.6003377E-3,-2.1626493E-3,2.3951977E-3,-5.2524533E-2,1.48913E-1,3.319213E-1,3.360703E-2,1.8325021E-2,-7.92755E-2,-1.1386672E-3,1.092224E-2,3.3387378E-2,1.6840292E-2,6.7801527E-3,-3.3551857E-3,-7.638601E-4,3.799693E-3,-1.3737547E-3],"categories":[],"categories_nodes":[],"categories_segments":[],"categories_sizes":[],"default_left":[1,1,1,0,0,0,0,0,0,0,0,0,0,0,0,0,0,0,0,0,0,0,0,0,0,0,0,0,0,0,0,0,0],"id":17,"left_children":[1,3,5,7,9,11,13,-1,15,-1,17,19,-1,-1,21,-1,-1,-1,23,25,27,-1,-1,29,-1,-1,31,-1,-1,-1,-1,-1,-1],"loss_changes":[2.191068E1,1.4783068E0,9.097065E0,6.6449976E-1,2.6954584E0,2.9194033E0,3.1144772E0,0E0,3.5305402E-1,0E0,3.7256014E-1,9.55358E-1,0E0,0E0,2.133051E0,0E0,0E0,0E0,1.5214759E-1,1.2224106E0,1.136363E0,0E0,0E0,1.3328815E-1,0E0,0E0,2.1224663E-1,0E0,0E0,0E0,0E0,0E0,0E0],"parents":[2147483647,0,0,1,1,2,2,3,3,4,4,5,5,6,6,8,8,10,10,11,11,14,14,18,18,19,19,20,20,23,23,26,26],"right_children":[2,4,6,8,10,12,14,-1,16,-1,18,20,-1,-1,22,-1,-1,-1,24,26,28,-1,-1,30,-1,-1,32,-1,-1,-1,-1,-1,-1],"split_conditions":[2.22E1,1.14E1,8.701E0,8.62E1,1.03E-1,5.39E-1,9E0,-3.5556632E-3,1.07E2,9.42498E-3,1.32E1,-7.5549334E-1,-1.986172E-3,1.0065449E-2,-7.6665884E-1,4.6003377E-3,-2.1626493E-3,2.3951977E-3,1.2907892E-1,2.5457438E-2,9.8E-2,3.360703E-2,1.8325021E-2,1.712E2,-1.1386672E-3,1.092224E-2,6.777E-2,1.6840292E-2,6.7801527E-3,-3.3551857E-3,-7.638601E-4,3.799693E-3,-1.3737547E-3],"split_indices":[0,0,1,1,2,2,4,0,4,0,0,6,0,0,6,0,0,0,7,7,2,0,0,4,0,0,2,0,0,0,0,0,0],"split_type":[0,0,0,0,0,0,0,0,0,0,0,0,0,0,0,0,0,0,0,0,0,0,0,0,0,0,0,0,0,0,0,0,0],"sum_hessian":[1.24E3,1.009E3,2.31E2,6.56E2,3.53E2,1.64E2,6.7E1,6.2E2,3.6E1,2.9E1,3.24E2,1.15E2,4.9E1,2.4E1,4.3E1,1.8E1,1.8E1,2.7E1,2.97E2,6.2E1,5.3E1,2E1,2.3E1,1.24E2,1.73E2,2.5E1,3.7E1,2.4E1,2.9E1,9.3E1,3.1E1,1.8E1,1.9E1],"tree_param":{"num_deleted":"0","num_feature":"8","num_nodes":"33","size_leaf_vector":"1"}},{"base_weights":[-3.3373523E-3,-3.6279693E-2,3.4087858E-1,-7.1751766E-2,7.5719126E-2,1.4116202E-1,5.9346354E-1,-7.617725E-2,4.7898446E-3,2.3660545E-1,-7.5095676E-2,9.766239E-3,7.711311E-2,2.4804704E-2,1.2459225E-2,-3.1198966E-3,-3.751419E-2,1.8019311E-1,2.0596692E-2,-5.035359E-3,-5.60358E-2,1.5661381E-4,5.757652E-3,-2.8068074E-3,-1.3474324E-2,8.1446883E-4,3.5646012E-1,-7.531941E-4,-3.3982333E-3,-1.4330908E-3,9.6687983E-4,-1.7423682E-3,3.966285E-3,3.2577903E-3,1.7102705E-2],"categories":[],"categories_nodes":[],"categories_segments":[],"categories_sizes":[],"default_left":[1,1,0,1,0,0,0,1,0,0,0,0,0,0,0,0,0,0,0,0,1,0,0,0,0,0,0,0,0,0,0,0,0,0,0],"id":18,"left_children":[1,3,5,7,9,11,13,15,-1,17,19,-1,21,-1,-1,-1,23,25,-1,-1,27,-1,-1,-1,29,31,33,-1,-1,-1,-1,-1,-1,-1,-1],"loss_changes":[1.4411499E1,4.6085396E0,5.597041E0,8.26293E-1,6.770443E0,5.7350755E-1,1.4816399E0,5.050349E-1,0E0,2.7866783E0,1.9778597E-1,0E0,2.8466174E-1,0E0,0E0,0E0,2.6052922E-1,3.6985445E0,0E0,0E0,1.6794199E-1,0E0,0E0,0E0,1.8801261E-1,3.4675565E-1,2.2190661E0,0E0,0E0,0E0,0E0,0E0,0E0,0E0,0E0],"parents":[2147483647,0,0,1,1,2,2,3,3,4,4,5,5,6,6,7,7,9,9,10,10,12,12,16,16,17,17,20,20,24,24,25,25,26,26],"right_children":[2,4,6,8,10,12,14,16,-1,18,20,-1,22,-1,-1,-1,24,26,-1,-1,28,-1,-1,-1,30,32,34,-1,-1,-1,-1,-1,-1,-1,-1],"split_conditions":[2.41E1,1.96E1,8.428E0,3.2314E1,5.77E-1,1.465E-1,3.4E-1,1.015E1,4.7898446E-3,8.428E0,9.511401E-2,9.766239E-3,2.47E1,2.4804704E-2,1.2459225E-2,-3.1198966E-3,3.305E-1,2.76E-1,2.0596692E-2,-5.035359E-3,1.4497042E-1,1.5661381E-4,5.757652E-3,-2.8068074E-3,1.9E2,6.42E1,4.27E0,-7.531941E-4,-3.3982333E-3,-1.4330908E-3,9.6687983E-4,-1.7423682E-3,3.966285E-3,3.2577903E-3,1.7102705E-2],"split_indices":[0,0,1,1,2,3,3,0,0,1,7,0,0,0,0,0,3,3,0,0,7,0,0,0,4,4,1,0,0,0,0,0,0,0,0],"split_type":[0,0,0,0,0,0,0,0,0,0,0,0,0,0,0,0,0,0,0,0,0,0,0,0,0,0,0,0,0,0,0,0,0,0,0],"sum_hessian":[1.271E3,1.16E3,1.11E2,8.81E2,2.79E2,6.2E1,4.9E1,8.63E2,1.8E1,1.35E2,1.44E2,1.9E1,4.3E1,3.1E1,1.8E1,6.2E2,2.43E2,1.17E2,1.8E1,3E1,1.14E2,2.4E1,1.9E1,8.5E1,1.58E2,5.8E1,5.9E1,6.4E1,5E1,9.4E1,6.4E1,4E1,1.8E1,2.1E1,3.8E1],"tree_param":{"num_deleted":"0","num_feature":"8","num_nodes":"35","size_leaf_vector":"1"}},{"base_weights":[3.291349E-3,-3.1828955E-2,4.484027E-1,6.0578484E-2,-7.018629E-2,-7.191928E-4,5.626251E-1,1.8141416E-1,-7.278434E-3,3.655065E-2,-7.7527665E-2,2.6526462E-2,4.3960992E-1,1.2781194E-1,3.1081998E-1,-4.0842414E-2,3.4132786E-2,-1.6353206E-3,6.413415E-3,-8.350305E-2,4.092491E-2,1.9532226E-2,1.1037286E-2,2.0960754E-1,-5.6280675E-3,1.5396263E-2,5.830674E-3,-3.4083899E-3,-2.13771E-2,7.871137E-2,-1.235954E-3,1.9517136E-3,-2.9943315E-3,5.132254E-3,-2.134851E-3,2.6912848E-3,9.5954565E-3,1.3523661E-3,-1.7061039E-3,1.4890928E-4,5.5875382E-3],"categories":[],"categories_nodes":[],"categories_segments":[],"categories_sizes":[],"default_left":[1,0,1,0,0,0,0,0,0,0,0,0,0,0,0,0,0,0,0,0,0,0,0,0,0,0,0,0,0,0,0,0,0,0,0,0,0,0,0,0,0],"id":19,"left_children":[1,3,5,7,9,-1,11,13,15,17,19,-1,21,23,25,27,29,-1,-1,31,33,-1,-1,35,-1,-1,-1,-1,37,39,-1,-1,-1,-1,-1,-1,-1,-1,-1,-1,-1],"loss_changes":[1.9667055E1,4.1329746E0,4.9353085E0,2.8048215E0,6.458297E-1,0E0,1.9409142E0,8.5165787E-1,3.0443335E-1,6.769923E-1,5.458684E-1,0E0,7.198343E-1,2.082445E0,7.0337796E-1,1.384295E-1,3.073379E-1,0E0,0E0,4.2817593E-1,4.1865394E-1,0E0,0E0,6.328912E-1,0E0,0E0,0E0,0E0,1.5851977E-1,3.7805995E-1,0E0,0E0,0E0,0E0,0E0,0E0,0E0,0E0,0E0,0E0,0E0],"parents":[2147483647,0,0,1,1,2,2,3,3,4,4,6,6,7,7,8,8,9,9,10,10,12,12,13,13,14,14,15,15,16,16,19,19,20,20,23,23,28,28,29,29],"right_children":[2,4,6,8,10,-1,12,14,16,18,20,-1,22,24,26,28,30,-1,-1,32,34,-1,-1,36,-1,-1,-1,-1,38,40,-1,-1,-1,-1,-1,-1,-1,-1,-1,-1,-1],"split_conditions":[2.43E1,-6.016241E-1,4.377E0,7.677319E-2,-8.382797E-1,-7.191928E-4,1.6236521E-2,8.066E0,-7.638886E-1,1.556E2,2.26E1,2.6526462E-2,-6.2876284E-1,6.438E0,1.5403789E-2,1.2748344E-1,-6.551564E-1,-1.6353206E-3,6.413415E-3,6.105182E-3,7.5E1,1.9532226E-2,1.1037286E-2,4.8201706E-2,-5.6280675E-3,1.5396263E-2,5.830674E-3,-3.4083899E-3,1.6501169E-1,1.5E1,-1.235954E-3,1.9517136E-3,-2.9943315E-3,5.132254E-3,-2.134851E-3,2.6912848E-3,9.5954565E-3,1.3523661E-3,-1.7061039E-3,1.4890928E-4,5.5875382E-3],"split_indices":[0,5,1,7,6,0,7,1,5,4,0,0,5,1,7,7,5,0,0,7,4,0,0,7,0,0,0,0,7,0,0,0,0,0,0,0,0,0,0,0,0],"split_type":[0,0,0,0,0,0,0,0,0,0,0,0,0,0,0,0,0,0,0,0,0,0,0,0,0,0,0,0,0,0,0,0,0,0,0,0,0,0,0,0,0],"sum_hessian":[1.258E3,1.166E3,9.2E1,3.42E2,8.24E2,1.8E1,7.4E1,1.23E2,2.19E2,5.3E1,7.71E2,2.7E1,4.7E1,8.7E1,3.6E1,1.21E2,9.8E1,3.4E1,1.9E1,7.34E2,3.7E1,2.2E1,2.5E1,6.8E1,1.9E1,1.8E1,1.8E1,3E1,9.1E1,6E1,3.8E1,2.1E1,7.13E2,1.8E1,1.9E1,2.4E1,4.4E1,2.9E1,6.2E1,3.2E1,2.8E1],"tree_param":{"num_deleted":"0","num_feature":"8","num_nodes":"41","size_leaf_vector":"1"}},{"base_weights":[-5.93176E-4,-5.644587E-2,2.1693388E-1,8.524108E-3,-7.739108E-2,-3.063145E-2,3.1516606E-1,-2.3954242E-2,8.20757E-3,1.3742896E-3,-8.124655E-2,-3.0112448E-3,1.2045039E-3,4.9005094E-1,2.2406235E-1,-2.6124804E-3,-5.1161705E-4,-2.952689E-3,1.09307915E-2,1.0795855E-2,2.180619E-2,1.5957685E-2,1.7296273E-1,-1.464335E-3,4.9270637E-2,-2.2442169E-3,3.1339196E-3,9.883149E-2,1.2414868E-2,-1.999134E-3,3.9650905E-3,1.3535401E-3,6.5502445E-3],"categories":[],"categories_nodes":[],"categories_segments":[],"categories_sizes":[],"default_left":[1,0,1,1,0,1,0,0,0,0,0,0,0,0,0,0,0,0,0,0,0,0,0,0,0,0,0,0,0,0,0,0,0],"id":20,"left_children":[1,3,5,7,9,11,13,15,-1,-1,17,-1,-1,19,21,-1,23,-1,25,-1,-1,-1,27,-1,29,-1,-1,31,-1,-1,-1,-1,-1],"loss_changes":[1.528374E1,1.3623877E0,6.251034E0,1.8371025E0,3.434291E-1,2.768409E-1,2.9288368E0,2.6325077E-1,0E0,0E0,3.5051346E-1,0E0,0E0,1.6214695E0,1.5004168E0,0E0,3.1205332E-1,0E0,2.4163449E-1,0E0,0E0,0E0,1.4102709E0,0E0,4.8985484E-1,0E0,0E0,3.9538282E-1,0E0,0E0,0E0,0E0,0E0],"parents":[2147483647,0,0,1,1,2,2,3,3,4,4,5,5,6,6,7,7,10,10,13,13,14,14,16,16,18,18,22,22,24,24,27,27],"right_children":[2,4,6,8,10,12,14,16,-1,-1,18,-1,-1,20,22,-1,24,-1,26,-1,-1,-1,28,-1,30,-1,-1,32,-1,-1,-1,-1,-1],"split_conditions":[2.16E1,-6.016241E-1,3.32E0,4.377E0,-8.382797E-1,2.285E0,2.17E1,1.481E2,8.20757E-3,1.3742896E-3,8.62E1,-3.0112448E-3,1.2045039E-3,9.5E0,-6.8077344E-1,-2.6124804E-3,1.53E1,-2.952689E-3,3.55339E-1,1.0795855E-2,2.180619E-2,1.5957685E-2,2.43E1,-1.464335E-3,2.21E0,-2.2442169E-3,3.1339196E-3,2.681635E-1,1.2414868E-2,-1.999134E-3,3.9650905E-3,1.3535401E-3,6.5502445E-3],"split_indices":[0,5,1,1,6,1,4,4,0,0,1,0,0,4,5,0,0,0,3,0,0,0,0,0,1,0,0,3,0,0,0,0,0],"split_type":[0,0,0,0,0,0,0,0,0,0,0,0,0,0,0,0,0,0,0,0,0,0,0,0,0,0,0,0,0,0,0,0,0],"sum_hessian":[1.258E3,1.001E3,2.57E2,2.44E2,7.57E2,7.3E1,1.84E2,2.14E2,3E1,2.4E1,7.33E2,3.9E1,3.4E1,6.3E1,1.21E2,6.6E1,1.48E2,6.94E2,3.9E1,2.9E1,3.4E1,2.1E1,1E2,8E1,6.8E1,2E1,1.9E1,7.2E1,2.8E1,2.6E1,4.2E1,4.4E1,2.8E1],"tree_param":{"num_deleted":"0","num_feature":"8","num_nodes":"33","size_leaf_vector":"1"}},{"base_weights":[2.2626333E-5,-3.653642E-2,3.7597054E-1,5.5531956E-2,-7.478049E-2,1.9652003E-1,6.470003E-1,7.684929E-3,2.4070656E-1,-2.6898887E-3,2.3503953E-3,3.0000842E-1,-6.750017E-4,1.3068322E-2,2.869618E-2,-1.17032025E-2,9.557382E-2,2.917828E-3,2.9848424E-1,5.378066E-3,1.511242E-2,-3.275183E-3,-3.1055857E-5,7.351482E-3,-2.1794313E-3,1.7404206E-2,5.145574E-3,-1.1679385E-3,1.1064735E-3],"categories":[],"categories_nodes":[],"categories_segments":[],"categories_sizes":[],"default_left":[1,0,1,1,0,0,0,1,0,0,0,0,0,0,0,0,0,0,0,0,0,0,1,0,0,0,0,0,0],"id":21,"left_children":[1,3,5,7,9,11,13,15,17,-1,-1,19,-1,-1,-1,21,23,-1,25,-1,-1,-1,27,-1,-1,-1,-1,-1,-1],"loss_changes":[1.7525175E1,4.0915937E0,5.492875E0,3.0205986E0,4.6660328E-1,1.5230248E0,2.2912521E0,4.62051E-1,6.2683964E-1,0E0,0E0,9.315977E-1,0E0,0E0,0E0,2.1782188E-1,9.347925E-1,0E0,1.5886664E0,0E0,0E0,0E0,2.1595421E-1,0E0,0E0,0E0,0E0,0E0,0E0],"parents":[2147483647,0,0,1,1,2,2,3,3,4,4,5,5,6,6,7,7,8,8,11,11,15,15,16,16,18,18,22,22],"right_children":[2,4,6,8,10,12,14,16,18,-1,-1,20,-1,-1,-1,22,24,-1,26,-1,-1,-1,28,-1,-1,-1,-1,-1,-1],"split_conditions":[2.41E1,-6.016241E-1,9.239E0,5.881E0,4.255E-1,4.9E1,-6.2876284E-1,2.17E1,2.04E1,-2.6898887E-3,2.3503953E-3,2.2E1,-6.750017E-4,1.3068322E-2,2.869618E-2,2.925E-1,-6.4205474E-1,2.917828E-3,2.32E1,5.378066E-3,1.511242E-2,-3.275183E-3,1.51E1,7.351482E-3,-2.1794313E-3,1.7404206E-2,5.145574E-3,-1.1679385E-3,1.1064735E-3],"split_indices":[0,5,1,1,3,4,5,0,4,0,0,4,0,0,0,3,5,0,4,0,0,0,0,0,0,0,0,0,0],"split_type":[0,0,0,0,0,0,0,0,0,0,0,0,0,0,0,0,0,0,0,0,0,0,0,0,0,0,0,0,0],"sum_hessian":[1.275E3,1.162E3,1.13E2,3.41E2,8.21E2,6.8E1,4.5E1,2.71E2,7E1,7.99E2,2.2E1,4.6E1,2.2E1,1.9E1,2.6E1,2.22E2,4.9E1,1.9E1,5.1E1,2.3E1,2.3E1,2.7E1,1.95E2,2.8E1,2.1E1,2.1E1,3E1,9.5E1,1E2],"tree_param":{"num_deleted":"0","num_feature":"8","num_nodes":"29","size_leaf_vector":"1"}},{"base_weights":[1.6919284E-3,1.2607835E-1,-6.26583E-2,2.916052E-1,-2.6197746E-2,9.640627E-3,-7.539109E-2,2.632831E-2,2.4032396E-1,-2.0718158E-3,-9.994733E-4,1.0225696E-1,-2.0757723E-3,-3.8847685E-2,-2.8091744E-3,1.693619E-1,3.2918254E-1,2.2174667E-3,-3.8359184E-2,8.03941E-3,5.9623993E-4,-2.4066062E-3,2.0672327E-3,2.2891873E-1,9.90709E-4,4.6173385E-1,2.2244594E-1,-3.0322548E-3,2.8914615E-4,5.8717243E-3,1.2975505E-2,1.1678857E-2,1.9642374E-2,1.597252E-3,1.6119417E-2],"categories":[],"categories_nodes":[],"categories_segments":[],"categories_sizes":[],"default_left":[0,0,0,0,1,0,0,0,0,0,0,0,0,0,0,0,0,0,0,0,0,0,0,0,0,0,0,0,0,0,0,0,0,0,0],"id":22,"left_children":[1,3,5,7,9,11,13,-1,15,-1,17,19,-1,21,-1,23,25,-1,27,-1,-1,-1,-1,29,-1,31,33,-1,-1,-1,-1,-1,-1,-1,-1],"loss_changes":[1.0141742E1,1.0889914E1,7.6887846E-1,5.081358E0,1.9513287E-1,8.152652E-1,1.7706156E-1,0E0,1.1773243E0,0E0,3.2006162E-1,6.086997E-1,0E0,3.5171622E-1,0E0,8.6864424E-1,1.1716442E0,0E0,1.96131E-1,0E0,0E0,0E0,0E0,6.263275E-1,0E0,4.9822235E-1,2.014235E0,0E0,0E0,0E0,0E0,0E0,0E0,0E0,0E0],"parents":[2147483647,0,0,1,1,2,2,3,3,4,4,5,5,6,6,8,8,10,10,11,11,13,13,15,15,16,16,18,18,23,23,25,25,26,26],"right_children":[2,4,6,8,10,12,14,-1,16,-1,18,20,-1,22,-1,24,26,-1,28,-1,-1,-1,-1,30,-1,32,34,-1,-1,-1,-1,-1,-1,-1,-1],"split_conditions":[-6.016241E-1,8.8325165E-2,-8.09017E-1,9.158308E-3,9.53E-1,1.200959E-1,2.14E-1,2.632831E-2,2.83969E-1,-2.0718158E-3,1.0185E0,7.53E-1,-2.0757723E-3,2.81E-1,-2.8091744E-3,1.90501E-1,1.06E-1,2.2174667E-3,-7.8564984E-1,8.03941E-3,5.9623993E-4,-2.4066062E-3,2.0672327E-3,-6.2876284E-1,9.90709E-4,3E-1,1.0874E1,-3.0322548E-3,2.8914615E-4,5.8717243E-3,1.2975505E-2,1.1678857E-2,1.9642374E-2,1.597252E-3,1.6119417E-2],"split_indices":[5,7,6,7,2,7,3,0,3,0,2,2,0,2,0,3,2,0,5,0,0,0,0,5,0,3,1,0,0,0,0,0,0,0,0],"split_type":[0,0,0,0,0,0,0,0,0,0,0,0,0,0,0,0,0,0,0,0,0,0,0,0,0,0,0,0,0,0,0,0,0,0,0],"sum_hessian":[1.267E3,4.32E2,8.35E2,2.07E2,2.25E2,1.25E2,7.1E2,2E1,1.87E2,9.5E1,1.3E2,5.4E1,7.1E1,1.12E2,5.98E2,1.04E2,8.3E1,4.7E1,8.3E1,2.1E1,3.3E1,8.5E1,2.7E1,7.3E1,3.1E1,3.7E1,4.6E1,4E1,4.3E1,5.3E1,2E1,1.8E1,1.9E1,2.7E1,1.9E1],"tree_param":{"num_deleted":"0","num_feature":"8","num_nodes":"35","size_leaf_vector":"1"}},{"base_weights":[4.4749277E-3,-3.145954E-2,3.752722E-1,-7.0405826E-2,3.1179152E-2,2.207766E-2,2.72744E-1,3.7483934E-3,-2.5724426E-3,1.2479718E-1,-1.8507136E-2,2.5237484E-3,4.135163E-1,2.450844E-1,4.4561382E-2,5.2917013E-3,-3.265108E-2,6.853199E-3,2.0273808E-2,2.484064E-3,3.4663177E-1,5.529148E-3,1.3853173E-3,-1.3807353E-3,2.195028E-3,1.7295523E-2,7.158072E-3,-2.0494203E-3,2.27415E-3],"categories":[],"categories_nodes":[],"categories_segments":[],"categories_sizes":[],"default_left":[1,0,0,0,0,0,0,0,0,0,0,0,0,0,1,0,1,0,0,0,0,0,0,0,0,0,0,0,0],"id":23,"left_children":[1,3,5,7,9,-1,11,-1,-1,13,15,-1,17,19,21,-1,23,-1,-1,-1,25,-1,27,-1,-1,-1,-1,-1,-1],"loss_changes":[1.7043102E1,2.8446572E0,3.1357584E0,6.338594E-1,2.0795972E0,0E0,2.2941618E0,0E0,0E0,1.4950979E0,7.158643E-1,0E0,1.8359833E0,1.0839505E0,4.7050765E-1,0E0,2.0313507E-1,0E0,0E0,0E0,8.5088634E-1,0E0,2.721229E-1,0E0,0E0,0E0,0E0,0E0,0E0],"parents":[2147483647,0,0,1,1,2,2,3,3,4,4,6,6,9,9,10,10,12,12,13,13,14,14,16,16,20,20,22,22],"right_children":[2,4,6,8,10,-1,12,-1,-1,14,16,-1,18,20,22,-1,24,-1,-1,-1,26,-1,28,-1,-1,-1,-1,-1,-1],"split_conditions":[2.41E1,1.51E1,1.6236521E-2,5.387807E-3,8.326395E-2,2.207766E-2,2.48879E-1,3.7483934E-3,-2.5724426E-3,-6.551564E-1,1.57E1,2.5237484E-3,2.5E1,4.0207397E-2,2.07E1,5.2917013E-3,2.32E1,6.853199E-3,2.0273808E-2,2.484064E-3,1.061E2,5.529148E-3,2.27E1,-1.3807353E-3,2.195028E-3,1.7295523E-2,7.158072E-3,-2.0494203E-3,2.27415E-3],"split_indices":[0,0,7,7,7,0,3,0,0,5,0,0,0,7,0,0,0,0,0,0,4,0,0,0,0,0,0,0,0],"split_type":[0,0,0,0,0,0,0,0,0,0,0,0,0,0,0,0,0,0,0,0,0,0,0,0,0,0,0,0,0],"sum_hessian":[1.279E3,1.166E3,1.13E2,7.19E2,4.47E2,3.1E1,8.2E1,1.9E1,7E2,1.55E2,2.92E2,3.4E1,4.8E1,6.2E1,9.3E1,2.2E1,2.7E2,2.2E1,2.6E1,2.3E1,3.9E1,2.5E1,6.8E1,2.5E2,2E1,1.8E1,2.1E1,3.5E1,3.3E1],"tree_param":{"num_deleted":"0","num_feature":"8","num_nodes":"29","size_leaf_vector":"1"}},{"base_weights":[9.517701E-3,-5.3398736E-2,1.8075463E-1,-2.7095017E-3,-2.0711527E-3,2.7296722E-1,3.0425303E-2,3.6366133E-3,-1.5250656E-2,4.872657E-1,2.1508284E-1,1.0806907E-2,-7.859635E-4,-4.03159E-2,1.464284E-2,1.1112676E-2,2.4625858E-2,9.456086E-2,3.5997203E-1,-5.4931972E-2,2.222653E-3,6.0284927E-2,-9.6005655E-4,1.6086337E-1,-4.098631E-3,2.5900185E-1,1.9474778E-2,-2.5589892E-3,2.9944914E-4,3.8683657E-3,-4.693279E-4,8.3825376E-4,9.3938615E-3,1.3378919E-2,5.561269E-3],"categories":[],"categories_nodes":[],"categories_segments":[],"categories_sizes":[],"default_left":[1,0,0,0,0,0,0,0,0,0,0,0,0,1,0,0,0,0,0,0,0,0,0,0,0,0,0,0,0,0,0,0,0,0,0],"id":24,"left_children":[1,3,5,-1,7,9,11,-1,13,15,17,-1,-1,19,21,-1,-1,23,25,27,-1,29,-1,31,-1,33,-1,-1,-1,-1,-1,-1,-1,-1,-1],"loss_changes":[1.3392128E1,1.208811E0,4.6291428E0,0E0,4.3598413E-1,2.565012E0,1.9411914E0,0E0,2.0389134E-1,1.6602316E0,2.8449054E0,0E0,0E0,2.2795665E-1,2.4204408E-1,0E0,0E0,1.2663189E0,1.5664186E0,1.656104E-1,0E0,2.3550059E-1,0E0,1.0570292E0,0E0,6.360152E-1,0E0,0E0,0E0,0E0,0E0,0E0,0E0,0E0,0E0],"parents":[2147483647,0,0,1,1,2,2,4,4,5,5,6,6,8,8,9,9,10,10,13,13,14,14,17,17,18,18,19,19,21,21,23,23,25,25],"right_children":[2,4,6,-1,8,10,12,-1,14,16,18,-1,-1,20,22,-1,-1,24,26,28,-1,30,-1,32,-1,34,-1,-1,-1,-1,-1,-1,-1,-1,-1],"split_conditions":[2.02E1,7.4E0,-6.016241E-1,-2.7095017E-3,6.74E1,6.6E-2,2.28E1,3.6366133E-3,1.595E2,4.5E-2,2.41E1,1.0806907E-2,-7.859635E-4,1.97E1,9.97E-1,1.1112676E-2,2.4625858E-2,7.84114E-1,3.34E-1,3.545E-1,2.222653E-3,1.74E1,-9.6005655E-4,1.26E-1,-4.098631E-3,1.00946E-1,1.9474778E-2,-2.5589892E-3,2.9944914E-4,3.8683657E-3,-4.693279E-4,8.3825376E-4,9.3938615E-3,1.3378919E-2,5.561269E-3],"split_indices":[0,0,5,0,4,2,4,0,4,2,0,0,0,0,2,0,0,2,2,3,0,0,0,2,0,2,0,0,0,0,0,0,0,0,0],"split_type":[0,0,0,0,0,0,0,0,0,0,0,0,0,0,0,0,0,0,0,0,0,0,0,0,0,0,0,0,0,0,0,0,0,0,0],"sum_hessian":[1.243E3,9.09E2,3.34E2,6.04E2,3.05E2,2.07E2,1.27E2,3.3E1,2.72E2,4.4E1,1.63E2,2E1,1.07E2,1.48E2,1.24E2,2.6E1,1.8E1,8.9E1,7.4E1,1.3E2,1.8E1,6E1,6.4E1,6.8E1,2.1E1,5E1,2.4E1,9.9E1,3.1E1,3.5E1,2.5E1,3.1E1,3.7E1,2.1E1,2.9E1],"tree_param":{"num_deleted":"0","num_feature":"8","num_nodes":"35","size_leaf_vector":"1"}},{"base_weights":[-1.4913533E-2,-4.0309433E-2,3.177447E-1,7.254778E-2,-5.3742886E-2,1.674691E-2,2.299497E-1,-2.1145267E-2,1.5154096E-2,-5.875064E-2,4.1354727E-3,3.0339697E-1,2.5660486E-3,-2.0303058E-3,2.012813E-3,-1.0397445E-2,-6.599191E-2,5.1322943E-3,1.4638281E-2,-3.9311275E-2,5.8931257E-3,-2.6685582E-3,-4.9626447E-2,-3.4009605E-3,3.2162818E-4,-2.7088348E-3,-6.314315E-4],"categories":[],"categories_nodes":[],"categories_segments":[],"categories_sizes":[],"default_left":[1,0,0,0,0,0,0,0,0,1,0,0,0,0,0,1,0,0,0,0,0,0,0,0,0,0,0],"id":25,"left_children":[1,3,5,7,9,-1,11,13,-1,15,-1,17,-1,-1,-1,19,21,-1,-1,23,-1,-1,25,-1,-1,-1,-1],"loss_changes":[1.0601772E1,1.7677115E0,1.3448162E0,4.3122945E0,9.1197443E-1,0E0,6.6977334E-1,3.0351406E-1,0E0,3.5446334E-1,0E0,7.643721E-1,0E0,0E0,0E0,6.9775784E-1,1.7437124E-1,0E0,0E0,3.3491856E-1,0E0,0E0,3.4617335E-1,0E0,0E0,0E0,0E0],"parents":[2147483647,0,0,1,1,2,2,3,3,4,4,6,6,7,7,9,9,11,11,15,15,16,16,19,19,22,22],"right_children":[2,4,6,8,10,-1,12,14,-1,16,-1,18,-1,-1,-1,20,22,-1,-1,24,-1,-1,26,-1,-1,-1,-1],"split_conditions":[2.43E1,7.1E-2,1.6465422E-2,5.2021913E-2,4.1E-1,1.674691E-2,2.54E1,5.4E0,1.5154096E-2,1.92646E-1,4.1354727E-3,2.375E-1,2.5660486E-3,-2.0303058E-3,2.012813E-3,1.49E-1,1.015E1,5.1322943E-3,1.4638281E-2,5.3306237E-2,5.8931257E-3,-2.6685582E-3,1.459E2,-3.4009605E-3,3.2162818E-4,-2.7088348E-3,-6.314315E-4],"split_indices":[0,2,7,7,3,0,0,0,0,2,0,3,0,0,0,2,0,0,0,7,0,0,4,0,0,0,0],"split_type":[0,0,0,0,0,0,0,0,0,0,0,0,0,0,0,0,0,0,0,0,0,0,0,0,0,0,0],"sum_hessian":[1.255E3,1.166E3,8.9E1,1.24E2,1.042E3,3E1,5.9E1,9.9E1,2.5E1,1.013E3,2.9E1,4E1,1.9E1,6.7E1,3.2E1,1.32E2,8.81E2,1.8E1,2.2E1,1.14E2,1.8E1,5.06E2,3.75E2,5.1E1,6.3E1,1.92E2,1.83E2],"tree_param":{"num_deleted":"0","num_feature":"8","num_nodes":"27","size_leaf_vector":"1"}},{"base_weights":[-5.7133553E-3,-3.5697322E-2,3.4816727E-1,-6.607686E-2,5.78638E-3,1.4283098E-1,5.9537375E-1,-2.4354525E-3,1.1287999E-3,-2.9591145E-2,2.5113198E-1,1.1849198E-2,1.2904565E-3,2.6272597E-2,1.2520371E-2,8.317409E-2,-4.575324E-2,3.9966697E-1,-1.8192208E-3,-3.0439908E-3,7.3565803E-3,-7.008019E-2,6.4941536E-4,2.033291E-2,5.1086573E-3,-2.04045E-3,-5.0092326E-3],"categories":[],"categories_nodes":[],"categories_segments":[],"categories_sizes":[],"default_left":[1,0,1,0,1,0,0,0,0,0,1,0,0,0,0,0,0,0,0,0,0,1,0,0,0,0,0],"id":26,"left_children":[1,3,5,7,9,11,13,-1,-1,15,17,-1,-1,-1,-1,19,21,23,-1,-1,-1,25,-1,-1,-1,-1,-1],"loss_changes":[1.3177793E1,1.4431814E0,4.9213514E0,3.4170794E-1,4.2017508E0,1.1349025E0,1.7439489E0,0E0,0E0,7.708575E-1,2.7594073E0,0E0,0E0,0E0,0E0,1.2074505E0,5.8309966E-1,2.0025802E0,0E0,0E0,0E0,2.1251011E-1,0E0,0E0,0E0,0E0,0E0],"parents":[2147483647,0,0,1,1,2,2,3,3,4,4,5,5,6,6,9,9,10,10,15,15,16,16,17,17,21,21],"right_children":[2,4,6,8,10,12,14,-1,-1,16,18,-1,-1,-1,-1,20,22,24,-1,-1,-1,26,-1,-1,-1,-1,-1],"split_conditions":[2.43E1,1.29E1,8.701E0,8.62E1,5.881E0,9.8E-2,-7.6665884E-1,-2.4354525E-3,1.1287999E-3,1.03E-1,2.29E1,1.1849198E-2,1.2904565E-3,2.6272597E-2,1.2520371E-2,2.64E-1,3.485E-1,8.61E1,-1.8192208E-3,-3.0439908E-3,7.3565803E-3,3.751E0,6.4941536E-4,2.033291E-2,5.1086573E-3,-2.04045E-3,-5.0092326E-3],"split_indices":[0,0,1,1,1,2,6,0,0,2,0,0,0,0,0,3,3,4,0,0,0,1,0,0,0,0,0],"split_type":[0,0,0,0,0,0,0,0,0,0,0,0,0,0,0,0,0,0,0,0,0,0,0,0,0,0,0],"sum_hessian":[1.242E3,1.145E3,9.7E1,6.61E2,4.84E2,5.3E1,4.4E1,6.28E2,3.3E1,4.23E2,6.1E1,1.8E1,3.5E1,2.5E1,1.9E1,5.3E1,3.7E2,4.1E1,2E1,2.3E1,3E1,2.69E2,1.01E2,2.3E1,1.8E1,2.37E2,3.2E1],"tree_param":{"num_deleted":"0","num_feature":"8","num_nodes":"27","size_leaf_vector":"1"}},{"base_weights":[-9.4049063E-4,1.0797629E-1,-5.6753E-2,2.645374E-1,2.0106722E-2,-2.098741E-3,3.7849795E-3,1.8280918E-2,2.1769695E-1,1.2035859E-1,-1.1092928E-2,1.02468014E-1,3.4565622E-1,1.4855597E-3,7.6709744E-3,-2.000237E-3,1.1299109E-2,1.1360713E-2,-3.345467E-2,2.3946945E-2,2.0337522E-1,6.8048455E-2,-5.524312E-4,-5.5928584E-3,2.2357008E-3,1.5079627E-2,9.989233E-4,-3.3157232E-4,5.1000672E-3],"categories":[],"categories_nodes":[],"categories_segments":[],"categories_sizes":[],"default_left":[0,0,0,0,0,0,0,0,0,0,0,0,1,0,0,0,0,0,0,0,0,0,0,0,0,0,0,0,0],"id":27,"left_children":[1,3,5,7,9,-1,-1,-1,11,13,15,17,19,-1,-1,-1,21,-1,23,-1,25,27,-1,-1,-1,-1,-1,-1,-1],"loss_changes":[7.787031E0,5.9697447E0,6.642208E-1,1.9741993E0,8.698878E-1,0E0,0E0,0E0,1.959568E0,5.278001E-1,2.2543873E-1,2.1903155E0,3.181634E0,0E0,0E0,0E0,2.246523E-1,0E0,5.672808E-1,0E0,1.8640742E0,2.9735392E-1,0E0,0E0,0E0,0E0,0E0,0E0,0E0],"parents":[2147483647,0,0,1,1,2,2,3,3,4,4,8,8,9,9,10,10,11,11,12,12,16,16,18,18,20,20,21,21],"right_children":[2,4,6,8,10,-1,-1,-1,12,14,16,18,20,-1,-1,-1,22,-1,24,-1,26,28,-1,-1,-1,-1,-1,-1,-1],"split_conditions":[-6.016241E-1,5.02E1,4.71E-1,1.089061E-2,1.73E-1,-2.098741E-3,3.7849795E-3,1.8280918E-2,2.26E-1,5.8714844E-2,9.59E-1,2.2E1,1.18E-1,1.4855597E-3,7.6709744E-3,-2.000237E-3,1.4282556E-1,1.1360713E-2,-6.551564E-1,2.3946945E-2,3.1491935E-2,-7.961829E-1,-5.524312E-4,-5.5928584E-3,2.2357008E-3,1.5079627E-2,9.989233E-4,-3.3157232E-4,5.1000672E-3],"split_indices":[5,4,3,7,2,0,0,0,3,7,2,4,2,0,0,0,7,0,5,0,7,5,0,0,0,0,0,0,0],"split_type":[0,0,0,0,0,0,0,0,0,0,0,0,0,0,0,0,0,0,0,0,0,0,0,0,0,0,0,0,0],"sum_hessian":[1.281E3,4.34E2,8.47E2,1.56E2,2.78E2,8.24E2,2.3E1,2.3E1,1.33E2,6.6E1,2.12E2,7E1,6.3E1,3.8E1,2.8E1,6.8E1,1.44E2,2.6E1,4.4E1,1.8E1,4.5E1,4.7E1,9.7E1,1.9E1,2.5E1,1.9E1,2.6E1,2.4E1,2.3E1],"tree_param":{"num_deleted":"0","num_feature":"8","num_nodes":"29","size_leaf_vector":"1"}},{"base_weights":[-7.088445E-4,9.208967E-2,-4.386233E-2,2.4184171E-2,5.839137E-2,-4.9435318E-2,5.842352E-3,2.987109E-1,2.4045613E-2,3.8426857E-2,-5.684536E-2,4.813469E-3,1.8423207E-2,6.9017883E-4,8.666496E-3,3.2000227E-3,-1.9857506E-3,-2.0540492E-3,4.5023003E-4,8.186695E-2,-2.7191928E-2,1.368376E-3,6.6672903E-3,-3.800352E-5,-3.1962274E-3],"categories":[],"categories_nodes":[],"categories_segments":[],"categories_sizes":[],"default_left":[0,0,0,0,0,0,0,0,1,0,1,0,0,0,0,0,0,0,0,1,0,0,0,0,0],"id":28,"left_children":[1,3,5,-1,7,9,-1,11,13,15,17,-1,-1,19,-1,-1,-1,-1,-1,21,23,-1,-1,-1,-1],"loss_changes":[5.109759E0,8.402292E0,1.0427505E0,0E0,3.168579E0,5.5282664E-1,0E0,1.8200464E0,1.8013667E0,3.5222548E-1,1.800158E-1,0E0,0E0,6.905235E-1,0E0,0E0,0E0,0E0,0E0,3.687874E-1,3.926335E-1,0E0,0E0,0E0,0E0],"parents":[2147483647,0,0,1,1,2,2,4,4,5,5,7,7,8,8,9,9,10,10,13,13,19,19,20,20],"right_children":[2,4,6,-1,8,10,-1,12,14,16,18,-1,-1,20,-1,-1,-1,-1,-1,22,24,-1,-1,-1,-1],"split_conditions":[-6.016241E-1,1.0108303E-2,4.255E-1,2.4184171E-2,6.6E-2,-8.382797E-1,5.842352E-3,5.721E0,9.786E0,2.94558E-1,1.6582E1,4.813469E-3,1.8423207E-2,2.87E-1,8.666496E-3,3.2000227E-3,-1.9857506E-3,-2.0540492E-3,4.5023003E-4,1.49E-1,-7.1767694E-1,1.368376E-3,6.6672903E-3,-3.800352E-5,-3.1962274E-3],"split_indices":[5,7,3,0,2,6,0,1,1,3,1,0,0,3,0,0,0,0,0,2,5,0,0,0,0],"split_type":[0,0,0,0,0,0,0,0,0,0,0,0,0,0,0,0,0,0,0,0,0,0,0,0,0],"sum_hessian":[1.276E3,4.05E2,8.71E2,2.1E1,3.84E2,8.49E2,2.2E1,4.8E1,3.36E2,6.6E1,7.83E2,2.9E1,1.9E1,3.05E2,3.1E1,4.2E1,2.4E1,7.48E2,3.5E1,7.8E1,2.27E2,5.7E1,2.1E1,1.63E2,6.4E1],"tree_param":{"num_deleted":"0","num_feature":"8","num_nodes":"25","size_leaf_vector":"1"}},{"base_weights":[7.2051454E-3,-1.44816125E-2,3.9214918E-1,6.30426E-2,-4.82236E-2,1.6158317E-3,5.4613817E-1,1.7132869E-2,3.7679203E-2,-5.2596044E-2,3.432319E-3,2.60881E-2,1.3606191E-2,1.4860812E-1,-9.33096E-3,3.531035E-3,-5.6313865E-2,6.848885E-2,1.1144671E-2,5.4211714E-3,-7.998924E-2,1.9701092E-2,-6.2275894E-2,6.553316E-3,-9.2385046E-4,-1.250983E-3,2.1462895E-3,-4.6082406E-4,-4.431654E-3,3.0473766E-3,-6.721781E-4,-2.2195945E-3,1.0206469E-3],"categories":[],"categories_nodes":[],"categories_segments":[],"categories_sizes":[],"default_left":[1,0,0,0,0,0,0,0,0,0,0,0,0,0,0,0,0,0,0,0,0,0,0,0,0,0,0,0,0,0,0,0,0],"id":29,"left_children":[1,3,5,7,9,-1,11,-1,13,15,-1,-1,-1,17,19,-1,21,23,-1,25,27,29,31,-1,-1,-1,-1,-1,-1,-1,-1,-1,-1],"loss_changes":[1.064515E1,3.1572933E0,3.6094704E0,4.0686717E0,5.466838E-1,0E0,1.5061932E0,0E0,1.8047725E0,4.7361803E-1,0E0,0E0,0E0,1.4645333E0,2.5352317E-1,0E0,3.6179376E-1,8.371849E-1,0E0,4.8518172E-1,1.3849682E-1,1.5896852E-1,1.839571E-1,0E0,0E0,0E0,0E0,0E0,0E0,0E0,0E0,0E0,0E0],"parents":[2147483647,0,0,1,1,2,2,3,3,4,4,6,6,8,8,9,9,13,13,14,14,16,16,17,17,19,19,20,20,21,21,22,22],"right_children":[2,4,6,8,10,-1,12,-1,14,16,-1,-1,-1,18,20,-1,22,24,-1,26,28,30,32,-1,-1,-1,-1,-1,-1,-1,-1,-1,-1],"split_conditions":[2.47E1,-6.016241E-1,-6.4205474E-1,1.4468759E-2,4.255E-1,1.6158317E-3,2.2011971E-2,1.7132869E-2,6.0484722E-2,6.105182E-3,3.432319E-3,2.60881E-2,1.3606191E-2,4.8201706E-2,-6.4205474E-1,3.531035E-3,-8.382797E-1,2.26E1,1.1144671E-2,-7.7488405E-1,2.07E1,2.11E1,2.46E1,6.553316E-3,-9.2385046E-4,-1.250983E-3,2.1462895E-3,-4.6082406E-4,-4.431654E-3,3.0473766E-3,-6.721781E-4,-2.2195945E-3,1.0206469E-3],"split_indices":[0,5,5,7,3,0,7,0,7,7,0,0,0,7,5,0,6,0,0,5,0,0,0,0,0,0,0,0,0,0,0,0,0],"split_type":[0,0,0,0,0,0,0,0,0,0,0,0,0,0,0,0,0,0,0,0,0,0,0,0,0,0,0,0,0,0,0,0,0],"sum_hessian":[1.275E3,1.207E3,6.8E1,3.66E2,8.41E2,2.1E1,4.7E1,2E1,3.46E2,8.17E2,2.4E1,1.9E1,2.8E1,1.03E2,2.43E2,1.9E1,7.98E2,7.1E1,3.2E1,2.01E2,4.2E1,5.8E1,7.4E2,3.1E1,4E1,1.16E2,8.5E1,1.8E1,2.4E1,2.1E1,3.7E1,7.19E2,2.1E1],"tree_param":{"num_deleted":"0","num_feature":"8","num_nodes":"33","size_leaf_vector":"1"}},{"base_weights":[-6.8432917E-3,-4.3800972E-2,1.3180387E-1,-6.150502E-2,-6.7937095E-3,6.6024125E-2,3.9606383E-1,-6.7291394E-2,2.0017596E-3,-2.4088928E-2,9.212924E-3,9.950627E-2,-2.264059E-3,1.9762976E-2,2.3691463E-3,-5.8133535E-2,-3.2366505E-3,-7.251044E-2,6.1927964E-3,7.026881E-2,1.1823991E-2,-2.1789076E-3,1.6990509E-3,-1.7626077E-3,-6.1552497E-3,-9.061255E-4,5.401321E-2,2.952353E-2,1.8048307E-1,5.499789E-3,3.539353E-4,3.2077562E-3,-7.925146E-4,9.636261E-3,2.514535E-3],"categories":[],"categories_nodes":[],"categories_segments":[],"categories_sizes":[],"default_left":[1,1,1,0,1,0,0,0,0,0,0,0,0,0,0,0,0,1,1,0,0,0,0,0,0,0,0,0,0,0,0,0,0,0,0],"id":30,"left_children":[1,3,5,7,9,11,13,15,-1,17,-1,19,-1,-1,-1,21,-1,23,25,27,-1,-1,-1,-1,-1,-1,29,31,33,-1,-1,-1,-1,-1,-1],"loss_changes":[6.476654E0,6.53669E-1,4.622445E0,4.691472E-1,1.5438391E0,9.4368196E-1,3.1572752E0,1.6141343E-1,0E0,4.459598E-1,0E0,1.2243689E0,0E0,0E0,0E0,2.9429138E-1,0E0,2.6273882E-1,2.9266968E-1,6.8196505E-1,0E0,0E0,0E0,0E0,0E0,0E0,3.5442382E-1,3.7697074E-1,4.4404447E-1,0E0,0E0,0E0,0E0,0E0,0E0],"parents":[2147483647,0,0,1,1,2,2,3,3,4,4,5,5,6,6,7,7,9,9,11,11,15,15,17,17,18,18,19,19,26,26,27,27,28,28],"right_children":[2,4,6,8,10,12,14,16,-1,18,-1,20,-1,-1,-1,22,-1,24,26,28,-1,-1,-1,-1,-1,-1,30,32,34,-1,-1,-1,-1,-1,-1],"split_conditions":[2.16E1,1.1E1,9.613E0,8.62E1,5.516E0,1.2138171E-1,1.4038238E1,6.682118E0,2.0017596E-3,1.314E2,9.212924E-3,-7.086267E-1,-2.264059E-3,1.9762976E-2,2.3691463E-3,3.7E-1,-3.2366505E-3,3.371E0,2.65E0,2.45E1,1.1823991E-2,-2.1789076E-3,1.6990509E-3,-1.7626077E-3,-6.1552497E-3,-9.061255E-4,2.921E0,4.321E0,2.3E1,5.499789E-3,3.539353E-4,3.2077562E-3,-7.925146E-4,9.636261E-3,2.514535E-3],"split_indices":[0,0,1,1,1,7,1,1,0,4,0,6,0,0,0,3,0,1,1,0,0,0,0,0,0,0,1,1,4,0,0,0,0,0,0],"split_type":[0,0,0,0,0,0,0,0,0,0,0,0,0,0,0,0,0,0,0,0,0,0,0,0,0,0,0,0,0,0,0,0,0,0,0],"sum_hessian":[1.264E3,9.98E2,2.66E2,6.75E2,3.23E2,2.13E2,5.3E1,6.44E2,3.1E1,3.04E2,1.9E1,1.7E2,4.3E1,3.4E1,1.9E1,4.83E2,1.61E2,1.17E2,1.87E2,1.52E2,1.8E1,4.59E2,2.4E1,9.8E1,1.9E1,1.11E2,7.6E1,1.11E2,4.1E1,2.2E1,5.4E1,5E1,6.1E1,2.1E1,2E1],"tree_param":{"num_deleted":"0","num_feature":"8","num_nodes":"35","size_leaf_vector":"1"}},{"base_weights":[-8.127348E-3,-3.459783E-2,2.1365245E-1,-6.283631E-2,-3.6825667E-4,6.2422324E-2,4.0199265E-1,-2.3430034E-3,1.1828151E-3,7.076928E-2,-1.5299997E-2,-1.7478211E-3,1.3655937E-1,1.9739194E-2,6.1628134E-3,5.0036283E-3,1.13952905E-2,-3.342176E-2,3.1338263E-2,1.0701208E-2,4.1221146E-4,7.718105E-2,-3.699925E-3,1.6425162E-3,-4.155436E-2,9.513278E-2,-8.3494576E-4,-1.4726885E-3,5.7633636E-3,-7.058905E-4,-2.8611193E-3,8.3133485E-3,8.477682E-4],"categories":[],"categories_nodes":[],"categories_segments":[],"categories_sizes":[],"default_left":[1,1,1,0,0,0,0,0,0,0,0,0,0,0,0,0,0,1,0,0,0,0,0,0,0,0,0,0,0,0,0,0,0],"id":31,"left_children":[1,3,5,7,9,11,13,-1,-1,15,17,-1,19,-1,-1,21,-1,23,25,-1,-1,27,-1,-1,29,31,-1,-1,-1,-1,-1,-1,-1],"loss_changes":[7.5433145E0,1.1094677E0,3.9007902E0,3.524766E-1,5.51138E-1,6.40343E-1,2.3737993E0,0E0,0E0,1.5545626E0,3.625965E-1,0E0,1.0109968E0,0E0,0E0,5.888607E-1,0E0,2.048108E-1,4.2725503E-1,0E0,0E0,4.8491025E-1,0E0,0E0,2.4740079E-1,5.8287656E-1,0E0,0E0,0E0,0E0,0E0,0E0,0E0],"parents":[2147483647,0,0,1,1,2,2,3,3,4,4,5,5,6,6,9,9,10,10,12,12,15,15,17,17,18,18,21,21,24,24,25,25],"right_children":[2,4,6,8,10,12,14,-1,-1,16,18,-1,20,-1,-1,22,-1,24,26,-1,-1,28,-1,-1,30,32,-1,-1,-1,-1,-1,-1,-1],"split_conditions":[2.348E1,5.4E0,7.55E0,8.62E1,5.02E1,-7.775971E-1,-7.6665884E-1,-2.3430034E-3,1.1828151E-3,3.754425E-2,1.712E2,-1.7478211E-3,-7.4410397E-1,1.9739194E-2,6.1628134E-3,3.015E-1,1.13952905E-2,4.3401502E-2,1.3132694E-1,1.0701208E-2,4.1221146E-4,1.37E-1,-3.699925E-3,1.6425162E-3,2.861E0,2.831E0,-8.3494576E-4,-1.4726885E-3,5.7633636E-3,-7.058905E-4,-2.8611193E-3,8.3133485E-3,8.477682E-4],"split_indices":[0,0,1,1,4,6,6,0,0,7,4,0,6,0,0,3,0,7,7,0,0,3,0,0,1,1,0,0,0,0,0,0,0],"split_type":[0,0,0,0,0,0,0,0,0,0,0,0,0,0,0,0,0,0,0,0,0,0,0,0,0,0,0,0,0,0,0,0,0],"sum_hessian":[1.285E3,1.148E3,1.37E2,6.29E2,5.19E2,7.6E1,6.1E1,5.94E2,3.5E1,9E1,4.29E2,3E1,4.6E1,3.4E1,2.7E1,7.2E1,1.8E1,3.09E2,1.2E2,1.9E1,2.7E1,4.4E1,2.8E1,2.8E1,2.81E2,5.6E1,6.4E1,1.9E1,2.5E1,1.88E2,9.3E1,1.8E1,3.8E1],"tree_param":{"num_deleted":"0","num_feature":"8","num_nodes":"33","size_leaf_vector":"1"}},{"base_weights":[-5.873437E-3,-3.6031604E-2,2.2428392E-1,-2.158596E-3,4.8153372E-3,5.086167E-1,1.320145E-1,1.0839125E-1,-2.80782E-2,2.5258496E-2,9.480188E-3,1.8808255E-1,-3.2338207E-3,6.0307443E-2,8.625319E-3,1.6256362E-2,-4.578758E-2,1.0855897E-1,1.0612384E-2,-4.4666454E-2,1.6278253E-1,-1.7075213E-2,4.2223637E-3,-4.3467972E-3,-3.2970168E-2,5.8847586E-6,6.4519723E-3,6.911587E-4,-4.2404416E-3,1.8425559E-3,8.465331E-3,3.3304864E-3,-1.9374598E-3,-1.6550107E-3,1.1178871E-3],"categories":[],"categories_nodes":[],"categories_segments":[],"categories_sizes":[],"default_left":[1,1,0,0,0,0,0,0,0,0,0,0,0,0,0,0,0,0,0,0,0,0,0,0,0,0,0,0,0,0,0,0,0,0,0],"id":32,"left_children":[1,3,5,-1,7,9,11,13,15,-1,-1,17,-1,19,-1,21,23,25,-1,27,29,31,-1,-1,33,-1,-1,-1,-1,-1,-1,-1,-1,-1,-1],"loss_changes":[8.807842E0,1.2446847E0,3.854401E0,0E0,1.5266083E0,1.9157629E0,1.4112146E0,7.472793E-1,2.6704457E-1,0E0,0E0,8.660424E-1,0E0,8.7181044E-1,0E0,3.474023E-1,2.531979E-1,4.6950835E-1,0E0,2.0663032E-1,3.78479E-1,3.3599496E-1,0E0,0E0,2.1355231E-1,0E0,0E0,0E0,0E0,0E0,0E0,0E0,0E0,0E0,0E0],"parents":[2147483647,0,0,1,1,2,2,4,4,5,5,6,6,7,7,8,8,11,11,13,13,15,15,16,16,17,17,19,19,20,20,21,21,24,24],"right_children":[2,4,6,-1,8,10,12,14,16,-1,-1,18,-1,20,-1,22,24,26,-1,28,30,32,-1,-1,34,-1,-1,-1,-1,-1,-1,-1,-1,-1,-1],"split_conditions":[2.348E1,1.235E1,1.9604206E-2,-2.158596E-3,2.62E-1,-7.6665884E-1,1.1057E1,1.31409E-1,1.61E1,2.5258496E-2,9.480188E-3,5.556E0,-3.2338207E-3,4.8201706E-2,8.625319E-3,1.53E1,8.576844E-2,-7.775971E-1,1.0612384E-2,9.1E-2,4.8E-2,9.69E-1,4.2223637E-3,-4.3467972E-3,3E0,5.8847586E-6,6.4519723E-3,6.911587E-4,-4.2404416E-3,1.8425559E-3,8.465331E-3,3.3304864E-3,-1.9374598E-3,-1.6550107E-3,1.1178871E-3],"split_indices":[0,0,7,0,2,6,1,2,0,0,0,1,0,7,0,0,7,6,0,2,2,2,0,0,1,0,0,0,0,0,0,0,0,0,0],"split_type":[0,0,0,0,0,0,0,0,0,0,0,0,0,0,0,0,0,0,0,0,0,0,0,0,0,0,0,0,0,0,0,0,0,0,0],"sum_hessian":[1.269E3,1.122E3,1.47E2,6.74E2,4.48E2,3.6E1,1.11E2,1.08E2,3.4E2,1.8E1,1.8E1,8.9E1,2.2E1,8.1E1,2.7E1,9.7E1,2.43E2,5.4E1,3.5E1,4E1,4.1E1,7.4E1,2.3E1,3.3E1,2.1E2,2.3E1,3.1E1,2.2E1,1.8E1,1.8E1,2.3E1,1.9E1,5.5E1,1.7E2,4E1],"tree_param":{"num_deleted":"0","num_feature":"8","num_nodes":"35","size_leaf_vector":"1"}},{"base_weights":[1.1497215E-2,-3.0554414E-2,2.3242977E-1,-3.5247363E-2,7.4216113E-3,1.2090049E-1,4.521776E-1,1.2132599E-2,-1.8368042E-3,2.6127064E-1,2.8411012E-2,1.0045702E-2,2.068895E-2,8.71702E-3,-5.410332E-3,1.881591E-2,1.1635464E-1,2.6652275E-3,-2.6752686E-3,-1.7344255E-2,2.6307458E-3,6.1639976E-3,1.7787636E-3,-2.0092926E-3,2.3101181E-4],"categories":[],"categories_nodes":[],"categories_segments":[],"categories_sizes":[],"default_left":[1,1,1,0,0,0,0,0,0,0,0,0,0,0,1,0,0,0,0,1,0,0,0,0,0],"id":33,"left_children":[1,3,5,7,-1,9,11,13,-1,15,17,-1,-1,-1,19,-1,21,-1,-1,23,-1,-1,-1,-1,-1],"loss_changes":[1.1911227E1,1.2519809E0,5.0223055E0,9.275962E-1,0E0,1.7648445E0,1.6701956E0,1.2670277E0,0E0,2.263407E0,4.3418372E-1,0E0,0E0,0E0,2.7228788E-1,0E0,1.4757496E-1,0E0,0E0,2.420977E-1,0E0,0E0,0E0,0E0,0E0],"parents":[2147483647,0,0,1,1,2,2,3,3,5,5,6,6,7,7,9,9,10,10,14,14,16,16,19,19],"right_children":[2,4,6,8,-1,10,12,14,-1,16,18,-1,-1,-1,20,-1,22,-1,-1,24,-1,-1,-1,-1,-1],"split_conditions":[2.27E1,2.45E1,8.701E0,-6.016241E-1,7.4216113E-3,9.8E-2,-6.2876284E-1,6E-2,-1.8368042E-3,-6.551564E-1,6.55E-1,1.0045702E-2,2.068895E-2,8.71702E-3,2.16E1,1.881591E-2,4.873E0,2.6652275E-3,-2.6752686E-3,8.96E-1,2.6307458E-3,6.1639976E-3,1.7787636E-3,-2.0092926E-3,2.3101181E-4],"split_indices":[0,1,1,5,0,2,5,2,0,5,2,0,0,0,0,0,1,0,0,2,0,0,0,0,0],"split_type":[0,0,0,0,0,0,0,0,0,0,0,0,0,0,0,0,0,0,0,0,0,0,0,0,0],"sum_hessian":[1.282E3,1.077E3,2.05E2,1.057E3,2E1,1.36E2,6.9E1,2.97E2,7.6E2,5.4E1,8.2E1,3.4E1,3.5E1,2E1,2.77E2,1.8E1,3.6E1,5.6E1,2.6E1,2.42E2,3.5E1,1.8E1,1.8E1,8.9E1,1.53E2],"tree_param":{"num_deleted":"0","num_feature":"8","num_nodes":"25","size_leaf_vector":"1"}},{"base_weights":[1.9689603E-3,7.897637E-2,-3.901555E-2,2.0127598E-2,3.658945E-1,-4.181018E-3,-3.5112776E-2,2.6654986E-1,-1.7349917E-2,5.076993E-1,2.199969E-1,1.3957326E-3,-1.297621E-3,3.4208185E-4,1.6178636E-2,4.81859E-3,-3.6947675E-2,1.272209E-2,2.2210611E-2,1.2730639E-2,2.292058E-3,-1.1539027E-3,-5.2139565E-2,-1.681208E-3,5.7908176E-3,-5.11363E-3,-1.4165582E-3],"categories":[],"categories_nodes":[],"categories_segments":[],"categories_sizes":[],"default_left":[0,0,0,0,0,0,0,0,0,0,0,0,0,0,0,0,0,0,0,0,0,0,0,0,0,0,0],"id":34,"left_children":[1,3,5,7,9,-1,11,13,15,17,19,-1,-1,-1,-1,-1,21,-1,-1,-1,-1,23,25,-1,-1,-1,-1],"loss_changes":[3.8979597E0,7.242505E0,2.617631E-1,3.2885962E0,1.5075045E0,0E0,1.6794932E-1,2.4951267E0,9.589733E-1,7.0850086E-1,8.389822E-1,0E0,0E0,0E0,0E0,0E0,1.493851E-1,0E0,0E0,0E0,0E0,6.723069E-1,2.0035827E-1,0E0,0E0,0E0,0E0],"parents":[2147483647,0,0,1,1,2,2,3,3,4,4,6,6,7,7,8,8,9,9,10,10,16,16,21,21,22,22],"right_children":[2,4,6,8,10,-1,12,14,16,18,20,-1,-1,-1,-1,-1,22,-1,-1,-1,-1,24,26,-1,-1,-1,-1],"split_conditions":[-6.963762E-1,8.701E0,1.07E1,6.2E-2,1.2021E1,-4.181018E-3,2.19E1,3.2E-2,-6.680639E-1,1.0277E1,1.922449E-2,1.3957326E-3,-1.297621E-3,3.4208185E-4,1.6178636E-2,4.81859E-3,2.81E-1,1.272209E-2,2.2210611E-2,1.2730639E-2,2.292058E-3,6.821963E-2,8.576844E-2,-1.681208E-3,5.7908176E-3,-5.11363E-3,-1.4165582E-3],"split_indices":[6,1,4,2,1,0,4,2,5,1,7,0,0,0,0,0,2,0,0,0,0,7,7,0,0,0,0],"split_type":[0,0,0,0,0,0,0,0,0,0,0,0,0,0,0,0,0,0,0,0,0,0,0,0,0,0,0],"sum_hessian":[1.235E3,4.29E2,8.06E2,3.56E2,7.3E1,3.6E1,7.7E2,4.7E1,3.09E2,3.7E1,3.6E1,2.8E1,7.42E2,2.1E1,2.6E1,3.4E1,2.75E2,1.9E1,1.8E1,1.8E1,1.8E1,8.2E1,1.93E2,6.4E1,1.8E1,1.9E1,1.74E2],"tree_param":{"num_deleted":"0","num_feature":"8","num_nodes":"27","size_leaf_vector":"1"}},{"base_weights":[-2.3051233E-4,-3.006769E-2,2.4568103E-1,-4.727491E-2,2.9087046E-2,1.9558951E-2,1.911511E-1,9.340794E-4,-4.951358E-2,3.0737687E-3,1.293108E-2,1.1225727E-1,3.3231547E-1,-2.0523507E-3,-3.3179972E-2,-1.4043859E-2,7.3851347E-3,1.573458E-4,2.0188077E-1,1.5151571E-2,8.041296E-3,-3.894239E-3,-2.7323412E-2,-6.676264E-3,2.7591833E-3,1.0252555E-2,2.826825E-3,-1.1728876E-3,3.050751E-3,-9.3596766E-4,5.2777566E-3],"categories":[],"categories_nodes":[],"categories_segments":[],"categories_sizes":[],"default_left":[1,1,0,0,0,0,1,0,0,1,0,0,0,0,0,0,0,0,0,0,0,0,1,0,1,0,0,0,0,0,0],"id":35,"left_children":[1,3,5,7,9,-1,11,-1,13,15,-1,17,19,-1,21,23,-1,-1,25,-1,-1,-1,27,-1,29,-1,-1,-1,-1,-1,-1],"loss_changes":[9.493947E0,1.174714E0,2.4923086E0,1.4941263E-1,2.3622906E0,0E0,1.3349457E0,0E0,1.4946556E-1,8.834145E-1,0E0,7.423598E-1,4.608202E-1,0E0,1.6095412E-1,6.832963E-1,0E0,0E0,4.9029338E-1,0E0,0E0,0E0,2.598158E-1,0E0,9.3845636E-1,0E0,0E0,0E0,0E0,0E0,0E0],"parents":[2147483647,0,0,1,1,2,2,3,3,4,4,6,6,8,8,9,9,11,11,12,12,14,14,15,15,18,18,22,22,24,24],"right_children":[2,4,6,8,10,-1,12,-1,14,16,-1,18,20,-1,22,24,-1,-1,26,-1,-1,-1,28,-1,30,-1,-1,-1,-1,-1,-1],"split_conditions":[2.36E1,1.96E1,9.5E-2,-8.190149E-1,3.4E-1,1.9558951E-2,8.428E0,9.340794E-4,3.39E-1,8.066E0,1.293108E-2,3.31E1,9.3E0,-2.0523507E-3,1.07E1,1.445E-1,7.3851347E-3,1.573458E-4,-6.2876284E-1,1.5151571E-2,8.041296E-3,-3.894239E-3,4.131E0,-6.676264E-3,5.304E0,1.0252555E-2,2.826825E-3,-1.1728876E-3,3.050751E-3,-9.3596766E-4,5.2777566E-3],"split_indices":[0,0,3,6,3,0,1,0,3,1,0,4,4,0,4,3,0,0,5,0,0,0,1,0,1,0,0,0,0,0,0],"split_type":[0,0,0,0,0,0,0,0,0,0,0,0,0,0,0,0,0,0,0,0,0,0,0,0,0,0,0,0,0,0,0],"sum_hessian":[1.294E3,1.154E3,1.4E2,8.94E2,2.6E2,2E1,1.2E2,2.6E1,8.68E2,2.42E2,1.8E1,7.7E1,4.3E1,5.27E2,3.41E2,2.24E2,1.8E1,3.5E1,4.2E1,2E1,2.3E1,2.3E1,3.18E2,1.9E1,2.05E2,2.3E1,1.9E1,3E2,1.8E1,1.71E2,3.4E1],"tree_param":{"num_deleted":"0","num_feature":"8","num_nodes":"31","size_leaf_vector":"1"}},{"base_weights":[5.8006006E-3,1.6292042E-1,-1.9134978E-2,4.104308E-1,1.391125E-2,4.168203E-2,-4.5203406E-2,2.5267992E-2,2.742941E-1,5.042001E-3,-3.9877653E-2,1.7371202E-1,6.356448E-3,-1.662437E-3,2.252952E-3,4.370819E-3,1.7137516E-2,2.5764813E-3,-2.5658542E-3,1.5383835E-3,2.7858266E-1,3.7688773E-2,-1.1129782E-3,6.615475E-3,1.2120173E-2,5.750455E-3,4.6507386E-3,4.003237E-3,-7.215311E-4],"categories":[],"categories_nodes":[],"categories_segments":[],"categories_sizes":[],"default_left":[0,0,0,0,0,0,0,0,0,0,1,0,0,0,0,0,0,0,0,0,0,0,0,0,0,0,0,0,0],"id":36,"left_children":[1,3,5,7,9,11,13,-1,15,-1,17,19,21,-1,-1,-1,-1,-1,-1,-1,23,25,-1,-1,-1,27,-1,-1,-1],"loss_changes":[4.948747E0,6.379444E0,1.7281255E0,2.9090414E0,7.769712E-1,1.5246363E0,2.933526E-1,0E0,1.528516E0,0E0,3.1283206E-1,9.3019867E-1,3.1477654E-1,0E0,0E0,0E0,0E0,0E0,0E0,0E0,2.4387336E-1,4.492262E-1,0E0,0E0,0E0,3.23705E-1,0E0,0E0,0E0],"parents":[2147483647,0,0,1,1,2,2,3,3,4,4,5,5,6,6,8,8,10,10,11,11,12,12,20,20,21,21,25,25],"right_children":[2,4,6,8,10,12,14,-1,16,-1,18,20,22,-1,-1,-1,-1,-1,-1,-1,24,26,-1,-1,-1,28,-1,-1,-1],"split_conditions":[2.225E1,-7.5549334E-1,-6.152846E-1,1.3906856E-2,-6.7125994E-1,4.8853617E-2,3.7E-1,2.5267992E-2,6.74098E-1,5.042001E-3,8.681436E-3,3.31E1,1.4197531E-1,-1.662437E-3,2.252952E-3,4.370819E-3,1.7137516E-2,2.5764813E-3,-2.5658542E-3,1.5383835E-3,4.0207397E-2,1.2748344E-1,-1.1129782E-3,6.615475E-3,1.2120173E-2,8.9E1,4.6507386E-3,4.003237E-3,-7.215311E-4],"split_indices":[4,6,5,7,6,7,3,0,2,0,7,4,7,0,0,0,0,0,0,0,7,7,0,0,0,4,0,0,0],"split_type":[0,0,0,0,0,0,0,0,0,0,0,0,0,0,0,0,0,0,0,0,0,0,0,0,0,0,0,0,0],"sum_hessian":[1.263E3,1.73E2,1.09E3,6.5E1,1.08E2,3.27E2,7.63E2,1.9E1,4.6E1,3.1E1,7.7E1,6.9E1,2.58E2,7.4E2,2.3E1,2.8E1,1.8E1,1.8E1,5.9E1,3.1E1,3.8E1,1.43E2,1.15E2,1.8E1,2E1,1.08E2,3.5E1,2.1E1,8.7E1],"tree_param":{"num_deleted":"0","num_feature":"8","num_nodes":"29","size_leaf_vector":"1"}},{"base_weights":[-2.3674907E-3,-2.4495082E-2,2.64256E-1,-4.122557E-2,2.6673496E-2,1.9654782E-2,1.24877274E-1,-4.4797555E-2,4.434892E-3,-7.977786E-3,1.3668561E-1,1.5120277E-2,9.483672E-3,-9.612765E-3,-1.8122585E-3,6.710173E-2,-3.5683487E-2,1.3419078E-2,-3.818963E-2,3.261304E-3,-2.6801226E-3,3.582419E-2,-1.3748173E-3,-3.5104111E-3,6.8670493E-3,-2.3631293E-2,-3.7960547E-3,2.9383446E-3,-4.9733804E-3,-1.1680404E-3,6.35273E-3,-1.3763809E-3,2.1882006E-3],"categories":[],"categories_nodes":[],"categories_segments":[],"categories_sizes":[],"default_left":[1,0,0,1,1,0,0,0,0,0,1,0,0,0,0,0,0,0,0,0,0,0,0,0,0,0,0,0,0,0,0,0,0],"id":37,"left_children":[1,3,5,7,9,-1,11,13,-1,15,17,19,-1,21,-1,23,25,-1,27,-1,-1,29,-1,-1,-1,31,-1,-1,-1,-1,-1,-1,-1],"loss_changes":[7.46845E0,1.0008087E0,4.203417E0,5.380558E-1,1.0982869E0,0E0,1.122348E0,2.503425E-1,0E0,4.554884E-1,3.0918713E0,2.9336062E-1,0E0,2.2828333E-1,0E0,1.3425956E0,1.4505553E-1,0E0,5.47218E-1,0E0,0E0,6.943265E-1,0E0,0E0,0E0,2.0152771E-1,0E0,0E0,0E0,0E0,0E0,0E0,0E0],"parents":[2147483647,0,0,1,1,2,2,3,3,4,4,6,6,7,7,9,9,10,10,11,11,13,13,15,15,16,16,18,18,21,21,25,25],"right_children":[2,4,6,8,10,-1,12,14,-1,16,18,20,-1,22,-1,24,26,-1,28,-1,-1,30,-1,-1,-1,32,-1,-1,-1,-1,-1,-1,-1],"split_conditions":[2.43E1,1.99E1,1.6236521E-2,2.6561E1,5.881E0,1.9654782E-2,2.88E-1,-7.1767694E-1,4.434892E-3,-6.4205474E-1,2.24E1,-6.2876284E-1,9.483672E-3,1.4071295E-1,-1.8122585E-3,2.825E-1,4.078432E0,1.3419078E-2,2.74E-1,3.261304E-3,-2.6801226E-3,1.2748344E-1,-1.3748173E-3,-3.5104111E-3,6.8670493E-3,3.32E0,-3.7960547E-3,2.9383446E-3,-4.9733804E-3,-1.1680404E-3,6.35273E-3,-1.3763809E-3,2.1882006E-3],"split_indices":[0,0,7,1,1,0,3,5,0,5,0,5,0,7,0,3,1,0,3,0,0,7,0,0,0,1,0,0,0,0,0,0,0],"split_type":[0,0,0,0,0,0,0,0,0,0,0,0,0,0,0,0,0,0,0,0,0,0,0,0,0,0,0,0,0,0,0,0,0],"sum_hessian":[1.266E3,1.169E3,9.7E1,8.81E2,2.88E2,3E1,6.7E1,8.63E2,1.8E1,2.19E2,6.9E1,3.9E1,2.8E1,1.64E2,6.99E2,5.9E1,1.6E2,2.8E1,4.1E1,2.1E1,1.8E1,6.6E1,9.8E1,2.6E1,3.3E1,1.38E2,2.2E1,1.9E1,2.2E1,4.5E1,2.1E1,1.16E2,2.2E1],"tree_param":{"num_deleted":"0","num_feature":"8","num_nodes":"33","size_leaf_vector":"1"}},{"base_weights":[8.764741E-3,-2.5792336E-2,1.3194403E-1,2.938829E-2,-4.288637E-2,4.2427668E-1,8.740917E-2,-6.258489E-3,1.575244E-2,4.3614465E-3,-4.7488667E-2,1.856522E-2,1.0626864E-2,3.0591875E-1,4.8138756E-2,-1.8108272E-3,1.5371651E-2,-1.5409357E-3,-4.7125365E-3,1.707082E-2,4.1701035E-3,-9.771748E-3,1.4931951E-1,-1.2983838E-3,3.8497098E-2,3.7029737E-3,-3.9065E-2,5.9167776E-2,1.0265365E-2,-9.013737E-4,2.346773E-3,-7.84757E-3,7.0002757E-4,5.34683E-3,-4.3907788E-4],"categories":[],"categories_nodes":[],"categories_segments":[],"categories_sizes":[],"default_left":[1,0,0,1,0,0,0,0,0,0,1,0,0,0,0,0,1,0,0,0,0,0,1,0,0,0,0,0,0,0,0,0,0,0,0],"id":38,"left_children":[1,3,5,7,9,11,13,15,-1,-1,17,-1,-1,19,21,-1,23,-1,-1,-1,-1,25,27,-1,29,-1,31,33,-1,-1,-1,-1,-1,-1,-1],"loss_changes":[5.4404507E0,9.4142854E-1,3.6436424E0,3.6333354E0,5.979389E-1,4.9550962E-1,2.0840893E0,2.2055721E-1,0E0,0E0,1.5933204E-1,0E0,0E0,1.3161609E0,1.2075047E0,0E0,1.8394428E-1,0E0,0E0,0E0,0E0,4.5329925E-1,1.0210131E0,0E0,2.0391546E-1,0E0,1.192929E0,3.299927E-1,0E0,0E0,0E0,0E0,0E0,0E0,0E0],"parents":[2147483647,0,0,1,1,2,2,3,3,4,4,5,5,6,6,7,7,10,10,13,13,14,14,16,16,21,21,22,22,24,24,26,26,27,27],"right_children":[2,4,6,8,10,12,14,16,-1,-1,18,-1,-1,20,22,-1,24,-1,-1,-1,-1,26,28,-1,30,-1,32,34,-1,-1,-1,-1,-1,-1,-1],"split_conditions":[2.16E1,-6.016241E-1,1.4468759E-2,5.49E0,6.105182E-3,9.434092E-3,-6.680639E-1,9.53E-1,1.575244E-2,4.3614465E-3,2.45E1,1.856522E-2,1.0626864E-2,5.721E0,2.41E1,-1.8108272E-3,1.781E0,-1.5409357E-3,-4.7125365E-3,1.707082E-2,4.1701035E-3,7.4244E-2,8.914E0,-1.2983838E-3,1.2674294E-1,3.7029737E-3,-6.2876284E-1,4.27E0,1.0265365E-2,-9.013737E-4,2.346773E-3,-7.84757E-3,7.0002757E-4,5.34683E-3,-4.3907788E-4],"split_indices":[0,5,7,1,7,7,5,2,0,0,1,0,0,1,0,0,1,0,0,0,0,2,1,0,7,0,5,1,0,0,0,0,0,0,0],"split_type":[0,0,0,0,0,0,0,0,0,0,0,0,0,0,0,0,0,0,0,0,0,0,0,0,0,0,0,0,0,0,0,0,0,0,0],"sum_hessian":[1.278E3,9.98E2,2.8E2,2.36E2,7.62E2,3.7E1,2.43E2,2.18E2,1.8E1,2E1,7.42E2,1.8E1,1.9E1,3.7E1,2.06E2,6.9E1,1.49E2,7.23E2,1.9E1,1.8E1,1.9E1,1.31E2,7.5E1,4.5E1,1.04E2,2.6E1,1.05E2,4.7E1,2.8E1,3.3E1,7.1E1,2.5E1,8E1,2E1,2.7E1],"tree_param":{"num_deleted":"0","num_feature":"8","num_nodes":"35","size_leaf_vector":"1"}},{"base_weights":[-4.336337E-3,-2.2529814E-2,1.7548807E-1,2.2898532E-2,-3.6088508E-2,4.3410633E-2,3.9345744E-1,-9.303001E-3,1.3705458E-1,1.2857208E-2,-4.783969E-2,-4.6687994E-2,9.33466E-3,2.2803815E-2,3.6240816E-3,-2.6349744E-2,4.695378E-3,-9.0077915E-4,1.41096385E-2,3.2295592E-2,-2.7025433E-2,-5.319143E-2,1.9436463E-3,4.4291883E-4,-4.7577554E-3,-3.8445897E-3,-1.1215118E-2,-3.1783246E-3,3.4608066E-3,-5.0740584E-4,5.7712104E-3,-2.32161E-3,1.7208558E-3,-4.6800473E-3,-1.5945745E-3,-1.4453841E-3,3.225197E-3],"categories":[],"categories_nodes":[],"categories_segments":[],"categories_sizes":[],"default_left":[1,0,1,0,0,0,0,0,0,0,0,0,0,0,0,0,0,0,0,0,0,0,0,0,0,0,0,0,0,0,0,0,0,0,0,0,0],"id":39,"left_children":[1,3,5,7,9,11,13,15,17,19,21,23,-1,-1,-1,25,-1,27,-1,29,31,33,-1,-1,-1,-1,35,-1,-1,-1,-1,-1,-1,-1,-1,-1,-1],"loss_changes":[4.0596967E0,6.942237E-1,3.280728E0,9.524948E-1,4.993589E-1,1.4711459E0,3.3842845E0,5.050277E-1,2.1714964E0,1.3027E-1,3.9237118E-1,2.8208214E-1,0E0,0E0,0E0,2.3573934E-1,0E0,3.5794392E-1,0E0,7.284953E-1,1.7434457E-1,3.6304772E-1,0E0,0E0,0E0,0E0,5.056718E-1,0E0,0E0,0E0,0E0,0E0,0E0,0E0,0E0,0E0,0E0],"parents":[2147483647,0,0,1,1,2,2,3,3,4,4,5,5,6,6,7,7,8,8,9,9,10,10,11,11,15,15,17,17,19,19,20,20,21,21,26,26],"right_children":[2,4,6,8,10,12,14,16,18,20,22,24,-1,-1,-1,26,-1,28,-1,30,32,34,-1,-1,-1,-1,36,-1,-1,-1,-1,-1,-1,-1,-1,-1,-1],"split_conditions":[2.36E1,4.08E-1,7.733E0,2.24E1,-7.0558363E-1,8.76E1,2.52E1,1.421E2,1.31409E-1,1.61E1,8.62E1,2.46E1,9.33466E-3,2.2803815E-2,3.6240816E-3,4.956E0,4.695378E-3,4.87E1,1.41096385E-2,1.52E1,1.858E2,1.07E1,1.9436463E-3,4.4291883E-4,-4.7577554E-3,-3.8445897E-3,2.6168507E-2,-3.1783246E-3,3.4608066E-3,-5.0740584E-4,5.7712104E-3,-2.32161E-3,1.7208558E-3,-4.6800473E-3,-1.5945745E-3,-1.4453841E-3,3.225197E-3],"split_indices":[0,2,1,0,5,4,0,4,2,0,1,0,0,0,0,1,0,4,0,0,4,4,0,0,0,0,7,0,0,0,0,0,0,0,0,0,0],"split_type":[0,0,0,0,0,0,0,0,0,0,0,0,0,0,0,0,0,0,0,0,0,0,0,0,0,0,0,0,0,0,0,0,0,0,0,0,0],"sum_hessian":[1.241E3,1.127E3,1.14E2,2.59E2,8.68E2,7.1E1,4.3E1,2.02E2,5.7E1,1.68E2,7E2,5.1E1,2E1,2.2E1,2.1E1,1.81E2,2.1E1,3.8E1,1.9E1,1.13E2,5.5E1,6.66E2,3.4E1,3.1E1,2E1,2.7E1,1.54E2,2E1,1.8E1,8.4E1,2.9E1,3.6E1,1.9E1,4.8E1,6.18E2,1.19E2,3.5E1],"tree_param":{"num_deleted":"0","num_feature":"8","num_nodes":"37","size_leaf_vector":"1"}},{"base_weights":[-6.5928646E-3,5.1156968E-2,-4.6928894E-2,1.4532086E-1,-2.4426378E-2,-1.6067999E-3,-1.7761145E-3,1.0659417E-1,3.5602134E-1,-2.655771E-3,-2.0088584E-3,2.9771125E-3,-1.3981268E-3,1.84186E-1,5.8467712E-2,9.3424935E-3,1.4972208E-2,4.0829554E-2,-2.2806717E-2,6.771699E-2,2.9747853E-1,2.120727E-1,-3.906363E-2,3.972617E-3,-1.494606E-4,-4.686066E-2,1.1582352E-3,4.9404926E-3,-1.7111278E-4,3.7915094E-3,1.5888138E-2,1.9562093E-3,1.1510999E-2,1.3095805E-3,-3.3513224E-3,-2.8838387E-3,-1.5477384E-4],"categories":[],"categories_nodes":[],"categories_segments":[],"categories_sizes":[],"default_left":[0,0,0,0,0,0,0,0,0,0,0,0,0,0,0,0,0,0,0,0,0,0,0,0,0,0,0,0,0,0,0,0,0,0,0,0,0],"id":40,"left_children":[1,3,5,7,9,11,-1,13,15,17,-1,-1,-1,19,21,-1,-1,23,25,27,29,31,33,-1,-1,35,-1,-1,-1,-1,-1,-1,-1,-1,-1,-1,-1],"loss_changes":[2.95137E0,3.7085054E0,1.7096937E-1,1.8914847E0,2.1611197E-1,2.616397E-1,0E0,7.311437E-1,2.4150562E-1,1.550599E-1,0E0,0E0,0E0,9.885073E-1,1.8134124E0,0E0,0E0,1.9137163E-1,1.6511661E-1,2.0738387E-1,1.1858854E0,9.07454E-1,3.3835903E-1,0E0,0E0,1.3487181E-1,0E0,0E0,0E0,0E0,0E0,0E0,0E0,0E0,0E0,0E0,0E0],"parents":[2147483647,0,0,1,1,2,2,3,3,4,4,5,5,7,7,8,8,9,9,13,13,14,14,17,17,18,18,19,19,20,20,21,21,22,22,25,25],"right_children":[2,4,6,8,10,12,-1,14,16,18,-1,-1,-1,20,22,-1,-1,24,26,28,30,32,34,-1,-1,36,-1,-1,-1,-1,-1,-1,-1,-1,-1,-1,-1],"split_conditions":[-5.5958927E-1,8.7651126E-2,-5.160624E-1,3.41E-1,-6.551564E-1,9.840764E-2,-1.7761145E-3,2.37E1,3.754425E-2,9.85E-1,-2.0088584E-3,2.9771125E-3,-1.3981268E-3,-6.2876284E-1,-6.680639E-1,9.3424935E-3,1.4972208E-2,-7.961829E-1,-7.638886E-1,-6.551564E-1,1.06E-1,2.76E-1,4.92E1,3.972617E-3,-1.494606E-4,1.5896672E-1,1.1582352E-3,4.9404926E-3,-1.7111278E-4,3.7915094E-3,1.5888138E-2,1.9562093E-3,1.1510999E-2,1.3095805E-3,-3.3513224E-3,-2.8838387E-3,-1.5477384E-4],"split_indices":[5,7,5,3,5,7,0,4,7,2,0,0,0,5,5,0,0,5,5,5,2,3,4,0,0,7,0,0,0,0,0,0,0,0,0,0,0],"split_type":[0,0,0,0,0,0,0,0,0,0,0,0,0,0,0,0,0,0,0,0,0,0,0,0,0,0,0,0,0,0,0,0,0,0,0,0,0],"sum_hessian":[1.267E3,5.21E2,7.46E2,2.32E2,2.89E2,7.5E1,6.71E2,1.96E2,3.6E1,1.77E2,1.12E2,2.3E1,5.2E1,7.5E1,1.21E2,1.8E1,1.8E1,5.6E1,1.21E2,3.7E1,3.8E1,4.7E1,7.4E1,2.1E1,3.5E1,8.5E1,3.6E1,1.8E1,1.9E1,1.8E1,2E1,2.1E1,2.6E1,3.2E1,4.2E1,4.5E1,4E1],"tree_param":{"num_deleted":"0","num_feature":"8","num_nodes":"37","size_leaf_vector":"1"}},{"base_weights":[-9.901818E-4,6.588857E-2,-3.350564E-2,3.318425E-2,3.3957264E-1,-3.0692065E-2,-3.9949603E-3,2.1097644E-1,-2.6072968E-2,4.841747E-3,1.8044053E-2,-1.603982E-3,-1.0313178E-2,9.735215E-2,3.466589E-1,3.2832317E-2,-4.1501746E-2,3.7095337E-3,-1.6655903E-2,6.9554592E-3,5.9886614E-4,9.277907E-3,1.4802592E-2,3.039729E-3,-1.431794E-3,1.7956546E-2,-5.647055E-2,-3.479993E-3,-1.128536E-2,-1.1299015E-3,3.039805E-3,-3.8032804E-3,-1.0631615E-3,2.8957124E-3,-6.0615473E-4],"categories":[],"categories_nodes":[],"categories_segments":[],"categories_sizes":[],"default_left":[0,1,0,0,0,0,0,0,0,0,0,0,0,0,0,0,0,0,0,0,0,0,0,0,0,0,0,0,0,0,0,0,0,0,0],"id":41,"left_children":[1,3,5,7,9,11,-1,13,15,-1,-1,-1,17,19,21,23,25,-1,27,-1,-1,-1,-1,-1,-1,29,31,-1,33,-1,-1,-1,-1,-1,-1],"loss_changes":[2.6790352E0,3.6060014E0,1.9414914E-1,3.7934277E0,1.6023455E0,2.655745E-1,0E0,1.3860779E0,2.4542764E-1,0E0,0E0,0E0,2.6822186E-1,4.1494974E-1,2.638259E-1,2.352038E-1,1.9059104E-1,0E0,1.5433975E-1,0E0,0E0,0E0,0E0,0E0,0E0,1.5606217E-1,2.3736888E-1,0E0,1.9706586E-1,0E0,0E0,0E0,0E0,0E0,0E0],"parents":[2147483647,0,0,1,1,2,2,3,3,4,4,5,5,7,7,8,8,12,12,13,13,14,14,15,15,16,16,18,18,25,25,26,26,28,28],"right_children":[2,4,6,8,10,12,-1,14,16,-1,-1,-1,18,20,22,24,26,-1,28,-1,-1,-1,-1,-1,-1,30,32,-1,34,-1,-1,-1,-1,-1,-1],"split_conditions":[-6.963762E-1,9.786E0,4.71E-1,1.06E-1,-6.2876284E-1,3.305E-1,-3.9949603E-3,2.505E-1,-8.382797E-1,4.841747E-3,1.8044053E-2,-1.603982E-3,4.285E-1,1.34E-1,5.304E0,1.3427857E-1,4.75E-2,3.7095337E-3,8.7933E-1,6.9554592E-3,5.9886614E-4,9.277907E-3,1.4802592E-2,3.039729E-3,-1.431794E-3,3.1491935E-2,-6.016241E-1,-3.479993E-3,3.4E-1,-1.1299015E-3,3.039805E-3,-3.8032804E-3,-1.0631615E-3,2.8957124E-3,-6.0615473E-4],"split_indices":[6,1,3,2,5,3,0,3,6,0,0,0,2,3,1,7,7,0,2,0,0,0,0,0,0,7,5,0,3,0,0,0,0,0,0],"split_type":[0,0,0,0,0,0,0,0,0,0,0,0,0,0,0,0,0,0,0,0,0,0,0,0,0,0,0,0,0,0,0,0,0,0,0],"sum_hessian":[1.232E3,4.03E2,8.29E2,3.6E2,4.3E1,8.02E2,2.7E1,9E1,2.7E2,2.1E1,2.2E1,4.46E2,3.56E2,4.9E1,4.1E1,5.6E1,2.14E2,1.8E1,3.38E2,2.1E1,2.8E1,2.2E1,1.9E1,3.2E1,2.4E1,4.3E1,1.71E2,2E1,3.18E2,2.5E1,1.8E1,5.4E1,1.17E2,2E1,2.98E2],"tree_param":{"num_deleted":"0","num_feature":"8","num_nodes":"35","size_leaf_vector":"1"}},{"base_weights":[1.5527136E-3,6.920465E-2,-3.23521E-2,3.0292483E-2,3.171816E-1,-1.38737E-3,-8.035077E-3,-5.948013E-3,2.2931397E-1,2.0342807E-3,4.601898E-1,-3.0746385E-2,5.3959E-2,3.6775686E-3,-1.621362E-2,1.8434312E-2,1.7711597E-3,2.009441E-2,1.1336172E-2,-1.4491874E-3,1.5963044E-3,7.245465E-3,-1.3958387E-3,3.6195934E-2,-2.9211951E-2,-1.0887082E-3,5.005095E-3,1.6619974E-3,-1.2910971E-3],"categories":[],"categories_nodes":[],"categories_segments":[],"categories_sizes":[],"default_left":[0,0,0,0,0,0,0,0,0,0,0,0,1,0,0,0,0,0,0,0,0,0,0,0,0,0,0,0,0],"id":42,"left_children":[1,3,5,7,9,-1,11,13,15,-1,17,19,21,-1,23,-1,-1,-1,-1,-1,-1,-1,-1,25,27,-1,-1,-1,-1],"loss_changes":[2.8374803E0,3.9841485E0,1.6534102E-1,2.5756295E0,2.0617948E0,0E0,2.9421884E-1,3.5192862E-1,3.0271633E0,0E0,5.8754444E-1,1.3838586E-1,8.4030926E-1,0E0,1.8869454E-1,0E0,0E0,0E0,0E0,0E0,0E0,0E0,0E0,4.1338515E-1,1.4831004E-1,0E0,0E0,0E0,0E0],"parents":[2147483647,0,0,1,1,2,2,3,3,4,4,6,6,7,7,8,8,10,10,11,11,12,12,14,14,23,23,24,24],"right_children":[2,4,6,8,10,-1,12,14,16,-1,18,20,22,-1,24,-1,-1,-1,-1,-1,-1,-1,-1,26,28,-1,-1,-1,-1],"split_conditions":[-6.963762E-1,8.701E0,1.702E2,-7.4410397E-1,9E0,-1.38737E-3,3.625E-1,1.31217E-1,1.00946E-1,2.0342807E-3,1.49882E-1,1.144961E0,1.026E0,3.6775686E-3,-8.382797E-1,1.8434312E-2,1.7711597E-3,2.009441E-2,1.1336172E-2,-1.4491874E-3,1.5963044E-3,7.245465E-3,-1.3958387E-3,2.4E0,3.2779187E-2,-1.0887082E-3,5.005095E-3,1.6619974E-3,-1.2910971E-3],"split_indices":[6,1,4,6,4,0,3,3,2,0,3,2,2,0,6,0,0,0,0,0,0,0,0,1,7,0,0,0,0],"split_type":[0,0,0,0,0,0,0,0,0,0,0,0,0,0,0,0,0,0,0,0,0,0,0,0,0,0,0,0,0],"sum_hessian":[1.237E3,4.13E2,8.24E2,3.57E2,5.6E1,6.15E2,2.09E2,3.02E2,5.5E1,2E1,3.6E1,1.53E2,5.6E1,2.5E1,2.77E2,2E1,3.5E1,1.8E1,1.8E1,1.33E2,2E1,2.1E1,3.5E1,5.5E1,2.22E2,3.4E1,2.1E1,2.2E1,2E2],"tree_param":{"num_deleted":"0","num_feature":"8","num_nodes":"29","size_leaf_vector":"1"}},{"base_weights":[-8.888919E-3,3.662228E-2,-3.1926412E-2,3.1574436E-3,2.2654645E-1,3.1437832E-3,-3.4719784E-2,1.8822052E-1,-2.056296E-2,3.6655793E-1,1.6042386E-4,-7.036952E-2,-2.5940906E-2,1.9544945E-3,1.0472579E-2,-4.3354183E-3,-1.2086571E-2,2.0470373E-2,5.3596534E-3,-1.972354E-3,-5.375527E-3,-1.0178499E-3,3.4238389E-3,6.367392E-2,-1.2881183E-3,7.3280727E-4,5.991099E-3],"categories":[],"categories_nodes":[],"categories_segments":[],"categories_sizes":[],"default_left":[0,1,0,0,0,0,0,0,1,0,0,0,0,0,0,0,0,0,0,0,0,0,0,0,0,0,0],"id":43,"left_children":[1,3,5,7,9,-1,11,13,15,17,-1,19,21,-1,-1,-1,23,-1,-1,-1,-1,-1,-1,25,-1,-1,-1],"loss_changes":[1.2917098E0,2.630659E0,2.8308195E-1,1.5457511E0,1.9249401E0,0E0,2.5007796E-1,6.1901677E-1,2.8082538E-1,1.8510809E0,0E0,1.7295575E-1,3.1193906E-1,0E0,0E0,0E0,5.608796E-1,0E0,0E0,0E0,0E0,0E0,0E0,3.4371185E-1,0E0,0E0,0E0],"parents":[2147483647,0,0,1,1,2,2,3,3,4,4,6,6,7,7,8,8,9,9,11,11,12,12,16,16,23,23],"right_children":[2,4,6,8,10,-1,12,14,16,18,-1,20,22,-1,-1,-1,24,-1,-1,-1,-1,-1,-1,26,-1,-1,-1],"split_conditions":[-6.963762E-1,9.107E0,6.105182E-3,6.2E-2,-7.6665884E-1,3.1437832E-3,4.0207397E-2,6.32E1,7.4244E-2,3.375E-1,1.6042386E-4,4.1E-1,3.85E-1,1.9544945E-3,1.0472579E-2,-4.3354183E-3,2.08E-1,2.0470373E-2,5.3596534E-3,-1.972354E-3,-5.375527E-3,-1.0178499E-3,3.4238389E-3,1.53E-1,-1.2881183E-3,7.3280727E-4,5.991099E-3],"split_indices":[6,1,7,2,6,0,7,4,2,3,0,3,3,0,0,0,2,0,0,0,0,0,0,2,0,0,0],"split_type":[0,0,0,0,0,0,0,0,0,0,0,0,0,0,0,0,0,0,0,0,0,0,0,0,0,0,0],"sum_hessian":[1.232E3,4.14E2,8.18E2,3.52E2,6.2E1,1.8E1,8E2,4E1,3.12E2,3.8E1,2.4E1,1.58E2,6.42E2,1.9E1,2.1E1,2.3E1,2.89E2,1.8E1,2E1,1.38E2,2E1,6.23E2,1.9E1,7.3E1,2.16E2,5.3E1,2E1],"tree_param":{"num_deleted":"0","num_feature":"8","num_nodes":"27","size_leaf_vector":"1"}},{"base_weights":[-3.8137895E-4,-3.4036614E-2,1.3316093E-1,2.7582707E-2,-3.8729087E-2,2.0000769E-1,-1.136342E-2,-9.6530665E-4,6.5628323E-3,1.6424293E-3,-4.1319624E-2,9.721833E-2,3.4761077E-1,3.6141162E-3,-1.6367496E-3,1.770764E-2,-4.4480436E-2,2.1030346E-3,1.111448E-2,1.849895E-2,2.5457752E-1,-1.4594615E-3,3.8210968E-3,-3.7993218E-3,-1.4398494E-3,-9.993347E-2,5.884619E-3,2.0643158E-3,1.8810665E-2,-1.047487E-2,1.7435228E-3],"categories":[],"categories_nodes":[],"categories_segments":[],"categories_sizes":[],"default_left":[1,0,0,1,0,0,0,0,0,0,0,0,0,0,0,0,0,0,0,0,0,0,0,0,0,0,0,0,0,0,0],"id":44,"left_children":[1,3,5,7,9,11,13,-1,-1,-1,15,17,19,-1,-1,21,23,25,-1,-1,27,-1,-1,-1,-1,29,-1,-1,-1,-1,-1],"loss_changes":[5.6492324E0,2.903458E-1,2.4448695E0,6.528534E-1,2.0980418E-1,2.62332E0,3.4243497E-1,0E0,0E0,0E0,1.691215E-1,2.2123902E0,1.2775059E0,0E0,0E0,2.619705E-1,1.3342607E-1,1.2504965E0,0E0,0E0,2.7573104E0,0E0,0E0,0E0,0E0,1.4052361E0,0E0,0E0,0E0,0E0,0E0],"parents":[2147483647,0,0,1,1,2,2,3,3,4,4,5,5,6,6,10,10,11,11,12,12,15,15,16,16,17,17,20,20,25,25],"right_children":[2,4,6,8,10,12,14,-1,-1,-1,16,18,20,-1,-1,22,24,26,-1,-1,28,-1,-1,-1,-1,30,-1,-1,-1,-1,-1],"split_conditions":[2.19E1,6E-2,7.395761E-2,4.3E0,-8.382797E-1,2.375E-1,6.37E-1,-9.6530665E-4,6.5628323E-3,1.6424293E-3,-8.263542E-1,1.73E-1,-6.680639E-1,3.6141162E-3,-1.6367496E-3,3.5E-1,1.1E-1,-6.2876284E-1,1.111448E-2,1.849895E-2,7.36E-1,-1.4594615E-3,3.8210968E-3,-3.7993218E-3,-1.4398494E-3,1.18E-1,5.884619E-3,2.0643158E-3,1.8810665E-2,-1.047487E-2,1.7435228E-3],"split_indices":[0,2,7,0,6,3,2,0,0,0,5,2,5,0,0,3,2,5,0,0,2,0,0,0,0,3,0,0,0,0,0],"split_type":[0,0,0,0,0,0,0,0,0,0,0,0,0,0,0,0,0,0,0,0,0,0,0,0,0,0,0,0,0,0,0],"sum_hessian":[1.257E3,1.004E3,2.53E2,7.1E1,9.33E2,1.73E2,8E1,5.3E1,1.8E1,2.7E1,9.06E2,1.02E2,7.1E1,1.9E1,6.1E1,4.6E1,8.6E2,7.2E1,3E1,2.3E1,4.8E1,2.8E1,1.8E1,2.9E1,8.31E2,4.5E1,2.7E1,2.9E1,1.9E1,1.9E1,2.6E1],"tree_param":{"num_deleted":"0","num_feature":"8","num_nodes":"31","size_leaf_vector":"1"}},{"base_weights":[-1.1862718E-3,-1.6637426E-2,2.6868457E-1,1.1418813E-1,-2.143533E-2,1.4073624E-2,1.7986394E-1,-1.2202566E-3,9.5377015E-3,4.8958536E-2,-2.8464312E-2,1.0664035E-2,2.7486556E-3,-2.4439754E-2,1.0032693E-2,8.328688E-5,-3.6419142E-2,-1.9992338E-3,2.8971962E-3,-1.1900073E-2,3.3138234E-3,-4.006625E-2,1.6145671E-3,-4.729287E-3,1.5964792E-5,-2.3387682E-3,-9.68624E-4],"categories":[],"categories_nodes":[],"categories_segments":[],"categories_sizes":[],"default_left":[1,0,0,1,0,0,0,0,0,0,0,0,0,0,0,0,0,0,0,0,0,0,0,0,0,0,0],"id":45,"left_children":[1,3,5,7,9,-1,11,-1,-1,13,15,-1,-1,17,-1,19,21,-1,-1,23,-1,25,-1,-1,-1,-1,-1],"loss_changes":[5.23661E0,7.454433E-1,8.6318684E-1,1.0398135E0,5.669911E-1,0E0,5.51087E-1,0E0,0E0,1.869003E0,2.3673749E-1,0E0,0E0,2.9784825E-1,0E0,2.639069E-1,2.4872613E-1,0E0,0E0,3.165288E-1,0E0,2.5944304E-1,0E0,0E0,0E0,0E0,0E0],"parents":[2147483647,0,0,1,1,2,2,3,3,4,4,6,6,9,9,10,10,13,13,15,15,16,16,19,19,21,21],"right_children":[2,4,6,8,10,-1,12,-1,-1,14,16,-1,-1,18,-1,20,22,-1,-1,24,-1,26,-1,-1,-1,-1,-1],"split_conditions":[2.47E1,8.409874E-3,2.52E1,3.4E0,6.777E-2,1.4073624E-2,1.6465422E-2,-1.2202566E-3,9.5377015E-3,5.2021913E-2,-6.680639E-1,1.0664035E-2,2.7486556E-3,4.8E-2,1.0032693E-2,2.19E1,2.41E1,-1.9992338E-3,2.8971962E-3,3.52E-1,3.3138234E-3,7.805555E-2,1.6145671E-3,-4.729287E-3,1.5964792E-5,-2.3387682E-3,-9.68624E-4],"split_indices":[0,7,0,0,2,0,7,0,0,7,5,0,0,2,0,0,0,0,0,2,0,7,0,0,0,0,0],"split_type":[0,0,0,0,0,0,0,0,0,0,0,0,0,0,0,0,0,0,0,0,0,0,0,0,0,0,0],"sum_hessian":[1.256E3,1.188E3,6.8E1,4.2E1,1.146E3,2.6E1,4.2E1,2.2E1,2E1,1.04E2,1.042E3,1.8E1,2.4E1,8E1,2.4E1,2.27E2,8.15E2,6.1E1,1.9E1,2.02E2,2.5E1,7.81E2,3.4E1,1.8E1,1.84E2,2.28E2,5.53E2],"tree_param":{"num_deleted":"0","num_feature":"8","num_nodes":"27","size_leaf_vector":"1"}},{"base_weights":[-1.0460209E-2,3.39382E-2,-1.4183769E-3,-4.467203E-3,3.0340207E-1,8.738697E-2,-2.4159646E-2,1.6976843E-2,2.607349E-3,-3.565111E-3,1.6277136E-1,-5.4324255E-3,-1.42025575E-2,1.4493753E-3,9.383659E-3,7.909994E-3,-4.4899367E-2,-3.4838726E-4,5.748118E-3,-4.044917E-3,-9.160284E-4],"categories":[],"categories_nodes":[],"categories_segments":[],"categories_sizes":[],"default_left":[0,1,0,0,0,0,0,0,0,0,0,0,0,0,0,1,0,0,0,0,0],"id":46,"left_children":[1,3,-1,5,7,9,11,-1,-1,-1,13,-1,15,-1,-1,17,19,-1,-1,-1,-1],"loss_changes":[1.6920052E0,5.2271404E0,0E0,7.993467E-1,2.7671852E0,1.127852E0,4.8826042E-1,0E0,0E0,0E0,7.5325537E-1,0E0,2.3022412E-1,0E0,0E0,5.7250285E-1,1.8832606E-1,0E0,0E0,0E0,0E0],"parents":[2147483647,0,0,1,1,3,3,4,4,5,5,6,6,10,10,12,12,15,15,16,16],