{"learner":{"attributes":{},"feature_names":["TEMP","TP","SI","NO23","STN_DEPTH_M","DOY_sin","DOY_cos","NP_ratio"],"feature_types":["float","float","float","float","float","float","float","float"],"gradient_booster":{"model":{"gbtree_model_param":{"num_parallel_tree":"1","num_trees":"840"},"iteration_indptr":[0,1,2,3,4,5,6,7,8,9,10,11,12,13,14,15,16,17,18,19,20,21,22,23,24,25,26,27,28,29,30,31,32,33,34,35,36,37,38,39,40,41,42,43,44,45,46,47,48,49,50,51,52,53,54,55,56,57,58,59,60,61,62,63,64,65,66,67,68,69,70,71,72,73,74,75,76,77,78,79,80,81,82,83,84,85,86,87,88,89,90,91,92,93,94,95,96,97,98,99,100,101,102,103,104,105,106,107,108,109,110,111,112,113,114,115,116,117,118,119,120,121,122,123,124,125,126,127,128,129,130,131,132,133,134,135,136,137,138,139,140,141,142,143,144,145,146,147,148,149,150,151,152,153,154,155,156,157,158,159,160,161,162,163,164,165,166,167,168,169,170,171,172,173,174,175,176,177,178,179,180,181,182,183,184,185,186,187,188,189,190,191,192,193,194,195,196,197,198,199,200,201,202,203,204,205,206,207,208,209,210,211,212,213,214,215,216,217,218,219,220,221,222,223,224,225,226,227,228,229,230,231,232,233,234,235,236,237,238,239,240,241,242,243,244,245,246,247,248,249,250,251,252,253,254,255,256,257,258,259,260,261,262,263,264,265,266,267,268,269,270,271,272,273,274,275,276,277,278,279,280,281,282,283,284,285,286,287,288,289,290,291,292,293,294,295,296,297,298,299,300,301,302,303,304,305,306,307,308,309,310,311,312,313,314,315,316,317,318,319,320,321,322,323,324,325,326,327,328,329,330,331,332,333,334,335,336,337,338,339,340,341,342,343,344,345,346,347,348,349,350,351,352,353,354,355,356,357,358,359,360,361,362,363,364,365,366,367,368,369,370,371,372,373,374,375,376,377,378,379,380,381,382,383,384,385,386,387,388,389,390,391,392,393,394,395,396,397,398,399,400,401,402,403,404,405,406,407,408,409,410,411,412,413,414,415,416,417,418,419,420,421,422,423,424,425,426,427,428,429,430,431,432,433,434,435,436,437,438,439,440,441,442,443,444,445,446,447,448,449,450,451,452,453,454,455,456,457,458,459,460,461,462,463,464,465,466,467,468,469,470,471,472,473,474,475,476,477,478,479,480,481,482,483,484,485,486,487,488,489,490,491,492,493,494,495,496,497,498,499,500,501,502,503,504,505,506,507,508,509,510,511,512,513,514,515,516,517,518,519,520,521,522,523,524,525,526,527,528,529,530,531,532,533,534,535,536,537,538,539,540,541,542,543,544,545,546,547,548,549,550,551,552,553,554,555,556,557,558,559,560,561,562,563,564,565,566,567,568,569,570,571,572,573,574,575,576,577,578,579,580,581,582,583,584,585,586,587,588,589,590,591,592,593,594,595,596,597,598,599,600,601,602,603,604,605,606,607,608,609,610,611,612,613,614,615,616,617,618,619,620,621,622,623,624,625,626,627,628,629,630,631,632,633,634,635,636,637,638,639,640,641,642,643,644,645,646,647,648,649,650,651,652,653,654,655,656,657,658,659,660,661,662,663,664,665,666,667,668,669,670,671,672,673,674,675,676,677,678,679,680,681,682,683,684,685,686,687,688,689,690,691,692,693,694,695,696,697,698,699,700,701,702,703,704,705,706,707,708,709,710,711,712,713,714,715,716,717,718,719,720,721,722,723,724,725,726,727,728,729,730,731,732,733,734,735,736,737,738,739,740,741,742,743,744,745,746,747,748,749,750,751,752,753,754,755,756,757,758,759,760,761,762,763,764,765,766,767,768,769,770,771,772,773,774,775,776,777,778,779,780,781,782,783,784,785,786,787,788,789,790,791,792,793,794,795,796,797,798,799,800,801,802,803,804,805,806,807,808,809,810,811,812,813,814,815,816,817,818,819,820,821,822,823,824,825,826,827,828,829,830,831,832,833,834,835,836,837,838,839,840],"tree_info":[0,0,0,0,0,0,0,0,0,0,0,0,0,0,0,0,0,0,0,0,0,0,0,0,0,0,0,0,0,0,0,0,0,0,0,0,0,0,0,0,0,0,0,0,0,0,0,0,0,0,0,0,0,0,0,0,0,0,0,0,0,0,0,0,0,0,0,0,0,0,0,0,0,0,0,0,0,0,0,0,0,0,0,0,0,0,0,0,0,0,0,0,0,0,0,0,0,0,0,0,0,0,0,0,0,0,0,0,0,0,0,0,0,0,0,0,0,0,0,0,0,0,0,0,0,0,0,0,0,0,0,0,0,0,0,0,0,0,0,0,0,0,0,0,0,0,0,0,0,0,0,0,0,0,0,0,0,0,0,0,0,0,0,0,0,0,0,0,0,0,0,0,0,0,0,0,0,0,0,0,0,0,0,0,0,0,0,0,0,0,0,0,0,0,0,0,0,0,0,0,0,0,0,0,0,0,0,0,0,0,0,0,0,0,0,0,0,0,0,0,0,0,0,0,0,0,0,0,0,0,0,0,0,0,0,0,0,0,0,0,0,0,0,0,0,0,0,0,0,0,0,0,0,0,0,0,0,0,0,0,0,0,0,0,0,0,0,0,0,0,0,0,0,0,0,0,0,0,0,0,0,0,0,0,0,0,0,0,0,0,0,0,0,0,0,0,0,0,0,0,0,0,0,0,0,0,0,0,0,0,0,0,0,0,0,0,0,0,0,0,0,0,0,0,0,0,0,0,0,0,0,0,0,0,0,0,0,0,0,0,0,0,0,0,0,0,0,0,0,0,0,0,0,0,0,0,0,0,0,0,0,0,0,0,0,0,0,0,0,0,0,0,0,0,0,0,0,0,0,0,0,0,0,0,0,0,0,0,0,0,0,0,0,0,0,0,0,0,0,0,0,0,0,0,0,0,0,0,0,0,0,0,0,0,0,0,0,0,0,0,0,0,0,0,0,0,0,0,0,0,0,0,0,0,0,0,0,0,0,0,0,0,0,0,0,0,0,0,0,0,0,0,0,0,0,0,0,0,0,0,0,0,0,0,0,0,0,0,0,0,0,0,0,0,0,0,0,0,0,0,0,0,0,0,0,0,0,0,0,0,0,0,0,0,0,0,0,0,0,0,0,0,0,0,0,0,0,0,0,0,0,0,0,0,0,0,0,0,0,0,0,0,0,0,0,0,0,0,0,0,0,0,0,0,0,0,0,0,0,0,0,0,0,0,0,0,0,0,0,0,0,0,0,0,0,0,0,0,0,0,0,0,0,0,0,0,0,0,0,0,0,0,0,0,0,0,0,0,0,0,0,0,0,0,0,0,0,0,0,0,0,0,0,0,0,0,0,0,0,0,0,0,0,0,0,0,0,0,0,0,0,0,0,0,0,0,0,0,0,0,0,0,0,0,0,0,0,0,0,0,0,0,0,0,0,0,0,0,0,0,0,0,0,0,0,0,0,0,0,0,0,0,0,0,0,0,0,0,0,0,0,0,0,0,0,0,0,0,0,0,0,0,0,0,0,0,0,0,0,0,0,0,0,0,0,0,0,0,0,0,0,0,0,0,0,0,0,0,0,0,0,0,0,0,0,0,0,0,0,0,0,0,0,0,0,0,0,0,0,0,0,0,0,0,0,0,0,0,0,0,0,0,0,0,0,0,0,0,0,0,0,0,0,0,0,0,0,0,0,0,0,0,0,0,0,0,0,0,0,0,0,0,0,0,0,0,0,0,0,0,0,0,0,0,0,0,0,0,0,0,0,0,0,0,0,0,0,0,0,0,0,0,0,0,0,0,0,0,0,0,0,0,0,0,0,0,0,0,0,0,0,0,0,0,0,0,0,0,0,0,0,0,0,0,0,0,0,0,0,0,0,0,0,0,0,0,0,0,0,0],"trees":[{"base_weights":[-5.1997243E-3,2.2634593E-1,-1.22154854E-1,7.9430056E-1,3.9898958E-2,-9.320009E-2,-1.5856422E-1,4.4839966E-1,1.2619656E0,2.813538E-1,-4.6206795E-2,-3.95409E-2,-1.0917887E-1,-7.7824015E-4,-2.7080185E-3,9.596334E-1,3.456435E-1,9.443361E-1,1.459662E0,1.9241053E-1,8.124316E-1,-1.1200427E-2,-1.7611231E-3,1.308348E-1,-1.4394972E-3,-7.476786E-2,-2.0697105E-3,1.1871011E0,7.940653E-3,7.1028197E-1,2.8190133E-1,1.2330313E0,1.2013206E-2,1.6421989E0,6.890006E-1,3.6669567E-1,1.3070679E-1,2.6425844E-1,1.2375702E0,1.6408456E-2,-1.3420507E-3,5.9023686E-4,3.2835293E-1,-9.302974E-2,4.662097E-3,1.3009743E-2,2.3800123E-2,1.6700987E-2,5.493596E-3,3.7159756E-1,2.8816366E-3,2.8525518E-2,1.3360004E-2,1.816509E-2,1.7840499E0,1.7658249E-2,4.693649E-3,1.1225327E-2,4.5973677E-3,2.2037962E-1,1.6160509E-4,7.174306E-3,1.1314683E-3,1.4897774E-2,2.840157E-2,1.8604784E-1,-2.1976016E-2,1.0370063E-2,2.3567942E-3,-1.7241007E-3,2.0945122E-4,2.3997955E-3,8.910095E-3,3.8706396E-2,2.5450233E-2,-0E0,4.4669495E-3,7.7063222E-3,1.8544944E-3,-5.0910166E-4,3.691531E-3],"categories":[],"categories_nodes":[],"categories_segments":[],"categories_sizes":[],"default_left":[0,0,1,0,0,0,0,0,0,0,1,0,1,0,0,0,0,0,0,0,0,0,0,0,0,1,0,0,0,0,0,0,0,0,0,0,0,0,0,0,0,0,0,1,0,0,0,0,0,0,0,0,0,0,0,0,0,0,0,0,0,0,0,0,0,0,1,0,0,0,0,0,0,0,0,0,0,0,0,0,0],"id":0,"left_children":[1,3,5,7,9,11,13,15,17,19,21,23,25,-1,-1,27,29,31,33,35,37,39,-1,41,-1,43,-1,45,-1,47,49,51,-1,53,55,57,59,61,63,65,-1,-1,67,69,-1,-1,-1,-1,-1,71,-1,-1,-1,-1,73,-1,-1,-1,-1,75,-1,-1,-1,-1,-1,77,79,-1,-1,-1,-1,-1,-1,-1,-1,-1,-1,-1,-1,-1,-1],"loss_changes":[5.166081E1,6.7687E1,1.3096676E0,2.536203E1,1.0047269E1,5.9123564E-1,2.5102615E-1,4.6313496E0,3.8992767E0,5.8885612E0,7.3028624E-1,1.311345E0,2.6598167E-1,0E0,0E0,1.4497395E0,1.654582E0,1.4224453E0,5.4808884E0,1.1182494E0,4.0327845E0,4.3893784E-1,0E0,6.209421E-1,0E0,1.084558E0,0E0,7.143879E-1,0E0,1.0806551E0,5.7302666E-1,1.9673939E0,0E0,2.1902237E0,1.0669096E0,6.7176676E-1,8.548864E-1,2.1022648E-1,1.276618E0,1.0595667E0,0E0,0E0,5.245099E-1,1.9287992E-1,0E0,0E0,0E0,0E0,0E0,1.234788E0,0E0,0E0,0E0,0E0,3.031479E0,0E0,0E0,0E0,0E0,5.1178145E-1,0E0,0E0,0E0,0E0,0E0,5.583277E-1,2.5483847E-1,0E0,0E0,0E0,0E0,0E0,0E0,0E0,0E0,0E0,0E0,0E0,0E0,0E0,0E0],"parents":[2147483647,0,0,1,1,2,2,3,3,4,4,5,5,6,6,7,7,8,8,9,9,10,10,11,11,12,12,15,15,16,16,17,17,18,18,19,19,20,20,21,21,23,23,25,25,27,27,29,29,30,30,31,31,33,33,34,34,35,35,36,36,37,37,38,38,39,39,42,42,43,43,49,49,54,54,59,59,65,65,66,66],"right_children":[2,4,6,8,10,12,14,16,18,20,22,24,26,-1,-1,28,30,32,34,36,38,40,-1,42,-1,44,-1,46,-1,48,50,52,-1,54,56,58,60,62,64,66,-1,-1,68,70,-1,-1,-1,-1,-1,72,-1,-1,-1,-1,74,-1,-1,-1,-1,76,-1,-1,-1,-1,-1,78,80,-1,-1,-1,-1,-1,-1,-1,-1,-1,-1,-1,-1,-1,-1],"split_conditions":[-6.016241E-1,3.5726674E-2,8.78E-1,1.81E-1,7.113327E-2,-5.4524046E-1,1.9604206E-2,-6.680639E-1,3.6E-1,1.92646E-1,1.01E0,5.6502678E-2,1.3906856E-2,-7.7824015E-4,-2.7080185E-3,1.9604206E-2,9.158308E-3,2.08E-1,3.1491935E-2,4.4609025E-2,4.5468464E-2,-6.551564E-1,-1.7611231E-3,5.77E-1,-1.4394972E-3,1.312197E-2,-2.0697105E-3,1.00946E-1,7.940653E-3,1.36E-1,9.1E-2,-6.4205474E-1,1.2013206E-2,1.13739595E-2,-6.2876284E-1,-7.295576E-1,-6.551564E-1,-6.152846E-1,-6.2876284E-1,1.1574803E-1,-1.3420507E-3,5.9023686E-4,6.96E-1,4.2E-1,4.662097E-3,1.3009743E-2,2.3800123E-2,1.6700987E-2,5.493596E-3,6.6E-2,2.8816366E-3,2.8525518E-2,1.3360004E-2,1.816509E-2,1.6236521E-2,1.7658249E-2,4.693649E-3,1.1225327E-2,4.5973677E-3,-7.5266683E-1,1.6160509E-4,7.174306E-3,1.1314683E-3,1.4897774E-2,2.840157E-2,7.1E-2,1.008E0,1.0370063E-2,2.3567942E-3,-1.7241007E-3,2.0945122E-4,2.3997955E-3,8.910095E-3,3.8706396E-2,2.5450233E-2,-0E0,4.4669495E-3,7.7063222E-3,1.8544944E-3,-5.0910166E-4,3.691531E-3],"split_indices":[5,7,2,2,7,5,7,5,2,2,2,7,7,0,0,7,7,2,7,7,7,5,0,2,0,7,0,2,0,2,2,5,0,7,5,5,5,5,5,7,0,0,2,2,0,0,0,0,0,2,0,0,0,0,7,0,0,0,0,5,0,0,0,0,0,2,2,0,0,0,0,0,0,0,0,0,0,0,0,0,0],"split_type":[0,0,0,0,0,0,0,0,0,0,0,0,0,0,0,0,0,0,0,0,0,0,0,0,0,0,0,0,0,0,0,0,0,0,0,0,0,0,0,0,0,0,0,0,0,0,0,0,0,0,0,0,0,0,0,0,0,0,0,0,0,0,0,0,0,0,0,0,0,0,0,0,0,0,0,0,0,0,0,0,0],"sum_hessian":[1.908E3,6.4E2,1.268E3,1.58E2,4.82E2,7.08E2,5.6E2,9.1E1,6.7E1,1.27E2,3.55E2,1.64E2,5.44E2,2.2E1,5.38E2,1.5E1,7.6E1,2.6E1,4.1E1,1.09E2,1.8E1,2.25E2,1.3E2,3.5E1,1.29E2,1.7E2,3.74E2,1E1,5E0,1.1E1,6.5E1,1.1E1,1.5E1,3.3E1,8E0,2.8E1,8.1E1,8E0,1E1,1.6E2,6.5E1,2.4E1,1.1E1,1.62E2,8E0,4E0,6E0,6E0,5E0,3.5E1,3E1,5E0,6E0,7E0,2.6E1,4E0,4E0,6E0,2.2E1,4.6E1,3.5E1,4E0,4E0,6E0,4E0,3E1,1.3E2,4E0,7E0,1.48E2,1.4E1,1.5E1,2E1,8E0,1.8E1,8E0,3.8E1,6E0,2.4E1,1.26E2,4E0],"tree_param":{"num_deleted":"0","num_feature":"8","num_nodes":"81","size_leaf_vector":"1"}},{"base_weights":[3.2877765E-4,3.612095E-1,-8.3996154E-2,7.5889075E-1,-8.298871E-2,1.4532724E-1,-1.15210004E-1,1.432135E0,5.9944606E-1,-1.0259144E-1,3.103551E-2,2.0651665E-1,-1.8340322E-3,-8.8091426E-2,-1.418462E-1,2.228146E0,8.5527027E-1,4.3372473E-1,1.0971799E0,-1.8342756E-3,2.3869127E-3,1.8734723E-1,-1.5511235E-3,1.6868688E-1,7.75664E-1,-6.7882076E-2,-2.161639E-3,-5.8249865E-2,-2.5976198E-3,2.7029147E-2,2.7305613E0,6.7841127E-3,1.0694427E0,1.0941351E-1,5.2254915E-1,1.3679944E0,7.15663E-1,5.5032424E-3,-0E0,5.152805E-1,1.319333E-1,8.860108E-3,1.7355286E-2,-1.480533E-3,1.7868925E-2,-8.322439E-2,8.923396E-2,3.3531908E-2,5.6333926E-2,1.2636278E0,1.1492616E-2,5.323169E-4,2.597427E-1,3.8621357E-1,7.432616E-1,2.0516844E-2,3.1978343E-2,3.0905956E-1,2.0253047E-2,3.5463101E-3,1.614998E-2,-7.0601703E-7,1.6562968E-1,-1.6409477E-3,4.108065E-2,-1.8627018E-3,3.5781018E-4,6.8663666E-3,-5.153656E-4,1.660343E-2,2.5839573E-2,1.1565399E-3,6.9999E-3,1.3506716E-2,5.5229855E-3,4.1260994E-3,1.6745154E-2,1.4715707E-3,9.222618E-3,5.769203E-4,3.3360024E-3,2.7196524E-3,1.4286638E-4],"categories":[],"categories_nodes":[],"categories_segments":[],"categories_sizes":[],"default_left":[0,0,0,0,0,0,0,0,0,0,0,0,0,1,1,0,0,0,0,0,0,0,0,0,0,0,0,1,0,0,0,0,0,0,1,0,0,0,0,0,0,0,0,0,0,0,0,0,0,0,0,0,0,0,0,0,0,0,0,0,0,0,0,0,0,0,0,0,0,0,0,0,0,0,0,0,0,0,0,0,0,0,0],"id":1,"left_children":[1,3,5,7,9,11,13,15,17,19,21,23,-1,25,27,29,31,33,35,-1,-1,37,-1,39,41,43,-1,45,-1,-1,47,-1,49,51,53,55,57,-1,-1,59,61,-1,-1,-1,63,65,67,-1,-1,69,-1,-1,71,73,75,-1,-1,77,-1,-1,-1,-1,79,-1,81,-1,-1,-1,-1,-1,-1,-1,-1,-1,-1,-1,-1,-1,-1,-1,-1,-1,-1],"loss_changes":[5.7516346E1,6.3321598E1,1.0956818E1,2.0043015E1,3.8550925E-1,2.8746984E0,9.489994E-1,1.6145927E1,1.2442608E1,2.74683E-1,4.7798154E-1,3.0825243E0,0E0,5.4707766E-1,7.9580116E-1,3.9049072E0,1.8410225E0,3.2450275E0,3.6702728E0,0E0,0E0,2.7483034E-1,0E0,1.7001858E0,3.9971828E-1,8.3287716E-1,0E0,3.7184605E-1,0E0,0E0,2.9242058E0,0E0,7.883091E-1,2.6023555E-1,2.5785255E0,1.2054253E0,3.103653E0,0E0,0E0,1.6636317E0,5.7796335E-1,0E0,0E0,0E0,2.3508577E-1,2.726797E-1,5.8764637E-1,0E0,0E0,3.6289787E-1,0E0,0E0,1.9392574E-1,1.1565771E0,4.3100815E0,0E0,0E0,4.2034256E-1,0E0,0E0,0E0,0E0,4.3906093E-1,0E0,2.8054786E-1,0E0,0E0,0E0,0E0,0E0,0E0,0E0,0E0,0E0,0E0,0E0,0E0,0E0,0E0,0E0,0E0,0E0,0E0],"parents":[2147483647,0,0,1,1,2,2,3,3,4,4,5,5,6,6,7,7,8,8,9,9,10,10,11,11,13,13,14,14,15,15,16,16,17,17,18,18,21,21,23,23,24,24,25,25,27,27,30,30,32,32,33,33,34,34,35,35,36,36,39,39,40,40,44,44,45,45,46,46,49,49,52,52,53,53,54,54,57,57,62,62,64,64],"right_children":[2,4,6,8,10,12,14,16,18,20,22,24,-1,26,28,30,32,34,36,-1,-1,38,-1,40,42,44,-1,46,-1,-1,48,-1,50,52,54,56,58,-1,-1,60,62,-1,-1,-1,64,66,68,-1,-1,70,-1,-1,72,74,76,-1,-1,78,-1,-1,-1,-1,80,-1,82,-1,-1,-1,-1,-1,-1,-1,-1,-1,-1,-1,-1,-1,-1,-1,-1,-1,-1],"split_conditions":[2.45E1,-6.584016E-1,1.73E-1,8.7E0,-6.450845E-2,-6.321034E-1,-4.132786E-1,2.1379214E-2,-7.4410397E-1,6.0484722E-2,-3.0120306E-2,-6.839194E-1,-1.8340322E-3,1.01E0,1.8588025E-2,-7.775971E-1,-7.6665884E-1,-7.8830504E-1,1.6465422E-2,-1.8342756E-3,2.3869127E-3,8.7431E-1,-1.5511235E-3,2.2011971E-2,9.1E-2,-6.186714E-1,-2.161639E-3,1.2851339E-2,-2.5976198E-3,2.7029147E-2,8.681436E-3,6.7841127E-3,7.99E-1,3.92685E-1,1.81E-1,5.77E-1,-7.206671E-1,5.5032424E-3,-0E0,9.1E-2,-7.775971E-1,8.860108E-3,1.7355286E-2,-1.480533E-3,8.55E-1,1.927E2,1.3906856E-2,3.3531908E-2,5.6333926E-2,6.55E-1,1.1492616E-2,5.323169E-4,3.3890627E-2,6.105182E-3,1.01E1,2.0516844E-2,3.1978343E-2,2.225E1,2.0253047E-2,3.5463101E-3,1.614998E-2,-7.0601703E-7,4.2E-2,-1.6409477E-3,1.1574803E-1,-1.8627018E-3,3.5781018E-4,6.8663666E-3,-5.153656E-4,1.660343E-2,2.5839573E-2,1.1565399E-3,6.9999E-3,1.3506716E-2,5.5229855E-3,4.1260994E-3,1.6745154E-2,1.4715707E-3,9.222618E-3,5.769203E-4,3.3360024E-3,2.7196524E-3,1.4286638E-4],"split_indices":[4,6,2,4,6,6,6,7,6,7,6,6,0,2,7,6,6,6,7,0,0,2,0,7,2,6,0,7,0,0,7,0,2,2,2,2,6,0,0,2,6,0,0,0,2,4,7,0,0,2,0,0,7,7,4,0,0,4,0,0,0,0,2,0,7,0,0,0,0,0,0,0,0,0,0,0,0,0,0,0,0,0,0],"split_type":[0,0,0,0,0,0,0,0,0,0,0,0,0,0,0,0,0,0,0,0,0,0,0,0,0,0,0,0,0,0,0,0,0,0,0,0,0,0,0,0,0,0,0,0,0,0,0,0,0,0,0,0,0,0,0,0,0,0,0,0,0,0,0,0,0,0,0,0,0,0,0,0,0,0,0,0,0,0,0,0,0,0,0],"sum_hessian":[1.889E3,3.58E2,1.531E3,1.89E2,1.69E2,1.83E2,1.348E3,3.6E1,1.53E2,1.45E2,2.4E1,1.48E2,3.5E1,6.7E2,6.78E2,1.5E1,2.1E1,1.15E2,3.8E1,1.41E2,4E0,1.1E1,1.3E1,1.39E2,9E0,4.54E2,2.16E2,1.01E2,5.77E2,7E0,8E0,7E0,1.4E1,2.5E1,9E1,2.2E1,1.6E1,6E0,5E0,1.3E1,1.26E2,5E0,4E0,3.65E2,8.9E1,8.7E1,1.4E1,4E0,4E0,9E0,5E0,1.7E1,8E0,5.6E1,3.4E1,1.8E1,4E0,9E0,7E0,8E0,5E0,2.5E1,1.01E2,1.4E1,7.5E1,6.9E1,1.8E1,4E0,1E1,5E0,4E0,4E0,4E0,6E0,5E1,1.2E1,2.2E1,5E0,4E0,2.2E1,7.9E1,1.5E1,6E1],"tree_param":{"num_deleted":"0","num_feature":"8","num_nodes":"83","size_leaf_vector":"1"}},{"base_weights":[2.655732E-3,4.1688097E-1,-6.9304004E-2,9.163475E-1,-2.7638707E-2,7.468146E-2,-1.2754749E-1,6.9269687E-1,2.2247863E0,2.1864888E-1,-6.507884E-2,4.3261337E-1,4.6417047E-3,-7.75969E-2,-1.4535874E-1,4.1694137E-1,8.974637E-1,2.1199567E-2,2.5515287E0,1.553086E-3,9.052531E-3,4.4579003E-3,-7.67659E-2,3.421671E-1,7.3342586E-1,-3.281176E-2,1.4213488E-1,4.8723514E-4,-1.4570338E-3,-2.5495961E-3,-9.9037E-2,2.0788127E-1,6.797849E-1,1.1484404E0,7.3283154E-1,2.9632006E-2,4.7199283E-2,-1.7669031E-3,3.6002524E-2,3.636595E-3,5.001669E-1,2.0936321E-2,7.199552E-3,8.760383E-5,-5.8146942E-2,1.0962812E-1,1.0358819E-2,5.003755E-3,-1.8800329E-3,-1.0589664E-4,2.8798342E-1,1.8634574E-2,3.3725572E-1,2.4704356E-2,9.7998554E-1,4.1998264E-1,9.447434E-1,2.326025E-3,-1.442369E-3,6.329142E-4,6.735265E-1,2.764643E-3,-1.1253811E-3,8.525195E-2,8.792301E-3,5.779448E-3,1.4368567E-3,-0E0,8.176924E-3,2.0149425E-2,3.225811E-3,1.2671317E-2,3.3529573E-3,2.159996E-2,1.173301E-2,2.0444343E-2,6.3692057E-3,2.1788592E-3,2.4523208E-5],"categories":[],"categories_nodes":[],"categories_segments":[],"categories_sizes":[],"default_left":[0,0,0,1,0,0,0,1,0,0,1,1,1,0,0,0,0,0,0,0,0,0,0,0,0,0,0,0,0,0,0,1,0,0,0,0,0,0,0,0,0,0,0,0,0,0,0,0,0,0,0,0,0,0,0,0,0,0,0,0,0,0,0,0,0,0,0,0,0,0,0,0,0,0,0,0,0,0,0],"id":2,"left_children":[1,3,5,7,9,11,13,15,17,19,21,23,25,27,29,31,33,-1,35,-1,-1,-1,37,39,41,43,45,-1,-1,-1,47,49,51,53,55,-1,-1,-1,57,-1,59,-1,-1,-1,61,63,-1,-1,-1,-1,65,-1,67,-1,69,71,73,-1,-1,-1,75,-1,-1,77,-1,-1,-1,-1,-1,-1,-1,-1,-1,-1,-1,-1,-1,-1,-1],"loss_changes":[5.5987804E1,6.18262E1,1.3415874E1,3.797573E1,1.3402908E0,1.1486853E1,9.894295E-1,6.1724815E0,5.3676224E0,7.079159E-1,4.7944558E-1,1.9179468E0,1.9945184E0,3.3031416E-1,2.8500938E-1,2.5405073E0,2.4129639E0,0E0,2.4143982E0,0E0,0E0,0E0,4.2082053E-1,1.0510263E0,2.491681E0,2.9700148E-1,1.2187142E0,0E0,0E0,0E0,6.9161963E-1,4.938314E-1,3.0120077E0,1.105236E0,2.4280605E0,0E0,0E0,0E0,3.2571873E-1,0E0,1.9299822E0,0E0,0E0,0E0,3.8307035E-1,7.312281E-1,0E0,0E0,0E0,0E0,1.9434273E-1,0E0,5.768089E-1,0E0,2.953888E0,1.0908339E0,1.7031918E0,0E0,0E0,0E0,2.7254763E0,0E0,0E0,2.7039343E-1,0E0,0E0,0E0,0E0,0E0,0E0,0E0,0E0,0E0,0E0,0E0,0E0,0E0,0E0,0E0],"parents":[2147483647,0,0,1,1,2,2,3,3,4,4,5,5,6,6,7,7,8,8,9,9,10,10,11,11,12,12,13,13,14,14,15,15,16,16,18,18,22,22,23,23,24,24,25,25,26,26,30,30,31,31,32,32,33,33,34,34,38,38,40,40,44,44,45,45,50,50,52,52,54,54,55,55,56,56,60,60,63,63],"right_children":[2,4,6,8,10,12,14,16,18,20,22,24,26,28,30,32,34,-1,36,-1,-1,-1,38,40,42,44,46,-1,-1,-1,48,50,52,54,56,-1,-1,-1,58,-1,60,-1,-1,-1,62,64,-1,-1,-1,-1,66,-1,68,-1,70,72,74,-1,-1,-1,76,-1,-1,78,-1,-1,-1,-1,-1,-1,-1,-1,-1,-1,-1,-1,-1,-1,-1],"split_conditions":[2.26E1,-6.016241E-1,-6.152846E-1,1.78355E1,-5.4524046E-1,2.375E-1,-5.012418E-1,7.902E0,2.695E-1,5.0225E-1,6.159E0,7.051E0,3.981E0,2.535E-1,9.429E0,2.18E1,-6.4205474E-1,2.1199567E-2,1.8784E1,1.553086E-3,9.052531E-3,4.4579003E-3,9.9732494E-1,1.49882E-1,-6.551564E-1,-7.961829E-1,7.265E0,4.8723514E-4,-1.4570338E-3,-2.5495961E-3,9.786E0,4.641E0,-6.4205474E-1,9E0,1.0277E1,2.9632006E-2,4.7199283E-2,-1.7669031E-3,9.9925E-1,3.636595E-3,-7.638886E-1,2.0936321E-2,7.199552E-3,8.760383E-5,2.8E-1,3.414025E-1,1.0358819E-2,5.003755E-3,-1.8800329E-3,-1.0589664E-4,-6.152846E-1,1.8634574E-2,5.304E0,2.4704356E-2,2.005945E-1,8.914E0,1.1354E1,2.326025E-3,-1.442369E-3,6.329142E-4,4.641E0,2.764643E-3,-1.1253811E-3,-6.551564E-1,8.792301E-3,5.779448E-3,1.4368567E-3,-0E0,8.176924E-3,2.0149425E-2,3.225811E-3,1.2671317E-2,3.3529573E-3,2.159996E-2,1.173301E-2,2.0444343E-2,6.3692057E-3,2.1788592E-3,2.4523208E-5],"split_indices":[4,5,5,1,5,3,5,1,3,3,1,1,1,3,1,4,5,0,1,0,0,0,5,3,5,5,1,0,0,0,1,1,5,4,1,0,0,0,5,0,5,0,0,0,3,3,0,0,0,0,5,0,1,0,3,1,1,0,0,0,1,0,0,5,0,0,0,0,0,0,0,0,0,0,0,0,0,0,0],"split_type":[0,0,0,0,0,0,0,0,0,0,0,0,0,0,0,0,0,0,0,0,0,0,0,0,0,0,0,0,0,0,0,0,0,0,0,0,0,0,0,0,0,0,0,0,0,0,0,0,0,0,0,0,0,0,0,0,0,0,0,0,0,0,0,0,0,0,0,0,0,0,0,0,0,0,0,0,0,0,0],"sum_hessian":[1.877E3,2.78E2,1.599E3,1.31E2,1.47E2,4.6E2,1.139E3,1.12E2,1.9E1,1.9E1,1.28E2,7.5E1,3.85E2,3.01E2,8.38E2,4.8E1,6.4E1,5E0,1.4E1,1.4E1,5E0,4E0,1.24E2,5.8E1,1.7E1,3.02E2,8.3E1,2.5E1,2.76E2,7.12E2,1.26E2,2.7E1,2.1E1,2.5E1,3.9E1,4E0,1E1,9.9E1,2.5E1,3.3E1,2.5E1,6E0,1.1E1,1.19E2,1.83E2,7.8E1,5E0,4E0,1.22E2,7E0,2E1,9E0,1.2E1,8E0,1.7E1,1.6E1,2.3E1,1.4E1,1.1E1,7E0,1.8E1,7E0,1.76E2,7.4E1,4E0,1.5E1,5E0,4E0,8E0,1.3E1,4E0,6E0,1E1,9E0,1.4E1,6E0,1.2E1,4.7E1,2.7E1],"tree_param":{"num_deleted":"0","num_feature":"8","num_nodes":"79","size_leaf_vector":"1"}},{"base_weights":[2.791175E-3,-9.201704E-2,4.388425E-1,1.3834878E-2,-1.2884173E-1,1.0145569E0,2.6821315E-1,1.0355732E0,-3.0766696E-2,-4.6469204E-2,-1.372264E-1,4.1891064E-2,9.3036425E-1,4.2108086E-1,1.2300269E-2,2.9960092E-2,7.864897E-1,-4.724906E-2,2.2584283E-1,-8.6573064E-2,8.399323E-2,-2.45081E-3,-1.6093977E-3,1.0650362E0,2.2453618E-1,5.935068E-1,2.7601495E-1,1.5211192E-1,-4.767702E-4,9.2929286E-1,7.194373E-3,-1.6572966E-3,-2.4191184E-2,7.871453E-3,1.8271552E-3,1.1907945E-3,-1.7392071E-3,-7.2110276E-4,2.8494197E-1,9.0265274E-1,1.891707E0,-0E0,5.7274466E-3,2.220537E-2,4.8988083E-1,4.478107E-1,1.791633E-1,3.4660406E-3,-0E0,1.155615E-2,1.9704413E-2,1.9225603E-2,-1.0072322E-3,1.1724078E-2,-0E0,1.2050834E0,7.240408E-1,1.8299652E-2,5.032848E-2,6.264146E-1,3.7944114E-1,2.1887826E-2,2.4141794E-1,1.4846876E-1,9.335428E-3,-9.6340105E-4,9.7557786E-4,3.3510797E-2,1.6234681E-2,1.9249097E-2,7.79772E-3,1.8505241E-3,1.2115615E-2,7.0879436E-3,2.6864884E-3,1.0163227E-2,2.4475926E-3,4.005605E-3,-5.134951E-4],"categories":[],"categories_nodes":[],"categories_segments":[],"categories_sizes":[],"default_left":[1,0,0,0,0,0,0,0,1,0,1,0,0,0,0,0,0,1,0,0,0,0,0,0,0,0,0,0,0,0,0,0,0,0,0,0,0,0,0,0,0,0,0,0,0,0,0,0,0,0,0,0,0,0,0,0,0,0,0,0,0,0,0,0,0,0,0,0,0,0,0,0,0,0,0,0,0,0,0],"id":3,"left_children":[1,3,5,7,9,11,13,15,17,19,21,-1,23,25,27,-1,29,31,33,35,37,-1,-1,39,41,43,45,47,-1,49,-1,-1,51,-1,-1,-1,-1,-1,53,55,57,-1,-1,-1,59,61,63,-1,-1,-1,-1,65,-1,-1,-1,67,69,-1,-1,71,73,-1,75,77,-1,-1,-1,-1,-1,-1,-1,-1,-1,-1,-1,-1,-1,-1,-1],"loss_changes":[7.916709E1,6.139948E0,3.3453598E1,1.8565374E1,7.864208E-1,9.433624E0,1.0283649E1,2.92424E0,1.6228647E0,5.7108474E-1,4.1096306E-1,0E0,6.8922577E0,4.029804E0,5.807252E-1,0E0,4.9837112E-1,4.2845607E-1,5.9806025E-1,2.4406582E-1,6.6694427E-1,0E0,0E0,7.962967E0,3.4785908E-1,5.554531E0,1.4287949E0,2.0799565E-1,0E0,3.0977154E-1,0E0,0E0,4.0759033E-1,0E0,0E0,0E0,0E0,0E0,1.1957734E0,2.5716782E0,8.449062E0,0E0,0E0,0E0,8.7998676E-1,5.57023E0,6.032132E-1,0E0,0E0,0E0,0E0,3.5073665E-1,0E0,0E0,0E0,3.1289616E0,3.4619274E0,0E0,0E0,1.442069E0,3.1453133E-1,0E0,8.237151E-1,9.1941607E-1,0E0,0E0,0E0,0E0,0E0,0E0,0E0,0E0,0E0,0E0,0E0,0E0,0E0,0E0,0E0],"parents":[2147483647,0,0,1,1,2,2,3,3,4,4,5,5,6,6,7,7,8,8,9,9,10,10,12,12,13,13,14,14,16,16,17,17,18,18,19,19,20,20,23,23,24,24,25,25,26,26,27,27,29,29,32,32,38,38,39,39,40,40,44,44,45,45,46,46,51,51,55,55,56,56,59,59,60,60,62,62,63,63],"right_children":[2,4,6,8,10,12,14,16,18,20,22,-1,24,26,28,-1,30,32,34,36,38,-1,-1,40,42,44,46,48,-1,50,-1,-1,52,-1,-1,-1,-1,-1,54,56,58,-1,-1,-1,60,62,64,-1,-1,-1,-1,66,-1,-1,-1,68,70,-1,-1,72,74,-1,76,78,-1,-1,-1,-1,-1,-1,-1,-1,-1,-1,-1,-1,-1,-1,-1],"split_conditions":[2.23E1,-6.016241E-1,2.04E1,2.45E1,2.225E1,6.7E0,-6.152846E-1,2.04E1,2.17E1,2.13E1,5.2E0,4.1891064E-2,-6.016241E-1,2.47E1,3.4E1,2.9960092E-2,2.25E1,1.43E1,5.02E1,8E0,1.41E-1,-2.45081E-3,-1.6093977E-3,5.635E-1,2.48E1,-6.680639E-1,2.375E-1,-5.8778524E-1,-4.767702E-4,9.5E-2,7.194373E-3,-1.6572966E-3,-7.7488405E-1,7.871453E-3,1.8271552E-3,1.1907945E-3,-1.7392071E-3,-7.2110276E-4,1.57E-1,8.7E0,2.58E1,-0E0,5.7274466E-3,2.220537E-2,1.12E-1,-6.680639E-1,3.22E-1,3.4660406E-3,-0E0,1.155615E-2,1.9704413E-2,1.481E2,-1.0072322E-3,1.1724078E-2,-0E0,2.41E1,-6.551564E-1,1.8299652E-2,5.032848E-2,2.15E1,2.32E1,2.1887826E-2,2.348E1,-6.551564E-1,9.335428E-3,-9.6340105E-4,9.7557786E-4,3.3510797E-2,1.6234681E-2,1.9249097E-2,7.79772E-3,1.8505241E-3,1.2115615E-2,7.0879436E-3,2.6864884E-3,1.0163227E-2,2.4475926E-3,4.005605E-3,-5.134951E-4],"split_indices":[0,5,4,4,4,4,5,0,0,4,0,0,5,4,4,0,4,0,4,4,3,0,0,3,0,5,3,5,0,3,0,0,5,0,0,0,0,0,3,4,0,0,0,0,3,5,3,0,0,0,0,4,0,0,0,0,5,0,0,4,4,0,0,5,0,0,0,0,0,0,0,0,0,0,0,0,0,0,0],"split_type":[0,0,0,0,0,0,0,0,0,0,0,0,0,0,0,0,0,0,0,0,0,0,0,0,0,0,0,0,0,0,0,0,0,0,0,0,0,0,0,0,0,0,0,0,0,0,0,0,0,0,0,0,0,0,0,0,0,0,0,0,0,0,0,0,0,0,0,0,0,0,0,0,0,0,0,0,0,0,0],"sum_hessian":[1.914E3,1.572E3,3.42E2,4.05E2,1.167E3,7.8E1,2.64E2,1.7E1,3.88E2,1.09E2,1.058E3,4E0,7.4E1,1.65E2,9.9E1,4E0,1.3E1,3.65E2,2.3E1,8.4E1,2.5E1,8.42E2,2.16E2,6.2E1,1.2E1,7.5E1,9E1,2.3E1,7.6E1,9E0,4E0,1.1E2,2.55E2,7E0,1.6E1,8E0,7.6E1,1.5E1,1E1,5.2E1,1E1,4E0,8E0,9E0,6.6E1,3.2E1,5.8E1,1.7E1,6E0,5E0,4E0,1.15E2,1.4E2,4E0,6E0,1.9E1,3.3E1,6E0,4E0,2.9E1,3.7E1,6E0,2.6E1,5.4E1,4E0,3.8E1,7.7E1,4E0,1.5E1,1.2E1,2.1E1,5E0,2.4E1,3E1,7E0,5E0,2.1E1,3.6E1,1.8E1],"tree_param":{"num_deleted":"0","num_feature":"8","num_nodes":"79","size_leaf_vector":"1"}},{"base_weights":[1.7195536E-5,-9.471335E-2,3.973107E-1,-1.313384E-1,-2.9362107E-2,7.51835E-1,1.3039291E-1,-5.286188E-2,-2.3303858E-3,7.338927E-1,-5.3867083E-2,4.9436182E-1,1.0108571E0,-6.2078806E-3,3.6580998E-1,-8.4149085E-2,8.5429676E-2,2.1534305E-2,4.1421047E-1,4.520643E-1,-6.1782178E-2,3.605655E-1,1.0123183E0,1.5026716E0,8.268525E-1,2.0956895E-3,-3.96888E-2,6.607962E-1,2.3780677E-1,7.5370714E-4,-1.7176544E-3,-1.6191873E-3,2.1125868E-1,4.45231E-4,1.1920469E-2,3.919958E-3,1.0596511E-2,-1.6610648E-3,-2.9248804E-2,2.1080012E-2,2.6231053E-1,1.4400903E0,4.6026036E-3,2.0217388E0,1.0989871E0,6.424314E-1,1.0001125E0,-1.2451892E-3,1.5828528E-2,3.2257605E-1,1.2769136E0,1.9954818E-1,1.1351765E-2,8.744923E-3,-5.906185E-4,-1.7191244E-3,-3.7816411E-3,1.4003423E-1,3.6850667E-1,1.794204E-2,2.938298E-2,3.8518578E-2,2.6690168E-2,8.199275E-3,3.182729E-2,4.369856E-1,9.051567E-1,1.1248132E0,6.254505E-3,1.5478538E-1,-9.154002E-4,1.0618649E-2,3.2582348E-3,1.5211421E-2,2.6582621E-2,2.3448429E-1,-3.6080867E-6,-1.1926352E-3,1.870313E-4,-1.6041062E-3,3.0888077E-3,1.0674054E-2,4.8980676E-3,4.2502354E-3,1.5730858E-2,2.1682693E-2,9.953484E-3,2.1357942E-2,1.0323617E-2,2.9951021E-5,6.764085E-3,4.7794627E-3,-0E0],"categories":[],"categories_nodes":[],"categories_segments":[],"categories_sizes":[],"default_left":[1,0,0,0,0,0,0,0,0,0,0,0,0,0,0,0,0,0,1,0,0,0,0,0,0,0,0,0,0,0,0,0,0,0,0,0,0,0,1,0,0,0,0,0,0,0,0,0,0,0,0,0,0,0,0,0,0,0,0,0,0,0,0,0,0,0,0,0,0,0,0,0,0,0,0,0,0,0,0,0,0,0,0,0,0,0,0,0,0,0,0,0,0],"id":4,"left_children":[1,3,5,7,9,11,13,15,-1,17,19,21,23,25,27,29,31,-1,33,35,37,39,41,43,45,-1,47,49,51,-1,-1,-1,53,-1,-1,-1,-1,-1,55,-1,57,59,-1,61,63,65,67,-1,69,71,73,75,-1,-1,-1,-1,77,79,81,-1,-1,-1,-1,-1,-1,83,85,87,-1,89,-1,-1,-1,-1,-1,91,-1,-1,-1,-1,-1,-1,-1,-1,-1,-1,-1,-1,-1,-1,-1,-1,-1],"loss_changes":[7.154308E1,3.6546297E0,3.4541077E1,6.6326904E-1,1.0255141E1,1.0293976E1,6.7603674E0,4.3734622E-1,0E0,2.8580074E0,2.1026206E0,5.3178387E0,6.7654114E0,5.7598597E-1,2.8078356E0,2.1274555E-1,4.2794812E-1,0E0,1.2170302E0,2.242651E-1,6.405666E-1,5.4477253E0,4.848917E0,3.987934E0,1.6228981E0,0E0,2.1368204E-1,4.6158676E0,8.2183504E-1,0E0,0E0,0E0,9.105569E-1,0E0,0E0,0E0,0E0,0E0,5.291101E-1,0E0,6.8498516E-1,8.075733E-1,0E0,5.442734E-1,5.6579933E0,1.3557434E0,2.0833569E0,0E0,4.0537968E-1,5.0889623E-1,6.1221695E-1,3.7392056E-1,0E0,0E0,0E0,0E0,2.2515784E-1,3.0318946E-1,5.0032616E-1,0E0,0E0,0E0,0E0,0E0,0E0,1.3447645E0,1.2401619E0,1.7062931E0,0E0,4.98646E-1,0E0,0E0,0E0,0E0,0E0,5.311978E-1,0E0,0E0,0E0,0E0,0E0,0E0,0E0,0E0,0E0,0E0,0E0,0E0,0E0,0E0,0E0,0E0,0E0],"parents":[2147483647,0,0,1,1,2,2,3,3,4,4,5,5,6,6,7,7,9,9,10,10,11,11,12,12,13,13,14,14,15,15,16,16,18,18,19,19,20,20,21,21,22,22,23,23,24,24,26,26,27,27,28,28,32,32,38,38,40,40,41,41,43,43,44,44,45,45,46,46,48,48,49,49,50,50,51,51,56,56,57,57,58,58,65,65,66,66,67,67,69,69,75,75],"right_children":[2,4,6,8,10,12,14,16,-1,18,20,22,24,26,28,30,32,-1,34,36,38,40,42,44,46,-1,48,50,52,-1,-1,-1,54,-1,-1,-1,-1,-1,56,-1,58,60,-1,62,64,66,68,-1,70,72,74,76,-1,-1,-1,-1,78,80,82,-1,-1,-1,-1,-1,-1,84,86,88,-1,90,-1,-1,-1,-1,-1,92,-1,-1,-1,-1,-1,-1,-1,-1,-1,-1,-1,-1,-1,-1,-1,-1,-1],"split_conditions":[2.21E1,1.265E1,2.37E1,2.2E1,2.34E1,-7.6665884E-1,-7.5549334E-1,2.13E1,-2.3303858E-3,2.1E1,1.34E-1,2.58E1,9E0,4.87E1,2.3E-1,8E0,1.14E-1,2.1534305E-2,2.13E1,-7.3249406E-1,-7.5549334E-1,2.26E1,2.64E1,2.44E1,-7.4410397E-1,2.0956895E-3,1.24E2,-7.3249406E-1,3.205E-1,7.5370714E-4,-1.7176544E-3,-1.6191873E-3,1.545E-1,4.45231E-4,1.1920469E-2,3.919958E-3,1.0596511E-2,-1.6610648E-3,1.43E1,2.1080012E-2,2.45E1,3.53E-1,4.6026036E-3,4.71E-1,2.58E1,2.17E1,2.54E1,-1.2451892E-3,1.391E2,2.27E1,4.54E1,1.911E2,1.1351765E-2,8.744923E-3,-5.906185E-4,-1.7191244E-3,1.039E2,-7.9877937E-1,9E0,1.794204E-2,2.938298E-2,3.8518578E-2,2.6690168E-2,8.199275E-3,3.182729E-2,2.51E1,2.225E1,2.965E-1,6.254505E-3,2.33E1,-9.154002E-4,1.0618649E-2,3.2582348E-3,1.5211421E-2,2.6582621E-2,-6.839194E-1,-3.6080867E-6,-1.1926352E-3,1.870313E-4,-1.6041062E-3,3.0888077E-3,1.0674054E-2,4.8980676E-3,4.2502354E-3,1.5730858E-2,2.1682693E-2,9.953484E-3,2.1357942E-2,1.0323617E-2,2.9951021E-5,6.764085E-3,4.7794627E-3,-0E0],"split_indices":[0,0,4,4,4,6,6,4,0,0,3,0,4,4,3,4,3,0,0,6,6,0,0,0,6,0,4,6,3,0,0,0,3,0,0,0,0,0,0,0,0,3,0,3,0,4,0,0,4,0,4,4,0,0,0,0,4,6,4,0,0,0,0,0,0,0,4,3,0,0,0,0,0,0,0,6,0,0,0,0,0,0,0,0,0,0,0,0,0,0,0,0,0],"split_type":[0,0,0,0,0,0,0,0,0,0,0,0,0,0,0,0,0,0,0,0,0,0,0,0,0,0,0,0,0,0,0,0,0,0,0,0,0,0,0,0,0,0,0,0,0,0,0,0,0,0,0,0,0,0,0,0,0,0,0,0,0,0,0,0,0,0,0,0,0,0,0,0,0,0,0,0,0,0,0,0,0,0,0,0,0,0,0,0,0,0,0,0,0],"sum_hessian":[1.9E3,1.534E3,3.66E2,9.82E2,5.52E2,1.57E2,2.09E2,1.01E2,8.81E2,1.7E1,5.35E2,7.9E1,7.8E1,1.32E2,7.7E1,8.3E1,1.8E1,6E0,1.1E1,8E0,5.27E2,6.3E1,1.6E1,2.1E1,5.7E1,2.6E1,1.06E2,2.3E1,5.4E1,1E1,7.3E1,7E0,1.1E1,5E0,6E0,4E0,4E0,2.41E2,2.86E2,6E0,5.7E1,1E1,6E0,9E0,1.2E1,2.8E1,2.9E1,6.6E1,4E1,1.5E1,8E0,5E1,4E0,5E0,6E0,7.2E1,2.14E2,2.7E1,3E1,5E0,5E0,5E0,4E0,7E0,5E0,1.6E1,1.2E1,2.4E1,5E0,1.4E1,2.6E1,4E0,1.1E1,4E0,4E0,4.3E1,7E0,4E1,1.74E2,4E0,2.3E1,6E0,2.4E1,1.2E1,4E0,5E0,7E0,1.8E1,6E0,9E0,5E0,3.5E1,8E0],"tree_param":{"num_deleted":"0","num_feature":"8","num_nodes":"93","size_leaf_vector":"1"}},{"base_weights":[5.379413E-3,4.3751085E-1,-6.5548256E-2,1.3929275E0,3.852448E-1,7.982944E-2,-9.843385E-2,3.3487074E-2,1.242954E-2,8.683428E-2,4.5434144E-1,1.1331602E-1,-1.8611373E-3,8.279288E-2,-1.0067886E-1,6.6286755E-1,-2.3553427E-2,5.537162E-1,2.8801823E-1,1.7365588E-1,-6.1788033E-3,-6.692961E-4,6.191485E-3,-8.8248524E-4,-1.7663003E-3,2.2582034E-2,-2.2796741E-4,1.64113E-1,-1.3257506E-3,5.1384455E-1,2.0573515E-2,1.887649E-1,5.948212E-1,1.5688409E-1,1.1861627E-2,3.4992816E-3,-1.7991854E-2,-0E0,5.1086955E-3,5.5119693E-1,-2.4457154E-4,1.3548735E-1,5.194789E-1,2.2763824E-2,2.2591186E-1,2.3808528E-1,8.604908E-2,-1.5487911E-3,1.4503596E-2,1.0004745E-2,1.6947666E-3,1.5184736E-4,4.4459193E-3,1.3956192E-2,2.7896632E-3,8.271135E-3,-0E0,3.0334252E-3,1.3003552E-2,4.2463727E-3,-7.4598E-4,9.999641E-4,-1.7643853E-3],"categories":[],"categories_nodes":[],"categories_segments":[],"categories_sizes":[],"default_left":[0,0,0,0,0,0,0,0,0,0,0,0,0,0,1,0,0,0,1,0,0,0,0,0,0,0,0,0,0,0,0,0,0,0,0,0,0,0,0,0,0,0,1,0,0,0,0,0,0,0,0,0,0,0,0,0,0,0,0,0,0,0,0],"id":5,"left_children":[1,3,5,7,9,11,13,-1,-1,15,17,19,-1,21,23,25,27,29,31,33,35,-1,-1,-1,-1,-1,-1,37,-1,39,-1,41,43,45,-1,-1,47,-1,-1,49,-1,51,53,-1,55,57,59,-1,61,-1,-1,-1,-1,-1,-1,-1,-1,-1,-1,-1,-1,-1,-1],"loss_changes":[5.934955E1,1.3424946E1,7.9482274E0,5.279398E0,5.2825737E0,1.9663792E0,5.539446E-1,0E0,0E0,3.1864002E0,3.3763351E0,1.8998747E0,0E0,6.0758597E-1,3.3968735E-1,3.9283192E0,4.2462045E-1,3.3635216E0,2.3197017E0,1.4799666E0,2.0271234E-1,0E0,0E0,0E0,0E0,0E0,0E0,2.3280941E-1,0E0,2.5057945E0,0E0,9.8599124E-1,5.261828E0,9.373126E-1,0E0,0E0,2.1125485E-1,0E0,0E0,2.569374E0,0E0,8.387974E-1,7.935014E-1,0E0,8.306408E-1,2.2530484E0,2.0424752E0,0E0,3.0969563E-1,0E0,0E0,0E0,0E0,0E0,0E0,0E0,0E0,0E0,0E0,0E0,0E0,0E0,0E0],"parents":[2147483647,0,0,1,1,2,2,3,3,4,4,5,5,6,6,9,9,10,10,11,11,13,13,14,14,15,15,16,16,17,17,18,18,19,19,20,20,27,27,29,29,31,31,32,32,33,33,36,36,39,39,41,41,42,42,44,44,45,45,46,46,48,48],"right_children":[2,4,6,8,10,12,14,-1,-1,16,18,20,-1,22,24,26,28,30,32,34,36,-1,-1,-1,-1,-1,-1,38,-1,40,-1,42,44,46,-1,-1,48,-1,-1,50,-1,52,54,-1,56,58,60,-1,62,-1,-1,-1,-1,-1,-1,-1,-1,-1,-1,-1,-1,-1,-1],"split_conditions":[2.25E1,7.2E0,5.2630562E-2,2.458522E-2,8.919613E-3,1.3334E1,2.375E-1,3.3487074E-2,1.242954E-2,8.3E0,2.6168507E-2,6.26E1,-1.8611373E-3,2.26E-1,6.181584E-2,5.1081E1,1.2976442E1,2.458522E-2,4.9944196E-2,6.03E1,1.3906856E-2,-6.692961E-4,6.191485E-3,-8.8248524E-4,-1.7663003E-3,2.2582034E-2,-2.2796741E-4,8.914E0,-1.3257506E-3,6.785E-1,2.0573515E-2,2.16E1,5.535224E-2,2.45E1,1.1861627E-2,3.4992816E-3,9.2E1,-0E0,5.1086955E-3,2.1379214E-2,-2.4457154E-4,1.0277E1,3.5726674E-2,2.2763824E-2,9.1E0,2.41E1,6.8145E0,-1.5487911E-3,1.911E2,1.0004745E-2,1.6947666E-3,1.5184736E-4,4.4459193E-3,1.3956192E-2,2.7896632E-3,8.271135E-3,-0E0,3.0334252E-3,1.3003552E-2,4.2463727E-3,-7.4598E-4,9.999641E-4,-1.7643853E-3],"split_indices":[4,4,7,7,7,1,3,0,0,4,7,4,0,3,7,1,1,7,7,4,7,0,0,0,0,0,0,1,0,3,0,4,7,4,0,0,4,0,0,7,0,1,7,0,4,4,1,0,4,0,0,0,0,0,0,0,0,0,0,0,0,0,0],"split_type":[0,0,0,0,0,0,0,0,0,0,0,0,0,0,0,0,0,0,0,0,0,0,0,0,0,0,0,0,0,0,0,0,0,0,0,0,0,0,0,0,0,0,0,0,0,0,0,0,0,0,0,0,0,0,0,0,0,0,0,0,0,0,0],"sum_hessian":[1.935E3,2.73E2,1.662E3,1.4E1,2.59E2,3.06E2,1.356E3,7E0,7E0,4.9E1,2.1E2,2.61E2,4.5E1,1.6E1,1.34E3,8E0,4.1E1,1.31E2,7.9E1,1.74E2,8.7E1,1.1E1,5E0,1.43E2,1.197E3,4E0,4E0,9E0,3.2E1,1.24E2,7E0,6E1,1.9E1,1.69E2,5E0,4E0,8.3E1,4E0,5E0,1.16E2,8E0,5.2E1,8E0,6E0,1.3E1,7.8E1,9.1E1,2.6E1,5.7E1,1.04E2,1.2E1,2.7E1,2.5E1,4E0,4E0,6E0,7E0,7.1E1,7E0,4E1,5.1E1,4.2E1,1.5E1],"tree_param":{"num_deleted":"0","num_feature":"8","num_nodes":"63","size_leaf_vector":"1"}},{"base_weights":[1.9279637E-3,-9.765958E-2,4.1267315E-1,-2.331707E-3,-5.0204284E-2,7.387322E-1,2.1047151E-1,1.5203184E-1,-6.6416115E-2,5.056908E-1,1.7629943E0,1.2572145E-1,7.2544134E-1,-3.0996662E-2,4.3544883E-1,1.0788122E-2,-8.0193646E-2,3.9284098E-1,8.071484E-1,2.4247258E0,1.3376335E0,2.4275401E-1,-1.6759733E-2,7.9509187E-1,3.4680066E-3,-1.4289469E-3,3.137296E-3,6.362079E-1,-8.2997774E-4,-1.7925117E-2,1.1951132E-2,-1.5889249E-3,-4.3792754E-2,3.5556722E-1,1.8297806E-2,9.090107E-1,4.2123008E-3,2.9163696E-2,4.718236E-2,9.952148E-1,3.8526364E-2,7.399027E-2,3.0330104E-1,-7.5133954E-4,5.8537847E-3,6.9658005E-1,2.2385199E-2,4.8188595E-3,7.9693586E-1,-6.172877E-4,1.786657E-3,-1.284864E-3,5.9874706E-2,7.438399E-1,2.9818714E-1,1.1536435E0,7.9203856E-1,2.4408765E-2,5.0680176E-3,-0E0,2.168445E-1,1.1846069E-2,2.738286E-1,1.7599236E-2,5.389907E-1,6.6325846E-3,1.9401656E-2,2.751689E-3,-1.3826226E-3,4.179661E-3,1.746229E-2,1.1947016E-2,4.383997E-3,9.391396E-3,2.8326131E-2,1.0450096E-2,1.8192673E-2,1.0141933E-3,7.0052138E-3,3.472232E-3,8.333868E-3,1.5072596E-2,3.2852725E-3],"categories":[],"categories_nodes":[],"categories_segments":[],"categories_sizes":[],"default_left":[1,0,0,0,0,0,0,0,1,0,0,1,0,0,0,1,0,0,0,0,0,1,0,0,0,0,0,0,0,0,0,0,0,0,0,0,0,0,0,0,0,0,0,0,0,0,0,0,0,0,0,0,0,0,0,0,0,0,0,0,0,0,0,0,0,0,0,0,0,0,0,0,0,0,0,0,0,0,0,0,0,0,0],"id":6,"left_children":[1,3,5,-1,7,9,11,13,15,17,19,21,23,25,27,29,31,33,35,37,39,41,43,45,-1,-1,-1,47,-1,49,-1,-1,51,53,-1,55,-1,-1,-1,57,-1,59,61,-1,-1,63,-1,-1,65,-1,-1,-1,67,69,71,73,75,-1,-1,-1,77,-1,79,-1,81,-1,-1,-1,-1,-1,-1,-1,-1,-1,-1,-1,-1,-1,-1,-1,-1,-1,-1],"loss_changes":[7.7347206E1,3.056923E0,2.4224342E1,0E0,2.3554206E0,3.338993E1,9.85913E0,2.7946115E0,7.1793175E-1,3.7740612E0,6.7988815E0,3.2929559E0,1.0406742E0,3.7697732E-1,2.113489E0,2.1089325E0,3.0372548E-1,2.0484123E0,1.6187725E0,2.095173E0,4.9402866E0,1.0633082E0,8.9237803E-1,1.2699451E0,0E0,0E0,0E0,7.1304893E-1,0E0,2.2421928E-1,0E0,0E0,5.962777E-1,1.6642685E0,0E0,5.0224304E-1,0E0,0E0,0E0,3.7294512E0,0E0,3.131804E-1,8.4177923E-1,0E0,0E0,1.1806583E0,0E0,0E0,1.2955003E0,0E0,0E0,0E0,6.297923E-1,1.3687758E0,9.025216E-1,2.3272867E0,6.811819E-1,0E0,0E0,0E0,2.683056E-1,0E0,1.0147285E0,0E0,2.016077E0,0E0,0E0,0E0,0E0,0E0,0E0,0E0,0E0,0E0,0E0,0E0,0E0,0E0,0E0,0E0,0E0,0E0,0E0],"parents":[2147483647,0,0,1,1,2,2,4,4,5,5,6,6,7,7,8,8,9,9,10,10,11,11,12,12,13,13,14,14,15,15,16,16,17,17,18,18,19,19,20,20,21,21,22,22,23,23,27,27,29,29,32,32,33,33,35,35,39,39,41,41,42,42,45,45,48,48,52,52,53,53,54,54,55,55,56,56,60,60,62,62,64,64],"right_children":[2,4,6,-1,8,10,12,14,16,18,20,22,24,26,28,30,32,34,36,38,40,42,44,46,-1,-1,-1,48,-1,50,-1,-1,52,54,-1,56,-1,-1,-1,58,-1,60,62,-1,-1,64,-1,-1,66,-1,-1,-1,68,70,72,74,76,-1,-1,-1,78,-1,80,-1,82,-1,-1,-1,-1,-1,-1,-1,-1,-1,-1,-1,-1,-1,-1,-1,-1,-1,-1],"split_conditions":[2.21E1,3.7E0,2.8174879E-2,-2.331707E-3,1.585E-1,2.84418E-1,3.55339E-1,6.1E0,2.08E-1,1.81E-1,7.20062E-1,2.08E-1,6.650464E-2,1.445E-1,1.9604206E-2,1.81E-1,3.52E-1,2.6E1,2.58E1,1.5403789E-2,2.6E1,4.5E-2,2.51E1,5.737738E-2,3.4680066E-3,-1.4289469E-3,3.137296E-3,1.2586648E-2,-8.2997774E-4,2.17E1,1.1951132E-2,-1.5889249E-3,1.61E1,2.26E1,1.8297806E-2,1.03E-1,4.2123008E-3,2.9163696E-2,4.718236E-2,3.285E-1,3.8526364E-2,2.99E-1,5.2643E-2,-7.5133954E-4,5.8537847E-3,2.41E1,2.2385199E-2,4.8188595E-3,1.26E-1,-6.172877E-4,1.786657E-3,-1.284864E-3,9.75E-1,7.4244E-2,6.105182E-3,8.8E-2,2.48E1,2.4408765E-2,5.0680176E-3,-0E0,3.2E-2,1.1846069E-2,2.45E1,1.7599236E-2,4.0207397E-2,6.6325846E-3,1.9401656E-2,2.751689E-3,-1.3826226E-3,4.179661E-3,1.746229E-2,1.1947016E-2,4.383997E-3,9.391396E-3,2.8326131E-2,1.0450096E-2,1.8192673E-2,1.0141933E-3,7.0052138E-3,3.472232E-3,8.333868E-3,1.5072596E-2,3.2852725E-3],"split_indices":[0,0,7,0,3,3,3,0,2,2,2,2,7,3,7,2,3,0,0,7,0,2,0,7,0,0,0,7,0,0,0,0,0,0,0,3,0,0,0,3,0,3,2,0,0,0,0,0,2,0,0,0,2,2,7,3,0,0,0,0,2,0,0,0,7,0,0,0,0,0,0,0,0,0,0,0,0,0,0,0,0,0,0],"split_type":[0,0,0,0,0,0,0,0,0,0,0,0,0,0,0,0,0,0,0,0,0,0,0,0,0,0,0,0,0,0,0,0,0,0,0,0,0,0,0,0,0,0,0,0,0,0,0,0,0,0,0,0,0,0,0,0,0,0,0,0,0,0,0,0,0,0,0,0,0,0,0,0,0,0,0,0,0,0,0,0,0,0,0],"sum_hessian":[1.89E3,1.521E3,3.69E2,8E2,7.21E2,1.41E2,2.28E2,5.3E1,6.68E2,1.15E2,2.6E1,1.96E2,3.2E1,3.2E1,2.1E1,1E2,5.68E2,8.4E1,3.1E1,1E1,1.6E1,1.08E2,8.8E1,2.8E1,4E0,2.6E1,6E0,1.5E1,6E0,9.6E1,4E0,3.97E2,1.71E2,8E1,4E0,2.6E1,5E0,4E0,6E0,1.2E1,4E0,2.9E1,7.9E1,8.2E1,6E0,2.4E1,4E0,5E0,1E1,8.4E1,1.2E1,1.3E2,4.1E1,1E1,7E1,8E0,1.8E1,7E0,5E0,1.9E1,1E1,5E0,7.4E1,7E0,1.7E1,5E0,5E0,2.4E1,1.7E1,4E0,6E0,5E0,6.5E1,4E0,4E0,1.2E1,6E0,6E0,4E0,5.8E1,1.6E1,8E0,9E0],"tree_param":{"num_deleted":"0","num_feature":"8","num_nodes":"83","size_leaf_vector":"1"}},{"base_weights":[9.311869E-5,3.9075863E-1,-6.678806E-2,1.2078191E0,3.4084752E-1,4.331111E-2,-9.9059604E-2,1.5604563E0,1.9724073E-3,6.177584E-1,2.9534388E-1,2.7595136E-1,2.9020648E-2,-1.7433097E-3,-5.6145526E-2,3.800287E-2,1.3399584E-2,1.5547396E-1,8.0873483E-1,4.169139E-1,1.2996788E-1,1.4994583E-3,4.057109E-1,1.15903966E-1,-4.362909E-3,-1.137921E-3,4.780544E-3,7.054771E-3,-0E0,3.7405545E-1,1.388299E0,5.5521625E-1,2.5621054E-1,-4.9975757E-2,3.316235E-1,1.4251225E-2,1.6347408E-1,2.142694E-1,-2.0975925E-3,1.3842167E-2,-1.9347111E-3,1.5680397E-1,1.3010229E-2,2.7564226E-2,1.7155675E-2,4.904687E-1,9.7813696E-1,1.5347677E-1,8.3469796E-1,2.2191762E-3,-1.5273342E-3,4.8819974E-1,-9.648344E-4,-4.239946E-4,6.2632356E-3,1.6610312E-1,1.3512419E-2,5.8690004E-2,-3.618281E-2,6.5452764E-3,-0E0,4.67273E-3,1.21766245E-2,2.0200316E-2,1.2614509E-2,4.7174147E-3,-0E0,2.1909855E-2,6.9685676E-3,4.0163607E-3,1.730876E-2,3.7426748E-3,7.585004E-4,2.19128E-3,1.0853952E-4,4.603841E-4,-1.2694485E-3],"categories":[],"categories_nodes":[],"categories_segments":[],"categories_sizes":[],"default_left":[0,0,0,0,0,0,0,0,0,0,0,0,0,0,1,0,0,0,0,0,0,0,0,0,0,0,0,0,0,0,0,0,0,0,0,0,0,0,0,0,0,0,0,0,0,0,0,0,0,0,0,1,0,0,0,0,0,0,0,0,0,0,0,0,0,0,0,0,0,0,0,0,0,0,0,0,0],"id":7,"left_children":[1,3,5,7,9,11,13,15,-1,17,19,21,23,-1,25,-1,-1,27,29,31,33,-1,35,37,39,-1,-1,-1,-1,41,43,45,47,49,51,-1,53,55,-1,57,-1,59,-1,-1,-1,61,63,65,67,-1,-1,69,-1,-1,-1,71,-1,73,75,-1,-1,-1,-1,-1,-1,-1,-1,-1,-1,-1,-1,-1,-1,-1,-1,-1,-1],"loss_changes":[5.0228516E1,1.1280731E1,5.8332343E0,5.9765606E0,3.235876E0,1.2010827E0,3.003111E-1,6.1919117E0,0E0,3.163435E0,4.5248604E0,4.5335352E-1,1.0270573E0,0E0,6.301464E-1,0E0,0E0,4.6127543E-1,6.353281E0,2.8210964E0,3.5516706E0,0E0,1.2043284E0,2.3452868E0,5.249738E-1,0E0,0E0,0E0,0E0,1.23158E0,7.076225E-1,1.7433071E0,3.5182939E0,3.8874355E-1,2.8556619E0,0E0,3.6166942E-1,1.9111624E0,0E0,4.871511E-1,0E0,3.7989765E-1,0E0,0E0,0E0,2.9788857E0,2.2380638E-1,1.0332222E0,1.6102467E0,0E0,0E0,4.361065E0,0E0,0E0,0E0,4.3397808E-1,0E0,4.2434376E-1,2.6467556E-1,0E0,0E0,0E0,0E0,0E0,0E0,0E0,0E0,0E0,0E0,0E0,0E0,0E0,0E0,0E0,0E0,0E0,0E0],"parents":[2147483647,0,0,1,1,2,2,3,3,4,4,5,5,6,6,7,7,9,9,10,10,11,11,12,12,14,14,17,17,18,18,19,19,20,20,22,22,23,23,24,24,29,29,30,30,31,31,32,32,33,33,34,34,36,36,37,37,39,39,41,41,45,45,46,46,47,47,48,48,51,51,55,55,57,57,58,58],"right_children":[2,4,6,8,10,12,14,16,-1,18,20,22,24,-1,26,-1,-1,28,30,32,34,-1,36,38,40,-1,-1,-1,-1,42,44,46,48,50,52,-1,54,56,-1,58,-1,60,-1,-1,-1,62,64,66,68,-1,-1,70,-1,-1,-1,72,-1,74,76,-1,-1,-1,-1,-1,-1,-1,-1,-1,-1,-1,-1,-1,-1,-1,-1,-1,-1],"split_conditions":[2.25E1,7.2E0,6.2630706E-2,3.2314E1,8.3E0,4.27E0,4.078432E0,2.458522E-2,1.9724073E-3,7.9E0,1.2021E1,1.545E-1,2.45E1,-1.7433097E-3,8.073054E-2,3.800287E-2,1.3399584E-2,1.9803E1,2.1269037E1,2.052127E-2,1.4468759E-2,1.4994583E-3,1.90501E-1,1.2976442E1,9.786E0,-1.137921E-3,4.780544E-3,7.054771E-3,-0E0,3.97E-1,4.173E1,1.0655E1,4.9944196E-2,1.3334E1,1.05E1,1.4251225E-2,1.059E2,2.41E1,-2.0975925E-3,1.061E2,-1.9347111E-3,1.6465422E-2,1.3010229E-2,2.7564226E-2,1.7155675E-2,1.3906856E-2,1.09E-1,3.481845E-2,5.6502678E-2,2.2191762E-3,-1.5273342E-3,2.1269037E1,-9.648344E-4,-4.239946E-4,6.2632356E-3,2.35E1,1.3512419E-2,5.65E0,4.8201706E-2,6.5452764E-3,-0E0,4.67273E-3,1.21766245E-2,2.0200316E-2,1.2614509E-2,4.7174147E-3,-0E0,2.1909855E-2,6.9685676E-3,4.0163607E-3,1.730876E-2,3.7426748E-3,7.585004E-4,2.19128E-3,1.0853952E-4,4.603841E-4,-1.2694485E-3],"split_indices":[4,4,7,1,4,1,1,7,0,4,1,3,4,0,7,0,0,1,1,7,7,0,3,1,1,0,0,0,0,3,1,1,7,1,4,0,4,4,0,4,0,7,0,0,0,7,3,7,7,0,0,1,0,0,0,4,0,1,7,0,0,0,0,0,0,0,0,0,0,0,0,0,0,0,0,0,0],"split_type":[0,0,0,0,0,0,0,0,0,0,0,0,0,0,0,0,0,0,0,0,0,0,0,0,0,0,0,0,0,0,0,0,0,0,0,0,0,0,0,0,0,0,0,0,0,0,0,0,0,0,0,0,0,0,0,0,0,0,0,0,0,0,0,0,0,0,0,0,0,0,0,0,0,0,0,0,0],"sum_hessian":[1.921E3,2.81E2,1.64E3,1.6E1,2.65E2,3.71E2,1.269E3,1.2E1,4E0,3.7E1,2.28E2,2.1E1,3.5E2,1.115E3,1.54E2,6E0,6E0,1.1E1,2.6E1,1.31E2,9.7E1,9E0,1.2E1,9.8E1,2.52E2,1.49E2,5E0,4E0,7E0,1.5E1,1.1E1,7E1,6.1E1,5.1E1,4.6E1,4E0,8E0,7E1,2.8E1,2.16E2,3.6E1,1E1,5E0,6E0,5E0,6.1E1,9E0,5.2E1,9E0,9E0,4.2E1,3.3E1,1.3E1,4E0,4E0,6.5E1,5E0,1.15E2,1.01E2,4E0,6E0,3.3E1,2.8E1,4E0,5E0,2.8E1,2.4E1,4E0,5E0,2.3E1,1E1,4.3E1,2.2E1,4.7E1,6.8E1,3.8E1,6.3E1],"tree_param":{"num_deleted":"0","num_feature":"8","num_nodes":"77","size_leaf_vector":"1"}},{"base_weights":[2.6788025E-3,-8.921952E-2,4.0184763E-1,2.8517302E-3,-1.2015763E-1,7.651173E-1,1.7872807E-1,7.544247E-1,-3.3311803E-2,-1.6502889E-3,-2.37038E-3,3.7995297E-1,1.1962544E0,3.5157856E-1,7.956549E-3,4.650288E-1,2.1749375E-2,-0E0,-1.5929567E-3,2.2927472E-2,2.866806E-1,1.3407668E0,2.8232385E-3,2.1506111E-1,7.8754246E-1,-2.7754385E-4,1.151866E-2,1.0530244E-2,3.4053752E-3,4.1000224E-3,-7.46742E-3,2.4494576E-1,5.3700906E-1,1.1501545E0,2.0245469E0,4.7568527E-1,1.6560797E-1,-1.4069171E-3,1.0540891E0,1.0924808E-2,-1.4966768E-3,3.4862015E-1,2.8483742E-3,1.2742698E-2,5.444196E-3,1.4375197E0,9.45187E-1,2.634067E-2,4.323112E-2,5.2178E-4,1.3946365E-2,-0E0,1.9522122E-1,1.2649907E0,6.569635E-3,-1.336369E-5,3.5357254E-3,1.4324457E-3,8.9998795E-3,2.031241E-2,3.2607786E-2,1.3395546E-2,2.7733406E-2,2.9031138E-3,7.5138877E-3,1.6886288E-2,3.1681035E-2],"categories":[],"categories_nodes":[],"categories_segments":[],"categories_sizes":[],"default_left":[1,0,0,0,1,0,0,0,1,0,0,0,0,1,0,0,0,0,0,0,0,0,0,0,0,0,0,0,0,0,0,0,0,0,0,1,1,0,0,0,0,0,0,0,0,0,0,0,0,0,0,0,0,0,0,0,0,0,0,0,0,0,0,0,0,0,0],"id":8,"left_children":[1,3,5,7,9,11,13,15,17,-1,-1,19,21,23,25,27,-1,29,-1,-1,31,33,-1,35,37,-1,-1,-1,-1,-1,39,41,43,45,47,49,51,-1,53,55,-1,57,-1,-1,-1,59,61,-1,-1,-1,-1,-1,63,65,-1,-1,-1,-1,-1,-1,-1,-1,-1,-1,-1,-1,-1],"loss_changes":[7.0173744E1,4.4390745E0,2.8915077E1,1.0678154E1,5.1945114E-1,2.2405945E1,6.516222E0,2.6812954E0,7.7253103E-1,0E0,0E0,6.5243626E0,9.330421E0,6.436655E0,1.9642484E0,4.3424344E-1,0E0,4.416723E-1,0E0,0E0,6.021247E-1,6.873062E0,0E0,1.0123565E0,6.159973E0,0E0,0E0,0E0,0E0,0E0,3.6689758E-1,3.7779808E-1,3.0924916E-1,2.2865906E0,2.4403305E0,2.013E0,3.398775E-1,0E0,2.5889912E0,4.768937E-1,0E0,1.0982461E0,0E0,0E0,0E0,1.6026115E0,2.3062115E0,0E0,0E0,0E0,0E0,0E0,2.4761915E-1,2.0129795E0,0E0,0E0,0E0,0E0,0E0,0E0,0E0,0E0,0E0,0E0,0E0,0E0,0E0],"parents":[2147483647,0,0,1,1,2,2,3,3,4,4,5,5,6,6,7,7,8,8,11,11,12,12,13,13,14,14,15,15,17,17,20,20,21,21,23,23,24,24,30,30,31,31,32,32,33,33,34,34,35,35,36,36,38,38,39,39,41,41,45,45,46,46,52,52,53,53],"right_children":[2,4,6,8,10,12,14,16,18,-1,-1,20,22,24,26,28,-1,30,-1,-1,32,34,-1,36,38,-1,-1,-1,-1,-1,40,42,44,46,48,50,52,-1,54,56,-1,58,-1,-1,-1,60,62,-1,-1,-1,-1,-1,64,66,-1,-1,-1,-1,-1,-1,-1,-1,-1,-1,-1,-1,-1],"split_conditions":[2.22E1,-6.016241E-1,2.8174879E-2,2.2011971E-2,8.78E-1,1.81E-1,-6.152846E-1,1.26E-1,1.01E0,-1.6502889E-3,-2.37038E-3,-6.680639E-1,-6.016241E-1,2.03E-1,2.55E1,2.132E1,2.1749375E-2,1.17E1,-1.5929567E-3,2.2927472E-2,2.57E1,2.58E1,2.8232385E-3,-7.0558363E-1,2.33E1,-2.7754385E-4,1.151866E-2,1.0530244E-2,3.4053752E-3,4.1000224E-3,-6.4205474E-1,2.41E1,1.6760847E-2,2.38E1,1.6465422E-2,5.6E-2,3.63331E-2,-1.4069171E-3,7.99E-1,2.17E1,-1.4966768E-3,7.1E-2,2.8483742E-3,1.2742698E-2,5.444196E-3,6.24E-1,8.88E-1,2.634067E-2,4.323112E-2,5.2178E-4,1.3946365E-2,-0E0,8.7651126E-2,4.8853617E-2,6.569635E-3,-1.336369E-5,3.5357254E-3,1.4324457E-3,8.9998795E-3,2.031241E-2,3.2607786E-2,1.3395546E-2,2.7733406E-2,2.9031138E-3,7.5138877E-3,1.6886288E-2,3.1681035E-2],"split_indices":[0,5,7,7,2,2,5,2,2,0,0,5,5,2,0,0,0,0,0,0,0,0,0,5,0,0,0,0,0,0,5,0,7,0,7,2,7,0,2,0,0,2,0,0,0,2,2,0,0,0,0,0,7,7,0,0,0,0,0,0,0,0,0,0,0,0,0],"split_type":[0,0,0,0,0,0,0,0,0,0,0,0,0,0,0,0,0,0,0,0,0,0,0,0,0,0,0,0,0,0,0,0,0,0,0,0,0,0,0,0,0,0,0,0,0,0,0,0,0,0,0,0,0,0,0,0,0,0,0,0,0,0,0,0,0,0,0],"sum_hessian":[1.912E3,1.554E3,3.58E2,3.9E2,1.164E3,1.36E2,2.22E2,1.8E1,3.72E2,6.06E2,5.58E2,7.2E1,6.4E1,1.1E2,1.12E2,1.2E1,6E0,2.43E2,1.29E2,6E0,6.6E1,5.6E1,8E0,8.4E1,2.6E1,1.08E2,4E0,7E0,5E0,7E0,2.36E2,5.7E1,9E0,4.4E1,1.2E1,1.3E1,7.1E1,6E0,2E1,1.92E2,4.4E1,2.3E1,3.4E1,4E0,5E0,1.8E1,2.6E1,7E0,5E0,6E0,7E0,1.1E1,6E1,1.5E1,5E0,1.81E2,1.1E1,1E1,1.3E1,1.3E1,5E0,2.2E1,4E0,5.6E1,4E0,1.1E1,4E0],"tree_param":{"num_deleted":"0","num_feature":"8","num_nodes":"67","size_leaf_vector":"1"}},{"base_weights":[-6.247136E-4,3.132462E-1,-7.4697286E-2,7.9296017E-1,-4.4951312E-2,2.5138762E-2,-1.1624613E-1,6.358411E-1,1.8999753E0,1.4964293E-1,-7.874667E-2,1.7189392E-1,-6.2885E-4,-1.2093498E-3,-1.3254489E-1,9.3657327E-1,5.1659214E-1,1.6519293E-2,2.1311722E0,-3.665183E-4,3.6029718E-3,2.6763137E-3,-8.4972635E-2,1.4949752E-1,1.4463523E-2,-2.282394E-3,-4.7779407E-2,6.9729596E-1,1.1943789E0,1.6384333E-2,4.357265E-1,2.7158555E-2,2.2955697E0,-1.6542865E-3,-0E0,2.5610855E-1,1.04708895E-1,3.934478E-3,-1.4659365E-3,9.1508824E-1,4.568111E-3,1.4635737E0,1.050718E-2,-8.197726E-4,4.8178995E-1,4.415722E-2,3.259065E-2,4.3126745E-3,-8.5318834E-4,6.0355604E-1,8.036962E-4,-7.2942517E-4,1.3696037E-1,1.7784389E-2,8.858181E-3,3.144533E-2,2.0403156E-2,2.6301784E-3,8.61243E-3,2.1830127E-2,5.0666076E-3,2.878573E-3,4.701754E-4],"categories":[],"categories_nodes":[],"categories_segments":[],"categories_sizes":[],"default_left":[0,0,0,1,0,0,0,0,0,0,1,0,0,0,1,0,0,0,0,0,0,0,0,0,0,0,0,0,0,0,1,0,0,0,0,0,0,0,0,0,0,0,0,0,0,0,0,0,0,0,0,0,0,0,0,0,0,0,0,0,0,0,0],"id":9,"left_children":[1,3,5,7,9,11,13,15,17,19,21,23,-1,-1,25,27,29,-1,31,-1,-1,-1,33,35,-1,-1,37,39,41,-1,43,-1,45,-1,47,49,51,-1,-1,53,-1,55,-1,-1,57,-1,-1,-1,-1,59,-1,-1,61,-1,-1,-1,-1,-1,-1,-1,-1,-1,-1],"loss_changes":[4.38481E1,6.1947063E1,6.343997E0,2.6475601E1,1.3480299E0,4.155142E0,7.427101E-1,4.66967E0,3.5715256E0,3.670066E-1,2.5535536E-1,1.999249E0,0E0,0E0,2.9751682E-1,2.1127815E0,3.5144196E0,0E0,6.593857E-1,0E0,0E0,0E0,2.0462751E-1,5.865958E-1,0E0,0E0,4.8021078E-1,1.7081318E0,2.4711647E0,0E0,1.901947E0,0E0,6.3194656E-1,0E0,3.3020467E-1,2.6760721E0,4.559512E-1,0E0,0E0,5.795984E-1,0E0,7.9213333E-1,0E0,0E0,8.207531E-1,0E0,0E0,0E0,0E0,2.7904873E0,0E0,0E0,2.8194046E-1,0E0,0E0,0E0,0E0,0E0,0E0,0E0,0E0,0E0,0E0],"parents":[2147483647,0,0,1,1,2,2,3,3,4,4,5,5,6,6,7,7,8,8,9,9,10,10,11,11,14,14,15,15,16,16,18,18,22,22,23,23,26,26,27,27,28,28,30,30,32,32,34,34,35,35,36,36,39,39,41,41,44,44,49,49,52,52],"right_children":[2,4,6,8,10,12,14,16,18,20,22,24,-1,-1,26,28,30,-1,32,-1,-1,-1,34,36,-1,-1,38,40,42,-1,44,-1,46,-1,48,50,52,-1,-1,54,-1,56,-1,-1,58,-1,-1,-1,-1,60,-1,-1,62,-1,-1,-1,-1,-1,-1,-1,-1,-1,-1],"split_conditions":[2.45E1,-6.016241E-1,-6.152846E-1,1.78355E1,-5.4524046E-1,8.7651126E-2,6.8077344E-1,-6.551564E-1,8.409874E-3,5.4E0,5.49E0,7.439E0,-6.2885E-4,-1.2093498E-3,9.239E0,8.428E0,8.7E0,1.6519293E-2,1.8784E1,-3.665183E-4,3.6029718E-3,2.6763137E-3,9.9732494E-1,4.435E0,1.4463523E-2,-2.282394E-3,9.786E0,1.9604206E-2,1.2021E1,1.6384333E-2,4.641E0,2.7158555E-2,-6.2876284E-1,-1.6542865E-3,1.2236E1,-6.9328123E-1,-7.0558363E-1,3.934478E-3,-1.4659365E-3,2.25E1,4.568111E-3,2.04E1,1.050718E-2,-8.197726E-4,9.8E0,4.415722E-2,3.259065E-2,4.3126745E-3,-8.5318834E-4,6.2630706E-2,8.036962E-4,-7.2942517E-4,5.2630562E-2,1.7784389E-2,8.858181E-3,3.144533E-2,2.0403156E-2,2.6301784E-3,8.61243E-3,2.1830127E-2,5.0666076E-3,2.878573E-3,4.701754E-4],"split_indices":[4,5,5,1,5,7,5,5,7,1,1,1,0,0,1,1,4,0,1,0,0,0,5,1,0,0,1,7,1,0,1,0,5,0,1,5,5,0,0,4,0,4,0,0,4,0,0,0,0,7,0,0,7,0,0,0,0,0,0,0,0,0,0],"split_type":[0,0,0,0,0,0,0,0,0,0,0,0,0,0,0,0,0,0,0,0,0,0,0,0,0,0,0,0,0,0,0,0,0,0,0,0,0,0,0,0,0,0,0,0,0,0,0,0,0,0,0,0,0,0,0,0,0,0,0,0,0,0,0],"sum_hessian":[1.887E3,3.6E2,1.527E3,1.54E2,2.06E2,4.48E2,1.079E3,1.35E2,1.9E1,3E1,1.76E2,1.35E2,3.13E2,2.96E2,7.83E2,3.8E1,9.7E1,4E0,1.5E1,8E0,2.2E1,4E0,1.72E2,1.31E2,4E0,7.4E2,4.3E1,2E1,1.8E1,1.4E1,8.3E1,4E0,1.1E1,1.46E2,2.6E1,3.8E1,9.3E1,5E0,3.8E1,1.3E1,7E0,1.2E1,6E0,7E0,7.6E1,5E0,6E0,4E0,2.2E1,1.4E1,2.4E1,1.6E1,7.7E1,9E0,4E0,4E0,8E0,8E0,6.8E1,4E0,1E1,5.7E1,2E1],"tree_param":{"num_deleted":"0","num_feature":"8","num_nodes":"63","size_leaf_vector":"1"}},{"base_weights":[-2.2531895E-3,2.1063633E-1,-1.0670314E-1,8.054196E-1,2.9826222E-2,-2.6501162E-2,-1.1623102E-1,1.2262174E0,5.7797176E-1,3.2925156E-1,-4.6939175E-3,1.2641223E-1,-5.8310635E-2,-1.2411494E-3,-2.1658416E-3,1.5648953E0,1.0520797E0,9.3720645E-1,4.9786967E-1,4.0311512E-1,3.7996162E-4,7.0512526E-2,-4.367368E-4,5.233644E-3,8.825788E-4,-1.3898851E-3,7.0744455E-2,1.3337176E-2,2.9719003E-2,1.3221868E0,7.390033E-1,9.627562E-3,1.0370681E0,3.8337672E-1,6.0349625E-1,9.4240594E-1,2.4210086E-1,1.069588E-1,-1.0112384E-3,1.5314576E-1,-1.2721603E-3,2.9998034E-2,1.1718324E0,4.3867856E-1,2.65948E-2,2.1379778E-2,1.3331135E-2,2.679472E-1,7.9951507E-1,6.8219376E-1,2.3016303E-3,9.191421E-3,2.0374747E-2,2.9592107E-3,7.386188E-3,-4.264985E-4,1.4470044E-1,5.7060143E-4,6.0151266E-3,1.3309998E-2,2.5278946E-2,2.5140955E-3,1.1727942E-2,2.393114E-3,5.9164613E-3,2.0129956E-2,5.876628E-3,1.3973296E-2,8.572928E-3,1.6456346E-3,5.2177105E-3],"categories":[],"categories_nodes":[],"categories_segments":[],"categories_sizes":[],"default_left":[0,0,0,0,0,0,0,0,0,0,0,0,0,0,0,0,0,0,0,0,0,0,0,0,0,0,0,0,0,0,0,0,0,0,0,0,0,0,0,0,0,0,0,0,0,0,0,0,0,0,0,0,0,0,0,0,0,0,0,0,0,0,0,0,0,0,0,0,0,0,0],"id":10,"left_children":[1,3,5,7,9,11,13,15,17,19,21,23,25,-1,-1,27,29,31,33,35,-1,37,-1,-1,-1,-1,39,-1,-1,41,43,-1,45,47,49,51,53,55,-1,57,-1,-1,59,61,-1,-1,-1,63,65,67,-1,-1,-1,-1,-1,-1,69,-1,-1,-1,-1,-1,-1,-1,-1,-1,-1,-1,-1,-1,-1],"loss_changes":[4.2373295E1,6.734483E1,9.622221E-1,1.3758057E1,5.006397E0,6.5971583E-1,6.4627075E-1,2.6661377E0,2.5642948E0,1.0872407E0,6.95085E-1,2.7891865E-1,3.7417683E-1,0E0,0E0,2.5676842E0,2.6209488E0,4.1391182E-1,8.302212E-1,3.3426895E0,0E0,4.6013325E-1,0E0,0E0,0E0,0E0,2.2752035E-1,0E0,0E0,9.0791893E-1,3.9047031E0,0E0,5.010414E-1,1.7059627E0,1.3749619E0,7.824755E-1,3.3338988E-1,3.8829923E-1,0E0,2.5642908E-1,0E0,0E0,1.523592E0,8.2921314E-1,0E0,0E0,0E0,2.7302194E-1,1.2935424E0,7.370424E-1,0E0,0E0,0E0,0E0,0E0,0E0,4.117092E-1,0E0,0E0,0E0,0E0,0E0,0E0,0E0,0E0,0E0,0E0,0E0,0E0,0E0,0E0],"parents":[2147483647,0,0,1,1,2,2,3,3,4,4,5,5,6,6,7,7,8,8,9,9,10,10,11,11,12,12,15,15,16,16,17,17,18,18,19,19,21,21,26,26,29,29,30,30,32,32,33,33,34,34,35,35,36,36,37,37,39,39,42,42,43,43,47,47,48,48,49,49,56,56],"right_children":[2,4,6,8,10,12,14,16,18,20,22,24,26,-1,-1,28,30,32,34,36,-1,38,-1,-1,-1,-1,40,-1,-1,42,44,-1,46,48,50,52,54,56,-1,58,-1,-1,60,62,-1,-1,-1,64,66,68,-1,-1,-1,-1,-1,-1,70,-1,-1,-1,-1,-1,-1,-1,-1,-1,-1,-1,-1,-1,-1],"split_conditions":[-6.016241E-1,2.45E1,2.225E1,1.08E1,2.375E-1,-5.5958927E-1,6.8077344E-1,-6.4205474E-1,-6.680639E-1,6.42E1,3.045E-1,8.5E0,9.9732494E-1,-1.2411494E-3,-2.1658416E-3,2.94E-1,8.7E0,2.13E1,2.18E1,-6.680639E-1,3.7996162E-4,-6.4205474E-1,-4.367368E-4,5.233644E-3,8.825788E-4,-1.3898851E-3,9.9925E-1,1.3337176E-2,2.9719003E-2,2.98E-1,5.635E-1,9.627562E-3,-7.1767694E-1,1.665E-1,1.90501E-1,4.54E1,1.90501E-1,-7.961829E-1,-1.0112384E-3,9.1E0,-1.2721603E-3,2.9998034E-2,3.8E-1,-6.152846E-1,2.65948E-2,2.1379778E-2,1.3331135E-2,1.065E-1,2.04E1,-6.2876284E-1,2.3016303E-3,9.191421E-3,2.0374747E-2,2.9592107E-3,7.386188E-3,-4.264985E-4,2.94558E-1,5.7060143E-4,6.0151266E-3,1.3309998E-2,2.5278946E-2,2.5140955E-3,1.1727942E-2,2.393114E-3,5.9164613E-3,2.0129956E-2,5.876628E-3,1.3973296E-2,8.572928E-3,1.6456346E-3,5.2177105E-3],"split_indices":[5,4,4,4,3,5,5,5,5,4,3,4,5,0,0,3,4,4,4,5,0,5,0,0,0,0,5,0,0,3,3,0,5,3,3,4,3,5,0,4,0,0,3,5,0,0,0,3,4,5,0,0,0,0,0,0,3,0,0,0,0,0,0,0,0,0,0,0,0,0,0],"split_type":[0,0,0,0,0,0,0,0,0,0,0,0,0,0,0,0,0,0,0,0,0,0,0,0,0,0,0,0,0,0,0,0,0,0,0,0,0,0,0,0,0,0,0,0,0,0,0,0,0,0,0,0,0,0,0,0,0,0,0,0,0,0,0,0,0,0,0,0,0,0,0],"sum_hessian":[1.906E3,6.27E2,1.279E3,1.46E2,4.81E2,1.37E2,1.142E3,5.1E1,9.5E1,5E1,4.31E2,2.3E1,1.14E2,2.91E2,8.51E2,1.7E1,3.4E1,1.7E1,7.8E1,4E1,1E1,9.5E1,3.36E2,6E0,1.7E1,9.6E1,1.8E1,4E0,1.3E1,1.8E1,1.6E1,4E0,1.3E1,3.8E1,4E1,9E0,3.1E1,7.5E1,2E1,1.2E1,6E0,4E0,1.4E1,1.2E1,4E0,6E0,7E0,3E1,8E0,3.4E1,6E0,4E0,5E0,2.4E1,7E0,1.6E1,5.9E1,8E0,4E0,7E0,7E0,6E0,6E0,1.3E1,1.7E1,4E0,4E0,1.7E1,1.7E1,4.7E1,1.2E1],"tree_param":{"num_deleted":"0","num_feature":"8","num_nodes":"71","size_leaf_vector":"1"}},{"base_weights":[-1.3529095E-4,-8.582729E-2,3.8551003E-1,3.6661555E-3,-1.13300644E-1,8.040903E-1,2.2926904E-1,1.0773478E-2,-3.1804565E-2,-7.0057586E-2,-1.2436379E-1,1.0788362E0,6.200165E-1,3.806871E-1,-6.809976E-4,-1.58925E-3,-5.4684556E-3,-1.3018756E-3,4.9897786E-3,-2.229051E-3,-1.2947118E-3,9.5267457E-1,1.4535033E0,5.2850485E-1,1.6311938E-2,3.3187106E-1,1.0542791E0,-8.226459E-4,1.0043917E-3,5.4634377E-2,-2.8352983E-2,1.0697559E0,9.676855E-3,1.8086424E-2,3.1049618E-2,6.927485E-1,3.1693313E-1,6.494687E-1,2.688671E-1,2.8992672E-2,9.439051E-3,-1.9941482E-4,1.9244996E-1,2.3498677E-2,-1.0869736E-3,1.9668471E-2,9.199672E-3,4.8447892E-1,1.45388795E-2,1.0133766E-2,1.8251748E-1,2.4265401E-1,1.7968971E-2,1.280067E-1,3.6050048E-1,1.5401676E-3,7.290227E-3,1.8907392E-3,-4.5287158E-4,1.4333036E-2,1.426201E-3,5.2873585E-3,-0E0,1.3709809E-3,8.854975E-3,6.574215E-3,5.469828E-4,1.1822476E-2,3.3302256E-3],"categories":[],"categories_nodes":[],"categories_segments":[],"categories_sizes":[],"default_left":[1,0,0,0,1,0,0,0,1,0,1,0,0,0,0,0,0,0,0,0,0,0,0,0,0,0,0,0,0,0,0,0,0,0,0,0,0,0,0,0,0,0,0,0,0,0,0,0,0,0,0,1,0,0,0,0,0,0,0,0,0,0,0,0,0,0,0,0,0],"id":11,"left_children":[1,3,5,7,9,11,13,-1,15,17,19,21,23,25,27,-1,29,-1,-1,-1,-1,31,33,35,-1,37,39,-1,-1,41,43,45,-1,-1,-1,47,49,51,53,-1,-1,-1,55,57,-1,-1,-1,59,-1,-1,61,63,-1,65,67,-1,-1,-1,-1,-1,-1,-1,-1,-1,-1,-1,-1,-1,-1],"loss_changes":[6.2363384E1,3.810336E0,2.2318195E1,8.342934E0,5.451298E-1,4.49868E0,8.746133E0,0E0,5.658684E-1,7.220763E-1,4.0318108E-1,1.4398689E0,1.6729393E0,4.8060017E0,2.9443493E-1,0E0,3.3295685E-1,0E0,0E0,0E0,0E0,1.0163136E0,9.73629E-1,1.4496765E0,0E0,2.718233E0,3.085681E0,0E0,0E0,6.2556493E-1,3.4648752E-1,1.0242119E0,0E0,0E0,0E0,7.884779E-1,7.006583E-1,3.895999E0,1.4702463E0,0E0,0E0,0E0,4.837876E-1,3.4380752E-1,0E0,0E0,0E0,1.7111821E0,0E0,0E0,3.4607524E-1,4.929104E-1,0E0,1.1511824E0,3.88898E0,0E0,0E0,0E0,0E0,0E0,0E0,0E0,0E0,0E0,0E0,0E0,0E0,0E0,0E0],"parents":[2147483647,0,0,1,1,2,2,3,3,4,4,5,5,6,6,8,8,9,9,10,10,11,11,12,12,13,13,14,14,16,16,21,21,22,22,23,23,25,25,26,26,29,29,30,30,31,31,35,35,36,36,37,37,38,38,42,42,43,43,47,47,50,50,51,51,53,53,54,54],"right_children":[2,4,6,8,10,12,14,-1,16,18,20,22,24,26,28,-1,30,-1,-1,-1,-1,32,34,36,-1,38,40,-1,-1,42,44,46,-1,-1,-1,48,50,52,54,-1,-1,-1,56,58,-1,-1,-1,60,-1,-1,62,64,-1,66,68,-1,-1,-1,-1,-1,-1,-1,-1,-1,-1,-1,-1,-1,-1],"split_conditions":[2.22E1,-6.152846E-1,2.1379214E-2,2.2011971E-2,2.2011971E-2,-6.4205474E-1,-6.016241E-1,1.0773478E-2,1.43E1,1.9E1,1.87E1,2.58E1,2.57E1,2.6E1,2.36E1,-1.58925E-3,-8.0647993E-1,-1.3018756E-3,4.9897786E-3,-2.229051E-3,-1.2947118E-3,2.49E1,1.4468759E-2,2.44E1,1.6311938E-2,-7.0558363E-1,3.3890627E-2,-8.226459E-4,1.0043917E-3,-8.3592546E-1,1.16764516E-1,-6.551564E-1,9.676855E-3,1.8086424E-2,3.1049618E-2,1.3906856E-2,6.8134894E-3,-7.5266683E-1,2.33E1,2.8992672E-2,9.439051E-3,-1.9941482E-4,1.76E1,-6.9328123E-1,-1.0869736E-3,1.9668471E-2,9.199672E-3,9.158308E-3,1.45388795E-2,1.0133766E-2,2.51E1,5.940372E-2,1.7968971E-2,4.1828256E-2,2.41E1,1.5401676E-3,7.290227E-3,1.8907392E-3,-4.5287158E-4,1.4333036E-2,1.426201E-3,5.2873585E-3,-0E0,1.3709809E-3,8.854975E-3,6.574215E-3,5.469828E-4,1.1822476E-2,3.3302256E-3],"split_indices":[0,5,7,7,7,5,5,0,0,0,0,0,0,0,0,0,5,0,0,0,0,0,7,0,0,5,7,0,0,5,7,5,0,0,0,7,7,5,0,0,0,0,0,5,0,0,0,7,0,0,0,7,0,7,0,0,0,0,0,0,0,0,0,0,0,0,0,0,0],"split_type":[0,0,0,0,0,0,0,0,0,0,0,0,0,0,0,0,0,0,0,0,0,0,0,0,0,0,0,0,0,0,0,0,0,0,0,0,0,0,0,0,0,0,0,0,0,0,0,0,0,0,0,0,0,0,0,0,0,0,0,0,0,0,0,0,0,0,0,0,0],"sum_hessian":[1.888E3,1.545E3,3.43E2,3.62E2,1.183E3,9.3E1,2.5E2,1.9E1,3.43E2,2.43E2,9.4E2,3.7E1,5.6E1,1.51E2,9.9E1,9.9E1,2.44E2,2.38E2,5E0,7.75E2,1.65E2,2.8E1,9E0,4.5E1,1.1E1,1.41E2,1E1,5.6E1,4.3E1,6.6E1,1.78E2,2.1E1,7E0,5E0,4E0,2.5E1,2E1,2.3E1,1.18E2,4E0,6E0,4.4E1,2.2E1,7.3E1,1.05E2,1.7E1,4E0,1.2E1,1.3E1,6E0,1.4E1,1.2E1,1.1E1,4.7E1,7.1E1,1.6E1,6E0,2.7E1,4.6E1,6E0,6E0,8E0,6E0,8E0,4E0,1.2E1,3.5E1,2.2E1,4.9E1],"tree_param":{"num_deleted":"0","num_feature":"8","num_nodes":"69","size_leaf_vector":"1"}},{"base_weights":[-1.4189092E-3,-8.594883E-2,3.8582897E-1,-1.2049439E-1,-2.5820052E-2,7.4665123E-1,1.6462873E-1,-1.3310249E-3,-2.1980847E-3,6.2238026E-1,-5.208014E-2,5.084054E-1,1.7310578E0,-2.2907924E-2,3.022626E-1,1.7248744E-2,4.5774245E-1,-5.6559738E-2,8.732278E-3,4.3197072E-1,1.8964274E-2,1.402004E0,4.2364705E-2,1.1995514E-1,-1.0081667E-3,2.5807235E-1,1.6744614E-2,1.3754772E-3,6.176961E-1,-1.5477885E-3,-2.711927E-2,5.305211E-1,1.4741732E-3,3.3562344E-2,8.913207E-1,1.9947253E-2,7.314841E-3,2.044865E-1,5.06397E-1,5.1816734E-3,1.5927618E-2,-3.717752E-2,2.56031E-1,1.8295137E-2,4.9477705E-1,8.326708E-3,1.8762141E-2,-9.458313E-4,3.935007E-3,1.4909862E-1,5.160527E-1,1.7592127E-2,3.129532E-1,-1.4449513E-3,-2.9883656E-4,7.833354E-3,1.5427021E-3,4.582227E-3,1.0571476E-2,3.6430068E-3,1.0429487E-3,3.876597E-3,1.2978101E-2,1.0380945E-2,2.405014E-3],"categories":[],"categories_nodes":[],"categories_segments":[],"categories_sizes":[],"default_left":[1,1,0,1,0,0,0,0,0,0,0,0,0,0,0,0,0,0,0,0,0,0,0,0,0,0,0,0,0,0,0,0,0,0,0,0,0,0,0,0,0,0,0,0,0,0,0,0,0,0,0,0,0,0,0,0,0,0,0,0,0,0,0,0,0],"id":12,"left_children":[1,3,5,7,9,11,13,-1,-1,15,17,19,21,23,25,-1,27,29,-1,31,-1,33,-1,35,-1,37,-1,-1,39,-1,41,43,-1,-1,45,47,-1,49,51,-1,-1,53,55,-1,57,-1,-1,-1,-1,59,61,-1,63,-1,-1,-1,-1,-1,-1,-1,-1,-1,-1,-1,-1],"loss_changes":[6.213308E1,3.2228727E0,2.7038956E1,4.4713402E-1,9.644404E0,2.9991737E1,5.4769926E0,0E0,0E0,1.330246E0,1.3695564E0,4.844656E0,6.1748047E0,4.742721E-1,3.6591263E0,0E0,8.862641E-1,5.729047E-1,0E0,3.0803928E0,0E0,5.3065033E0,0E0,5.288336E-1,0E0,1.4516335E0,0E0,0E0,1.004396E0,0E0,8.404034E-1,1.2776985E0,0E0,0E0,7.3585224E-1,2.5348082E-1,0E0,1.5668666E0,1.982099E0,0E0,0E0,2.6882043E-1,2.9157704E-1,0E0,2.002617E0,0E0,0E0,0E0,0E0,4.6020436E-1,9.3715715E-1,0E0,7.0388556E-1,0E0,0E0,0E0,0E0,0E0,0E0,0E0,0E0,0E0,0E0,0E0,0E0],"parents":[2147483647,0,0,1,1,2,2,3,3,4,4,5,5,6,6,9,9,10,10,11,11,12,12,13,13,14,14,16,16,17,17,19,19,21,21,23,23,25,25,28,28,30,30,31,31,34,34,35,35,37,37,38,38,41,41,42,42,44,44,49,49,50,50,52,52],"right_children":[2,4,6,8,10,12,14,-1,-1,16,18,20,22,24,26,-1,28,30,-1,32,-1,34,-1,36,-1,38,-1,-1,40,-1,42,44,-1,-1,46,48,-1,50,52,-1,-1,54,56,-1,58,-1,-1,-1,-1,60,62,-1,64,-1,-1,-1,-1,-1,-1,-1,-1,-1,-1,-1,-1],"split_conditions":[2.22E1,1.06E1,2.8174879E-2,1.789696E-2,2.2011971E-2,2.695E-1,-7.8830504E-1,-1.3310249E-3,-2.1980847E-3,1.4468759E-2,3.97E-1,-7.3249406E-1,3.73E-1,5.6502678E-2,5.635E-1,1.7248744E-2,2.072E1,-7.5549334E-1,8.732278E-3,2.1379214E-2,1.8964274E-2,1.6236521E-2,4.2364705E-2,4.9944196E-2,-1.0081667E-3,-7.086267E-1,1.6744614E-2,1.3754772E-3,1.275E-1,-1.5477885E-3,2.17E1,4.661408E-3,1.4741732E-3,3.3562344E-2,2.3791445E-2,-7.9877937E-1,7.314841E-3,3.5E-1,2.375E-1,5.1816734E-3,1.5927618E-2,1.43E1,4.4609025E-2,1.8295137E-2,-7.6665884E-1,8.326708E-3,1.8762141E-2,-9.458313E-4,3.935007E-3,2.8E-1,-7.6665884E-1,1.7592127E-2,2.32E1,-1.4449513E-3,-2.9883656E-4,7.833354E-3,1.5427021E-3,4.582227E-3,1.0571476E-2,3.6430068E-3,1.0429487E-3,3.876597E-3,1.2978101E-2,1.0380945E-2,2.405014E-3],"split_indices":[0,0,7,7,7,3,6,0,0,7,3,6,3,7,3,0,0,6,0,7,0,7,0,7,0,6,0,0,3,0,0,7,0,0,7,6,0,3,3,0,0,0,7,0,6,0,0,0,0,3,6,0,0,0,0,0,0,0,0,0,0,0,0,0,0],"split_type":[0,0,0,0,0,0,0,0,0,0,0,0,0,0,0,0,0,0,0,0,0,0,0,0,0,0,0,0,0,0,0,0,0,0,0,0,0,0,0,0,0,0,0,0,0,0,0,0,0,0,0,0,0,0,0,0,0,0,0,0,0,0,0,0,0],"sum_hessian":[1.899E3,1.559E3,3.4E2,9.89E2,5.7E2,1.29E2,2.11E2,2.25E2,7.64E2,2.2E1,5.48E2,1.04E2,2.5E1,8.9E1,1.22E2,6E0,1.6E1,5.44E2,4E0,9.3E1,1.1E1,1.8E1,7E0,1.8E1,7.1E1,1.15E2,7E0,5E0,1.1E1,2.41E2,3.03E2,7.2E1,2.1E1,8E0,1E1,1.4E1,4E0,9.5E1,2E1,6E0,5E0,2.93E2,1E1,4E0,6.8E1,4E0,6E0,1E1,4E0,8.1E1,1.4E1,5E0,1.5E1,8E1,2.13E2,4E0,6E0,2.7E1,4.1E1,4.4E1,3.7E1,7E0,7E0,5E0,1E1],"tree_param":{"num_deleted":"0","num_feature":"8","num_nodes":"65","size_leaf_vector":"1"}},{"base_weights":[-4.5117214E-3,-8.342765E-2,3.3830622E-1,-1.1612429E-1,-2.4952833E-2,6.8428063E-1,1.3657045E-1,-7.282621E-2,-2.140217E-3,7.604088E-1,-4.8258834E-2,3.4334978E-1,1.0911222E0,2.642454E-1,-8.224778E-3,-1.4610928E-3,-5.462131E-3,5.771672E-1,1.8856846E-2,-5.2792236E-2,8.859586E-3,7.1343255E-1,2.6713607E-1,9.8755765E-1,3.6430184E-2,2.227328E-1,5.28822E-1,5.906638E-3,-4.5550836E-4,3.0586566E-3,-7.545718E-4,1.2444857E-2,4.0916465E-3,-1.1118547E-2,-6.188616E-2,3.5411417E-3,9.4812447E-1,-0E0,3.0052412E-1,9.039861E-1,2.7285757E-2,1.6369303E-1,3.051722E-1,3.2997287E-3,7.148614E-1,-5.1615835E-4,1.8677181E-3,-1.3026685E-3,-2.701346E-2,9.894579E-3,2.1026485E-2,2.62249E-1,4.528497E-1,7.7709216E-1,1.383116E0,3.3948264E-1,1.1773055E-3,1.2268233E-2,2.3136699E-1,1.7140271E-2,3.4643766E-3,1.1681694E-3,-1.41016E-3,6.3705076E-3,2.8320681E-3,1.2546283E-2,2.0974395E-3,1.4210285E-2,3.719555E-3,3.0460093E-2,1.1148371E-2,8.170003E-3,3.931501E-3,1.5066729E-3,5.9609725E-3],"categories":[],"categories_nodes":[],"categories_segments":[],"categories_sizes":[],"default_left":[1,1,0,1,0,0,1,1,0,0,0,0,0,0,0,0,1,0,0,1,0,0,0,0,0,1,0,0,0,0,0,0,0,0,0,0,0,0,0,0,0,0,0,0,0,0,0,0,0,0,0,0,0,0,0,0,0,0,0,0,0,0,0,0,0,0,0,0,0,0,0,0,0,0,0],"id":13,"left_children":[1,3,5,7,9,11,13,15,-1,17,19,21,23,25,27,-1,29,31,-1,33,-1,35,37,39,-1,41,43,-1,-1,-1,-1,-1,-1,45,47,-1,49,-1,51,53,-1,55,57,-1,59,-1,-1,-1,61,-1,-1,63,65,67,69,71,-1,-1,73,-1,-1,-1,-1,-1,-1,-1,-1,-1,-1,-1,-1,-1,-1,-1,-1],"loss_changes":[5.191874E1,2.9696198E0,2.49691E1,5.2596664E-1,1.0195611E1,1.8148117E1,4.224314E0,2.2185552E-1,0E0,8.9228344E-1,1.3869464E0,1.9207449E0,6.4199295E0,1.245367E0,7.054665E-1,0E0,3.1148362E-1,5.146723E-1,0E0,1.973238E-1,0E0,1.2833652E0,5.057688E-1,2.679161E0,0E0,4.5979214E-1,8.8357973E-1,0E0,0E0,0E0,0E0,0E0,0E0,2.3543163E-1,2.4303234E-1,0E0,6.7199326E-1,0E0,2.2898245E-1,2.7094269E0,0E0,9.685106E-1,1.2661924E0,0E0,1.4695468E0,0E0,0E0,0E0,8.1229985E-1,0E0,0E0,4.1750765E-1,8.939009E-1,1.5611725E0,2.9010868E0,2.4786782E-1,0E0,0E0,6.1478007E-1,0E0,0E0,0E0,0E0,0E0,0E0,0E0,0E0,0E0,0E0,0E0,0E0,0E0,0E0,0E0,0E0],"parents":[2147483647,0,0,1,1,2,2,3,3,4,4,5,5,6,6,7,7,9,9,10,10,11,11,12,12,13,13,14,14,16,16,17,17,19,19,21,21,22,22,23,23,25,25,26,26,33,33,34,34,36,36,38,38,39,39,41,41,42,42,44,44,48,48,51,51,52,52,53,53,54,54,55,55,58,58],"right_children":[2,4,6,8,10,12,14,16,-1,18,20,22,24,26,28,-1,30,32,-1,34,-1,36,38,40,-1,42,44,-1,-1,-1,-1,-1,-1,46,48,-1,50,-1,52,54,-1,56,58,-1,60,-1,-1,-1,62,-1,-1,64,66,68,70,72,-1,-1,74,-1,-1,-1,-1,-1,-1,-1,-1,-1,-1,-1,-1,-1,-1,-1,-1],"split_conditions":[2.21E1,1.14E1,2.8174879E-2,1.9604206E-2,1.9952284E-2,1.81E-1,7.113327E-2,4.2E-1,-2.140217E-3,1.275E-1,3.97E-1,2.28E1,5.0225E-1,3.905E-1,4.8E-2,-1.4610928E-3,2.3E0,1.03E-1,1.8856846E-2,2.08E-1,8.859586E-3,7.4244E-2,2.33E1,8.3E-1,3.6430184E-2,9.1E-2,2.51E1,5.906638E-3,-4.5550836E-4,3.0586566E-3,-7.545718E-4,1.2444857E-2,4.0916465E-3,2.17E1,3.49E-1,3.5411417E-3,1.49882E-1,-0E0,2.57E1,2.955E-1,2.7285757E-2,2.3E1,1.00946E-1,3.2997287E-3,6.37E-1,-5.1615835E-4,1.8677181E-3,-1.3026685E-3,9.89E-1,9.894579E-3,2.1026485E-2,2.44E1,1.12E-1,2.58E1,2.1379214E-2,4.8201706E-2,1.1773055E-3,1.2268233E-2,2.39E1,1.7140271E-2,3.4643766E-3,1.1681694E-3,-1.41016E-3,6.3705076E-3,2.8320681E-3,1.2546283E-2,2.0974395E-3,1.4210285E-2,3.719555E-3,3.0460093E-2,1.1148371E-2,8.170003E-3,3.931501E-3,1.5066729E-3,5.9609725E-3],"split_indices":[0,0,7,7,7,2,7,2,0,3,3,0,3,3,2,0,0,3,0,2,0,2,0,2,0,2,0,0,0,0,0,0,0,0,3,0,3,0,0,3,0,0,2,0,2,0,0,0,2,0,0,0,3,0,7,7,0,0,0,0,0,0,0,0,0,0,0,0,0,0,0,0,0,0,0],"split_type":[0,0,0,0,0,0,0,0,0,0,0,0,0,0,0,0,0,0,0,0,0,0,0,0,0,0,0,0,0,0,0,0,0,0,0,0,0,0,0,0,0,0,0,0,0,0,0,0,0,0,0,0,0,0,0,0,0,0,0,0,0,0,0,0,0,0,0,0,0,0,0,0,0,0,0],"sum_hessian":[1.92E3,1.561E3,3.59E2,1E3,5.61E2,1.32E2,2.27E2,2.28E2,7.72E2,1.6E1,5.45E2,7.2E1,6E1,1.21E2,1.06E2,1.85E2,4.3E1,1.1E1,5E0,5.41E2,4E0,1.2E1,6E1,5.5E1,5E0,1.05E2,1.6E1,5E0,1.01E2,7E0,3.6E1,7E0,4E0,9.9E1,4.42E2,4E0,8E0,7E0,5.3E1,4.9E1,6E0,6.2E1,4.3E1,6E0,1E1,8.6E1,1.3E1,2.98E2,1.44E2,4E0,4E0,4.3E1,1E1,3.9E1,1E1,2.1E1,4.1E1,6E0,3.7E1,6E0,4E0,5.3E1,9.1E1,1.8E1,2.5E1,5E0,5E0,3.4E1,5E0,6E0,4E0,8E0,1.3E1,1.8E1,1.9E1],"tree_param":{"num_deleted":"0","num_feature":"8","num_nodes":"75","size_leaf_vector":"1"}},{"base_weights":[6.1439034E-3,-8.108524E-2,3.8849357E-1,-1.1635867E-1,-2.5668815E-2,1.6478777E-1,8.3669233E-1,-2.116626E-3,-1.0612824E-3,-5.0762024E-2,5.2924514E-1,4.951882E-3,2.7668503E-1,6.6658103E-1,1.5715597E0,2.5459811E-2,-6.686184E-2,2.174254E-2,3.3655843E-1,-2.2916235E-4,1.352127E-1,2.2334668E-1,6.068036E-1,3.163779E-1,8.840384E-1,2.1798365E0,1.2110462E0,-6.0056633E-4,1.5951206E-1,-1.3966275E-3,-2.8374609E-2,1.5491101E-1,1.1332333E-2,-5.5990776E-4,4.8911828E-3,6.6937685E-2,2.9728195E-1,2.3221802E-2,3.857516E-1,2.4505379E-3,4.2628708E-1,9.513698E-1,6.087021E-3,2.7978186E-2,4.367531E-2,5.973218E-3,1.6687092E0,-6.02325E-4,2.9876655E-1,-1.1875763E-3,7.633875E-2,-1.4411202E-3,2.620078E-1,6.8826186E-3,2.381079E-2,2.415506E-1,6.070489E-1,1.4674749E-2,2.0616225E-3,2.5795472E-1,7.049129E-1,8.256985E-1,2.4317179E-2,1.9900596E-2,3.678838E-2,7.044246E-3,-5.173989E-4,2.4850431E-3,-1.1258416E-3,4.2806647E-4,7.898088E-3,-1.4465057E-3,1.3139725E-3,5.5392897E-3,3.1582909E-3,1.4030776E-2,6.9592376E-3,7.937566E-3,2.6260256E-3,7.344885E-3,1.553323E-2,1.1343875E-2,2.0202853E-2],"categories":[],"categories_nodes":[],"categories_segments":[],"categories_sizes":[],"default_left":[1,0,1,0,1,0,0,0,0,1,0,0,0,0,0,1,0,0,1,0,0,1,0,0,0,0,0,0,0,0,1,0,0,0,0,1,0,0,0,0,0,0,0,0,0,0,0,0,0,0,0,0,0,0,0,0,0,0,0,0,0,0,0,0,0,0,0,0,0,0,0,0,0,0,0,0,0,0,0,0,0,0,0],"id":14,"left_children":[1,3,5,7,9,11,13,-1,-1,15,17,19,21,23,25,27,29,-1,31,-1,33,35,37,39,41,43,45,-1,47,-1,49,51,-1,-1,-1,53,55,-1,57,-1,59,61,-1,-1,-1,-1,63,-1,65,-1,67,-1,69,-1,71,73,75,-1,-1,77,79,81,-1,-1,-1,-1,-1,-1,-1,-1,-1,-1,-1,-1,-1,-1,-1,-1,-1,-1,-1,-1,-1],"loss_changes":[6.373747E1,3.0245981E0,3.5486904E1,5.272722E-1,8.389583E0,4.209811E0,1.4476967E1,0E0,0E0,7.162347E-1,3.717064E0,2.5219542E-1,2.3551588E0,7.1758957E0,4.366604E0,8.392631E-1,3.0526996E-1,0E0,1.2271614E0,0E0,3.782649E-1,1.3489833E0,3.1166558E0,6.2472415E-1,1.9051552E0,1.1504784E0,5.2344246E0,0E0,9.015377E-1,0E0,6.7653334E-1,3.8275895E-1,0E0,0E0,0E0,5.3800464E-1,1.3035941E0,0E0,1.846559E0,0E0,9.248018E-1,3.0554314E0,0E0,0E0,0E0,0E0,1.852066E0,0E0,8.275472E-1,0E0,4.6284318E-1,0E0,4.524986E-1,0E0,2.1403219E-1,2.6857042E-1,3.900652E-1,0E0,0E0,2.3815984E-1,3.235669E-1,2.1121044E0,0E0,0E0,0E0,0E0,0E0,0E0,0E0,0E0,0E0,0E0,0E0,0E0,0E0,0E0,0E0,0E0,0E0,0E0,0E0,0E0,0E0],"parents":[2147483647,0,0,1,1,2,2,3,3,4,4,5,5,6,6,9,9,10,10,11,11,12,12,13,13,14,14,15,15,16,16,18,18,20,20,21,21,22,22,23,23,24,24,25,25,26,26,28,28,30,30,31,31,35,35,36,36,38,38,40,40,41,41,46,46,48,48,50,50,52,52,54,54,55,55,56,56,59,59,60,60,61,61],"right_children":[2,4,6,8,10,12,14,-1,-1,16,18,20,22,24,26,28,30,-1,32,-1,34,36,38,40,42,44,46,-1,48,-1,50,52,-1,-1,-1,54,56,-1,58,-1,60,62,-1,-1,-1,-1,64,-1,66,-1,68,-1,70,-1,72,74,76,-1,-1,78,80,82,-1,-1,-1,-1,-1,-1,-1,-1,-1,-1,-1,-1,-1,-1,-1,-1,-1,-1,-1,-1,-1],"split_conditions":[2.22E1,1.06E1,8.066E0,1.2976442E1,6.682118E0,-7.775971E-1,1.78355E1,-2.116626E-3,-1.0612824E-3,2.08E-1,-7.5549334E-1,5.84E0,-7.086267E-1,-7.6665884E-1,2.44E1,8.1E-2,-6.186714E-1,2.174254E-2,2.13E1,-2.2916235E-4,7.4244E-2,4.614E0,4.27E0,-7.8830504E-1,7.99E-1,6.92E-1,2.58E1,-6.0056633E-4,-7.4410397E-1,-1.3966275E-3,1.61E1,1.96E1,1.1332333E-2,-5.5990776E-4,4.8911828E-3,2.427E0,2.57E1,2.3221802E-2,-6.584016E-1,2.4505379E-3,1.0277E1,5.77E-1,6.087021E-3,2.7978186E-2,4.367531E-2,5.973218E-3,2.45E1,-6.02325E-4,-6.963762E-1,-1.1875763E-3,9.75E-1,-1.4411202E-3,1.18E-1,6.8826186E-3,2.33E1,2.28E1,5.304E0,1.4674749E-2,2.0616225E-3,9.107E0,2.52E1,-7.3249406E-1,2.4317179E-2,1.9900596E-2,3.678838E-2,7.044246E-3,-5.173989E-4,2.4850431E-3,-1.1258416E-3,4.2806647E-4,7.898088E-3,-1.4465057E-3,1.3139725E-3,5.5392897E-3,3.1582909E-3,1.4030776E-2,6.9592376E-3,7.937566E-3,2.6260256E-3,7.344885E-3,1.553323E-2,1.1343875E-2,2.0202853E-2],"split_indices":[0,0,1,1,1,6,1,0,0,2,6,1,6,6,0,2,6,0,0,0,2,1,1,6,2,2,0,0,6,0,0,0,0,0,0,1,0,0,6,0,1,2,0,0,0,0,1,0,6,0,2,0,2,0,0,0,1,0,0,1,0,6,0,0,0,0,0,0,0,0,0,0,0,0,0,0,0,0,0,0,0,0,0],"split_type":[0,0,0,0,0,0,0,0,0,0,0,0,0,0,0,0,0,0,0,0,0,0,0,0,0,0,0,0,0,0,0,0,0,0,0,0,0,0,0,0,0,0,0,0,0,0,0,0,0,0,0,0,0,0,0,0,0,0,0,0,0,0,0,0,0,0,0,0,0,0,0,0,0,0,0,0,0,0,0,0,0,0,0],"sum_hessian":[1.91E3,1.555E3,3.55E2,9.49E2,6.06E2,2.37E2,1.18E2,7.83E2,1.66E2,5.8E2,2.6E1,9.8E1,1.39E2,9.6E1,2.2E1,1E2,4.8E2,5E0,2.1E1,8.5E1,1.3E1,1.2E2,1.9E1,3.7E1,5.9E1,8E0,1.4E1,6.8E1,3.2E1,3.3E2,1.5E2,1.4E1,7E0,6E0,7E0,3.9E1,8.1E1,4E0,1.5E1,1.5E1,2.2E1,5.2E1,7E0,4E0,4E0,5E0,9E0,1.3E1,1.9E1,1.07E2,4.3E1,4E0,1E1,4E0,3.5E1,6.9E1,1.2E1,5E0,1E1,1.4E1,8E0,4.2E1,1E1,5E0,4E0,1.4E1,5E0,2.9E1,1.4E1,5E0,5E0,1.1E1,2.4E1,2.4E1,4.5E1,5E0,7E0,4E0,1E1,4E0,4E0,3.1E1,1.1E1],"tree_param":{"num_deleted":"0","num_feature":"8","num_nodes":"83","size_leaf_vector":"1"}},{"base_weights":[7.285921E-3,-7.903584E-2,3.748762E-1,5.198814E-3,-1.0630109E-1,8.9279574E-1,2.1161696E-1,7.7724934E-1,-3.7249308E-2,-6.40064E-2,-1.1627471E-1,1.0266494E0,3.878105E-3,3.5052165E-1,-5.3822477E-3,2.2478456E-2,8.641795E-3,-4.5029692E-2,1.1419009E-1,-7.196535E-2,5.8468212E-3,-2.064332E-3,-1.333954E-3,1.3699867E0,6.0609466E-1,7.260084E-1,2.8531632E-1,1.8670134E-3,-6.9320493E-4,-2.36633E-3,-1.0512786E-3,6.0048457E-3,2.642787E-5,-9.319941E-3,-1.5924957E-3,1.7101989E0,7.2746927E-1,8.1926376E-1,2.6849887E-1,2.9029724E-1,1.1179187E0,4.9884963E-1,1.7948693E-1,-1.2718312E-3,4.7383465E-2,-5.668274E-2,1.4862493E-1,4.1602787E-2,1.511829E0,9.214279E-1,3.5238252E-3,4.9933362E-1,1.2809972E0,-1.4175236E-4,1.21171195E-2,-0E0,8.185974E-3,1.5702548E-2,2.4393657E-2,6.2759566E-1,2.0765345E-1,2.0563735E-1,-2.9574844E-4,-7.4545515E-4,2.8375688E-3,1.3185829E-3,-1.4267417E-3,-8.7736896E-4,7.198738E-3,3.7098628E-2,2.1190478E-2,1.0095581E-2,2.2525234E-2,5.218703E-3,1.3909671E-2,2.7078206E-2,1.4850882E-2,1.3079463E-2,7.108796E-3,6.9037727E-3,1.5292397E-3,4.0064566E-3,1.4801375E-3],"categories":[],"categories_nodes":[],"categories_segments":[],"categories_sizes":[],"default_left":[1,0,0,0,1,0,0,0,1,0,1,0,0,0,0,0,0,0,0,0,0,0,0,0,0,0,0,0,0,0,0,0,0,0,0,0,0,0,0,0,0,0,0,0,1,0,0,0,0,0,0,0,0,0,0,0,0,0,0,0,0,0,0,0,0,0,0,0,0,0,0,0,0,0,0,0,0,0,0,0,0,0,0],"id":15,"left_children":[1,3,5,7,9,11,13,15,17,19,21,23,-1,25,27,-1,-1,29,31,33,-1,-1,-1,35,37,39,41,-1,-1,43,-1,-1,-1,45,-1,47,49,51,53,55,57,59,61,-1,63,65,67,-1,69,71,-1,73,75,-1,-1,-1,-1,-1,-1,77,79,81,-1,-1,-1,-1,-1,-1,-1,-1,-1,-1,-1,-1,-1,-1,-1,-1,-1,-1,-1,-1,-1],"loss_changes":[6.1401546E1,3.6073675E0,3.0995613E1,1.2599457E1,4.8016548E-1,7.6288605E0,8.477505E0,2.739705E0,4.1950643E-1,7.262287E-1,2.5109673E-1,1.0303955E1,0E0,4.0725937E0,4.59029E-1,0E0,0E0,2.6133174E-1,4.3591416E-1,3.236351E-1,0E0,0E0,0E0,8.44426E0,2.2541065E0,4.1142607E0,3.2250853E0,0E0,0E0,3.90745E-1,0E0,0E0,0E0,4.622609E-1,0E0,3.5158691E0,1.2763038E0,2.74646E0,1.7400813E0,6.933898E-1,4.7803688E-1,1.7076931E0,5.2573466E-1,0E0,7.194106E-1,1.9548325E-1,8.456355E-1,0E0,3.102089E0,1.1270065E0,0E0,6.212249E-1,7.5872326E-1,0E0,0E0,0E0,0E0,0E0,0E0,9.1051006E-1,3.0629557E-1,3.2375383E-1,0E0,0E0,0E0,0E0,0E0,0E0,0E0,0E0,0E0,0E0,0E0,0E0,0E0,0E0,0E0,0E0,0E0,0E0,0E0,0E0,0E0],"parents":[2147483647,0,0,1,1,2,2,3,3,4,4,5,5,6,6,7,7,8,8,9,9,10,10,11,11,13,13,14,14,17,17,18,18,19,19,23,23,24,24,25,25,26,26,29,29,33,33,35,35,36,36,37,37,38,38,39,39,40,40,41,41,42,42,44,44,45,45,46,46,48,48,49,49,51,51,52,52,59,59,60,60,61,61],"right_children":[2,4,6,8,10,12,14,16,18,20,22,24,-1,26,28,-1,-1,30,32,34,-1,-1,-1,36,38,40,42,-1,-1,44,-1,-1,-1,46,-1,48,50,52,54,56,58,60,62,-1,64,66,68,-1,70,72,-1,74,76,-1,-1,-1,-1,-1,-1,78,80,82,-1,-1,-1,-1,-1,-1,-1,-1,-1,-1,-1,-1,-1,-1,-1,-1,-1,-1,-1,-1,-1],"split_conditions":[2.22E1,-6.016241E-1,2.04E1,4.67E1,1.789696E-2,-6.016241E-1,-6.152846E-1,2.2E1,2.17E1,1.06E1,1.84E1,3.0557035E-2,3.878105E-3,-6.9328123E-1,3.4E1,2.2478456E-2,8.641795E-3,-8.0647993E-1,4.4609025E-2,2.19E1,5.8468212E-3,-2.064332E-3,-1.333954E-3,1.05E1,9E0,-7.41222E-1,2.052127E-2,1.8670134E-3,-6.9320493E-4,1.43E1,-1.0512786E-3,6.0048457E-3,2.642787E-5,2.13E1,-1.5924957E-3,7.2E0,2.0964535E-2,4.1828256E-2,2.52E1,-7.638886E-1,2.45E1,-6.2876284E-1,1.54E2,-1.2718312E-3,1.1390416E-1,7.9E0,2.9E0,4.1602787E-2,-6.551564E-1,1.99E1,3.5238252E-3,2.57E1,5.535224E-2,-1.4175236E-4,1.21171195E-2,-0E0,8.185974E-3,1.5702548E-2,2.4393657E-2,2.41E1,2.16E1,6.0484722E-2,-2.9574844E-4,-7.4545515E-4,2.8375688E-3,1.3185829E-3,-1.4267417E-3,-8.7736896E-4,7.198738E-3,3.7098628E-2,2.1190478E-2,1.0095581E-2,2.2525234E-2,5.218703E-3,1.3909671E-2,2.7078206E-2,1.4850882E-2,1.3079463E-2,7.108796E-3,6.9037727E-3,1.5292397E-3,4.0064566E-3,1.4801375E-3],"split_indices":[0,5,4,4,7,5,5,4,0,0,0,7,0,5,4,0,0,5,7,4,0,0,0,4,4,5,7,0,0,0,0,0,0,4,0,4,7,7,0,5,0,5,4,0,7,4,0,0,5,4,0,0,7,0,0,0,0,0,0,0,4,7,0,0,0,0,0,0,0,0,0,0,0,0,0,0,0,0,0,0,0,0,0],"split_type":[0,0,0,0,0,0,0,0,0,0,0,0,0,0,0,0,0,0,0,0,0,0,0,0,0,0,0,0,0,0,0,0,0,0,0,0,0,0,0,0,0,0,0,0,0,0,0,0,0,0,0,0,0,0,0,0,0,0,0,0,0,0,0,0,0,0,0,0,0,0,0,0,0,0,0,0,0,0,0,0,0,0,0],"sum_hessian":[1.934E3,1.566E3,3.68E2,3.82E2,1.184E3,8.8E1,2.8E2,2E1,3.62E2,2.28E2,9.56E2,7.3E1,1.5E1,1.71E2,1.09E2,6E0,1.4E1,3.45E2,1.7E1,2.24E2,4E0,7.81E2,1.75E2,4E1,3.3E1,2.5E1,1.46E2,2.5E1,8.4E1,1.05E2,2.4E2,5E0,1.2E1,6.3E1,1.61E2,2.6E1,1.4E1,2E1,1.3E1,1.2E1,1.3E1,4.8E1,9.8E1,4.3E1,6.2E1,4.9E1,1.4E1,5E0,2.1E1,1E1,4E0,1.2E1,8E0,8E0,5E0,5E0,7E0,9E0,4E0,3.3E1,1.5E1,8.7E1,1.1E1,3.5E1,2.7E1,8E0,4.1E1,8E0,6E0,5E0,1.6E1,6E0,4E0,8E0,4E0,4E0,4E0,1.8E1,1.5E1,5E0,1E1,6.6E1,2.1E1],"tree_param":{"num_deleted":"0","num_feature":"8","num_nodes":"83","size_leaf_vector":"1"}},{"base_weights":[8.4832247E-4,-8.0467656E-2,3.6059597E-1,-9.447158E-4,-1.0556426E-1,2.7539176E-1,1.0109428E0,5.5100864E-1,-2.9611994E-2,-1.980605E-3,-7.706519E-2,4.1118586E-1,3.79595E-2,7.048068E-1,2.0456712E0,3.1070272E-3,1.07478015E-2,-4.4507094E-2,1.6156694E-2,2.2442082E-2,-1.470308E-3,2.8197443E-1,8.26798E-1,1.0320923E-2,7.2310227E-3,1.0838525E0,4.2334616E-1,2.4551056E-2,4.094675E-2,-5.4358225E-2,8.3146155E-2,-6.8155007E-4,5.268211E-3,4.6838087E-1,2.2367083E-1,1.0417552E0,2.7147886E-1,-6.4648717E-4,8.091938E-2,8.099975E-3,1.3338534E0,1.5827991E-2,2.6233524E-1,-2.9854836E-2,-1.4135287E-3,2.74202E-3,-6.934634E-4,7.2327413E-4,6.110997E-1,1.9826877E-1,9.047857E-3,7.8369963E-1,1.4269228E0,1.4726819E-2,-1.6975497E-3,3.3004522E-2,4.6894625E-3,1.2379763E-2,2.9486693E-2,-2.293309E-5,4.7220546E-1,-1.1705634E-3,6.8034517E-4,1.4294974E-2,7.4307974E-3,-0E0,3.8571449E-3,1.0175616E-2,1.6251974E-2,3.5382193E-2,1.819851E-2,2.1629944E-3,-8.0558204E-4,1.1895351E-2,3.2871822E-3],"categories":[],"categories_nodes":[],"categories_segments":[],"categories_sizes":[],"default_left":[1,0,0,0,0,0,0,0,0,0,0,1,0,0,0,0,0,1,0,0,0,0,0,0,0,0,0,0,0,1,0,0,0,0,0,0,0,0,0,0,0,0,0,0,0,0,0,0,0,1,0,0,0,0,0,0,0,0,0,0,0,0,0,0,0,0,0,0,0,0,0,0,0,0,0],"id":16,"left_children":[1,3,5,7,9,11,13,15,17,-1,19,21,23,25,27,-1,-1,29,-1,31,-1,33,35,37,-1,39,41,-1,-1,43,45,-1,-1,47,49,51,53,-1,55,-1,57,-1,59,61,-1,-1,-1,-1,63,65,-1,67,69,-1,-1,71,-1,-1,-1,-1,73,-1,-1,-1,-1,-1,-1,-1,-1,-1,-1,-1,-1,-1,-1],"loss_changes":[5.5057262E1,3.0503483E0,1.9083294E1,5.785099E0,4.306059E-1,9.851637E0,1.2334198E1,5.354657E-1,5.141849E0,0E0,4.3697953E-1,1.0347603E1,1.1826165E0,3.133874E0,1.5820618E0,0E0,0E0,4.3231267E-1,0E0,7.4052024E-1,0E0,1.5425549E0,5.3458824E0,3.6954847E-1,0E0,1.7259617E0,1.3982887E0,0E0,0E0,2.2996694E-1,2.5893918E-1,0E0,0E0,2.0547194E0,8.463526E-1,3.004799E0,3.0809617E0,0E0,3.91064E-1,0E0,2.024397E0,0E0,8.2676744E-1,5.232231E-1,0E0,0E0,0E0,0E0,9.0976334E-1,7.3477507E-1,0E0,4.747343E-1,2.602417E0,0E0,0E0,2.9410288E-1,0E0,0E0,0E0,0E0,4.3525565E-1,0E0,0E0,0E0,0E0,0E0,0E0,0E0,0E0,0E0,0E0,0E0,0E0,0E0,0E0],"parents":[2147483647,0,0,1,1,2,2,3,3,4,4,5,5,6,6,7,7,8,8,10,10,11,11,12,12,13,13,14,14,17,17,19,19,21,21,22,22,23,23,25,25,26,26,29,29,30,30,33,33,34,34,35,35,36,36,38,38,40,40,42,42,43,43,48,48,49,49,51,51,52,52,55,55,60,60],"right_children":[2,4,6,8,10,12,14,16,18,-1,20,22,24,26,28,-1,-1,30,-1,32,-1,34,36,38,-1,40,42,-1,-1,44,46,-1,-1,48,50,52,54,-1,56,-1,58,-1,60,62,-1,-1,-1,-1,64,66,-1,68,70,-1,-1,72,-1,-1,-1,-1,74,-1,-1,-1,-1,-1,-1,-1,-1,-1,-1,-1,-1,-1,-1],"split_conditions":[2.22E1,-6.016241E-1,3.55339E-1,1.585E-1,3.6E0,-6.152846E-1,2.58E1,7.4244E-2,3.97E-1,-1.980605E-3,1.545E-1,1.81E-1,2.55E1,-6.4205474E-1,4.71E-1,3.1070272E-3,1.07478015E-2,2.13E1,1.6156694E-2,2.81E-1,-1.470308E-3,1.12E-1,-6.2876284E-1,2.36E1,7.2310227E-3,4.255E-1,4.96E-1,2.4551056E-2,4.094675E-2,9.91E-1,-6.680639E-1,-6.8155007E-4,5.268211E-3,6.5E-2,3.22E-1,1.57E-1,2.075E-1,-6.4648717E-4,7.61E-1,8.099975E-3,4.2E-1,1.5827991E-2,6.92E-1,3.485E-1,-1.4135287E-3,2.74202E-3,-6.934634E-4,7.2327413E-4,2.44E1,2.6E-2,9.047857E-3,2.62E-1,2.875E-1,1.4726819E-2,-1.6975497E-3,-5.8778524E-1,4.6894625E-3,1.2379763E-2,2.9486693E-2,-2.293309E-5,5.34E-1,-1.1705634E-3,6.8034517E-4,1.4294974E-2,7.4307974E-3,-0E0,3.8571449E-3,1.0175616E-2,1.6251974E-2,3.5382193E-2,1.819851E-2,2.1629944E-3,-8.0558204E-4,1.1895351E-2,3.2871822E-3],"split_indices":[0,5,3,3,0,5,0,2,3,0,3,2,0,5,3,0,0,0,0,2,0,3,5,0,0,3,2,0,0,2,5,0,0,3,3,3,3,0,2,0,2,0,2,3,0,0,0,0,0,2,0,2,3,0,0,5,0,0,0,0,3,0,0,0,0,0,0,0,0,0,0,0,0,0,0],"split_type":[0,0,0,0,0,0,0,0,0,0,0,0,0,0,0,0,0,0,0,0,0,0,0,0,0,0,0,0,0,0,0,0,0,0,0,0,0,0,0,0,0,0,0,0,0,0,0,0,0,0,0,0,0,0,0,0,0,0,0,0,0,0,0,0,0,0,0,0,0,0,0,0,0,0,0],"sum_hessian":[1.881E3,1.534E3,3.47E2,3.69E2,1.165E3,3.07E2,4E1,1.8E1,3.51E2,7.86E2,3.79E2,1.95E2,1.12E2,3.1E1,9E0,4E0,1.4E1,3.46E2,5E0,3.8E1,3.41E2,1.49E2,4.6E1,1.05E2,7E0,1.3E1,1.8E1,4E0,5E0,3.22E2,2.4E1,3.1E1,7E0,3.5E1,1.14E2,3.3E1,1.3E1,6.1E1,4.4E1,4E0,9E0,4E0,1.4E1,1.81E2,1.41E2,1.5E1,9E0,9E0,2.6E1,1.06E2,8E0,2E1,1.3E1,5E0,8E0,3.6E1,8E0,4E0,5E0,6E0,8E0,1.16E2,6.5E1,1E1,1.6E1,1.5E1,9.1E1,1.1E1,9E0,4E0,9E0,1.7E1,1.9E1,4E0,4E0],"tree_param":{"num_deleted":"0","num_feature":"8","num_nodes":"75","size_leaf_vector":"1"}},{"base_weights":[-2.2562502E-3,-8.24625E-2,3.4192708E-1,-1.1203297E-1,-3.212812E-2,1.4637664E-1,7.776655E-1,-5.1002536E-2,-1.9896883E-3,-4.9255747E-2,3.7148044E-1,3.659891E-2,2.5703317E-1,6.380791E-1,1.3050487E0,1.9060422E-1,-1.3126775E-3,5.235079E-3,-5.4178033E-2,5.7795936E-1,3.745983E-2,1.5311457E-1,-3.866466E-4,2.1913104E-1,5.9691304E-1,2.0401364E-2,5.852388E-1,1.5388747E0,7.2569875E-3,-1.7186841E-3,7.513668E-3,-1.3269561E-4,-1.0638519E-3,7.8892726E-1,4.5828987E-3,-1.4906395E-3,3.685493E-3,7.938888E-2,3.845831E-1,1.4849116E-1,3.368965E-1,1.3615678E-2,6.9683557E-3,5.358759E-1,2.1673875E-2,3.3735946E-2,1.2785059E0,8.690913E-3,1.6965536E-2,2.5400723E-4,5.7895365E-3,1.347985E-2,-4.0146834E-4,2.7328694E-1,1.0938362E-1,6.2145233E-1,2.4100144E-1,7.402154E-1,4.0701205E-1,8.883425E-3,2.7136536E-2,5.724841E-3,5.3841044E-4,4.7662942E-4,3.3006917E-3,1.6952902E-2,3.2721898E-3,6.022457E-3,1.7096536E-4,9.826316E-3,1.9732822E-2,3.0204803E-3,8.821013E-3],"categories":[],"categories_nodes":[],"categories_segments":[],"categories_sizes":[],"default_left":[1,0,1,0,1,1,0,1,0,0,0,1,0,0,0,0,0,0,1,0,0,0,0,0,0,0,0,0,0,0,0,0,0,0,0,0,0,0,0,0,0,0,0,0,0,0,0,0,0,0,0,0,0,0,0,0,0,0,0,0,0,0,0,0,0,0,0,0,0,0,0,0,0],"id":17,"left_children":[1,3,5,7,9,11,13,15,-1,17,19,21,23,25,27,29,-1,-1,31,33,35,37,-1,39,41,-1,43,45,-1,-1,-1,-1,-1,47,-1,-1,-1,49,51,53,55,-1,-1,57,-1,-1,59,-1,-1,-1,-1,-1,-1,61,63,65,67,69,71,-1,-1,-1,-1,-1,-1,-1,-1,-1,-1,-1,-1,-1,-1],"loss_changes":[5.2453335E1,2.2798567E0,3.0491444E1,4.3648815E-1,3.9212592E0,2.9817948E0,7.9350815E0,7.326998E-1,0E0,9.575975E-1,1.5234089E0,8.8597894E-1,1.4936428E0,2.5212135E0,4.442749E0,8.8750356E-1,0E0,0E0,2.3855245E-1,7.74076E-1,2.2659484E-1,6.843684E-1,0E0,8.7053823E-1,3.3080006E-1,0E0,2.6527214E0,1.8497047E0,0E0,0E0,0E0,0E0,0E0,3.1115818E-1,0E0,0E0,0E0,5.31157E-1,1.8340608E0,3.0028188E-1,1.0228448E0,0E0,0E0,1.8689518E0,0E0,0E0,2.908945E0,0E0,0E0,0E0,0E0,0E0,0E0,2.3482454E-1,3.6490935E-1,1.5626633E0,8.296894E-1,1.7178774E0,1.2320881E0,0E0,0E0,0E0,0E0,0E0,0E0,0E0,0E0,0E0,0E0,0E0,0E0,0E0,0E0],"parents":[2147483647,0,0,1,1,2,2,3,3,4,4,5,5,6,6,7,7,9,9,10,10,11,11,12,12,13,13,14,14,15,15,18,18,19,19,20,20,21,21,23,23,24,24,26,26,27,27,33,33,37,37,38,38,39,39,40,40,43,43,46,46,53,53,54,54,55,55,56,56,57,57,58,58],"right_children":[2,4,6,8,10,12,14,16,-1,18,20,22,24,26,28,30,-1,-1,32,34,36,38,-1,40,42,-1,44,46,-1,-1,-1,-1,-1,48,-1,-1,-1,50,52,54,56,-1,-1,58,-1,-1,60,-1,-1,-1,-1,-1,-1,62,64,66,68,70,72,-1,-1,-1,-1,-1,-1,-1,-1,-1,-1,-1,-1,-1,-1],"split_conditions":[2.22E1,1.14E1,8.066E0,2.225E1,6.682118E0,4.614E0,1.6582E1,1.75E-2,-1.9896883E-3,2.34E1,6.74E1,1.18E-1,2.57E1,8.1E0,3.2314E1,2.6E0,-1.3126775E-3,5.235079E-3,2.08E-1,2.21E1,1.96E1,1.382E2,-3.866466E-4,6.159E0,5.304E0,2.0401364E-2,2.41E1,2.44E1,7.2569875E-3,-1.7186841E-3,7.513668E-3,-1.3269561E-4,-1.0638519E-3,1.81E-1,4.5828987E-3,-1.4906395E-3,3.685493E-3,1.06E-1,1.41E2,2.28E1,6.682118E0,1.3615678E-2,6.9683557E-3,2.41E1,2.1673875E-2,3.3735946E-2,2.58E1,8.690913E-3,1.6965536E-2,2.5400723E-4,5.7895365E-3,1.347985E-2,-4.0146834E-4,1.351E2,9.4E-2,2.27E1,2.32E1,2.348E1,1.01E1,8.883425E-3,2.7136536E-2,5.724841E-3,5.3841044E-4,4.7662942E-4,3.3006917E-3,1.6952902E-2,3.2721898E-3,6.022457E-3,1.7096536E-4,9.826316E-3,1.9732822E-2,3.0204803E-3,8.821013E-3],"split_indices":[0,0,1,4,1,1,1,2,0,4,4,2,0,4,1,0,0,0,2,0,0,4,0,1,1,0,4,0,0,0,0,0,0,2,0,0,0,2,4,0,1,0,0,0,0,0,0,0,0,0,0,0,0,4,2,0,4,0,4,0,0,0,0,0,0,0,0,0,0,0,0,0,0],"split_type":[0,0,0,0,0,0,0,0,0,0,0,0,0,0,0,0,0,0,0,0,0,0,0,0,0,0,0,0,0,0,0,0,0,0,0,0,0,0,0,0,0,0,0,0,0,0,0,0,0,0,0,0,0,0,0,0,0,0,0,0,0,0,0,0,0,0,0,0,0,0,0,0,0],"sum_hessian":[1.901E3,1.542E3,3.59E2,9.7E2,5.72E2,2.48E2,1.11E2,1.1E2,8.6E2,5.49E2,2.3E1,1.25E2,1.23E2,8.8E1,2.3E1,1.1E1,9.9E1,7E0,5.42E2,1.4E1,9E0,4.3E1,8.2E1,1.11E2,1.2E1,7E0,8.1E1,1.8E1,5E0,5E0,6E0,9.7E1,4.45E2,8E0,6E0,5E0,4E0,3.3E1,1E1,7E1,4.1E1,5E0,7E0,7.6E1,5E0,6E0,1.2E1,4E0,4E0,2.7E1,6E0,5E0,5E0,1.6E1,5.4E1,1E1,3.1E1,2.9E1,4.7E1,4E0,8E0,1.2E1,4E0,2.9E1,2.5E1,5E0,5E0,2E1,1.1E1,2.2E1,7E0,1.7E1,3E1],"tree_param":{"num_deleted":"0","num_feature":"8","num_nodes":"73","size_leaf_vector":"1"}},{"base_weights":[-3.59395E-3,3.1565934E-1,-5.6711994E-2,1.0857642E0,2.7673128E-1,1.093428E-1,-9.0462334E-2,2.3952113E-2,1.0747907E-2,-0E0,3.4044266E-1,-3.1785477E-2,1.8084884E-1,6.3807396E-3,-9.193909E-2,-1.1095759E-3,7.163217E-2,4.0793768E-1,3.822795E-2,-1.3886559E-3,6.7111955E-4,1.1230251E-1,2.5351647E-1,-8.092579E-2,-1.8792127E-3,2.1373832E-1,-3.7732528E-4,3.562338E-1,9.848509E-1,-6.011451E-4,2.637264E-1,8.508764E-2,6.5912916E-3,4.099999E-1,9.793453E-2,-9.183158E-2,-6.1155222E-3,1.8018417E-4,8.12367E-3,6.697684E-1,2.8528967E-1,1.442721E0,2.238595E-3,1.0831769E-2,-1.7541866E-3,-9.5305225E-4,1.2068699E-1,2.2212292E-1,6.292679E-1,5.236341E-2,7.2825677E-3,-1.5562616E-3,2.784664E-3,1.02186315E-1,-5.185305E-4,2.2512268E-2,7.395675E-3,6.951095E-3,1.4956846E-3,3.2215934E-2,1.30231595E-2,8.960325E-3,1.5592565E-3,7.62722E-3,-1.11043E-4,1.6096339E-2,5.644217E-3,3.4093675E-3,-3.601274E-5,-2.5386476E-5,7.5163976E-3],"categories":[],"categories_nodes":[],"categories_segments":[],"categories_sizes":[],"default_left":[0,0,0,0,0,0,0,0,0,0,1,0,0,0,1,0,0,0,0,0,0,0,0,0,0,0,0,0,0,0,0,0,0,0,0,1,0,0,0,0,1,0,0,0,0,0,0,0,0,0,0,0,0,0,0,0,0,0,0,0,0,0,0,0,0,0,0,0,0,0,0],"id":18,"left_children":[1,3,5,7,9,11,13,-1,-1,15,17,19,21,-1,23,-1,25,27,29,-1,-1,31,33,35,-1,37,-1,39,41,-1,43,45,-1,47,49,51,53,-1,-1,55,57,59,-1,-1,-1,-1,61,63,65,67,-1,-1,-1,69,-1,-1,-1,-1,-1,-1,-1,-1,-1,-1,-1,-1,-1,-1,-1,-1,-1],"loss_changes":[3.258462E1,8.059391E0,9.240322E0,1.7763214E0,4.5852547E0,2.8218045E0,9.311743E-1,0E0,0E0,2.3496912E-1,4.2775745E0,3.522618E-1,8.8199186E-1,0E0,2.972765E-1,0E0,3.4261578E-1,5.005743E0,6.793459E-1,0E0,0E0,6.908895E-1,2.1126318E0,7.256031E-1,0E0,5.0751805E-1,0E0,3.4290829E0,5.291627E0,0E0,1.4990838E0,4.5336807E-1,0E0,1.7188139E0,6.4574206E-1,3.6071777E-1,3.078855E-1,0E0,0E0,4.255519E0,3.3211155E0,2.6039276E0,0E0,0E0,0E0,0E0,7.299899E-1,1.3502747E0,1.8177686E0,3.5496482E-1,0E0,0E0,0E0,8.1142914E-1,0E0,0E0,0E0,0E0,0E0,0E0,0E0,0E0,0E0,0E0,0E0,0E0,0E0,0E0,0E0,0E0,0E0],"parents":[2147483647,0,0,1,1,2,2,3,3,4,4,5,5,6,6,9,9,10,10,11,11,12,12,14,14,16,16,17,17,18,18,21,21,22,22,23,23,25,25,27,27,28,28,30,30,31,31,33,33,34,34,35,35,36,36,39,39,40,40,41,41,46,46,47,47,48,48,49,49,53,53],"right_children":[2,4,6,8,10,12,14,-1,-1,16,18,20,22,-1,24,-1,26,28,30,-1,-1,32,34,36,-1,38,-1,40,42,-1,44,46,-1,48,50,52,54,-1,-1,56,58,60,-1,-1,-1,-1,62,64,66,68,-1,-1,-1,70,-1,-1,-1,-1,-1,-1,-1,-1,-1,-1,-1,-1,-1,-1,-1,-1,-1],"split_conditions":[2.26E1,7.2E0,2.03E-1,2.458522E-2,6.777E-2,4.2E-2,2.32E1,2.3952113E-2,1.0747907E-2,1.31217E-1,8.85817E-1,4.54E1,9.1E-2,6.3807396E-3,1.01E0,-1.1095759E-3,1.545E-1,5.635E-1,1.01E1,-1.3886559E-3,6.7111955E-4,3.22E-1,2.375E-1,3.49E-1,-1.8792127E-3,1.445E-1,-3.7732528E-4,9E0,6.74098E-1,-6.011451E-4,2.6168507E-2,1.6236521E-2,6.5912916E-3,1.49882E-1,1.81E-1,1.008E0,1.1574803E-1,1.8018417E-4,8.12367E-3,6.92E-1,2.0964535E-2,5.2630562E-2,2.238595E-3,1.0831769E-2,-1.7541866E-3,-9.5305225E-4,1.9604206E-2,2.45E1,1.735E-1,2.681635E-1,7.2825677E-3,-1.5562616E-3,2.784664E-3,1.1298701E-1,-5.185305E-4,2.2512268E-2,7.395675E-3,6.951095E-3,1.4956846E-3,3.2215934E-2,1.30231595E-2,8.960325E-3,1.5592565E-3,7.62722E-3,-1.11043E-4,1.6096339E-2,5.644217E-3,3.4093675E-3,-3.601274E-5,-2.5386476E-5,7.5163976E-3],"split_indices":[4,4,2,7,2,2,4,0,0,3,2,4,2,0,2,0,3,3,4,0,0,3,3,3,0,3,0,4,2,0,7,7,0,3,2,2,7,0,0,2,7,7,0,0,0,0,7,4,3,3,0,0,0,7,0,0,0,0,0,0,0,0,0,0,0,0,0,0,0,0,0],"split_type":[0,0,0,0,0,0,0,0,0,0,0,0,0,0,0,0,0,0,0,0,0,0,0,0,0,0,0,0,0,0,0,0,0,0,0,0,0,0,0,0,0,0,0,0,0,0,0,0,0,0,0,0,0,0,0,0,0,0,0,0,0,0,0,0,0,0,0,0,0,0,0],"sum_hessian":[1.923E3,2.74E2,1.649E3,1.3E1,2.61E2,2.78E2,1.371E3,7E0,6E0,4.9E1,2.12E2,9.3E1,1.85E2,4E0,1.367E3,2.5E1,2.4E1,1.73E2,3.9E1,5.5E1,3.8E1,9.6E1,8.9E1,9.02E2,4.65E2,1E1,1.4E1,1.59E2,1.4E1,2.9E1,1E1,8.8E1,8E0,4.4E1,4.5E1,7.86E2,1.16E2,6E0,4E0,2.9E1,1.3E2,9E0,5E0,5E0,5E0,1.7E1,7.1E1,2.4E1,2E1,4E1,5E0,7.81E2,5E0,2.1E1,9.5E1,7E0,2.2E1,7.7E1,5.3E1,5E0,4E0,4E0,6.7E1,1.2E1,1.2E1,9E0,1.1E1,1.1E1,2.9E1,1.6E1,5E0],"tree_param":{"num_deleted":"0","num_feature":"8","num_nodes":"71","size_leaf_vector":"1"}},{"base_weights":[6.6759465E-3,-7.6387435E-2,3.4833783E-1,-1.0851851E-1,-2.4640974E-2,1.4162461E-1,7.8673273E-1,-1.9690052E-3,-1.1351423E-3,6.6948175E-1,-4.6831585E-2,1.05440214E-1,6.068617E-1,6.315308E-1,1.3945379E0,9.395819E-1,4.39916E-1,-5.1779173E-2,2.8549272E-1,6.614348E-3,2.1674015E-1,1.9379556E-2,2.3844764E-1,3.2627296E-1,8.328032E-1,9.137714E-1,1.9475964E0,1.9265408E-2,1.1373154E-2,4.3776496E-3,1.1188947E-2,-1.3055593E-3,-3.0832019E-2,-1.9316251E-3,1.18059935E-2,-7.9394213E-4,6.0090914E-2,1.8283522E-1,5.431385E-1,8.473068E-3,1.1025114E-3,2.326928E-3,4.3011796E-1,6.44502E-1,9.755988E-1,6.538966E-3,2.2268994E-2,2.851608E-2,3.8317822E-2,-1.1155687E-3,1.9234298E-2,2.8436687E-2,2.6727864E-1,2.9063845E-1,1.3498479E-1,1.331041E-2,4.3222057E-3,2.0486091E-1,7.328338E-1,4.7598448E-1,9.2887205E-1,1.0644487E0,7.813141E-3,8.995737E-4,-6.585883E-4,1.3052567E-3,-8.31718E-4,9.605191E-3,-3.3315763E-4,1.0346901E-2,3.8994495E-3,1.5635524E-3,3.969267E-3,8.718947E-3,1.0775798E-3,7.070777E-3,1.522421E-2,1.0827823E-2,1.1104668E-3,1.8976737E-2,1.0432119E-2,1.6197551E-2,2.5593711E-2],"categories":[],"categories_nodes":[],"categories_segments":[],"categories_sizes":[],"default_left":[1,0,1,0,0,0,0,0,0,0,1,1,0,0,0,0,0,0,0,0,0,0,0,0,0,0,0,0,0,0,0,0,1,0,0,0,1,0,0,0,0,0,0,0,0,0,0,0,0,0,0,0,0,0,0,0,0,0,0,0,0,0,0,0,0,0,0,0,0,0,0,0,0,0,0,0,0,0,0,0,0,0,0],"id":19,"left_children":[1,3,5,7,9,11,13,-1,-1,15,17,19,21,23,25,27,29,31,33,35,37,-1,39,41,43,45,47,-1,-1,-1,-1,-1,49,-1,-1,-1,51,53,55,-1,-1,-1,57,59,61,-1,-1,-1,-1,-1,63,65,67,69,71,-1,-1,73,75,77,79,81,-1,-1,-1,-1,-1,-1,-1,-1,-1,-1,-1,-1,-1,-1,-1,-1,-1,-1,-1,-1,-1],"loss_changes":[5.398054E1,2.5281544E0,3.3612736E1,3.5701942E-1,8.97792E0,4.182089E0,1.0979454E1,0E0,0E0,9.561825E-1,9.116156E-1,2.5617087E0,3.5570445E0,5.7059593E0,6.017067E0,2.2358942E-1,3.0749798E-1,3.0301452E-1,1.4384215E0,3.650691E-1,1.1371746E0,0E0,4.5358175E-1,6.732793E-1,1.3369675E0,2.6869755E0,3.2818604E-1,0E0,0E0,0E0,0E0,0E0,5.8111E-1,0E0,0E0,0E0,3.8854188E-1,4.6959162E-1,6.121578E-1,0E0,0E0,0E0,1.5343509E0,1.033658E0,1.2566624E0,0E0,0E0,0E0,0E0,0E0,2.7278268E-1,2.2349453E-1,7.769881E-1,4.622047E-1,2.6152933E-1,0E0,0E0,5.6515115E-1,4.0788984E-1,1.0744283E0,3.6362362E-1,8.284302E-1,0E0,0E0,0E0,0E0,0E0,0E0,0E0,0E0,0E0,0E0,0E0,0E0,0E0,0E0,0E0,0E0,0E0,0E0,0E0,0E0,0E0],"parents":[2147483647,0,0,1,1,2,2,3,3,4,4,5,5,6,6,9,9,10,10,11,11,12,12,13,13,14,14,15,15,16,16,17,17,18,18,19,19,20,20,22,22,23,23,24,24,25,25,26,26,32,32,36,36,37,37,38,38,42,42,43,43,44,44,50,50,51,51,52,52,53,53,54,54,57,57,58,58,59,59,60,60,61,61],"right_children":[2,4,6,8,10,12,14,-1,-1,16,18,20,22,24,26,28,30,32,34,36,38,-1,40,42,44,46,48,-1,-1,-1,-1,-1,50,-1,-1,-1,52,54,56,-1,-1,-1,58,60,62,-1,-1,-1,-1,-1,64,66,68,70,72,-1,-1,74,76,78,80,82,-1,-1,-1,-1,-1,-1,-1,-1,-1,-1,-1,-1,-1,-1,-1,-1,-1,-1,-1,-1,-1],"split_conditions":[2.22E1,1.06E1,8.066E0,1.2236E1,1.9952284E-2,-7.086267E-1,1.78355E1,-1.9690052E-3,-1.1351423E-3,2.132E1,7.439E0,4.614E0,-6.4534813E-1,-7.6665884E-1,-7.6665884E-1,1.4468759E-2,1.6760847E-2,-7.5549334E-1,4.0207397E-2,2.33E1,2.57E1,1.9379556E-2,-6.321034E-1,-7.8830504E-1,-7.5549334E-1,1.2213435E-2,2.2715E1,1.9265408E-2,1.1373154E-2,4.3776496E-3,1.1188947E-2,-1.3055593E-3,1.64E1,-1.9316251E-3,1.18059935E-2,-7.9394213E-4,1.5542312E-1,2.28E1,5.304E0,8.473068E-3,1.1025114E-3,2.326928E-3,1.0096E1,1.6236521E-2,2.55E1,6.538966E-3,2.2268994E-2,2.851608E-2,3.8317822E-2,-1.1155687E-3,1.611842E-1,2.44E1,1.7165835E-1,1.726558E-2,6.6244473E0,1.331041E-2,4.3222057E-3,2.37E1,2.49E1,9.434092E-3,1.1489E1,2.5E1,7.813141E-3,8.995737E-4,-6.585883E-4,1.3052567E-3,-8.31718E-4,9.605191E-3,-3.3315763E-4,1.0346901E-2,3.8994495E-3,1.5635524E-3,3.969267E-3,8.718947E-3,1.0775798E-3,7.070777E-3,1.522421E-2,1.0827823E-2,1.1104668E-3,1.8976737E-2,1.0432119E-2,1.6197551E-2,2.5593711E-2],"split_indices":[0,0,1,1,7,6,1,0,0,0,1,1,6,6,6,7,7,6,7,0,0,0,6,6,6,7,1,0,0,0,0,0,0,0,0,0,7,0,1,0,0,0,1,7,0,0,0,0,0,0,7,0,7,7,1,0,0,0,0,7,1,0,0,0,0,0,0,0,0,0,0,0,0,0,0,0,0,0,0,0,0,0,0],"split_type":[0,0,0,0,0,0,0,0,0,0,0,0,0,0,0,0,0,0,0,0,0,0,0,0,0,0,0,0,0,0,0,0,0,0,0,0,0,0,0,0,0,0,0,0,0,0,0,0,0,0,0,0,0,0,0,0,0,0,0,0,0,0,0,0,0,0,0,0,0,0,0,0,0,0,0,0,0,0,0,0,0,0,0],"sum_hessian":[1.901E3,1.529E3,3.72E2,9.42E2,5.87E2,2.53E2,1.19E2,7.53E2,1.89E2,1.8E1,5.69E2,2.35E2,1.8E1,9.5E1,2.4E1,8E0,1E1,5.61E2,8E0,1.25E2,1.1E2,7E0,1.1E1,3.8E1,5.7E1,1.3E1,1.1E1,4E0,4E0,6E0,4E0,2.44E2,3.17E2,4E0,4E0,6.1E1,6.4E1,1E2,1E1,4E0,7E0,1.4E1,2.4E1,2.5E1,3.2E1,6E0,7E0,7E0,4E0,1.85E2,1.32E2,5.6E1,8E0,3E1,7E1,5E0,5E0,1.4E1,1E1,1.6E1,9E0,2.7E1,5E0,8.4E1,4.8E1,3.5E1,2.1E1,4E0,4E0,4E0,2.6E1,5.1E1,1.9E1,4E0,1E1,4E0,6E0,1.1E1,5E0,5E0,4E0,2.3E1,4E0],"tree_param":{"num_deleted":"0","num_feature":"8","num_nodes":"83","size_leaf_vector":"1"}},{"base_weights":[-2.6963747E-3,-7.4822836E-2,3.273744E-1,-1.0618096E-1,-2.5056671E-2,1.4275084E-1,7.4417675E-1,-1.9537497E-3,-9.985802E-4,-4.4078752E-2,5.3356266E-1,-1.6906925E-2,2.555698E-1,5.097983E-1,1.1598064E0,2.2151338E-1,-5.257676E-2,1.7094938E-2,3.1150457E-1,5.509772E-3,-5.4554583E-4,2.0712714E-1,5.599592E-1,3.6441842E-1,1.0140438E0,1.0237789E0,3.7687518E-2,-2.125536E-4,3.4705207E-1,-1.2028405E-3,-1.21179465E-2,-1.0568863E-3,5.308751E-1,3.7428024E-1,1.113367E-1,2.1888178E-2,3.4800997E-1,1.2960905E-1,4.3788692E-1,5.8669215E-3,2.2125822E-2,2.3254162E-2,9.376336E-1,8.091454E-3,2.1283135E-3,-1.2536477E-3,2.7037121E-2,3.3737852E-3,1.50973145E-2,-1.1963503E-3,4.615379E-1,6.6272314E-3,9.416343E-2,1.3581393E-2,1.6709428E-3,4.1754844E-4,5.5838237E-3,1.3469356E-2,3.4053722E-1,7.9078037E-1,2.1368489E-2,4.813086E-3,2.7769772E-4,1.5454157E-2,6.6562626E-3,3.0344288E-4,2.9188092E-3,-1.3377349E-3,7.3414687E-3,1.8169256E-2,1.0253108E-2],"categories":[],"categories_nodes":[],"categories_segments":[],"categories_sizes":[],"default_left":[1,0,1,0,1,0,0,0,0,0,0,0,0,0,0,0,0,0,0,0,0,0,0,0,0,0,0,0,0,0,1,0,0,1,0,0,0,0,0,0,0,0,0,0,0,0,0,0,0,0,0,0,0,0,0,0,0,0,0,0,0,0,0,0,0,0,0,0,0,0,0],"id":20,"left_children":[1,3,5,7,9,11,13,-1,-1,15,17,19,21,23,25,27,29,-1,31,-1,-1,33,35,37,39,41,-1,-1,43,-1,45,-1,47,49,51,-1,53,55,57,-1,-1,-1,59,-1,-1,-1,61,-1,-1,-1,63,-1,65,-1,-1,-1,-1,-1,67,69,-1,-1,-1,-1,-1,-1,-1,-1,-1,-1,-1],"loss_changes":[4.5946407E1,2.4596395E0,2.6530586E1,4.8999023E-1,6.474285E0,4.349049E0,1.0129547E1,0E0,0E0,1.3234429E0,2.0484238E0,5.1824546E-1,1.9940939E0,4.827366E0,5.2890205E0,5.6607014E-1,4.5239854E-1,0E0,1.2060331E0,0E0,0E0,1.9012032E0,2.8606577E0,8.528867E-1,2.9570694E0,8.0005264E-1,0E0,0E0,3.012662E-1,0E0,4.7876003E-1,0E0,9.9435925E-1,1.7573819E0,3.3170515E-1,0E0,1.646257E0,2.4280395E-1,1.3194046E0,0E0,0E0,0E0,1.1722584E0,0E0,0E0,0E0,2.849345E-1,0E0,0E0,0E0,9.0337276E-1,0E0,4.372273E-1,0E0,0E0,0E0,0E0,0E0,1.4044507E0,8.456783E-1,0E0,0E0,0E0,0E0,0E0,0E0,0E0,0E0,0E0,0E0,0E0],"parents":[2147483647,0,0,1,1,2,2,3,3,4,4,5,5,6,6,9,9,10,10,11,11,12,12,13,13,14,14,15,15,16,16,18,18,21,21,22,22,23,23,24,24,25,25,28,28,30,30,32,32,33,33,34,34,36,36,37,37,38,38,42,42,46,46,50,50,52,52,58,58,59,59],"right_children":[2,4,6,8,10,12,14,-1,-1,16,18,20,22,24,26,28,30,-1,32,-1,-1,34,36,38,40,42,-1,-1,44,-1,46,-1,48,50,52,-1,54,56,58,-1,-1,-1,60,-1,-1,-1,62,-1,-1,-1,64,-1,66,-1,-1,-1,-1,-1,68,70,-1,-1,-1,-1,-1,-1,-1,-1,-1,-1,-1],"split_conditions":[2.22E1,1.06E1,8.066E0,1.2236E1,7.439E0,-7.775971E-1,-7.5549334E-1,-1.9537497E-3,-9.985802E-4,4.87E1,-7.6665884E-1,2.09E1,-7.086267E-1,1.6582E1,2.0623E1,-7.6665884E-1,-6.186714E-1,1.7094938E-2,2.15E1,5.509772E-3,-5.4554583E-4,2.47E1,4.27E0,-7.8830504E-1,8E0,8.701E0,3.7687518E-2,-2.125536E-4,2.45E1,-1.2028405E-3,1.43E1,-1.0568863E-3,2.21E1,4.641E0,2.434E0,2.1888178E-2,-6.584016E-1,1.05E1,8.7E0,5.8669215E-3,2.2125822E-2,2.3254162E-2,-7.206671E-1,8.091454E-3,2.1283135E-3,-1.2536477E-3,1.441E1,3.3737852E-3,1.50973145E-2,-1.1963503E-3,2.26E1,6.6272314E-3,-7.4410397E-1,1.3581393E-2,1.6709428E-3,4.1754844E-4,5.5838237E-3,1.3469356E-2,1.01E1,8.7E0,2.1368489E-2,4.813086E-3,2.7769772E-4,1.5454157E-2,6.6562626E-3,3.0344288E-4,2.9188092E-3,-1.3377349E-3,7.3414687E-3,1.8169256E-2,1.0253108E-2],"split_indices":[0,0,1,1,1,6,6,0,0,4,6,4,6,1,1,6,6,0,0,0,0,4,1,6,4,1,0,0,4,0,0,0,4,1,1,0,6,4,4,0,0,0,6,0,0,0,0,0,0,0,0,0,6,0,0,0,0,0,4,4,0,0,0,0,0,0,0,0,0,0,0],"split_type":[0,0,0,0,0,0,0,0,0,0,0,0,0,0,0,0,0,0,0,0,0,0,0,0,0,0,0,0,0,0,0,0,0,0,0,0,0,0,0,0,0,0,0,0,0,0,0,0,0,0,0,0,0,0,0,0,0,0,0,0,0,0,0,0,0,0,0,0,0,0,0],"sum_hessian":[1.931E3,1.585E3,3.46E2,9.71E2,6.14E2,2.4E2,1.06E2,7.77E2,1.94E2,5.94E2,2E1,9.9E1,1.41E2,6.8E1,3.8E1,1.8E1,5.76E2,6E0,1.4E1,4E0,9.5E1,1.22E2,1.9E1,5.3E1,1.5E1,3.4E1,4E0,6E0,1.2E1,3.85E2,1.91E2,5E0,9E0,4.4E1,7.8E1,4E0,1.5E1,1.3E1,4E1,5E0,1E1,6E0,2.8E1,7E0,5E0,7.4E1,1.17E2,5E0,4E0,7E0,3.7E1,4E0,7.4E1,5E0,1E1,9E0,4E0,8E0,3.2E1,2E1,8E0,4E0,1.13E2,4E0,3.3E1,3.9E1,3.5E1,6E0,2.6E1,7E0,1.3E1],"tree_param":{"num_deleted":"0","num_feature":"8","num_nodes":"71","size_leaf_vector":"1"}},{"base_weights":[6.5197684E-3,3.2980257E-1,-4.9611416E-2,7.1453744E-1,-2.3127424E-2,5.8192153E-2,-9.4941564E-2,5.3992945E-1,1.7187872E0,5.93252E-3,-3.4516215E-2,3.0169008E-2,6.394608E-1,-6.184833E-2,-1.0822421E-1,3.081684E-1,7.075589E-1,3.2651115E-2,1.5798671E-2,1.5163736E-3,-5.8079317E-2,2.3366672E-1,-8.491453E-3,1.0949044E0,3.6923423E-1,8.067166E-4,-1.163881E-3,-1.9206632E-3,-6.739445E-2,7.679902E-1,2.0138782E-1,9.9531966E-1,5.989487E-1,-1.3661394E-3,5.9578758E-2,2.6570895E-1,2.967574E-4,-6.681444E-4,5.9511505E-2,9.290472E-3,2.648457E-2,8.231268E-3,1.9827248E-3,1.1259018E-1,-1.3636893E-3,5.6769513E-3,1.7993303E-2,-1.2063999E-4,3.0559936E-1,7.762348E-1,2.1905988E-2,2.1881465E-2,5.316673E-1,4.6918835E-3,-0E0,1.7232448E-1,3.6765334E-1,9.050115E-2,-1.03826074E-4,5.4255077E-3,-6.461099E-4,5.941067E-3,-0E0,4.9385442E-3,1.7146802E-2,7.432577E-3,1.50399655E-2,2.0241211E-3,8.64509E-3,1.0110368E-2,4.006434E-3,4.976606E-5,2.6664643E-3],"categories":[],"categories_nodes":[],"categories_segments":[],"categories_sizes":[],"default_left":[0,0,0,1,1,1,0,1,0,0,0,0,0,0,0,0,0,0,0,0,0,0,0,0,0,0,0,0,0,0,1,0,0,0,0,0,0,0,0,0,0,0,0,0,0,0,0,0,0,0,0,0,0,0,0,0,0,0,0,0,0,0,0,0,0,0,0,0,0,0,0,0,0],"id":21,"left_children":[1,3,5,7,9,11,13,15,17,-1,19,21,23,25,27,29,31,-1,-1,-1,33,35,37,39,41,-1,-1,-1,43,45,47,49,51,-1,53,55,-1,-1,57,-1,-1,-1,-1,59,-1,-1,-1,-1,61,63,-1,-1,65,-1,-1,67,69,71,-1,-1,-1,-1,-1,-1,-1,-1,-1,-1,-1,-1,-1,-1,-1],"loss_changes":[3.4835453E1,3.8641956E1,7.9892554E0,2.3578377E1,6.073521E-1,7.796912E0,4.8776627E-1,4.392147E0,3.3987808E0,0E0,4.2353857E-1,3.6509614E0,2.5416842E0,3.021909E-1,2.2574997E-1,2.2994003E0,1.9025803E0,0E0,0E0,0E0,3.4889212E-1,4.8193693E-1,8.326423E-1,1.8850136E0,3.7507224E-1,0E0,0E0,0E0,3.3225775E-1,1.0476208E0,9.0215755E-1,1.0123787E0,2.143982E0,0E0,2.5093994E-1,5.501623E-1,0E0,0E0,2.575988E-1,0E0,0E0,0E0,0E0,3.2367855E-1,0E0,0E0,0E0,0E0,4.187107E-1,1.1985488E0,0E0,0E0,1.2608213E0,0E0,0E0,5.281533E-1,8.197036E-1,4.9706262E-1,0E0,0E0,0E0,0E0,0E0,0E0,0E0,0E0,0E0,0E0,0E0,0E0,0E0,0E0,0E0],"parents":[2147483647,0,0,1,1,2,2,3,3,4,4,5,5,6,6,7,7,8,8,10,10,11,11,12,12,13,13,14,14,15,15,16,16,20,20,21,21,22,22,23,23,24,24,28,28,29,29,30,30,31,31,32,32,34,34,35,35,38,38,43,43,48,48,49,49,52,52,55,55,56,56,57,57],"right_children":[2,4,6,8,10,12,14,16,18,-1,20,22,24,26,28,30,32,-1,-1,-1,34,36,38,40,42,-1,-1,-1,44,46,48,50,52,-1,54,56,-1,-1,58,-1,-1,-1,-1,60,-1,-1,-1,-1,62,64,-1,-1,66,-1,-1,68,70,72,-1,-1,-1,-1,-1,-1,-1,-1,-1,-1,-1,-1,-1,-1,-1],"split_conditions":[2.26E1,-6.016241E-1,-6.152846E-1,1.78355E1,4.044E0,7.265E0,6.8077344E-1,7.902E0,9.8E0,5.93252E-3,-5.5958927E-1,2.681635E-1,-6.680639E-1,5.02E1,9.239E0,-6.680639E-1,-6.551564E-1,3.2651115E-2,1.5798671E-2,1.5163736E-3,9.9732494E-1,1.24E2,3.587E0,8.066E0,-6.2876284E-1,8.067166E-4,-1.163881E-3,-1.9206632E-3,9.786E0,4.956E0,5.721E0,3.905E-1,7.2E0,-1.3661394E-3,1.545E-1,1.49882E-1,2.967574E-4,-6.681444E-4,-6.551564E-1,9.290472E-3,2.648457E-2,8.231268E-3,1.9827248E-3,1.34E-1,-1.3636893E-3,5.6769513E-3,1.7993303E-2,-1.2063999E-4,-6.152846E-1,8.701E0,2.1905988E-2,2.1881465E-2,2.2E1,4.6918835E-3,-0E0,6.682118E0,4.641E0,-8.0647993E-1,-1.03826074E-4,5.4255077E-3,-6.461099E-4,5.941067E-3,-0E0,4.9385442E-3,1.7146802E-2,7.432577E-3,1.50399655E-2,2.0241211E-3,8.64509E-3,1.0110368E-2,4.006434E-3,4.976606E-5,2.6664643E-3],"split_indices":[4,5,5,1,1,1,5,1,4,0,5,3,5,4,1,5,5,0,0,0,5,4,1,1,5,0,0,0,1,1,1,3,4,0,3,3,0,0,5,0,0,0,0,3,0,0,0,0,5,1,0,0,4,0,0,1,1,5,0,0,0,0,0,0,0,0,0,0,0,0,0,0,0],"split_type":[0,0,0,0,0,0,0,0,0,0,0,0,0,0,0,0,0,0,0,0,0,0,0,0,0,0,0,0,0,0,0,0,0,0,0,0,0,0,0,0,0,0,0,0,0,0,0,0,0,0,0,0,0,0,0,0,0,0,0,0,0,0,0,0,0,0,0,0,0,0,0,0,0],"sum_hessian":[1.918E3,2.84E2,1.634E3,1.36E2,1.48E2,4.83E2,1.151E3,1.16E2,2E1,4E0,1.44E2,4.61E2,2.2E1,3.32E2,8.19E2,4.9E1,6.7E1,1.5E1,5E0,2.2E1,1.22E2,7.4E1,3.87E2,8E0,1.4E1,2.2E1,3.1E2,6.92E2,1.27E2,9E0,4E1,1.8E1,4.9E1,1.02E2,2E1,6.4E1,1E1,2.65E2,1.22E2,4E0,4E0,9E0,5E0,9E0,1.18E2,4E0,5E0,1.3E1,2.7E1,1.1E1,7E0,4E0,4.5E1,4E0,1.6E1,3.4E1,3E1,8.4E1,3.8E1,4E0,5E0,2.3E1,4E0,4E0,7E0,3.7E1,8E0,3E1,4E0,1E1,2E1,3.8E1,4.6E1],"tree_param":{"num_deleted":"0","num_feature":"8","num_nodes":"73","size_leaf_vector":"1"}},{"base_weights":[2.8401741E-3,1.7437647E-1,-8.677293E-2,8.0052935E-2,1.0524253E0,-4.311422E-2,-9.9977344E-2,3.5173777E-1,-0E0,7.770565E-1,1.7876459E0,-5.0718583E-2,4.961523E-3,-1.8838485E-3,-9.503667E-4,2.1951835E-1,5.03335E-1,-6.655642E-3,9.611849E-3,1.9794846E-2,6.9887185E-1,1.5306404E0,3.7023727E-2,8.693051E-4,